当世 为 0.0147059
序 序 1.0000000
僭 君主 0.0384615
僭 不滥赏 0.2500000
僭 越礼 1.0000000
迂 二人 0.5000000
成之邪 都 0.0123457
成之邪 变为 0.3333333
成之邪 玩笑话 0.3333333
成之邪 现实 0.3333333
信义 信义 0.7500000
亲 亲近 0.5000000
亲 父母 0.3333333
亲 梦得 0.5000000
亲 深信 0.3333333
人材 担心 0.2500000
人材 十分 0.5000000
人材 会 0.0172414
听仲 听从 0.3333333
听仲 了 0.0034602
盘 盘 0.5000000
盘 之中 0.0909091
盘 盘谷 0.2222222
之谏 以后 0.2000000
前时 这里 0.0625000
前时 以前 0.5000000
便 营私 0.5000000
便 利己 0.3333333
无邪 走 0.1000000
无邪 不 0.0075188
无邪 邪道 1.0000000
无邪 昏暗 0.5000000
无邪 之世而 0.5000000
独为 只 0.0833333
独为 创造 0.3333333
独为 这类 0.3333333
深 得 0.0500000
深 呢 0.0138889
深 苛刻 1.0000000
深 如此 0.1000000
深 加深 1.0000000
深 责备 1.0000000
深 愈 0.2500000
以致 流传后世 0.3333333
以致 那样 0.0714286
捕之者 人 0.0054645
捕之者 捉 1.0000000
捕之者 蛇 0.0833333
捕之者 善于 0.1428571
其余 家伙 0.3333333
其余 其他 0.2500000
其余 其余 1.0000000
谷 这个 0.0400000
谷 谷 1.0000000
谷 山谷 0.1428571
如是 不过如此 0.5000000
如是 或许 0.2500000
如是 罢了 0.1250000
如泣如诉 倾诉 1.0000000
如泣如诉 哭泣 0.5000000
如泣如诉 像 0.0555556
如泣如诉 又 0.0235294
大风 麻风 1.0000000
庐之入 光 1.0000000
庐之入 弄 0.3333333
庐之入 家里 0.5000000
庐之入 了 0.0034602
可信 不能 0.0212766
可信 相信 0.1428571
可信 可信 0.5000000
可信 真实 0.2000000
可信 这是 0.0263158
曲直 是非曲直 1.0000000
大耻 莫大 1.0000000
大耻 世上 0.1666667
大耻 视为 0.2500000
父受 父亲 0.0833333
父受 死 0.0357143
父受 而 0.0065359
父受 了 0.0034602
父受 被 0.0178571
有声 流水 0.3333333
有声 响声 0.5000000
有声 哗哗 0.5000000
有声 地 0.0238095
有声 有种 0.5000000
有声 发出 0.0833333
两下 两家 0.5000000
两下 徐 1.0000000
讫 简公 0.5000000
讫 直到 0.1666667
眩世 蒙蔽 0.3333333
眩世 社会 0.1666667
称 前面 0.1666667
称 后面 0.2000000
称 中曾 0.3333333
称 符合 0.2500000
称 那么 0.0357143
称 所说 0.2000000
以吾观 依我看来 0.5000000
而今 可 0.2000000
而今 如今 0.2500000
而今 哪里 0.0769231
免而 释放 0.5000000
免而 被 0.0178571
忠孝 忠孝 1.0000000
忠孝 兼备 1.0000000
佳木 青葱葱 1.0000000
佳木 的 0.0008703
节概 气节 0.5000000
节概 风度 1.0000000
洞箫 洞箫 0.5000000
洞箫 吹 1.0000000
洞箫 能 0.0181818
渥然 面貌 0.3333333
以礼 礼节 0.4000000
以礼 作为 0.1250000
以礼 便用 0.3333333
以礼 用 0.0357143
以礼 手段 0.4000000
特以 只不过 0.5000000
之静者 冷静 1.0000000
之静者 表现 0.3333333
之静者 人 0.0054645
之静者 的 0.0008703
不知 了解 0.1111111
不知 懂得 0.3636364
不知 NULL 0.0036101
不知 理解 0.6666667
不知 不明 0.5000000
不知 政局 0.5000000
不知 知道 0.1463415
不知 的 0.0017406
不知 断句 0.2500000
不知 不 0.0977444
不知 人不知 0.3333333
不知 不知不觉 0.5000000
不知 飞 0.5000000
不知 长官 0.6666667
已 事实 0.3333333
已 经书 0.3333333
已 一会儿 0.2500000
已 人心大快 0.2500000
已 已 0.2500000
已 未能 0.2000000
已 达到 0.2500000
已 好久 0.3333333
已 医治 1.0000000
已 死得 0.3333333
已 过 0.0645161
已 逃亡 0.3333333
宫阙 当地 0.1666667
门内 聘书 1.0000000
门内 了 0.0034602
御史大夫 御史大夫 0.2000000
开 林中 1.0000000
于 主考官 0.5000000
于 奉承话 0.3333333
于 考虑 0.1111111
于 一目了然 0.2000000
于 安慰 0.3333333
于 四个 0.3333333
于 要求 0.1250000
于 违法 0.3333333
于 告诉 0.2307692
于 落葬 0.2500000
于 一次 0.1666667
于 注入 0.5000000
于 拜访 0.2500000
于 中去 1.0000000
于 告别 0.2000000
于 生计 0.5000000
于 规劝 0.3333333
于 消遣 0.5000000
于 背后 0.3333333
于 列入 0.3333333
于 门下 0.6000000
于 仅仅 0.3333333
于 NULL 0.0072202
于 不免 0.3333333
于 于 0.0526316
于 伟大 0.5000000
于 寄托 0.3333333
于 对礼 0.3333333
于 时俗 0.5000000
于 掌握权力 0.3333333
于 斗牛 0.5000000
于 存活 0.3333333
于 更深 0.3333333
于 耿耿于怀 0.2000000
于 选尽 0.3333333
于 内乱 0.2500000
于 损害 1.0000000
于 恩泽 0.5000000
于 位列 0.5000000
于 逃 0.5000000
于 随便 0.2500000
于 的 0.0043516
于 愚字 0.3333333
于 在 0.0988372
于 权势 0.5000000
于 对于 0.2000000
于 完成 0.1666667
于 处境 0.3333333
于 当代 0.3333333
于 任职 0.5000000
于 忧愁 0.2857143
于 五行 0.5000000
可 可以 0.1785714
可 不周 1.0000000
可 沿着 0.5000000
可 可靠 0.2500000
可 表彰 0.2500000
呼 打招呼 0.5000000
呼 哭喊 0.3333333
喜怒 安危 0.5000000
喜怒 喜怒 0.5000000
喜怒 出自 0.5000000
飘轻 飘动 1.0000000
卧 下 0.1250000
卧 躺 1.0000000
卧 睡觉 1.0000000
卧 了 0.0034602
相保 也 0.0100000
相保 保护 0.3333333
相保 互相 0.0625000
哗然 连声 0.5000000
哗然 乡邻 0.2000000
饭 只是 0.0625000
饭 一碗 0.5000000
愚泉 愚泉 1.0000000
愚泉 称为 0.1428571
齐国 一直 0.2000000
齐国 齐国 0.2500000
齐国 不怕 0.2000000
缙绅 路过 1.0000000
缙绅 往来 0.2500000
缙绅 东西 0.1428571
诗歌 了 0.0034602
施设 经过 0.1250000
潇水 潇水 0.6666667
悔 懊悔 0.5000000
悔 想 0.0909091
悔 心里 0.3333333
世家 六国 0.5000000
世家 世家 1.0000000
世家 的 0.0017406
疏阔 空疏 0.5000000
疏阔 是 0.0046083
疏阔 也 0.0100000
之宫 居室 0.5000000
之宫 您 0.0294118
之宫 的 0.0008703
十倍 十倍 1.0000000
墓侧 旁边 1.0000000
乱国 乱国 0.5000000
摧 折断 1.0000000
数十年 这样 0.0232558
数十年 几十年 0.5000000
数十年 维持 1.0000000
数十年 了 0.0034602
群无留良 留下 1.0000000
群无留良 马群 0.1666667
群无留良 没有 0.0126582
群无留良 良马 0.5000000
群无留良 就 0.0072464
群无留良 中 0.0208333
恶未稔 恶贯满盈 1.0000000
恶未稔 箕子 0.0769231
恶未稔 还 0.0333333
恶未稔 时 0.0175439
恶未稔 就 0.0072464
狭隘 狭窄 1.0000000
良夜 可以 0.0178571
良夜 良宵 0.5000000
良夜 这个 0.0400000
良夜 怎样 0.5000000
良夜 度过 0.2500000
良夜 才 0.0285714
玄裳 白衣 0.5000000
玄裳 好像 0.0434783
术业 技术 1.0000000
术业 业务 0.5000000
谨慎 满足 0.2500000
谨慎 永不 1.0000000
谨慎 问 0.0769231
自顾 好笑 0.5000000
自顾 自己 0.0185185
自顾 觉得 0.1666667
西归 回到 0.5000000
西归 去 0.0163934
西归 西边 0.5000000
西归 不如 0.1111111
用武之地 发生 0.1428571
用武之地 是 0.0046083
用武之地 频繁 1.0000000
用武之地 地方 0.0416667
用武之地 战争 0.2500000
用武之地 一个 0.0294118
呜呜 地响 0.5000000
呜呜 呜呜 0.5000000
草木 草木 0.6250000
然已 无法挽救 0.5000000
然已 可是 0.0666667
醉翁亭 醉翁亭 0.5000000
醉翁亭 是 0.0046083
移易 转变 0.3333333
移易 而 0.0130719
重者 地带 0.2500000
杀三虫 寄生虫 1.0000000
杀三虫 杀死 0.3333333
出而仕 为 0.0147059
出而仕 国家 0.0434783
出而仕 效力 0.5000000
出而仕 出来 0.1428571
出而仕 做官 0.1250000
驷马 四匹 1.0000000
驷马 着 0.0250000
驷马 马驾 1.0000000
驷马 就 0.0072464
积石 堆积 1.0000000
积石 一 0.1666667
手刃 持刀 0.3333333
手刃 杀死 0.3333333
手刃 了 0.0034602
隐于 隐居 0.1666667
隐于 平民 0.5000000
酒乎 搞 0.3333333
酒乎 才能 0.1250000
酒乎 到 0.0175439
酒乎 哪里 0.0769231
长日 大 0.1250000
长日 周六 0.5000000
威公之 齐桓公 0.0909091
威公之 手脚 0.3333333
威公之 一死 0.2500000
不见 看不到 1.0000000
道士 一位 0.1428571
道士 道士 1.0000000
祸患 祸患 0.0714286
祸患 潜伏 0.2000000
舞幽 这种 0.0344828
无少 长幼 0.5000000
无少 年龄 0.2500000
无少 的 0.0008703
夔 契 0.2000000
天威 上天 0.2000000
天威 的 0.0008703
有誉 奉承话 0.3333333
有誉 听些 1.0000000
有誉 当面 1.0000000
依歌 旋律 0.3333333
修尝考 一带 0.1666667
修尝考 考察 0.3333333
修尝考 我 0.0040161
修尝考 这 0.0126582
修尝考 曾经 0.1000000
修尝考 了 0.0034602
而石 低落 1.0000000
罪大恶极 罪大恶极 0.6666667
罪大恶极 是 0.0046083
罪大恶极 的 0.0008703
议论 讨论 1.0000000
使者 使者 0.8000000
作是 便 0.0312500
作是 这篇颂 0.5000000
虽死乎 在 0.0058140
虽死乎 死 0.0357143
虽死乎 即便 0.1000000
虽死乎 我 0.0040161
虽死乎 蛇 0.0833333
虽死乎 上 0.0222222
虽死乎 捕 0.2500000
其辞 阐明 0.2000000
其辞 修饰 0.5000000
其辞 来 0.0227273
陈君优 颍川 1.0000000
陈君优 陈优 1.0000000
陈君优 人 0.0054645
陈君优 通判 0.3333333
问道 路上 0.2000000
问道 问清 1.0000000
问道 经过 0.1250000
问道 地方 0.0416667
温生 有 0.0084034
有所 不好 0.2500000
有所 有所 0.6000000
有所 有 0.0252101
有所 起因 0.3333333
有所 主意 0.3333333
不待 时才 0.5000000
不待 不 0.0075188
以断 判断 0.5000000
以断 来 0.0227273
夫子庙 孔庙 1.0000000
浩浩 在 0.0058140
浩浩 的 0.0008703
浩浩 浩瀚 0.5000000
甘受 那些 0.0555556
甘受 喜爱 0.3333333
甘受 内心 0.0909091
秦争 争夺 0.2500000
秦争 秦国 0.0344828
起居饮食 起居饮食 0.3333333
起居饮食 自己 0.0185185
起居饮食 伺候 0.2500000
起居饮食 不如 0.1111111
更酌 酒杯 0.1666667
更酌 重新 0.5000000
更酌 斟酒 0.2500000
更酌 了 0.0034602
名之者 命名 0.1666667
名之者 亭子 0.1428571
名之者 给 0.0625000
易 里 0.1666667
易 易经 0.3333333
易 就是 0.0294118
今其智 才智 0.2500000
睿 在 0.0058140
睿 明白人 0.3333333
睿 装傻 1.0000000
父死 也 0.0100000
父死 父亲 0.0833333
父死 事上 0.5000000
父死 死 0.0357143
父死 这件 0.1111111
之吏 官员 0.2500000
囚 登记在册 0.3333333
囚 的 0.0008703
昭王 时 0.0175439
昭王 归顺 0.2500000
昭王 秦昭王 0.5000000
之涂 往来 0.2500000
其民 担忧 0.1666667
其民 百姓 0.0555556
在外 他 0.0052083
在外 时 0.0175439
在外 外出 0.2500000
盛 应该 0.0344828
盛 过盛 0.5000000
盛 杀戮 0.2000000
盛 就 0.0072464
盛 了 0.0034602
汝之书 你 0.0140845
汝之书 信 0.2000000
汝之书 的 0.0008703
马币 马匹 0.5000000
马币 和 0.0084034
马币 礼品 1.0000000
所杀 县尉 0.2500000
所杀 被 0.0178571
各疏 分别 1.0000000
各疏 指出 0.5000000
各疏 并且 0.0769231
各疏 他们 0.0125000
相守 厮守 0.5000000
相守 相互 0.3333333
明道 道理 0.0526316
明道 阐明 0.2000000
明道 要 0.0476190
相示 看 0.1111111
相示 对方 0.2000000
相示 肺肝来 0.5000000
相示 给 0.0625000
滁 滁州 0.2727273
月乎 月亮 0.1428571
月乎 吗 0.0217391
楚 楚 0.8000000
太宗 之所以 0.1666667
太宗 唐太宗 0.4000000
之灵 灵秀之气 0.5000000
之灵 精灵 0.5000000
之灵 的 0.0017406
自克 自己 0.0185185
自克 地以 0.5000000
自克 约束 0.2500000
仲能 管仲 0.0400000
仲能 把 0.0178571
仲能 能 0.0181818
仲能 数 0.3333333
仲能 都 0.0123457
仲能 杀掉 0.2500000
仲能 桓公 0.0769231
仲能 他们 0.0125000
买 小丘 0.5000000
买 为我所用 0.3333333
买 买下 1.0000000
闻而荐 他 0.0052083
闻而荐 后 0.0294118
闻而荐 推荐 0.1250000
闻而荐 听说 0.0769231
闻而荐 就 0.0072464
求此 这种 0.0344828
求此 得到 0.1250000
求此 就是 0.0294118
求此 为了 0.0666667
造父 造父 1.0000000
造父 那样 0.0714286
以仲且 将会 0.2000000
以仲且 推荐 0.1250000
利害 利害冲突 0.5000000
利害 影响 0.5000000
利害 又 0.0117647
利害 利害关系 0.5000000
熟路 路上 0.2000000
子孙 子孙 0.5000000
子孙 就 0.0072464
而习 书本上 0.3333333
而习 他们 0.0125000
奸豪得 奸雄 1.0000000
奸豪得 使得 0.1000000
奸豪得 某些 0.5000000
与汝子 你 0.0140845
与汝子 教育 0.2000000
与汝子 儿子 0.1333333
与汝子 和 0.0084034
与汝子 我 0.0040161
与汝子 的 0.0017406
物喜 外界 0.5000000
物喜 因 0.1428571
物喜 环境 1.0000000
物喜 不 0.0075188
物喜 称心 1.0000000
物喜 兴高采烈 0.5000000
物喜 他们 0.0125000
世 迎合 0.3333333
世 NULL 0.0036101
世 世人 0.5000000
出此 方面 0.1250000
出此 考虑 0.1111111
出此 这个 0.0400000
出此 从 0.0384615
出此 来 0.0227273
形 形影相依 0.5000000
滥 滥杀 1.0000000
荫 大树 0.3333333
蛟龙 蛟龙 0.6666667
问其官 他 0.0052083
问其官 担任 0.1666667
问其官 什么 0.0500000
问其官 官职 0.5000000
问其官 问 0.0769231
还 后 0.0294118
还 回来 0.0666667
还 NULL 0.0036101
还 我 0.0040161
还 等 0.1250000
祗 恭恭敬敬 1.0000000
尤者 最坏 0.3333333
尤者 人能 0.5000000
人共为 三千个 0.2500000
人共为 形成 0.0833333
人共为 一个 0.0294118
募有 其后 1.0000000
募有 又 0.0117647
志 效法 0.3333333
志 志向 0.5000000
志 不当 0.5000000
志 此种 0.3333333
游而乐 跟随 0.2000000
游而乐 去 0.0163934
游而乐 游览 0.1000000
游而乐 知道 0.0243902
商鞅 商鞅 1.0000000
山水 山水 0.2000000
山水 游山玩水 0.3333333
山水 的 0.0017406
不敏 责怪 0.2000000
不敏 性情 0.3333333
不敏 我 0.0040161
不敏 对 0.0312500
不敏 愚钝 0.5000000
断然 争论不休 0.5000000
断然 还 0.0333333
断然 土著居民 1.0000000
断然 而 0.0065359
今者 今天 0.5000000
无常 固定 1.0000000
今以 现在 0.0322581
今以 蒋某 0.5000000
无不 不 0.0150376
无不 没有 0.0253165
无不 可爱 0.5000000
无不 通晓 0.5000000
礼部 任礼部 1.0000000
礼部 即 0.5000000
坐于 坐在 0.3333333
塞途 塞满 1.0000000
塞途 道路 0.2000000
塞途 人们 0.0625000
塞途 了 0.0034602
逮其 直到 0.1666667
逮其 也 0.0100000
逮其 柳 0.3333333
逮其 去世 0.0769231
透澈 清澈 0.2500000
犹断 争论不休 0.5000000
犹断 在 0.0058140
犹断 为 0.0147059
犹断 命名 0.1666667
犹断 如何 0.2000000
学问 时起 0.5000000
学问 子厚 0.0384615
学问 从 0.0384615
学问 被贬 0.3333333
出肺 好像 0.0434783
出肺 掏出 1.0000000
视死如归 视死如归 1.0000000
视死如归 囚犯 0.0769231
蒋氏 蒋 0.3333333
蒋氏 姓 0.3333333
蒋氏 后 0.0294118
蒋氏 更为 0.5000000
蒋氏 的 0.0008703
拔 其中 0.2857143
拔 走 0.2000000
拔 选拔 0.5000000
拔 突出 0.3333333
之野 原野 1.0000000
之野 一过 1.0000000
之野 从 0.0384615
之野 上 0.0222222
夫以子 陪 1.0000000
而吾蛇 在 0.0058140
而吾蛇 我 0.0040161
而吾蛇 的 0.0008703
而吾蛇 捕捉 0.5000000
非无马 不是 0.0333333
非无马 没有 0.0126582
非无马 马 0.3333333
非无马 并 0.0250000
第 考取 0.5000000
如耿兰 而 0.0065359
乃生 出生 0.5000000
乃生 死后 0.1250000
乃生 才 0.0285714
褚遂良 与 0.0625000
褚遂良 褚遂良 0.5000000
党人 党人 1.0000000
道 算 0.2500000
道 有志于 0.5000000
道 说古道今 1.0000000
道 NULL 0.0108303
道 政治 0.2000000
道 加强 0.3333333
道 中庸之道 0.5000000
道 的 0.0034813
道 道理 0.0526316
道 西山 0.5000000
道 位 0.5000000
道 背离 0.3333333
虽十易 虽然 0.0666667
虽十易 十次 1.0000000
虽十易 八次 0.5000000
虽十易 加以 0.1666667
于俗 不合 1.0000000
于俗 世俗 0.2000000
德以 如果 0.0227273
德以 采取 0.2000000
德以 对 0.0312500
德以 他们 0.0125000
极者 似乎 0.5000000
极者 不可估量 0.3333333
伟人 造就 0.5000000
伟人 伟大 0.5000000
伟人 人物 0.1666667
之事 责任 0.3333333
之事 事实 0.3333333
之事 做法 0.2500000
之事 这是 0.0263158
之事 的 0.0008703
高 高明 1.0000000
弟子 弟子 0.4285714
弟子 老师 0.1538462
诚宜 做出 0.2500000
诚宜 成绩 1.0000000
诮 NULL 0.0036101
顾笑 听 0.0833333
顾笑 着 0.0250000
顾笑 笑了笑 1.0000000
顾笑 后 0.0294118
顾笑 我 0.0080321
顾笑 对 0.0312500
顾笑 这句 0.2500000
顾笑 话 0.1000000
何时 何时 0.5000000
何时 他们 0.0125000
秦者 作为 0.0625000
秦者 能够 0.0588235
秦者 什么 0.0500000
秦者 有 0.0084034
一首 一文 1.0000000
陈子昂 建议 0.2500000
陈子昂 谏 0.2000000
陈子昂 陈子昂 0.2500000
下邦 同州 0.3333333
作之日 不是 0.0333333
作之日 发生 0.1428571
作之日 之 0.0588235
作之日 出现 0.0833333
旧制 原来 0.1666667
旧制 规模 1.0000000
旧制 的 0.0008703
洛之北涯 北边 1.0000000
洛之北涯 的 0.0008703
洛之北涯 洛河 0.5000000
呜呼哀哉 悲哀 0.5000000
呜呼哀哉 唉 0.1200000
呜呼哀哉 悲伤 0.1250000
呜呼哀哉 啊 0.0566038
呜呼哀哉 真 0.6000000
是乎 原来 0.1666667
是乎 这样 0.0232558
是乎 是 0.0046083
是乎 的 0.0008703
加 惩罚 1.0000000
加 装饰 0.2500000
加 的 0.0008703
加 刀锯 1.0000000
加 刑法 0.1000000
丛茂 茂盛 0.2500000
为朋 禁止 0.2500000
为朋 朋党 0.0416667
为朋 因 0.1428571
为朋 结成 0.2000000
恒其德贞 不能 0.0212766
恒其德贞 长期保持 1.0000000
恒其德贞 着 0.0250000
恒其德贞 因事制宜 1.0000000
恒其德贞 德操 1.0000000
恒其德贞 而 0.0065359
恒其德贞 一种 0.2500000
何言哉 应该 0.0344828
何言哉 呢 0.0138889
何言哉 好 0.0666667
何言哉 什么 0.0500000
何言哉 说些 0.5000000
何言哉 才 0.0285714
何言哉 话 0.1000000
可仇乎 可以 0.0178571
可仇乎 仇恨 0.2500000
可仇乎 吗 0.0217391
之至情 是 0.0046083
之至情 这本 0.5000000
之至情 人之常情 0.5000000
四顾 环顾 1.0000000
四顾 一片 0.3333333
四顾 四下 1.0000000
前人 详尽 1.0000000
前人 前人 1.0000000
考诸经 见到 0.1250000
考诸经 经书 0.3333333
考诸经 从 0.0384615
考诸经 上 0.0222222
考诸经 就 0.0072464
最高 最大 1.0000000
相旧 他们 0.0125000
女 带来 0.1250000
女 女儿 0.3333333
女 祸害 0.1428571
女 养育 0.5000000
女 女人 0.3333333
女 的 0.0017406
母弃 侍奉 0.2000000
母弃 其母 1.0000000
彼二圣 一位 0.1428571
彼二圣 圣人 0.0555556
彼二圣 两位 0.2000000
彼二圣 和 0.0084034
彼二圣 那 0.0370370
人世 考虑 0.1111111
人世 心思 0.5000000
人世 什么 0.0500000
人世 没有 0.0126582
人世 去 0.0163934
狗 鸡 1.0000000
狗 狗 0.3333333
宾胥 宾胥 1.0000000
尚有 高有德 0.3333333
升高 远望 0.6666667
孟东野 前往 0.5000000
孟东野 孟东野 0.1250000
孟东野 江南 0.2500000
其始 开始 0.2000000
其始 时 0.0175439
言有 终绝 1.0000000
言有 语言 0.5000000
言有 有 0.0084034
言有 而 0.0065359
二年 三十二年 1.0000000
二年 二年 1.0000000
二年 过 0.0322581
二年 时 0.0175439
谭 可以 0.0178571
谭 讲诵 0.3333333
上者 皇上 0.6666667
上者 展翅 0.5000000
上者 的 0.0017406
袅袅 余音袅袅 0.5000000
袅袅 仍旧 0.5000000
公曰 乌公 0.2000000
公曰 问 0.0769231
无马 没有 0.0126582
无马 说 0.0085470
无马 马 0.3333333
弱 而已 0.1250000
弱 弱者 0.5000000
尽言于 在 0.0058140
尽言于 乱国 0.5000000
尽言于 又 0.0117647
得以 自己 0.0185185
得以 据此 0.5000000
得以 等国 0.1666667
得以 的 0.0008703
接天 天空 0.3333333
接天 月光 0.5000000
接天 和 0.0084034
接天 连成一片 1.0000000
以图 考虑 0.1111111
不传 很久 0.2000000
不传 风尚 0.5000000
不传 已经 0.0333333
不传 失传 0.5000000
王侯 侍奉 0.2000000
王侯 王侯 0.3333333
异趣 不同 0.1666667
异趣 志趣 1.0000000
异趣 的 0.0008703
里巷 居住 0.5000000
里巷 平时 0.5000000
五年 职务 0.3333333
五年 已经 0.0333333
五年 这个 0.0400000
五年 五年 0.3333333
武庚念乱 武庚 1.0000000
而梦得 而且 0.0833333
奋其 耍出 1.0000000
所处 所处 0.2000000
所处 我们 0.0833333
所处 的 0.0008703
讵 只是 0.0625000
讵 哪能 0.2000000
委吏 小吏 1.0000000
委吏 做过 1.0000000
委吏 粮仓 1.0000000
委吏 曾经 0.1000000
其然 伤感 0.3333333
其然 为什么 0.0769231
其然 箫声 0.2500000
其然 这样 0.0232558
合于 要求 0.1250000
合于 合乎 0.1666667
合于 的 0.0008703
风俗 过 0.0322581
风俗 风俗 0.2000000
风俗 风俗习惯 0.5000000
疠 毒疮 1.0000000
自 有余 0.5000000
自 自己 0.0185185
自 闲散 0.5000000
自 晓得 1.0000000
自 今年以来 0.3333333
自 卢遵 0.2500000
自 等国 0.1666667
自 崇高品德 1.0000000
为斯役 这种 0.0344828
为斯役 如果 0.0227273
为斯役 差役 0.2500000
为斯役 不干 0.5000000
遁藏 躲藏 1.0000000
遁藏 逃避 0.2500000
初 的 0.0008703
驰骤 牛马 0.5000000
驰骤 那样 0.0714286
驰骤 奔驰 1.0000000
驰骤 驱使 1.0000000
驰骤 像 0.0277778
进而 迈步 0.3333333
进而 想 0.0909091
进而 又 0.0117647
进而 向前 1.0000000
公所 应该 0.0344828
公所 周公 0.1111111
公所 采用 0.2500000
视政 看待 1.0000000
视政 朝政 0.3333333
视政 得失 0.5000000
结交 结为 0.1666667
结交 朋友 0.2000000
唐遂亡 随之 0.5000000
唐遂亡 唐朝 0.1666667
唐遂亡 就 0.0072464
合而为一 合成 0.5000000
合而为一 和 0.0084034
合而为一 了 0.0034602
合而为一 一个 0.0294118
誓 发誓 1.0000000
乔木 大树 0.3333333
乔木 阴凉处 1.0000000
乔木 乘凉 1.0000000
乐哉 快乐 0.2500000
如是者 事 0.0434783
如是者 这样 0.0232558
如是者 有过 0.3333333
如是者 的 0.0008703
于目 女色 0.3333333
于目 离不开 0.3333333
将相 内 1.0000000
将相 做到 0.1250000
将相 一段时间 0.5000000
闵 他们 0.0125000
于生 对 0.0312500
于生 你们 0.1111111
先生 先生 0.4545455
先生 杯酒 0.1666667
先生 石 0.9166667
先生 忍辱 0.5000000
先生 佩服 1.0000000
少年 他 0.0052083
少年 年轻 0.4285714
别 您 0.0294118
别 这 0.0126582
别 送别 1.0000000
羞 师 1.0000000
羞 人为 0.5000000
羞 觉得 0.1666667
羞 就 0.0072464
羞 的 0.0008703
其所托 所 0.0322581
其所托 他 0.0052083
其所托 委以重任 0.3333333
其所托 依靠 0.1111111
山林 山林 0.3333333
山林 只 0.0833333
山林 中 0.0208333
其旁 积石 0.5000000
其旁 向 0.0500000
有司 录取 1.0000000
推移 变化 0.1428571
推移 发展 0.2500000
从而 怎能 0.4000000
从而 呢 0.0277778
从而 跟 0.2857143
从而 现实 0.3333333
匹夫 而已 0.1250000
匹夫 匹夫 0.3333333
一人 人 0.0109290
一人 一个 0.0588235
一人 选取 0.2857143
虏 奴仆 0.5000000
虏 的 0.0008703
不复 没有 0.0126582
不复 像 0.0277778
不复 再也 0.2500000
不复 缘由 0.3333333
其容 您 0.0588235
其容 清静 0.5000000
其容 它 0.0222222
率 遵守 0.2500000
率 圣人 0.0555556
令书 就 0.0072464
相藉 邻居 0.3333333
相藉 住在一起 0.2500000
相藉 我 0.0040161
相藉 和 0.0084034
相藉 祖父 0.5000000
终始如一 这样 0.0232558
终始如一 做 0.0303030
终始如一 地 0.0238095
终始如一 坚持 0.1666667
终始如一 始终如一 1.0000000
以慰 那些 0.0555556
以慰 贬斥 0.2000000
以慰 安慰 0.3333333
居卑 职务 0.3333333
居卑 担任 0.1666667
居卑 低下 0.5000000
居卑 的 0.0008703
之述备 已经 0.0333333
之述备 它 0.0222222
之述备 对 0.0312500
之述备 很 0.0526316
之述备 描绘 1.0000000
垢 了 0.0034602
垢 脸面 0.5000000
毒疠 人 0.0054645
毒疠 是 0.0046083
毒疠 压着 0.5000000
毒疠 死 0.0357143
毒疠 一个 0.0588235
与吾父 父亲 0.0833333
与吾父 住在一起 0.2500000
与吾父 我 0.0040161
与吾父 和 0.0084034
类 不留 0.5000000
类 好像 0.0434783
类 他杀 0.2000000
类 会 0.0172414
类 被 0.0178571
悄乎 沉默寡言 0.5000000
位 担任 0.1666667
位 五年 0.3333333
位 正面 0.5000000
后 的 0.0026110
后 汉献帝 0.3333333
后 智谋 0.2500000
后 袭击 0.3333333
后 已经 0.0333333
后 死得 0.3333333
后 小 0.1000000
后 算是 0.0833333
后 够晚 1.0000000
无昧于 蒙蔽 0.3333333
无昧于 也 0.0100000
无昧于 奉承 0.5000000
无昧于 的话 0.0526316
无昧于 不要 0.1428571
䲡 这个 0.0400000
䲡 䲡 0.5000000
喜戚 喜悦 0.5000000
喜戚 没有 0.0126582
喜戚 忧愁 0.1428571
喜戚 和 0.0084034
所谓 可谓 0.3333333
所谓 NULL 0.0036101
所谓 依靠 0.1111111
所谓 所谓 0.5000000
所谓 的 0.0043516
所谓 所说 0.5000000
皋 契 0.2000000
东 东方 0.5000000
东 NULL 0.0036101
东 章法 0.5000000
东 东流 0.5000000
祖君 的 0.0008703
建议 臣 0.2000000
建议 谏 0.2000000
坐起 坐 0.3333333
儒效阔 成果 1.0000000
儒效阔 教化 0.1250000
儒效阔 儒学 1.0000000
儒效阔 会 0.0172414
儒效阔 的 0.0008703
智者 聪明 0.2857143
智者 人 0.0054645
智者 是 0.0092166
缶 装蛇 0.5000000
缶 的 0.0008703
踞 休息 0.3333333
踞 怪石 1.0000000
踞 形似 1.0000000
踞 上 0.0222222
踞 坐在 0.3333333
一售 自己 0.0185185
一售 展示 1.0000000
一售 人们 0.0625000
一售 机会 0.5000000
一售 美好 0.1428571
师 跟 0.2857143
师 NULL 0.0036101
师 为耻 0.2500000
师 学习 0.1250000
师 老师 0.1538462
师 他 0.0104167
师 弟子 0.1428571
师 也 0.0100000
师 环布 1.0000000
师 从 0.0769231
何者 为什么 0.0769231
何者 这么 0.3333333
何者 说 0.0085470
何者 什么 0.0500000
何者 这是 0.0263158
何者 原因 0.0909091
以防 乱 0.5000000
以防 防止 0.5000000
以防 是 0.0092166
以防 为了 0.1333333
诵 嘴里 1.0000000
诵 朗诵 1.0000000
示于 这种 0.0344828
示于 做法 0.1250000
示于 示范 1.0000000
示于 来 0.0227273
重修 他 0.0052083
重修 便 0.0312500
重修 重修 0.5000000
重修 了 0.0034602
声 声音 0.1818182
声 无人 0.3333333
声 发出 0.0833333
以 最坏 0.3333333
以 元和 0.4000000
以 不惜 0.5000000
以 酷烈 0.3333333
以 杀 0.1111111
以 文辞 1.0000000
以 衰亡 0.5000000
以 具备 1.0000000
以 个人 0.5000000
以 拜 1.0000000
以 加上 0.5000000
以 语言 0.5000000
以 地向 0.3333333
以 视为 0.2500000
以 博学 0.5000000
以 有生之年 0.5000000
以 拥有 0.5000000
以 阐明 0.2000000
以 因 0.1428571
以 NULL 0.0180505
以 借助 0.5000000
以 富贵 0.5000000
以 全面 0.5000000
以 抵押 1.0000000
以 世俗 0.2000000
以 实情 0.5000000
以 如 0.3333333
以 凭借着 0.5000000
以 尧 0.2000000
以 来 0.1363636
以 二日 0.5000000
以 而 0.0065359
以 归顺 0.2500000
以 的 0.0008703
以 权臣 0.2500000
以 等待 0.3333333
以 询问 1.0000000
以 自由自在 0.3333333
以 工夫 0.5000000
水清 高山流水 1.0000000
水清 的 0.0008703
龟卜 得 0.0500000
龟卜 龟甲 0.5000000
龟卜 灵验 0.5000000
龟卜 占卜 1.0000000
龟卜 像 0.0277778
龟卜 般 0.3333333
龟卜 预见 1.0000000
龟卜 准确 1.0000000
作亭者 是 0.0046083
作亭者 修建 0.5000000
作亭者 亭子 0.1428571
作亭者 的 0.0008703
所止 再 0.0909091
所止 漂荡 1.0000000
所止 后 0.0294118
所止 任凭 1.0000000
所止 随意 0.5000000
所止 它 0.0222222
必有 一定 0.0500000
必有 必定 0.1000000
必有 有 0.0168067
必有 使六国 1.0000000
必有 会 0.0172414
不疑 疑心 1.0000000
不疑 不 0.0075188
不疑 他们 0.0125000
身履 着 0.0250000
身履 叔齐 0.5000000
身履 伯夷 0.3333333
身履 实践 0.2500000
身履 亲身 1.0000000
祸 祸患 0.2142857
违如愚 不 0.0075188
违如愚 违如愚 0.5000000
违如愚 终日 0.5000000
星月 星星 1.0000000
相益 互相 0.0625000
相益 获益 1.0000000
往往 时常 1.0000000
往往 过去 0.1666667
手偕作 齐心协力 0.5000000
手偕作 大家 0.1111111
手偕作 去 0.0163934
手偕作 干 0.3333333
手偕作 就 0.0072464
三兄 哥哥 0.1666667
三兄 三个 0.0555556
唐贤 名士 0.5000000
唐贤 唐朝 0.1666667
一旦 一旦 0.2000000
一旦 小小的 0.5000000
汉献帝 汉献帝 0.6666667
汉献帝 后 0.0294118
汉献帝 上 0.0222222
而骇者 连声 0.5000000
而骇者 得 0.0500000
而骇者 吓 0.5000000
而骇者 们 0.0769231
而骇者 叫苦 1.0000000
夫面 脏 0.2500000
夫面 脸面 0.5000000
鬼神 鬼神 1.0000000
秦人得 人 0.0054645
秦人得 空子 0.5000000
秦人得 秦国 0.0344828
不克蒙 他 0.0104167
不克蒙 不能 0.0425532
不克蒙 德泽 0.6666667
不克蒙 承受 0.5000000
不克蒙 的 0.0008703
其亦闻乎 大概 0.1428571
其亦闻乎 也 0.0100000
其亦闻乎 吧 0.0666667
其亦闻乎 过 0.0322581
其亦闻乎 听说 0.0769231
不当 如果 0.0227273
不当 束缚 0.2500000
不当 受封 0.2500000
不当 不要 0.1428571
刻苦 境地 0.5000000
水之阳 一条 0.1666667
水之阳 有 0.0084034
水之阳 溪 0.3333333
水之阳 北面 0.5000000
水之阳 灌水 0.2500000
悄然 暗自 0.3333333
悄然 悲伤 0.1250000
悄然 感到 0.1000000
忧其智 发愁 1.0000000
周人 周公 0.1111111
周人 据此 0.5000000
必然 必定 0.1000000
必然 是 0.0046083
必然 完全 0.3333333
必然 无疑 0.2500000
讳宗元 名叫 0.2500000
讳宗元 宗元 1.0000000
坐茂树以 在 0.0058140
坐茂树以 闲坐 1.0000000
之庐 住处 0.5000000
其质 那些 0.0555556
其质 人质 0.2500000
其质 归还 0.5000000
其质 令 1.0000000
其质 债主 0.5000000
幽邃 偏僻 0.2500000
幽邃 位置 0.5000000
朝晖 朝阳 1.0000000
专 专 1.0000000
专 了 0.0034602
生乎 小 0.1000000
生乎 丧失 0.3333333
生乎 比 0.1333333
生乎 年岁 1.0000000
官借师 师长 1.0000000
官借师 官府 0.5000000
官借师 和 0.0084034
官借师 假借 1.0000000
狄 偏僻 0.2500000
狄 夷狄 0.5000000
万物 身边 0.2500000
万物 万物 0.0769231
万物 选取 0.1428571
不慈 对 0.0312500
名士 知名人士 0.3333333
名士 人物 0.1666667
名士 著名 1.0000000
笑语 笑 0.3333333
笑语 又 0.0235294
不果 没有 0.0126582
不果 来成 0.2500000
再拜 再拜 1.0000000
独当 抵挡 0.3333333
独当 独自 0.5000000
士大夫 原来 0.1666667
士大夫 士大夫 0.6000000
士大夫 本是 0.5000000
之众 于 0.0526316
之众 秦国 0.0344828
之众 人口 1.0000000
之众 的 0.0008703
共 时 0.0175439
无求 什么 0.0500000
无求 没有 0.0126582
无求 别人 0.0625000
无求 要求 0.1250000
惟其 去留 0.3333333
惟其 这些 0.0588235
惟其 奴婢 0.3333333
惟其 此后 0.2500000
阴风 阴风 1.0000000
窈窕 歌唱 0.3333333
窈窕 窈窕 1.0000000
贤者 NULL 0.0036101
贤者 贤德 1.0000000
贤者 不解 1.0000000
贤者 有所 0.2000000
贤者 是 0.0046083
贤者 贤者 0.3333333
贤者 不会 0.0714286
贤者 即便 0.1000000
贤者 赞评 1.0000000
贤者 贤能 0.5000000
贤者 人 0.0109290
贤者 对此 0.3333333
贤者 也 0.0100000
贤者 贤人 0.3846154
始者 开始 0.2000000
始者 时 0.0175439
至 四面八方 1.0000000
至 NULL 0.0036101
至 严重 0.1666667
至 春光明媚 1.0000000
至 到 0.0175439
至 初到 0.3333333
至 地步 0.2500000
至 时机 0.3333333
至 了 0.0034602
至 叹息 0.3333333
临溪 到 0.0175439
临溪 去 0.0163934
临溪 河边 0.5000000
出兵 刚 0.5000000
出兵 寿 1.0000000
出兵 就 0.0072464
东门外 他 0.0052083
东门外 都 0.0123457
东门外 为 0.0147059
东门外 东门外 0.5000000
东门外 一起 0.0909091
东门外 来到 0.1666667
衣食 农耕 0.3333333
衣食 为了 0.0666667
衣食 而 0.0065359
衣食 生计 0.5000000
尽死 都 0.0123457
尽死 死 0.0357143
尽死 草木 0.1250000
尽死 了 0.0034602
治 在 0.0116279
治 时 0.0175439
治 天下太平 0.2500000
道义 遵守 0.2500000
道义 的 0.0008703
之身 是 0.0046083
之身 身体 0.1666667
补 任命 0.3333333
补 被 0.0178571
无介然 怎能 0.2000000
无介然 不 0.0075188
无介然 使 0.0333333
无介然 我 0.0040161
无介然 耿耿于怀 0.2000000
携酒 酒 0.0909091
携酒 带 0.3333333
携酒 着 0.0250000
携酒 我们 0.0833333
宋受 秉承 1.0000000
宋受 等到 0.1000000
宋受 大宋 1.0000000
东亦客 东边 0.3333333
东亦客 是 0.0046083
东亦客 也 0.0100000
东亦客 客地 1.0000000
东亦客 啊 0.0188679
必摇其 必然 0.3333333
推刃 成 0.3333333
推刃 仇杀 0.2500000
推刃 互相 0.0625000
推刃 就 0.0072464
推刃 那 0.0370370
而仲则 然而 0.0769231
而仲则 已经 0.0333333
而仲则 管仲 0.0400000
闻用 任用 0.0909091
闻用 名望 0.5000000
闻用 被 0.0178571
仲 管仲 0.2400000
嫂丧来 灵柩 0.2500000
嫂丧来 嫂嫂 0.1428571
嫂丧来 送 0.3333333
嫂丧来 来 0.0227273
嫂丧来 的 0.0008703
要于 关键在于 0.5000000
入于 投入 0.5000000
种类 及其 1.0000000
种类 挖出来 1.0000000
种类 全部 0.1666667
前 在 0.0174419
前 大 0.1250000
前 奉承话 0.3333333
前 摆放 0.5000000
万世 万世 0.5000000
万世 于 0.0526316
万世 称帝 0.5000000
愚辱 地蒙上 0.5000000
愚辱 屈辱 0.2500000
尝为 又 0.0117647
尝为 管理 0.6666667
尝为 的 0.0017406
之论 发布 1.0000000
之论 加以 0.1666667
其乐 快乐 0.2500000
其乐 而 0.0065359
其乐 感到 0.1000000
其乐 他们 0.0125000
树间 发出 0.0833333
树间 从树间 0.5000000
以彼易 那个 0.2000000
以彼易 拿 0.1428571
以彼易 这个 0.0400000
以彼易 来换 0.5000000
西南 几座 0.5000000
虚语 也 0.0100000
虚语 假话 0.5000000
虚语 呀 0.3333333
虚语 算是 0.0833333
幽谷 深谷 0.5000000
幽谷 是 0.0046083
然皆乱亡 在 0.0058140
然皆乱亡 都 0.0123457
然皆乱亡 然而 0.0769231
然皆乱亡 之中 0.0909091
然皆乱亡 变乱 0.3333333
然皆乱亡 亡国 0.2500000
色 人 0.0054645
色 不过 0.0909091
色 迷惑 0.3333333
色 美色 1.0000000
色 用 0.0357143
为国 贤才 0.3333333
为国 为 0.0147059
为国 国家 0.0434783
为国 访求 0.2500000
色不绝 离不开 0.3333333
色不绝 眼睛 0.5000000
相视 军阀 1.0000000
王之治 国家 0.0434783
王之治 三王 0.5000000
王之治 治理 0.1000000
十七日 发 0.5000000
十七日 十七日 1.0000000
寒暑 毒气 1.0000000
寒暑 着 0.0250000
寒暑 混浊 1.0000000
寒暑 的 0.0008703
不 心存 1.0000000
不 不断 0.2000000
不 违如愚 0.5000000
不 不 0.2180451
不 不受 0.5000000
不 加上 0.5000000
不 岂 1.0000000
不 起居饮食 0.3333333
不 不足为法 0.2500000
不 不会 0.1428571
不 不仕 0.5000000
不 日子 0.2000000
不 加强 0.3333333
不 改个 0.5000000
不 不了 0.5000000
不 下来 0.2500000
不 不滥赏 0.2500000
不 灌溉 0.5000000
不 预料 0.2500000
不 答应 0.5000000
不 灵魂 0.5000000
不 NULL 0.0108303
不 脏 0.5000000
不 没能 0.5000000
不 装饰 0.2500000
不 不干 0.5000000
不 消除 0.2500000
不 不怕 0.2000000
不 的 0.0026110
不 白眼相看 0.5000000
不 感到遗憾 0.5000000
不 不犯 0.3333333
不 八次 0.5000000
不 不住 0.5000000
不 活着 0.2000000
越 一件 0.2500000
越 过 0.0322581
越 第二年 0.3333333
干戈 战乱 0.5000000
之为 带来 0.1250000
之为 的 0.0008703
然则 那么 0.2500000
以死 一直 0.2000000
以死 到 0.0175439
以死 死 0.0357143
以死 厮守 0.5000000
夫纵 怎么 0.0714286
忠臣 忠臣 0.7500000
之祸常 往往 0.5000000
之祸常 之祸 0.5000000
吾兄 我 0.0080321
且国 遇到 0.2000000
且国 未 0.2000000
且国 况且 0.1666667
物 触景生情 0.3333333
物 丰收 1.0000000
物 自然界 0.5000000
物 万物 0.2307692
物 这类 0.3333333
物 的 0.0008703
不意 料到 0.4000000
不意 没有 0.0253165
不意 会 0.0172414
不意 他们 0.0125000
深于 所 0.0322581
深于 宦官 0.1111111
舜 舜 0.5555556
互答 问答 1.0000000
互答 互相 0.0625000
棹 做 0.0303030
教尼 教育 0.2000000
教尼 而 0.0065359
教尼 阻碍 1.0000000
教尼 受到 0.0714286
教尼 事业 1.0000000
周武之世 时代 0.3333333
周武之世 周武王 0.3333333
周武之世 的 0.0008703
进亦忧 担忧 0.1666667
进亦忧 也 0.0100000
进亦忧 就是 0.0294118
进亦忧 升官 1.0000000
诗书 废弃 0.5000000
二道 两条道路 1.0000000
旄 旗帜 0.5000000
耶 手脚 0.3333333
耶 吗 0.0869565
逮 他 0.0052083
逮 在世 0.2500000
朝 在 0.0116279
朝 唐高宗 0.3333333
朝 为官 0.3333333
朝 请求 0.2500000
朝 朝廷 0.3750000
朝 参与 0.5000000
或利 或是 1.0000000
或利 无利可图 0.5000000
或利 时 0.0175439
数千 几千 1.0000000
数千 的 0.0017406
知学 了解 0.1111111
周礼 周礼 0.5000000
周礼 悲痛 0.1428571
周礼 说 0.0085470
永之人争 永州 0.3333333
关门 门户 1.0000000
未至 还 0.0333333
未至 未曾 0.2500000
未至 到任 0.3333333
负土 于是 0.0833333
负土 担土 1.0000000
而剧 得 0.0500000
而剧 发作 1.0000000
而剧 厉害 0.2500000
而剧 很 0.0526316
但 只要 0.2500000
超 超越 0.3333333
不欲 意见 0.2000000
不欲 不想 0.5000000
窃 错误 0.3333333
属予 委托 1.0000000
盱江 盱江人 1.0000000
盱江 李 1.0000000
夜惊 里 0.1666667
夜惊 黑夜 1.0000000
夜惊 惊起 1.0000000
信 如果 0.0227273
信 NULL 0.0036101
信 是 0.0046083
信 真的 0.2500000
信 荒诞 0.3333333
托 悲凉 0.5000000
作文 写 0.0476190
作文 我 0.0040161
作文 记下 0.3333333
装饰 没有 0.0126582
装饰 装饰 0.2500000
之势 了解 0.2222222
车服 既不受 1.0000000
以冀免 回来 0.0666667
贪 边境线 0.3333333
贪 贪图 0.3333333
贪 上 0.0222222
美可茹 可口 1.0000000
美可茹 甜美 0.5000000
资而起 作乱 1.0000000
繁阴 成荫 1.0000000
骨鲠之臣 臣子 0.1111111
骨鲠之臣 不屈 1.0000000
骨鲠之臣 刚正 0.5000000
骨鲠之臣 的 0.0008703
纵一苇 苇叶 0.5000000
纵一苇 听任 0.3333333
纵一苇 我们 0.0833333
纵一苇 般的 0.3333333
纵一苇 漂流 1.0000000
纵一苇 小船 0.5000000
纵一苇 地 0.0238095
纵一苇 自由自在 0.3333333
奈何 为什么 0.0769231
二县 两县 0.3333333
文墨 用 0.0357143
文墨 自慰 0.2500000
巫峡 通向 1.0000000
巫峡 巫峡 1.0000000
巫峡 北面 0.5000000
终吾生 终生 1.0000000
终吾生 地 0.0238095
终吾生 自由自在 0.3333333
褒贬 进行 0.1666667
褒贬 褒贬 0.5000000
褒贬 正确 0.1666667
有仲焉 在 0.0058140
有仲焉 有个 0.0909091
有仲焉 管仲 0.0400000
有仲焉 由于 0.0370370
有仲焉 朝 0.2000000
有仲焉 中 0.0208333
某来 出山 0.5000000
某来 我 0.0040161
某来 而 0.0065359
石 NULL 0.0036101
石 推荐 0.1250000
商旅 商人 1.0000000
商旅 旅客 0.5000000
商旅 通行 0.5000000
商旅 无法 0.0833333
赋 收 1.0000000
饵 药饵 1.0000000
饵 制成 0.5000000
名之以 命名 0.1666667
名之以 来 0.0227273
名之以 性能 0.5000000
功业 可以 0.0178571
功业 立刻 0.5000000
功业 认为 0.0588235
功业 功业 0.3333333
言责 人 0.0054645
言责 进言 1.0000000
言责 任务 0.3333333
颓乎 在 0.0058140
颓乎 人们 0.0625000
颓乎 倒 0.3333333
颓乎 之中 0.0909091
不近人情 不近人情 0.2500000
不近人情 办事 0.2000000
贵重 保重 1.0000000
贵重 和 0.0084034
少愧 吧 0.0666667
属客 酒杯 0.1666667
属客 敬酒 0.5000000
属客 客人 0.0666667
属客 向 0.0500000
属客 举起 0.5000000
滁水 在 0.0058140
滁水 水时 0.5000000
滁水 感到 0.1000000
滁水 饮用 1.0000000
董 辅佐 0.3333333
董 做 0.0303030
董 幕僚 1.0000000
进士 进士 0.5000000
要人争 都 0.0123457
要人争 着 0.0250000
要人争 显要人物 0.5000000
要人争 争 1.0000000
通习 在 0.0058140
通习 学习 0.0625000
通习 经传 0.5000000
不同 不同 0.3333333
松江 好像 0.0434783
松江 松江 0.5000000
松江 是 0.0046083
尺寸 小利 1.0000000
弹冠 就 0.0072464
废 诗书 1.0000000
废 上 0.0222222
废 把 0.0178571
废 秦朝 1.0000000
游人 游人 0.5000000
游人 后 0.0294118
游人 这是 0.0263158
而川分 中断 0.5000000
而川分 分开 1.0000000
而川分 一条 0.1666667
而川分 河水 0.5000000
而川分 被 0.0178571
予游 我 0.0040161
予游 一起 0.0909091
予游 游览 0.1000000
莫对 也 0.0100000
莫对 后 0.0294118
莫对 听说 0.0769231
莫对 无法回答 1.0000000
仁者 仰慕 0.2500000
仁者 正义 0.1428571
之徒 一样 0.0833333
之徒 老聃 1.0000000
感矣 感触 0.3333333
感矣 因此 0.0526316
致吾君于 尧舜 0.5000000
致吾君于 圣君 0.3333333
致吾君于 君主 0.0384615
致吾君于 那样 0.0714286
致吾君于 使 0.0333333
致吾君于 成为 0.1000000
夕阳 一会儿 0.2500000
夕阳 落山 0.5000000
夕阳 夕阳 0.5000000
其门 他 0.0052083
其门 在 0.0058140
其门 门下 0.2000000
其门 出出进进 0.5000000
名字 互相标榜 1.0000000
祝 祝愿 0.7500000
稷 稷 1.0000000
稷 契 0.2000000
守汝丧 你 0.0140845
守汝丧 守 0.2500000
守汝丧 丧 0.3333333
守汝丧 让 0.0625000
守汝丧 的 0.0008703
守汝丧 他们 0.0125000
寿者 是 0.0046083
寿者 也 0.0100000
寿者 寿命 0.5000000
寿者 预料 0.2500000
寿者 无法 0.0833333
女子 两个 0.1428571
女子 女儿 0.1666667
监察 监察 1.0000000
其于 他们 0.0125000
秣 加好 1.0000000
穷理 全面 0.5000000
穷理 考虑 0.1111111
穷理 是 0.0046083
姓名 他 0.0052083
姓名 姓名 0.5000000
姓名 的 0.0008703
酾 洒酒 0.5000000
县立 诏书 0.5000000
县立 命令 0.3333333
杀 国武子 0.2000000
杀 他杀 0.2000000
杀 NULL 0.0036101
杀 去 0.0163934
杀 杀 0.3333333
杀 可以 0.0178571
杀 他 0.0052083
杀 了 0.0034602
星星 花白色 1.0000000
星星 了 0.0034602
以小善 皇帝 0.0312500
以小善 小 0.1000000
以小善 利用 0.5000000
以小善 会 0.0172414
居嵩 瀍 1.0000000
居嵩 嵩 0.5000000
居嵩 和 0.0084034
居嵩 居于 0.2500000
居嵩 深 1.0000000
石上 溪边 0.5000000
专其 专以 1.0000000
专其 三代 0.3333333
孟德 不 0.0075188
疾 NULL 0.0036101
疾 病 0.5000000
疾 啊 0.0188679
疾 此种 0.3333333
妒宠 别人 0.0625000
妒宠 忌妒 1.0000000
诸兄 父辈 1.0000000
诸兄 兄长 1.0000000
诸兄 几位 1.0000000
蒙难 正确对待 0.5000000
蒙难 是 0.0092166
蒙难 第一 1.0000000
蒙难 他 0.0052083
蒙难 说 0.0085470
蒙难 蒙难 0.6666667
蒙难 这 0.0126582
蒙难 啊 0.0188679
蒙难 正视 0.5000000
丰富 登位 1.0000000
丰富 国强民富 0.5000000
惧 心情 0.3333333
与 交往 0.4000000
与 与 0.1250000
与 逃出 0.3333333
与 NULL 0.0144404
与 和 0.3025210
与 河南 0.3333333
与 斟酒 0.2500000
与 年幼 0.2500000
与 褚遂良 0.5000000
与 游玩 0.5000000
与 给 0.1250000
与 人来 0.5000000
与 欠债人 0.5000000
与 信托 0.5000000
与 一起 0.0909091
与 想不出 1.0000000
与 他 0.0052083
与 同 0.1250000
令出 厚 1.0000000
令出 招子 1.0000000
令出 做 0.0303030
适类 处境 0.3333333
适类 和 0.0084034
适类 类似 1.0000000
适类 相 1.0000000
图记 记载 0.2000000
图记 和 0.0084034
图记 地图 1.0000000
坏 就是 0.0294118
坏 礼制 0.5000000
坏 这 0.0126582
坏 败坏 0.3333333
适之 安于 0.5000000
适之 只想 0.5000000
适之 舒适 0.5000000
陟 升降 0.5000000
陟 百官 0.5000000
陟 不 0.0075188
陟 信息 0.3333333
闻其言 昌黎 0.5000000
彼其初 在 0.0058140
彼其初 他 0.0052083
彼其初 三个 0.0555556
彼其初 当初 0.5000000
可观 值得 0.2500000
可观 要求 0.1250000
可观 章法 0.5000000
可观 符合 0.2500000
之语 他 0.0052083
之语 谈论 0.3333333
之语 同 0.1250000
赴敌 奔赴前线 0.5000000
赴敌 的 0.0008703
之大中 要求 0.1250000
之大中 合乎 0.1666667
之大中 中庸 0.2500000
尤甚 特别 0.3333333
尤甚 坏 0.2500000
县令 县官 0.5000000
县令 做 0.0303030
而观 方面 0.2500000
而观 来看 0.4000000
余闻 他 0.0052083
余闻 听 0.0833333
余闻 完 0.3333333
引 宗派 0.3333333
铲削 都 0.0123457
铲削 铲除 0.5000000
而是 祖无泽 0.5000000
而是 后 0.0294118
而是 同意 0.5000000
而是 听说 0.0769231
自谓 名号 1.0000000
自谓 自己 0.0185185
自谓 用 0.0357143
自谓 了 0.0034602
际涯 漫无边际 0.3333333
胜数 数得 0.5000000
胜数 清 0.2500000
悚 听 0.0833333
悚 心怀 1.0000000
悚 着 0.0250000
悚 不安 0.3333333
东来 飞来 1.0000000
东来 从东 0.3333333
东来 大江 1.0000000
东来 上空 1.0000000
法度 都 0.0123457
法度 所写 0.5000000
法度 文章 0.1000000
斥时 之后 0.2000000
斥时 贬斥 0.2000000
更若役 你 0.0140845
更若役 更换 1.0000000
更若役 差役 0.2500000
更若役 蛇 0.0833333
更若役 的 0.0008703
更若役 捕 0.2500000
私立 私下里 1.0000000
去国 远离 0.3333333
去国 怀念 0.5000000
去国 会 0.0172414
去国 产生 0.2000000
短 短处 1.0000000
顷之 人 0.0054645
顷之 过 0.0322581
顷之 和颍水 0.5000000
顷之 不久 0.5000000
燕赵 说 0.0085470
以陶 礼乐 0.5000000
以陶 感化 0.1250000
朋者 朋党 0.0416667
朋者 结成 0.4000000
朋者 暂时 0.5000000
树 在 0.0058140
树 休息 0.3333333
树 人 0.0054645
树 树下 0.3333333
拜受 在 0.0058140
拜受 屋里 0.5000000
翻然 非常 1.0000000
暮取 晚上 0.5000000
自老 心愿 1.0000000
自老 隐居 0.1666667
自老 终老 1.0000000
自老 的 0.0008703
事有必至 一定 0.0500000
事有必至 事情 0.1000000
事有必至 有 0.0084034
事有必至 必定会 1.0000000
事有必至 发展 0.2500000
事有必至 结局 0.3333333
事有必至 的 0.0017406
守护 你 0.0140845
守护 在 0.0058140
守护 这儿 0.5000000
守护 保护 0.3333333
黑质 黑色 1.0000000
黑质 的 0.0008703
苏君固 佐成 0.5000000
贤 确实 0.0500000
贤 是 0.0046083
贤 贤人 0.0769231
蹁跹 羽衣 0.5000000
蹁跹 飘然 1.0000000
蹁跹 而 0.0065359
蹁跹 来 0.0227273
不肖 平庸 1.0000000
不肖 晋国 0.3333333
不肖 国君 0.2000000
不肖 无能 1.0000000
不肖 的 0.0017406
公之为 为 0.0147059
公之为 桓公 0.0769231
公之为 的 0.0008703
窃怪 心中 0.1428571
窃怪 奇怪的是 1.0000000
窃怪 感到 0.1000000
请于 他 0.0052083
请于 请求 0.2500000
请于 向 0.0500000
请于 要 0.0476190
彼独恃 只 0.0833333
彼独恃 依靠 0.1111111
彼独恃 齐国 0.0833333
廪 库房 1.0000000
廪 和 0.0084034
尝以 率领 1.0000000
以生 互相照顾 0.2500000
以生 一起 0.0909091
之雄 首领 1.0000000
之雄 的 0.0008703
胡为乎 为什么 0.0769231
胡为乎 要来 0.5000000
胡为乎 它 0.0222222
韩愈 昌黎 0.5000000
某年 某年 1.0000000
威公得 得以 0.2500000
威公得 那 0.0370370
得泉 发现 0.3333333
得泉 泉水 0.1111111
得泉 一处 0.1666667
授 集贤 0.3333333
授 被 0.0178571
凭 你 0.0140845
凭 没能 0.5000000
必本于 为 0.0147059
必本于 必定 0.1000000
必本于 标准 1.0000000
必本于 以 0.0526316
必本于 合乎 0.1666667
束带结发 挽起 1.0000000
束带结发 发髻 1.0000000
束带结发 腰带 1.0000000
束带结发 束好 1.0000000
得于 知道 0.0243902
得于 了 0.0034602
其必来 一定 0.0500000
其必来 料到 0.2000000
其必来 他们 0.0125000
不维 服饰 1.0000000
不维 与 0.0625000
不维 用车 1.0000000
不维 职官 1.0000000
已能 做 0.0303030
已能 像 0.0277778
已能 司马 0.2500000
周 NULL 0.0036101
周 周朝 0.1250000
周 朝代 0.5000000
周 哪个 1.0000000
周 比得上 0.5000000
周 能 0.0181818
王遂过 这是 0.0263158
虐于 残害 0.5000000
开方 开方 1.0000000
开方 这样 0.0232558
开方 就是 0.0294118
开方 引起 0.5000000
之世 那个 0.2000000
之世 时代 0.3333333
之世 上 0.0222222
俱往 去 0.0163934
俱往 地方 0.0416667
俱往 母子 0.3333333
之理 自然 0.1666667
其市 看看 0.3333333
其市 去 0.0163934
其市 集市 0.5000000
其市 的 0.0008703
康强 在 0.0058140
康强 过早 1.0000000
康强 是 0.0046083
康强 身强力壮 0.5000000
康强 时 0.0175439
虽衍 就算 0.3333333
虽衍 成百上千 0.5000000
词章 诗文 1.0000000
词章 像 0.0277778
词章 写作 0.3333333
相当 抵销 1.0000000
相当 时 0.0175439
相当 债务 1.0000000
相当 足够 1.0000000
相当 数额 1.0000000
晋 晋地 0.3333333
才 个 0.4000000
才 是 0.0092166
才 聚集 0.3333333
才 人才 0.2000000
悔悟 悔悟 0.5000000
悔悟 虽然 0.0666667
悔悟 过来 0.5000000
悔悟 之心 0.5000000
悔悟 有 0.0084034
乡 NULL 0.0036101
乡 家乡 0.3333333
乡 的 0.0008703
富贵 NULL 0.0036101
乃复 侍御史 0.3333333
号 无门 0.3333333
号 不闻不问 1.0000000
号 刚强 0.3333333
号 哭喊 0.3333333
本者 人 0.0054645
本者 事物本质 0.5000000
本者 的 0.0008703
之交 他 0.0104167
之交 交往 0.2000000
之交 并 0.0250000
之交 愿同 1.0000000
侣 鱼虾 0.3333333
侣 与 0.0625000
无文 不学无术 0.5000000
孟尝君 孟尝君 1.0000000
彼苍者 苍苍 0.5000000
彼苍者 上天 0.2000000
彼苍者 啊 0.0188679
彼苍者 的 0.0008703
彼苍者 那 0.0370370
自任 责任 0.3333333
感极 伤感 0.3333333
感极 从而 0.1000000
感极 极度 1.0000000
伪 假 0.6666667
伪 也 0.0200000
伪 是 0.0092166
伪 这 0.0126582
欧阳修 事有 1.0000000
欧阳修 欧阳修 0.3333333
欧阳修 庐陵 1.0000000
欧阳修 看法 0.5000000
欧阳修 的 0.0017406
其座 驳倒 0.5000000
其座 在座 0.5000000
得志 一旦 0.2000000
得志 得志 0.5000000
贞元 贞元 1.0000000
凡事 凡是 0.1250000
凡事 办事 0.2000000
以梦得 有人 0.0555556
以梦得 情况 0.1666667
以梦得 碰上 0.5000000
以梦得 把 0.0178571
以梦得 了 0.0034602
孤舟 孤舟 0.5000000
孤舟 使 0.0333333
孤舟 独处 0.5000000
孤舟 中 0.0208333
嗟夫 唉 0.0800000
休养生息 人们 0.0625000
休养生息 休养生息 1.0000000
休养生息 使 0.0333333
休养生息 能 0.0181818
无毁 谤 1.0000000
无毁 言 1.0000000
无毁 背后 0.3333333
言及 到 0.0175439
言及 一句 0.3333333
言及 国家 0.0434783
而视 视力 1.0000000
日 间隔 0.3333333
日 日 0.2857143
日 他杀 0.2000000
日 起初 0.5000000
日 日期 0.4000000
日 说道 0.2000000
日 的 0.0017406
之外 姚凤 0.5000000
之外 皇甫晖 0.5000000
之外 大将 0.2000000
之外 活捉 0.5000000
复有 还有 0.1250000
复有 屠狗者 0.3333333
其君 皇帝 0.0312500
其君 为 0.0147059
其君 献策 0.5000000
其君 因为 0.0769231
其身 他 0.0104167
其身 自己 0.0185185
其身 对于 0.2000000
其身 约束 0.2500000
不免 不免 0.3333333
不免 却 0.0243902
不免 应得 0.3333333
使民知 从而 0.1000000
父不受 父亲 0.0833333
父不受 死 0.0357143
父不受 不 0.0075188
父不受 而 0.0065359
父不受 了 0.0034602
父不受 被 0.0178571
斯文 学习 0.0625000
斯文 古文 0.3333333
秦哉 呢 0.0138889
会计 算 0.2500000
会计 一定 0.0500000
会计 会计 0.5000000
会计 完成 0.1666667
会计 做到 0.1250000
会计 任务 0.3333333
会计 才 0.0285714
会计 准确无误 0.3333333
之章 之篇 1.0000000
所居 人所能 1.0000000
所居 地方 0.0416667
所居 的 0.0008703
所愿 他 0.0052083
所愿 实现 0.3333333
所愿 愿望 0.5000000
所愿 的 0.0008703
直则 是 0.0046083
直则 直率 0.6666667
直则 够 1.0000000
孰知 谁又能 0.6666667
孰知 苛捐杂税 0.3333333
孰知 知道 0.0731707
故其 音乐 0.2500000
故其 所以 0.0344828
故其 秋天 0.1428571
故其 上 0.0222222
自毙 了 0.0034602
自毙 自杀 0.5000000
谀 师则 0.3333333
谀 谄谀 1.0000000
谀 人为 0.5000000
谀 近于 0.3333333
国武子 国武子 0.2000000
国武子 就是 0.0294118
以余故 缘故 0.1111111
以余故 我 0.0040161
以余故 由于 0.0370370
以余故 的 0.0008703
春 春天 0.6666667
怒有 他 0.0052083
怒有 发怒 0.5000000
复进 再 0.0909091
复进 登门 1.0000000
复进 拜见 0.1666667
三人行 同行 1.0000000
三人行 人 0.0054645
三人行 三个 0.0555556
八愚 便 0.0312500
八愚 写 0.0476190
八愚 我 0.0040161
八愚 八愚 0.5000000
学广而闻 他 0.0052083
学广而闻 学识渊博 0.5000000
美箭 和 0.0084034
美箭 箭竹 1.0000000
讳 父亲 0.0833333
讳 柳镇 0.2500000
讳 名叫 0.2500000
讳 的 0.0008703
恩德 感化 0.2500000
恩德 恩德 0.4285714
奉 应该 0.0689655
奉 遣使 0.2500000
奉 来 0.0227273
推挽 一把 0.5000000
重然诺 重 1.0000000
重然诺 承诺 1.0000000
谓予 我 0.0040161
谓予 如果说 0.1666667
无知 如果 0.0227273
无知 知觉 0.3333333
无知 没有 0.0126582
无知 死后 0.1250000
所有 所有 0.5000000
江流 长江 0.1666667
江流 哗哗 0.5000000
江流 的 0.0008703
诚 推测 0.5000000
诚 确实 0.0500000
诚 是 0.0046083
托国 重任 0.5000000
托国 治国 0.1666667
托国 以 0.0526316
托国 授予 0.5000000
托国 他们 0.0125000
不敬蚤夜 怎么 0.0714286
不敬蚤夜 敢 1.0000000
鲍叔 鲍叔牙 1.0000000
鲍叔 过 0.0322581
鲍叔 评论 0.5000000
鲍叔 由于 0.0370370
鲍叔 鲍叔 0.5000000
原始 调查 0.5000000
骤至 骤然 1.0000000
骤至 狂风暴雨 0.5000000
骤至 降临 0.2500000
洌 清 0.2500000
不悲 为 0.0147059
不悲 不 0.0075188
不悲 并 0.0250000
不悲 本身 0.2500000
天之涯 天边 0.5000000
天之涯 我们 0.0833333
天之涯 如今 0.2500000
患生 祸患 0.0714286
患生 便会 0.2500000
患生 仕进 0.5000000
患生 产生 0.2000000
复来乎 这才 0.2000000
复来乎 呢 0.0138889
复来乎 回来 0.0666667
复来乎 又 0.0117647
之治 齐国 0.0833333
之治 强盛 0.3333333
人人 人人 0.5000000
人人 各怀 0.5000000
人人 的 0.0008703
人人 人人皆知 0.5000000
求士 贤才 0.3333333
求士 是 0.0046083
俊杰廉悍 他 0.0052083
俊杰廉悍 英俊 1.0000000
俊杰廉悍 勇敢 0.3333333
俊杰廉悍 方正 1.0000000
俊杰廉悍 杰出 0.3333333
虽使 即使 0.1666667
虽使 让 0.0625000
北通 它 0.0222222
北通 的 0.0008703
灌 灌水 0.2500000
灌 的 0.0008703
衣臣 身穿 1.0000000
衣臣 奴仆 0.5000000
柳氏 有个 0.0909091
柳氏 好 0.0666667
柳氏 柳家 0.5000000
柳氏 说 0.0085470
修之来 我 0.0040161
桂 桂木 1.0000000
野处 居于 0.2500000
野处 之中 0.0909091
野处 山野 0.3333333
孰与 阴阳 0.5000000
满前 他 0.0052083
满前 在 0.0058140
满前 之士 0.2000000
满前 聚集 0.3333333
一盘 蔬菜 0.5000000
而发 头发 0.2500000
复志赋 复志赋 0.5000000
老死 直到 0.1666667
老死 老死 0.5000000
故圣益 圣明 0.2000000
故圣益 更加 0.2000000
故圣益 圣人 0.0555556
故圣益 因此 0.0526316
仲之书 在 0.0058140
仲之书 写 0.0476190
仲之书 管仲 0.0400000
仲之书 书 0.3333333
仲之书 中 0.0208333
仲之书 的 0.0008703
拒之于 抵抗 1.0000000
拒之于 前面 0.1666667
拒之于 会 0.0172414
用于 后 0.0294118
用于 拿下 0.5000000
用于 秦国 0.0689655
用于 主张 0.5000000
用于 重用 0.1250000
用于 就 0.0072464
用于 被 0.0357143
百步 在 0.0058140
百步 城之南 1.0000000
百步 州 0.5000000
利而 只 0.0833333
利而 看见 0.5000000
渔歌 渔歌 1.0000000
尽言以 揭发 0.3333333
尽言以 地 0.0238095
尽言以 别人 0.0625000
尽言以 直言不讳 0.2500000
行为 属于 0.1666667
行为 五行 0.5000000
行为 中 0.0208333
兄嫂 只是 0.0625000
兄嫂 依靠 0.1111111
兄嫂 嫂嫂 0.1428571
兄嫂 哥哥 0.1666667
嗟乎 写 0.0476190
嗟乎 唉 0.1200000
有命 是 0.0046083
有命 由 0.5000000
有命 安排 0.2500000
有命 命运 0.5000000
飞鸣 船上 0.3333333
飞鸣 从 0.0384615
相师 互相学习 0.5000000
相师 为耻 0.2500000
相师 以 0.0526316
彼有 他们 0.0125000
偶一为之 做 0.0303030
偶一为之 偶尔 0.5000000
偶一为之 一次 0.1666667
之成 完成 0.1666667
之成 功业 0.3333333
之成 谈到 0.5000000
之成 的 0.0008703
临于 在 0.0058140
临于 之上 1.0000000
文公死 死后 0.1250000
文公死 晋文公 0.1666667
躬 在 0.0058140
躬 集中 1.0000000
躬 品德 0.2000000
躬 本身 0.2500000
明河 清晰可见 1.0000000
明河 天空 0.3333333
明河 银河 1.0000000
攀栖鹘 鸟 0.5000000
攀栖鹘 手攀鹘 1.0000000
攀栖鹘 栖身 0.5000000
出涕 地说 0.5000000
出涕 眼泪汪汪 0.5000000
今则 似的 1.0000000
今则 现在 0.0322581
李愿 李愿 0.3333333
小信 信任 0.5000000
小信 利用 0.5000000
小信 的 0.0008703
举进士 考试 0.5000000
举进士 进士 0.2500000
举进士 参加 0.5000000
秦人 出入 0.3333333
秦人 人 0.0054645
秦人 越国 0.5000000
秦人 秦国 0.0689655
补其 补充 0.3333333
春秋 春秋 1.0000000
人告 告诉 0.0769231
人告 去 0.0163934
浊流 浊流 1.0000000
浊流 把 0.0178571
浊流 他们 0.0125000
当封 小弟弟 0.1666667
当封 的 0.0008703
以正 过 0.0322581
以正 们 0.0769231
以正 生活 0.0909091
以正 正常 0.5000000
以正 上 0.0222222
以正 了 0.0034602
壑 使 0.0333333
嗟盘 乐趣 0.1000000
嗟盘 盘谷 0.1111111
嗟盘 啊 0.0188679
偕 放出 0.3333333
偕 与 0.0625000
偕 京 0.5000000
偕 同 0.1250000
偕 遣 1.0000000
听 听从 0.3333333
听 他 0.0052083
听 只愿 1.0000000
听 是非 0.3333333
听 意见 0.2000000
听 NULL 0.0072202
听 不安 0.3333333
展力 工作 1.0000000
展力 地 0.0238095
安闲 平易 1.0000000
食犬 猪狗 0.5000000
食犬 吃 0.3333333
其经 其中 0.1428571
戒哉 警惕 0.5000000
戒哉 引起 0.5000000
一碧万顷 碧波 1.0000000
一碧万顷 万里 1.0000000
知去 知道 0.0243902
子必 儿子 0.0666667
子必 必定 0.1000000
子必 父母 0.3333333
之南少 贤人 0.0769231
之南少 楚国 0.5000000
之南少 南部 0.5000000
之南少 的 0.0008703
益奇 特别 0.3333333
益奇 长得 1.0000000
益奇 好看 0.5000000
者 一天天 0.2857143
者 地时 0.5000000
者 大丈夫 0.2000000
者 敌国 0.5000000
者 赎 0.2500000
者 巡夜 0.3333333
者 零落 0.3333333
者 人 0.0491803
者 关键 1.0000000
者 洞箫 0.5000000
者 任务 0.3333333
者 知识 0.5000000
者 那样 0.0714286
者 不近人情 0.2500000
者 无疑 0.2500000
者 情绪 0.5000000
者 不变 0.5000000
者 前后左右 0.3333333
者 推荐 0.1250000
者 官员 0.5000000
者 白粉 0.5000000
者 欺世盗名 1.0000000
者 君臣 0.3333333
者 贤人 0.0769231
者 之祸 0.5000000
者 有始有终 0.5000000
者 晴朗 0.3333333
者 十二年 0.3333333
者 倒 0.3333333
者 长远打算 0.3333333
者 NULL 0.0036101
者 坏人 0.3333333
者 孩子 0.1666667
者 说道 0.2000000
者 嬉笑 0.5000000
者 坏 0.5000000
者 那个 0.2000000
者 灾祸 0.5000000
者 委以重任 0.3333333
者 审判 0.5000000
者 灾难 0.3333333
者 直言 0.5000000
者 同州 0.3333333
者 做法 0.1250000
者 的 0.0382942
者 心花怒放 0.5000000
者 通达事理 0.3333333
者 还有 0.1250000
者 三个 0.1666667
善人 善良 0.7500000
善人 人 0.0109290
善人 收揽 0.3333333
善人 无保留地 0.3333333
善人 的 0.0008703
以与民 百姓 0.0555556
以与民 和 0.0084034
以与民 共享 1.0000000
以与民 来 0.0227273
省 来看 0.2000000
省 回 0.2500000
居于 他 0.0052083
居于 晋地 0.3333333
居于 五年 0.3333333
居于 住 0.1666667
早世 早已 0.5000000
早世 去世 0.1538462
自归以 自动 0.3333333
自归以 回来 0.0666667
自归以 好 0.0666667
自归以 死刑 0.2500000
自归以 接受 0.2000000
自归以 到期 0.3333333
易牙 易牙 1.0000000
无辞 他 0.0052083
无辞 以致于 1.0000000
无辞 告诉 0.0769231
斗牛 两个 0.1428571
斗牛 星宿 1.0000000
斗牛 踌躇 0.5000000
虽谓 马 0.3333333
虽谓 那么 0.0357143
必能择 结论 1.0000000
临皋 亭 0.3333333
临皋 经过 0.1250000
临皋 临皋 1.0000000
然后 便用 0.3333333
然后 此后 0.2500000
然后 然后 0.3333333
诚难明 明白 0.2500000
诚难明 也 0.0100000
诚难明 难以 0.1666667
诚难明 实在 0.1428571
诚难明 呀 0.3333333
其肯 为 0.0147059
其肯 他肯 1.0000000
肃杀 拿 0.1428571
肃杀 酷烈 0.3333333
经纪 子厚 0.0384615
经纪 料理 0.5000000
经纪 安排 0.2500000
之庭 门庭 0.2500000
之庭 这些 0.0588235
之庭 由于 0.0370370
之庭 之中 0.0909091
之庭 原因 0.0909091
必有合 知己 1.0000000
必有合 遇到 0.2000000
必有合 定会 0.5000000
必有合 去 0.0163934
必有合 此 1.0000000
自力 流传后世 0.3333333
自力 像 0.0277778
自力 今天 0.5000000
匪躬之节 节操 0.2000000
匪躬之节 奋不顾身 0.5000000
匪躬之节 表示 0.2500000
匪躬之节 去 0.0163934
匪躬之节 的 0.0008703
而人主 皇帝 0.0312500
而人主 但是 0.1250000
而人主 却 0.0243902
而人主 他们 0.0125000
巉岩 险峻 1.0000000
巉岩 岩石 0.5000000
巉岩 的 0.0008703
收召好 收罗 0.5000000
收召好 不得志 0.3333333
收召好 和 0.0084034
既退 贬后 1.0000000
既退 遭 1.0000000
嫠 哭泣 0.5000000
嫠 为 0.0147059
嫠 暗地 0.5000000
嫠 寡妇 1.0000000
嫠 之 0.0588235
惟一 一条心 0.5000000
惟一 只有 0.0769231
名 得到 0.1250000
名 名声 0.0909091
名 享有盛名 0.5000000
孙惟 里 0.1666667
孙惟 孙子辈 0.5000000
孙惟 只有 0.0769231
触 接触 0.5000000
触 后 0.0294118
触 到 0.0175439
触 忍受 0.5000000
空明 迎来 1.0000000
空明 着 0.0250000
空明 小船 0.5000000
空明 清澈 0.2500000
传道 道理 0.0526316
传道 是 0.0046083
传道 传授 0.3333333
鸿蒙 自然 0.1666667
鸿蒙 超越 0.3333333
鸿蒙 万物 0.0769231
皇考 他 0.0052083
皇考 柳镇 0.2500000
谓 上述情况 0.3333333
谓 NULL 0.0072202
谓 环绕 0.3333333
谓 谁 0.0555556
谓 的 0.0008703
谓 而言 1.0000000
谓 就是指 1.0000000
谓 指 0.3333333
谓 功业 0.3333333
蹙 困苦 0.5000000
大节 大节 0.5000000
之宠命 使命 1.0000000
之宠命 光荣 1.0000000
之宠命 的 0.0008703
之宠命 特赐 1.0000000
之宠命 加恩 1.0000000
败国 国家 0.0434783
败国 败坏 0.3333333
出而 后 0.0294118
出而 才 0.0285714
出而 出现 0.0833333
叫嚣 从 0.0384615
叫嚣 东到 1.0000000
相庆 会 0.0172414
相庆 弹冠相庆 1.0000000
水波不兴 激起 1.0000000
水波不兴 没有 0.0126582
水波不兴 江面 0.2500000
水波不兴 波浪 1.0000000
岩穴 山岩 1.0000000
三千 臣子 0.2222222
三千 三千 1.0000000
既往 安葬 0.2500000
既往 他 0.0052083
既往 了 0.0034602
孰得 算失 0.5000000
孰得 什么 0.0500000
河南 都 0.0123457
河南 留守 0.5000000
河南 河南 0.3333333
阳城 阳城 1.0000000
处心积虑 处心积虑 1.0000000
夷 偏僻 0.2500000
夷 伯夷 0.3333333
夷 禽兽 0.5000000
夷 隐藏 0.3333333
夷 夷 1.0000000
争先 抢夺 1.0000000
争先 会 0.0172414
争先 争先 0.5000000
争先 就 0.0072464
躬之故 他 0.0052083
躬之故 不顾 0.5000000
躬之故 自身 0.2000000
躬之故 由于 0.0370370
软脚 得 0.0500000
软脚 脚气病 0.3333333
软脚 近来 1.0000000
软脚 了 0.0034602
竭其 都 0.0123457
竭其 收入 1.0000000
竭其 把 0.0178571
竭其 的 0.0008703
因威 趁着 1.0000000
故其大者 最坏 0.3333333
故其大者 是 0.0046083
故其大者 因此 0.0526316
故其大者 结局 0.3333333
故其大者 的 0.0008703
文词 亲自 0.3333333
文词 讲授 0.5000000
水 垂钓 0.5000000
水 水边 0.5000000
梁之形 有 0.0084034
梁之形 形状 0.5000000
梁之形 栋梁 1.0000000
梁之形 堆成 0.5000000
梁之形 了 0.0034602
梁之形 的 0.0017406
长江 长江 0.3333333
冠带 整好 1.0000000
且 父子 1.0000000
且 近千人 0.5000000
且 必将 0.2500000
且 编入 0.5000000
且 并且 0.1538462
且 再说 0.6666667
且 动身 0.5000000
且 的 0.0008703
且 况且 0.3333333
且 接着 1.0000000
且 效法 0.3333333
且 何在 0.5000000
且 便 0.0312500
且 议中 0.5000000
且 招致 0.5000000
死于 死 0.0714286
死于 渎职 0.3333333
以封 封给 0.5000000
以封 拿 0.1428571
以封 这个 0.0400000
以封 我 0.0040161
周公宜 及时 0.5000000
以受 礼物 0.3333333
以受 好 0.0666667
以受 交给 0.5000000
以受 日子 0.2000000
利器 优异 0.5000000
利器 才能 0.1250000
利器 怀抱 0.2500000
利器 的 0.0008703
起 先生 0.0303030
起 不得已 0.3333333
起 将要 0.1250000
起 石 0.0833333
起 兴起 0.3333333
起 爬起来 0.3333333
起 动身 0.5000000
其触 它 0.0222222
其触 物体 0.3333333
汝不果 你 0.0140845
汝不果 终于 0.3333333
汝不果 没有 0.0126582
汝不果 来成 0.2500000
岸芷汀兰 芷草 1.0000000
岸芷汀兰 岸边 0.3333333
岸芷汀兰 沙洲 0.3333333
岸芷汀兰 兰花 1.0000000
岸芷汀兰 和 0.0084034
肌 腐肌 0.5000000
肌 消除 0.2500000
何 怨 0.5000000
何 又 0.0117647
何 能 0.0181818
何 怎能 0.2000000
何 他 0.0052083
何 呢 0.0555556
何 良宵 0.5000000
何 怎么 0.0714286
其自归 自动 0.3333333
其自归 回来 0.0666667
其自归 就 0.0072464
口径 一直 0.2000000
口径 西山 0.5000000
口径 路口 0.5000000
口径 从 0.0384615
日晶 日明 1.0000000
武后 得罪 0.5000000
武后 武后 1.0000000
武后 了 0.0034602
武后 因为 0.0769231
两峰 而出 1.0000000
两峰 倾泻 0.5000000
两峰 两座 0.5000000
两峰 山峰 0.3333333
之师 那些 0.0555556
之师 老师 0.0769231
之师 小孩 0.3333333
之师 的 0.0008703
举网 一条 0.1666667
举网 我 0.0040161
举网 撒网 1.0000000
举网 捕到 0.5000000
高下 高下 1.0000000
高下 德才 0.2000000
高下 的 0.0008703
复吾赋 我 0.0040161
复吾赋 恢复 0.3333333
顾予 看望 1.0000000
顾予 我 0.0040161
顾予 来 0.0227273
承 后嗣 0.2500000
承 为 0.0147059
承 先人 0.5000000
承 指点 1.0000000
六七里 行走 1.0000000
六七里 山路 1.0000000
六七里 六七里 0.5000000
商声主 代表 0.5000000
商声主 西方 0.2500000
商声主 商声 1.0000000
举酒 敬酒 0.5000000
举酒 我 0.0040161
山高 只是 0.0625000
真若 一样 0.0833333
真若 可信 0.5000000
真若 像 0.0277778
真若 真的 0.2500000
真若 简直 1.0000000
首为 一首 0.5000000
首为 作 0.2000000
首为 相公 0.5000000
梦得 看到 0.1666667
梦得 梦得 0.5000000
非谓 刑律 0.3333333
非谓 并 0.0250000
之恩 只 0.0833333
之恩 凭 0.3333333
行过 这东 0.3333333
所存 在 0.0058140
所存 道理 0.0526316
所存 什么 0.0500000
所存 地方 0.0416667
与化 是 0.0046083
与化 转变 0.3333333
与化 社会 0.1666667
与化 随着 0.2000000
一朋 结为 0.3333333
一朋 三千个 0.2500000
一朋 朋党 0.1666667
一朋 结成 0.2000000
正邦典 严肃 0.5000000
正邦典 为了 0.0666667
正邦典 这是 0.0263158
正邦典 国法 0.1428571
其上 积石 0.5000000
其上 丰山 0.3333333
其上 中有 0.5000000
石生 有 0.0084034
取 NULL 0.0036101
取 选 0.5000000
取 计较 0.3333333
取 接过 0.3333333
取 把 0.0357143
取 妻子儿女 0.5000000
取 考取 0.5000000
为子 而 0.0065359
其为 专横 0.3333333
其为 希望 0.0769231
其为 把 0.0178571
烟霏 烟飞 1.0000000
此者 是 0.0092166
野芳 野花 0.5000000
古文 爱好 0.5000000
古文 古文 0.3333333
朋 组成 0.2500000
朋 朋党 0.0833333
朋 私利 0.2000000
愚 愚人 0.1250000
愚 屈辱 0.5000000
愚 愚昧 0.4000000
愚 无道 0.3333333
不如 不如 0.2222222
日出 便 0.0312500
移人 速度 0.3333333
移人 人 0.0054645
移人 转变 0.3333333
移人 就 0.0072464
移人 的 0.0008703
海内 分裂 0.5000000
海内 全国 0.1428571
海内 的 0.0008703
顺赖 所 0.0322581
顺赖 柳州 0.2500000
顺赖 遵从 0.3333333
顺赖 信赖 1.0000000
过乎 过失 0.2000000
过乎 吧 0.0666667
顾安 酒 0.0909091
顾安 搞 0.3333333
顾安 到 0.0175439
之位 王之臣 0.5000000
之位 职位 0.2000000
之位 君 0.2500000
之位 处在 0.5000000
牛马 操劳 0.5000000
牛马 终日 0.5000000
牛马 过于 0.5000000
人事 人事 0.6666667
人事 变化 0.1428571
无道 则 0.3333333
无道 愚 0.5000000
无道 无道 0.3333333
粉白黛绿 美女 1.0000000
粉白黛绿 白粉 0.5000000
粉白黛绿 黛绿 1.0000000
粉白黛绿 搽 1.0000000
粉白黛绿 们 0.0769231
粉白黛绿 眉画 1.0000000
粉白黛绿 脸 1.0000000
与物 只是 0.0625000
与物 随大流 0.5000000
晚年 末期 0.5000000
庙堂 身居 0.5000000
庙堂 朝廷 0.1250000
庙堂 高位 0.3333333
若戏 如果 0.0227273
若戏 开玩笑 0.1428571
相征 在 0.0058140
相征 一起 0.0909091
相征 很 0.0526316
相征 融洽地 0.5000000
理有 道理 0.0526316
于贤以 侍奉 0.2000000
于贤以 所 0.0322581
于贤以 遣使 0.2500000
于贤以 被 0.0178571
旌焉尧 为何 1.0000000
萧然 都 0.0123457
萧然 凄凉 1.0000000
萧然 是 0.0046083
萧然 萧瑟 0.5000000
萧然 满目 1.0000000
萧然 会 0.0172414
日星 日月星辰 1.0000000
汝病 你 0.0140845
汝病 生病 1.0000000
胜 获胜 1.0000000
胜 人 0.0054645
胜 了 0.0034602
水声 声音 0.0909091
水声 潺潺 0.3333333
水声 击水 1.0000000
水声 以石 0.5000000
水声 发出 0.0833333
水声 了 0.0034602
刚直 著称 1.0000000
刚直 以 0.0526316
刚直 刚强 0.3333333
刚直 正直 0.2500000
变而为 可以 0.0178571
变而为 变为 0.3333333
变而为 使 0.0333333
变而为 他们 0.0125000
江陵 拿下 0.2500000
江陵 江陵 1.0000000
江陵 了 0.0034602
抑别 还是 0.1000000
抑别 其他 0.2500000
抑别 疾病 1.0000000
抑别 由于 0.0370370
胸 胸膛 1.0000000
简公 简公 0.5000000
简公 时 0.0175439
以冲 要 0.0476190
好贤 贤才 0.3333333
好贤 敬重 0.5000000
汝遽 这样 0.0232558
汝遽 地 0.0238095
汝遽 竟会 1.0000000
汝遽 仓促 0.5000000
夫然 这样 0.0232558
夫然 正是 0.3333333
鄙人 人 0.0054645
鄙人 边境 0.3333333
危道 道路 0.2000000
危道 一条 0.1666667
危道 危险 0.3333333
威公在 齐桓公 0.0909091
威公在 在世 0.2500000
威公在 时 0.0175439
长终 天地 0.2000000
长终 永存 1.0000000
长终 于 0.0526316
游乐 之游 0.5000000
游乐 高兴 0.1250000
游乐 吗 0.0217391
牛羊 成长 0.5000000
牛羊 顺利 0.5000000
牛羊 牛羊 1.0000000
牛羊 才行 1.0000000
其见利 有利可图 0.5000000
其见利 见到 0.1250000
其见利 时 0.0175439
其见利 等到 0.1000000
其见利 他们 0.0125000
不告 没 0.2000000
不告 家人 0.5000000
外邪 表达 0.3333333
外邪 吗 0.0217391
外邪 来 0.0227273
外邪 形式 1.0000000
涿人 谨慎 1.0000000
涿人 性格 1.0000000
庸 哪能 0.2000000
变者 方面 0.1250000
征谋 军事 0.5000000
征谋 还是 0.1000000
征谋 谋略 0.2500000
征谋 政治 0.2000000
征谋 措施 0.5000000
揩 涂改 1.0000000
已自困 得 0.0500000
已自困 自己 0.0185185
已自困 已经 0.0333333
已自困 弄 0.3333333
已自困 疲惫不堪 0.5000000
已自困 把 0.0178571
相似 道理 0.0526316
相似 也 0.0100000
相似 相仿 0.5000000
相似 知道 0.0243902
数矣 多次 0.3333333
数矣 几乎 0.5000000
数矣 死 0.0357143
数矣 咬 0.3333333
数矣 被 0.0178571
庆历 庆历 0.5000000
庆历 的 0.0008703
今吾使 我 0.0040161
今吾使 现在 0.0322581
今吾使 派 0.2500000
今吾使 来 0.0227273
而略 心意 0.2500000
而略 计较 0.3333333
今吾嗣为 父业 1.0000000
今吾嗣为 我 0.0040161
今吾嗣为 现在 0.0322581
今吾嗣为 继承 0.5000000
而私 营私 0.5000000
而私 有 0.0084034
贫 家贫 0.5000000
贫 贫困 0.2500000
贫 微薄 0.3333333
危巢 鸟巢 1.0000000
危巢 高高的 1.0000000
死者 列入 0.3333333
死者 几乎 0.5000000
死者 邻居 0.3333333
死者 蛇 0.1666667
死者 的 0.0017406
子 如果 0.0227273
子 儿子 0.1333333
子 NULL 0.0108303
子 当政 0.5000000
子 利息 0.5000000
子 的话 0.0526316
小学 遗漏 0.5000000
从子 你 0.0140845
从子 到 0.0175439
从子 跟随 0.2000000
从子 我要 1.0000000
利于 谋取私利 0.5000000
利于 利益 0.3333333
周公入 进去 0.2500000
周公入 便 0.0312500
周公入 后 0.0294118
周公入 周公 0.1111111
周公入 听说 0.0769231
之主 前代 0.3333333
之主 主人 0.2000000
就擒 活捉 0.5000000
就擒 被 0.0178571
天 苍苍 0.5000000
天 NULL 0.0036101
四壁 墙壁 0.5000000
违乎 但 0.1000000
违乎 违背 0.1666667
违乎 古训 0.5000000
违乎 又 0.0117647
违乎 会 0.0172414
六十岁 已经 0.0333333
六十岁 有 0.0084034
六十岁 如今 0.2500000
六十岁 六十年 0.3333333
尝辱 曾 0.1111111
尝辱 受到 0.0714286
不耻 互相学习 0.5000000
不耻 不 0.0075188
记忆 记忆 0.3333333
记忆 记得 0.5000000
记忆 了 0.0034602
牢 也 0.0100000
牢 会 0.0172414
牢 牢固 1.0000000
精 精力 1.0000000
参以 曹参 1.0000000
参以 代替 0.5000000
刺史 做剌史 0.5000000
刺史 刺史 0.8000000
欲求 找到 0.3333333
欲求 想 0.0909091
尽解 把 0.0178571
恶讦 憎恶 0.5000000
恶讦 那种 0.1666667
恶讦 并且 0.0769231
恶讦 把 0.0178571
凤 姚凤 0.5000000
昌黎 听 0.0833333
昌黎 韩愈 0.1250000
有客 酒 0.0909091
有客 有 0.0084034
鲜不为 不 0.0075188
鲜不为 很少 0.3333333
待 他 0.0052083
待 对待 0.5000000
待 期终 0.2500000
待 等到 0.2000000
湘 湘水 1.0000000
往游 去 0.0163934
交疏 就 0.0072464
其议 复仇 0.1250000
其议 议中 0.5000000
相 他 0.0052083
相 为 0.0147059
相 继 0.5000000
相 NULL 0.0036101
相 谁 0.0555556
相 国相 1.0000000
相 能 0.0181818
颇 自慰 0.2500000
驾 驾着 1.0000000
驾 像 0.0277778
文公之 承袭 0.5000000
文公之 晋文公 0.1666667
而惠中 聪明 0.1428571
而惠中 外貌 0.5000000
而惠中 而 0.0065359
而惠中 内心 0.0909091
而惠中 秀丽 0.3333333
自居 这样一来 1.0000000
自居 从东 0.3333333
疆场 边境线 0.3333333
疆场 却 0.0243902
乐师 和 0.0084034
乐师 乐师 1.0000000
翳 掩映着 1.0000000
使生 带回去 0.3333333
使生 你们 0.1111111
盟主 盟主 0.5000000
急则败 坏事 1.0000000
急则败 严过 0.5000000
急则败 管束 1.0000000
急则败 过 0.0322581
急则败 就 0.0072464
急则败 急 1.0000000
熙鸿号 名声 0.0909091
熙鸿号 流传千古 1.0000000
居其位 官位 0.2500000
居其位 有 0.0084034
王良 是 0.0046083
王良 又 0.0117647
王良 王良 1.0000000
夫世 世上 0.1666667
夫世 要 0.0476190
夫世 说起 0.5000000
卢遵 他 0.0052083
卢遵 卢遵 0.2500000
卢遵 表弟 0.5000000
卢遵 的 0.0008703
寓 到 0.0175439
寓 它 0.0222222
寓 并 0.0250000
寓 心里 0.3333333
寓 把 0.0178571
寓 感受 1.0000000
寓 能 0.0181818
涕泣 眼泪 0.5000000
涕泣 直淌 1.0000000
所惜者 气节 0.5000000
所惜者 所 0.0322581
所惜者 名声 0.0909091
所惜者 是 0.0046083
所惜者 他们 0.0125000
设未 如果 0.0227273
设未 办事 0.2000000
设未 不得 0.1666667
犹将 也 0.0100000
犹将 选拔 0.2500000
犹将 并 0.0250000
之室 坟墓 0.3333333
之室 这是 0.0263158
之室 的 0.0008703
招人过 过失 0.2000000
招人过 揭发 0.3333333
招人过 的 0.0008703
夫庸知 哪里 0.0769231
夫庸知 管 0.5000000
木叶 树木 0.2500000
木叶 的 0.0008703
南飞 南飞 1.0000000
独列于 在 0.0058140
独列于 列名 1.0000000
独列于 卦象 1.0000000
独列于 独能 1.0000000
独列于 中 0.0208333
斯役 这种 0.0344828
斯役 因捕 0.5000000
斯役 带来 0.1250000
斯役 差役 0.2500000
斯役 蛇 0.0833333
没为 便 0.0312500
没为 人质 0.2500000
没为 收为 1.0000000
没为 被 0.0178571
黄泥 过 0.0322581
黄泥 同 0.1250000
黄泥 黄泥 0.3333333
仅得 当政者 1.0000000
挟 追随着 0.5000000
挟 希望 0.0769231
挟 操之过急 0.5000000
不一 不伸 1.0000000
而文 出名 0.2500000
而文 一天 0.1538462
而文 却 0.0243902
而文 比 0.0666667
小石 一块 0.5000000
小石 进去 0.2500000
小石 小石头 0.5000000
甚于 胜过 0.3333333
甚于 谁 0.1111111
甚于 能 0.0363636
百忧感 触及 0.5000000
百忧感 忧虑 0.3333333
百忧感 内心 0.0909091
百忧感 的 0.0008703
百忧感 数不清 0.5000000
有求于 名望 0.5000000
有求于 由于 0.0370370
有求于 而 0.0065359
有求于 追求 0.2000000
在子 在 0.0058140
在子 儿子 0.0666667
在子 辈里 1.0000000
未出 出动 0.5000000
未出 军队 0.1666667
未出 还 0.0333333
未出 没有 0.0126582
无涯之戚 悲哀 0.2500000
无涯之戚 无穷的 0.3333333
无涯之戚 怀着 0.5000000
无涯之戚 就要 0.2000000
无涯之戚 了 0.0034602
邦 仇敌 0.2500000
邦 邦 1.0000000
吾 所处 0.2000000
吾 NULL 0.0036101
吾 我 0.2971888
吾 无益 0.5000000
吾 养育 0.5000000
吾 抚摸 0.3333333
霜露 霜露 0.5000000
霜露 当时 0.0833333
读书 读书 0.2500000
读书 夜里 0.3333333
卢杞 卢杞 1.0000000
以潇飒 雨声 1.0000000
以潇飒 潇潇 1.0000000
以潇飒 和 0.0084034
尽杀 又 0.0117647
尽杀 斩尽杀绝 0.5000000
尽杀 把 0.0178571
父仇 父亲 0.0833333
父仇 杀死 0.3333333
瘘 颈肿 1.0000000
希夷 空寂 1.0000000
希夷 于 0.0526316
希夷 境界 1.0000000
之奸 那样 0.0714286
之奸 奸诈 1.0000000
之奸 的 0.0008703
袁得贤君 贤明 0.1428571
袁得贤君 袁州 0.2000000
袁得贤君 有 0.0084034
袁得贤君 长官 0.3333333
袁得贤君 的 0.0008703
庐陵 是 0.0046083
亲戚 亲戚 1.0000000
亲戚 兄弟 0.3333333
顾而乐 看过 0.5000000
顾而乐 环顾四周 1.0000000
顾而乐 是 0.0046083
顾而乐 高兴 0.2500000
顾而乐 很 0.1052632
顾而乐 以后 0.2000000
顾而乐 感到 0.1000000
暝 洞穴 1.0000000
暝 便 0.0312500
暝 昏黑 1.0000000
暝 的 0.0008703
独以 私人 0.2500000
独以 只是 0.0625000
独以 间 0.3333333
独以 出于 0.5000000
致 取得 0.3333333
二三里 走 0.1000000
二三里 溪水 0.2000000
二三里 二三里 0.5000000
二三里 了 0.0034602
夕阴 夕照 1.0000000
大 大船 1.0000000
大 之多 0.5000000
驰骋 奔放 0.3333333
驰骋 笔锋 1.0000000
专之望 感情 0.5000000
专之望 私下 0.3333333
专之望 您 0.0294118
专之望 不专 1.0000000
专之望 抱怨 0.5000000
专之望 对 0.0312500
犹得 能够 0.0588235
武夫 武夫 1.0000000
武夫 强 1.0000000
宦者 宦官 0.4444444
人君 希望 0.0769231
人君 君主 0.0384615
用之不竭 也 0.0100000
用之不竭 枯竭 1.0000000
用之不竭 享用 0.5000000
用之不竭 不会 0.0714286
用之不竭 从 0.0384615
用之不竭 它们 0.1250000
菜且 开学 1.0000000
致诚 心意 0.2500000
致诚 你 0.0140845
致诚 含着 0.5000000
致诚 才能 0.1250000
致诚 表达 0.3333333
王命 这种 0.0344828
王命 皇帝 0.0312500
王命 去 0.0163934
王命 命令 0.3333333
如此而已 就是 0.0294118
如此而已 如此 0.1000000
如此而已 罢了 0.1250000
温乎 面色 1.0000000
温乎 温和 1.0000000
秦故 已经 0.0333333
秦故 归附 0.5000000
赵师韫 赵师韫 0.1666667
赵师韫 县尉 0.2500000
赵师韫 杀掉 0.2500000
推道 训育 0.5000000
推道 推行 0.2500000
变化 晴朗 0.3333333
变化 事物 1.0000000
变化 千变万化 1.0000000
变化 变化无常 1.0000000
而立 从而 0.1000000
而立 制定 0.2500000
而大遗 东西 0.1428571
而大遗 遗漏 0.5000000
而大遗 却 0.0243902
而大遗 了 0.0034602
清秀 清秀 1.0000000
清秀 显示 0.5000000
清秀 一派 0.5000000
清秀 出 0.1250000
父爽 他 0.0052083
父爽 徐爽 1.0000000
父爽 父亲 0.0833333
父爽 的 0.0008703
以法 办 0.5000000
以法 去 0.0163934
以法 要求 0.1250000
为吾致 替 0.1666667
为吾致 抱怨 0.5000000
为吾致 对 0.0312500
为吾致 我 0.0040161
以求 恭敬 1.0000000
以求 的 0.0008703
以求 以便 0.5000000
竟赖 还是 0.1000000
竟赖 终究 0.5000000
竟赖 最后 0.2500000
竟赖 了 0.0034602
之出 里 0.1666667
之出 田地 0.3333333
之出 交出去 0.5000000
之出 出出进进 0.5000000
之出 的 0.0017406
之出 出产 0.2000000
获 同 0.1250000
字 加字 0.5000000
字 的 0.0008703
徼 为了 0.0666667
然吾尝闻 然而 0.0769231
然吾尝闻 我 0.0040161
然吾尝闻 听说 0.0769231
然吾尝闻 曾 0.1111111
然吾尝闻 风俗习惯 0.5000000
王者 帝王 0.3333333
王者 德行 0.1666667
生纸 写成 0.5000000
生纸 生纸 1.0000000
生纸 用 0.0357143
之道 履行 0.3333333
之道 成 0.3333333
之道 处世之道 0.5000000
之道 的 0.0017406
之道 了 0.0069204
万乘 万乘 0.5000000
万乘 有 0.0084034
万乘 就是 0.0294118
非 消息 0.1666667
非 不是 0.2666667
非 如果 0.0454545
非 不止 0.3333333
非 不 0.0075188
非 不近人情 0.2500000
非 重用 0.0625000
遣 列 1.0000000
遣 派 0.2500000
成之夫 史佚 0.5000000
成之夫 从来不 0.3333333
成之夫 会 0.0172414
成之夫 促成 0.2000000
告于 有关 0.1428571
四国 另外 0.5000000
四国 让 0.0625000
中有 清泉 0.5000000
中有 中间 0.3333333
韩瑗 韩瑗 1.0000000
其流 它 0.0222222
其流 的 0.0008703
其流 因为 0.0769231
谢 NULL 0.0036101
谢 道歉 0.5000000
谢 致意 0.5000000
谢 向 0.0500000
谢 他们 0.0125000
霸 称霸 1.0000000
矢 仪仗 1.0000000
无治 不好 0.2500000
无治 内外 0.5000000
无治 治理 0.1000000
我知 是 0.0046083
我知 我 0.0080321
我知 知道 0.0487805
必能 自然 0.1666667
必能 更难 1.0000000
必能 做到 0.1250000
窈而深 幽静 0.2500000
窈而深 深远 1.0000000
窈而深 盘谷 0.1111111
死忠 死 0.0357143
死忠 君 0.2500000
死忠 而 0.0065359
死忠 要 0.0476190
员外郎 员外郎 1.0000000
刘氏 而后 1.0000000
刘氏 刘邦 0.5000000
圣师 圣王 1.0000000
圣师 师傅 0.5000000
圣师 周朝 0.1250000
圣师 的 0.0008703
安敢 怎敢 0.5000000
大戮 判处死刑 0.3333333
于罪 之罪 0.5000000
于罪 应得 0.3333333
秩 品级 0.6666667
秩 啊 0.0188679
取汝者 起程 0.5000000
取汝者 接 0.2500000
取汝者 去 0.0163934
取汝者 人刚 0.5000000
取汝者 派 0.2500000
之衣 衣服 0.5000000
波涛 在 0.0058140
波涛 波涛 1.0000000
各执 各自 0.3333333
养祸 行动迟缓 0.3333333
养祸 了 0.0034602
悲夫 太 0.2000000
悲夫 可悲 0.3333333
悲夫 了 0.0034602
悲夫 就 0.0072464
悲夫 那 0.0370370
意旨 旨意 0.3333333
意旨 要求 0.1250000
意旨 办学 0.2000000
愚岛 有个 0.0909091
愚岛 愚岛 1.0000000
涵煦于 滋润 1.0000000
涵煦于 哺育 1.0000000
涵煦于 百姓 0.0555556
冀北 冀北 1.0000000
何可 哪能 0.2000000
何可 数得 0.5000000
无贱 贵贱 0.5000000
无贱 的 0.0008703
法 在 0.0058140
法 效法 0.3333333
法 行为 0.1428571
法 违法 0.3333333
法 上 0.0222222
法 国法 0.2857143
当退 斥退 0.2500000
重 严重 0.1666667
重 将会 0.2000000
重 招致 0.5000000
隋 触景生情 0.3333333
隋 人 0.0054645
隋 心情 0.3333333
隋 真实 0.2000000
隋 难道说 0.2500000
其非经 这种 0.0344828
其非经 经典 1.0000000
其非经 背离 0.3333333
功德 皇帝 0.0312500
功德 功德 0.3333333
周师 后周 1.0000000
周师 的 0.0008703
未始 当做 0.2000000
未始 值得 0.2500000
未始 它 0.0222222
未始 忧虑 0.3333333
未始 把 0.0178571
未始 未曾 0.2500000
睢 就是 0.0294118
幸其 这里 0.0625000
幸其 幸逢 0.5000000
幸其 期望 1.0000000
草拂之而色 改变 0.1250000
草拂之而色 青草 0.3333333
草拂之而色 遇到 0.2000000
草拂之而色 就要 0.2000000
之国 贤明 0.1428571
之国 国家 0.0869565
之国 战事 0.5000000
之国 而 0.0065359
之国 领土 0.5000000
之国 等国 0.1666667
之国 的 0.0026110
不然 他 0.0052083
不然 不是 0.0666667
不然 这样 0.0697674
不然 欧阳修 0.3333333
不然 却 0.0243902
不然 是不是 0.2500000
不然 不然的话 1.0000000
宁以义 为 0.0147059
宁以义 宁愿 1.0000000
宁以义 正义 0.1428571
宁以义 而 0.0065359
因 感触 0.3333333
因 按照 0.1428571
因 等国 0.1666667
幸生 贪生 1.0000000
幸生 幸运地 0.3333333
幸生 苟且 0.5000000
幸生 愿意 0.2500000
农不耕收 耕种 0.5000000
农不耕收 收获 1.0000000
农不耕收 农民 1.0000000
农不耕收 无法 0.0833333
考正 它 0.0222222
考正 确定 0.3333333
见利 只是 0.0625000
见利 目光短浅 1.0000000
见利 地 0.0238095
见利 追求 0.2000000
愚沟 我称 0.5000000
愚沟 为 0.0147059
愚沟 愚沟 1.0000000
愚沟 它 0.0222222
若夫 在 0.0116279
若夫 太阳 1.0000000
土燥 干燥 0.5000000
土燥 坚实 0.5000000
土燥 那里 0.0769231
土燥 土地 0.2500000
冤抑 含冤受屈 0.5000000
冤抑 某人 1.0000000
冤抑 指 0.3333333
霏霏 连绵不断 0.5000000
在 书经 0.5000000
在 NULL 0.0072202
在 职位 0.2000000
在 在于 1.0000000
在 的 0.0008703
在 从树间 0.5000000
在 在 0.0406977
在 易经 0.1666667
在 影子 0.5000000
在 音乐 0.2500000
在 落山 0.5000000
在 孙子辈 0.5000000
在 御史台 0.5000000
在 全在 0.5000000
节度 后 0.0294118
节度 就任 0.2500000
节度 节度使 0.6666667
故无贵 无论 0.2500000
故无贵 贵贱 0.5000000
故无贵 地位 0.1428571
故无贵 因此 0.0526316
夫知 遵守 0.2500000
夫知 办法 0.1666667
夫知 囚犯 0.0769231
必免 这才 0.2000000
必免 会 0.0172414
必免 死罪 0.1666667
必免 被 0.0178571
固劳 劳而 1.0000000
固劳 无用 0.3333333
固劳 叫做 0.3333333
固劳 就 0.0072464
秦以 凭借 0.2500000
秦以 秦国 0.0344828
一盂 一碗 0.5000000
一盂 饭 1.0000000
人之有 如同 0.3333333
人之有 人有 0.5000000
其言则 有益 0.5000000
其言则 提出 0.2000000
几时 多久 0.2500000
几时 也 0.0100000
几时 悲痛 0.1428571
几时 有 0.0084034
几时 不会 0.0714286
立于 都 0.0123457
立于 美德 0.5000000
立于 为官 0.3333333
立于 朝 0.2000000
殁 你 0.0140845
殁 去世 0.3076923
殁 的 0.0008703
殁 想到 0.2000000
后代 各地 1.0000000
后代 传于 0.5000000
后代 全国 0.1428571
后代 子孙后代 0.5000000
苏子 提到 0.3333333
苏子 我 0.0080321
苏子 客人 0.0666667
戎行 行伍 1.0000000
乘田 贱职 0.5000000
乘田 过 0.0322581
乘田 做 0.0303030
乘田 曾 0.1111111
乘田 畜牧 1.0000000
觥筹交错 在 0.0058140
觥筹交错 人们 0.0625000
觥筹交错 酒杯 0.1666667
觥筹交错 手中 0.5000000
觥筹交错 和 0.0084034
觥筹交错 传来传去 1.0000000
觥筹交错 酒筹 1.0000000
故齐 强盛 0.3333333
故齐 因此 0.0526316
四年 过 0.0645161
四年 四年 0.7500000
四年 了 0.0069204
青青 郁郁 0.5000000
青青 青青 1.0000000
恶知 哪里 0.0769231
触法 刑律 0.3333333
触法 他 0.0052083
触法 国家 0.0434783
必行 实现 0.3333333
必行 也 0.0100000
必行 要 0.0476190
必行 的话 0.0526316
遗予 带到 0.5000000
遗予 一封信 0.5000000
遗予 给 0.0625000
不闻义 听 0.0833333
不闻义 不到 0.1250000
不闻义 而 0.0065359
不闻义 看见 0.5000000
不闻义 私利 0.2000000
以啮 后 0.0294118
以啮 咬 0.3333333
以啮 蛇 0.0833333
三曰化 是 0.0046083
三曰化 第三 0.5000000
滁人仰 在 0.0058140
滁人仰 人 0.0054645
滁人仰 滁州 0.0909091
吾民 百姓 0.0555556
吾民 以 0.0526316
吾民 讲诵 0.3333333
铭 铭文 1.0000000
俯 俯视 1.0000000
无救 无法挽救 0.5000000
无救 已经 0.0333333
无救 国家 0.0434783
三年 二十三年 1.0000000
归于 回到 0.5000000
归于 将要 0.1250000
一瞬 就会变 1.0000000
一瞬 工夫 0.5000000
今皆为 了 0.0034602
今皆为 夺走 0.5000000
人之惑 去 0.0163934
有志于 材料 0.5000000
冉氏 冉姓 0.5000000
故姓 冉溪 0.2500000
役 遣使 0.2500000
役 贤人 0.0769231
是 无论 0.2500000
是 事实 0.3333333
是 NULL 0.0252708
是 而是 0.1250000
是 像 0.0277778
是 这是 0.1578947
是 因此 0.1052632
是 山谷 0.1428571
是 此种 0.3333333
是 听从 0.3333333
是 这条 0.2500000
是 这东 0.3333333
是 毒蛇 0.5000000
是 冉溪 0.2500000
是 这时 0.0769231
是 起 0.2000000
是 这句 0.2500000
是 到处 0.2500000
是 这年 0.5000000
是 争夺 0.2500000
是 做法 0.2500000
是 就是 0.0294118
是 门庭 0.2500000
是 之道 0.2000000
是 说来 0.2500000
是 这类 0.3333333
是 此处 0.5000000
是 的 0.0034813
是 嫂嫂 0.1428571
是 这 0.2025316
是 安家 0.2500000
成长 成长 0.5000000
成长 他们 0.0125000
惟 计策 0.3333333
惟 只想 0.5000000
惟 NULL 0.0072202
惟 只有 0.3846154
惟 四代 0.3333333
惟 嫂嫂 0.1428571
惟 条心 0.5000000
惟 才 0.0285714
惟 就 0.0144928
旌 受到 0.0714286
旌 表彰 0.3750000
留守 都 0.0123457
留守 留守 0.5000000
留守 东 0.2000000
州牧 该州 1.0000000
州牧 的 0.0008703
湃 响声 0.5000000
周六 叫 0.1250000
周六 周六 0.5000000
周六 的 0.0008703
嘉其 赏识 0.5000000
之去 回乡 0.3333333
惟江 上 0.0222222
惟江 那江 0.5000000
惟江 只有 0.0769231
作 洪范 0.5000000
作 八愚 0.5000000
作 了 0.0069204
多才士 确实 0.0500000
多才士 之士 0.2000000
多才士 真才实学 0.2000000
多才士 很多 1.0000000
多才士 有 0.0084034
囚禁 起来 0.1666667
囚禁 都关 1.0000000
囚禁 知名人士 0.3333333
恃 隐身 0.2500000
恃 可靠 0.2500000
予之知生 了解 0.1111111
予之知生 你 0.0140845
予之知生 对 0.0312500
予之知生 我 0.0040161
予之知生 的 0.0008703
抱 守门 0.3333333
抱 怀抱 0.2500000
既安 安静 1.0000000
既安 坚固 0.5000000
既安 又 0.0117647
谏 官为 0.3333333
谏 君主 0.0384615
谏 谏 0.2000000
谏 献策 0.5000000
处 长远 0.3333333
处 身处 0.6666667
务记览 努力 0.3333333
务记览 阅览 1.0000000
务记览 和 0.0084034
务记览 地 0.0238095
务记览 记诵 1.0000000
君 怜悯 0.1666667
自愚 从 0.0384615
谁 呢 0.0277778
谁 是 0.0046083
谁 亭子 0.2857143
谁 谁 0.2777778
故为 君主 0.0384615
故为 所以 0.0344828
故为 述说 0.5000000
军 军 0.3333333
不通 政事 0.5000000
不通 不好 0.2500000
不通 处理 0.1428571
不通 碰到 0.3333333
不通 的 0.0017406
二三 两三家 1.0000000
司法 参军 0.5000000
司法 府 1.0000000
既望 那天 1.0000000
既望 十六 0.5000000
以应 个 0.2000000
以应 应付 0.3333333
以应 胡乱 0.5000000
以应 说 0.0085470
以应 日期 0.2000000
天为 共存 0.5000000
吾国 国土 0.3333333
吾国 自己 0.0185185
吾国 逃出 0.3333333
吾国 的 0.0008703
以义 大义 0.6666667
孙子 孙子 1.0000000
宴酣 乐趣 0.1000000
宴酣 高潮时 0.5000000
宴酣 宴会 1.0000000
应夫 情况 0.1666667
应夫 应付 0.3333333
应夫 所有 0.5000000
应夫 就 0.0072464
多石 多 0.2000000
多石 奇石 0.5000000
多石 少 1.0000000
天命 敬畏 0.5000000
天命 上天 0.2000000
天命 天命 0.6666667
天命 的 0.0008703
盖 哀告 0.5000000
盖 性情 0.3333333
盖 大概 0.2857143
盖 NULL 0.0180505
盖 制定 0.2500000
盖 河道 0.5000000
盖 不得不 1.0000000
盖 贤臣 1.0000000
盖 逐渐 0.2500000
盖 愈 0.2500000
不拘 所 0.0322581
不拘 拘束 1.0000000
不拘 不 0.0075188
不拘 时俗 0.5000000
不拘 被 0.0178571
今人 当代 0.3333333
今人 和 0.0084034
今人 名士 0.5000000
撰书 乌 0.1666667
从 NULL 0.0036101
从 跟随 0.2000000
从 无力 0.3333333
从 其事 0.5000000
从 随着 0.2000000
从 会 0.0172414
为常者 作为 0.0625000
为常者 国家 0.0434783
为常者 常法 0.2500000
为常者 的 0.0008703
伺候 依附 1.0000000
伺候 在 0.0174419
伺候 门下 0.2000000
伺候 伺候 0.7500000
事白 刘梦得 1.0000000
事白 告诉 0.0769231
事白 困难 0.5000000
不折 转身 0.5000000
不折 怎能不 0.5000000
壬戌 便 0.0312500
兴 建国 0.3333333
兴 兴云布雨 0.5000000
之下 下 0.1250000
之下 亭 0.3333333
之下 草野 0.5000000
之下 游览 0.2000000
之下 之下 0.2000000
汴州 汴州 1.0000000
尚存 还 0.0333333
尚存 蛇 0.0833333
尚存 捕捉 0.5000000
尽吾齿 有生之年 0.5000000
尽吾齿 我 0.0040161
尽吾齿 度过 0.2500000
尽吾齿 的 0.0008703
郯子 弘 1.0000000
之制 和 0.0084034
之制 礼 0.0909091
之制 制定 0.2500000
之制 刑法 0.1000000
故何 其 0.1250000
故何 呢 0.0138889
故何 是 0.0046083
故何 什么 0.1000000
故何 这是 0.0263158
故何 原因 0.1818182
禽鸟 在 0.0116279
禽鸟 鸟儿 0.6666667
其时 怜悯 0.1666667
女祸者 造成 0.3333333
相识 如同 0.3333333
相识 认识 0.5000000
相识 不曾 1.0000000
相识 白眼相看 0.5000000
尔后 你 0.0140845
尔后 君主 0.0384615
尔后 告诉 0.0769231
尔后 的 0.0008703
以记 事 0.0434783
以记 篇文章 0.1428571
以记 这件 0.1111111
所在 一方 0.5000000
所在 各据 1.0000000
山之僧 是 0.0046083
山之僧 僧人 1.0000000
山之僧 山上 0.5000000
山之僧 的 0.0008703
地之角 在 0.0058140
地之角 地角 0.5000000
背圣 训诲 1.0000000
背圣 圣人 0.0555556
背圣 做法 0.1250000
背圣 违背 0.1666667
先人 后嗣 0.2500000
先人 祖先 1.0000000
先人 的 0.0026110
设方计 替 0.1666667
设方计 欠债人 0.5000000
设方计 想方设法 1.0000000
其力 他 0.0052083
其力 依靠 0.2222222
其力 力量 0.3333333
其力 的 0.0017406
以示 缘故 0.1111111
以示 这种 0.0344828
以示 意思 0.1666667
以示 暗示 0.2500000
以示 就是 0.0294118
恒无变 改变 0.1250000
恒无变 希望 0.0769231
恒无变 初衷 1.0000000
恒无变 永远 0.3333333
恒无变 不要 0.1428571
为华 也 0.0100000
为华 那样 0.0714286
为华 像 0.0277778
为华 发展 0.2500000
为华 少数民族 0.5000000
为华 中土 1.0000000
人君者 君主 0.0769231
人君者 当 0.0666667
人君者 做 0.0303030
人君者 的 0.0017406
土 当地 0.1666667
退而喜 非常高兴 0.5000000
退而喜 告辞 0.3333333
退而喜 回来 0.0666667
两山 环绕 0.3333333
两山 山 0.1666667
两山 中间 0.3333333
棺 凭吊 0.5000000
棺 棺木 0.5000000
棺 旁 0.5000000
以书至 带到 0.5000000
以书至 四川 0.5000000
以书至 写 0.0476190
以书至 从 0.0384615
以书至 了 0.0034602
醉能 醉 0.5000000
醉能 了 0.0034602
以阴助 在 0.0058140
以阴助 解决 0.1666667
以阴助 两国 0.5000000
以阴助 暗地里 1.0000000
叶 桐树 1.0000000
复仇 复仇 0.3750000
而腊 后 0.0294118
而腊 捉到 0.5000000
而腊 它 0.0222222
从事 陈子昂 0.2500000
从事 的 0.0008703
从事 僚属 1.0000000
建中 建中 1.0000000
见天 天 1.0000000
见天 则 0.3333333
见天 看过 0.5000000
见天 时 0.0175439
其为惑 他 0.0052083
其为惑 疑难 0.0909091
其为惑 的 0.0008703
应 却 0.0243902
应 应声 0.5000000
应 啊 0.0188679
应 根源 0.2000000
应 答应 0.5000000
应 总是 0.2000000
无酒 酒 0.0909091
无酒 没有 0.0126582
无酒 却 0.0243902
无酒 客人 0.0666667
丰成 而 0.0065359
延于 一直 0.2000000
而忧 衰落 0.3333333
共乐 安乐 1.0000000
之斥 他 0.0052083
之斥 卢遵 0.2500000
之斥 跟着 0.3333333
曾 伯祖 0.5000000
曾 仅仅 0.3333333
曾 一眨眼 0.5000000
勉乎 努力 0.3333333
勉乎 吧 0.1333333
勉乎 好自为之 0.5000000
外 外面 0.2500000
决去 从而 0.1000000
决去 定夺 0.5000000
理乱 了解 0.1111111
理乱 既 0.5000000
理乱 治乱 0.5000000
理乱 政局 0.5000000
理乱 去 0.0163934
交相 才 0.0285714
依 嫂嫂 0.1428571
南方 在 0.0058140
南方 南方 1.0000000
乃能 才能 0.1250000
宽厚 宽厚 1.0000000
不变 操行 1.0000000
不变 准则 0.2000000
不变 不变 0.5000000
无益 但是 0.1250000
无益 无益 0.5000000
句读 不能 0.0212766
句读 断句 0.2500000
句读 读书 0.2500000
中人 迎合 0.1666667
中人 善行 0.5000000
余年 晚年 0.5000000
余年 我 0.0040161
余年 度过 0.2500000
余年 来 0.0227273
无事 幸运地 0.3333333
可见 可以 0.0357143
可见 经书 0.3333333
可见 顾虑 0.3333333
可见 的 0.0008703
祝辞 拜谢 1.0000000
祝辞 祝辞 1.0000000
絷 束缚 0.2500000
林壑 树木 0.2500000
巴陵郡 任 1.0000000
巴陵郡 太守 0.1000000
巴陵郡 巴陵郡 0.2500000
蜉蝣 着 0.0250000
蜉蝣 一样 0.0833333
蜉蝣 短促 0.5000000
蜉蝣 蜉蝣 0.5000000
同道 志同道合 0.6666667
同道 因 0.1428571
同道 才 0.0285714
十五年 元和 0.2000000
十五年 于 0.0526316
十五年 十五年 1.0000000
折首 掉 0.5000000
折首 了 0.0034602
壮 豪壮 1.0000000
潺潺 潺潺 0.3333333
潺潺 流水声 1.0000000
潺潺 的 0.0008703
入人 深入人心 0.2500000
入人 愈 0.2500000
从者 随从 1.0000000
从者 的 0.0008703
而耻 为耻 0.2500000
而耻 从师 0.1428571
而耻 以 0.0526316
而耻 却 0.0243902
法授 圣君 0.3333333
法授 法典 0.4000000
法授 传授给 0.5000000
不足 奢望 0.3333333
不足 值得 0.5000000
不足 不 0.0150376
不足 荒诞 0.3333333
善知 周公辅 1.0000000
其囚 规定 0.1666667
其囚 到 0.0175439
见于 好多年 0.2500000
见于 已经 0.0333333
见于 认识 0.5000000
吊汝之 你 0.0140845
吊汝之 慰问 1.0000000
鱼虾 鱼虾 0.3333333
鱼虾 做伴 1.0000000
朝鲜 后 0.0294118
朝鲜 朝鲜 1.0000000
朝鲜 封到 0.3333333
左右 上下左右 0.5000000
左右 我 0.0080321
左右 一次 0.1666667
左右 左右 1.0000000
无乎 是 0.0046083
无乎 没有 0.0126582
无乎 果真 0.3333333
无乎 吗 0.0217391
而序 序文 1.0000000
而序 诗意 1.0000000
而序 而作 0.5000000
而序 这篇 1.0000000
而序 了 0.0034602
穷 困境 1.0000000
虎狼 虎狼 0.3333333
虎狼 去 0.0163934
虎狼 一般 0.1428571
不求 求 0.5000000
不求 名声 0.0909091
不求 不 0.0075188
家人 你家 0.5000000
家人 NULL 0.0036101
家人 向 0.0500000
小弱弟 年幼 0.2500000
小弱弟 弟弟 0.5000000
小弱弟 叶子 0.5000000
小弱弟 给 0.0625000
小弱弟 一个 0.0294118
小弱弟 的 0.0017406
善良 熏陶 1.0000000
卷 卷 1.0000000
其理 其中 0.1428571
大道 之道 0.2000000
大道 正道 0.3333333
恶为 厌恶 0.2000000
万顷 无边 1.0000000
加入 东西 0.1428571
加入 接受 0.2000000
加入 强迫 0.5000000
加入 不要 0.1428571
加入 正直 0.2500000
亦 NULL 0.0036101
亦 也 0.2000000
亦 远远 0.3333333
亦 暗自 0.3333333
亦 太过分 0.5000000
亦 自慰 0.2500000
亦 十九年 1.0000000
连州 梦 0.5000000
连州 连州 0.5000000
连州 刺史 0.2000000
后天下之乐而乐 后天下之乐而乐 1.0000000
赖 人 0.0054645
赖 也 0.0100000
赖 这些 0.0588235
赖 因此 0.0526316
赖 在精神上 0.5000000
旅食 谋生 0.5000000
旅食 旅居 0.5000000
旅食 去 0.0163934
相称 称道 0.3333333
未知 她 0.3333333
未知 懂得 0.0909091
未知 没有 0.0126582
未知 却 0.0243902
未知 话 0.1000000
未知 中 0.0208333
有言 呢 0.0138889
有言 古书 0.3333333
有言 深恩 1.0000000
河阳 河阳 0.8333333
而南 去 0.0163934
而南 曲曲折折 0.5000000
特 只不过 0.5000000
特 是 0.0046083
六二 这么 0.3333333
六二 说 0.0085470
六二 爻 0.5000000
六二 又 0.0117647
六二 爻辞 0.5000000
六二 六二 1.0000000
六二 中 0.0208333
居民 居民 1.0000000
未若 还 0.0333333
未若 比不上 0.2500000
以成 事 0.0434783
以成 以 0.0526316
以成 促成 0.2000000
以成 来 0.0227273
以成 从中 0.2500000
若毒 事 0.0434783
若毒 怨恨 0.3333333
若毒 你 0.0140845
若毒 捕蛇 0.2000000
若毒 这件 0.1111111
举 服从 0.5000000
举 办 0.5000000
举 推荐 0.2500000
举 成王 0.1250000
举 促成 0.2000000
举 的话 0.0526316
西出 其中 0.1428571
西出 向西 0.5000000
若日 不 0.0150376
若日 如果说 0.3333333
观史 人 0.0054645
观史 䲡 0.5000000
观史 看史 1.0000000
阴公 阴公 1.0000000
阴公 为济 0.5000000
夫达 通达事理 0.3333333
尹 尹起 1.0000000
恨 感到遗憾 0.5000000
恨 也 0.0100000
虽重 罪上加罪 0.5000000
虽重 尽管 0.5000000
坚 茁壮 1.0000000
人主者 人 0.0054645
人主者 君主 0.0384615
人主者 的 0.0008703
途 在 0.0058140
李 觏 0.3333333
游 他 0.0052083
游 交往 0.2000000
游 同 0.1250000
失 职务 0.3333333
失 丢掉 1.0000000
失 了 0.0034602
悲 NULL 0.0036101
悲 悲伤 0.2500000
悲 悲痛欲绝 0.5000000
平地 平地 1.0000000
以事 因要 1.0000000
苌 郯子 0.5000000
商 商 1.0000000
见 国武子 0.2000000
见 显现出 0.3333333
见 才能 0.1250000
见 超人 0.5000000
见 细微 1.0000000
见 从中 0.2500000
见 被 0.0178571
见 眼管 0.5000000
见 杀 0.1111111
见 见到 0.2500000
见 所以 0.0344828
既得 心中有数 0.3333333
既得 已经 0.0333333
既得 了 0.0034602
其下 远远 0.3333333
其下 低于 0.3333333
其下 他们 0.0125000
昔时 好 0.0666667
昔时 从前 0.2500000
昔时 屠狗者 0.3333333
昔时 豪杰 0.3333333
昔时 的 0.0008703
两世 两代 1.0000000
愚池 水池 1.0000000
愚池 称为 0.1428571
愚池 愚池 0.6666667
愚池 形成 0.0833333
率常屈 驳倒 0.5000000
率常屈 经常 0.1666667
率常屈 的 0.0008703
遇汝从 你 0.0140845
遇汝从 遇到 0.2000000
遇时 着 0.0250000
不幸 不幸 1.0000000
不幸 万一 0.5000000
秋实 生长 0.2000000
秋实 结实 0.5000000
秋实 秋天 0.1428571
溯流 逆流而上 0.5000000
攻人 国 0.2000000
攻人 攻打 0.1666667
攻人 去 0.0163934
攻人 魏 0.0357143
攻人 因为 0.0769231
攻人 韩 0.0588235
攻人 别人 0.0625000
攻人 穿越 1.0000000
病 改变 0.1250000
病 脚气病 0.3333333
病 纠正 0.5000000
病 不堪 0.3333333
虽然 尽管如此 1.0000000
河东 先生 0.0303030
河东 河东 0.5000000
自安之计 自己 0.0185185
自安之计 保全 0.1111111
自安之计 策略 1.0000000
比 细小 0.5000000
比 NULL 0.0036101
比 我 0.0040161
比 比起 0.5000000
比 仅 1.0000000
下 下 0.2500000
下 幕府 1.0000000
下 之下 0.2000000
下 到 0.1052632
下 推广 0.2500000
下 拿下 0.2500000
下 下面 0.4000000
下 往下走 0.3333333
议 奏议 0.2000000
议 按照 0.1428571
议 处理 0.1428571
议 陈子昂 0.2500000
议 来 0.0227273
悉令 全部 0.1666667
悉令 来 0.0227273
悉令 子女 0.5000000
生 初到 0.3333333
生 我 0.0080321
生 温生 0.2000000
生 活着 0.2000000
经史百子 诸子百家 1.0000000
经史百子 史书 0.3333333
经史百子 和 0.0084034
经史百子 经籍 1.0000000
邪 出山 0.5000000
邪 小弟弟 0.1666667
邪 风俗 0.2000000
邪 呢 0.0416667
邪 马群 0.1666667
邪 政绩 0.5000000
邪 君臣 0.3333333
邪 吗 0.0869565
百工 手工业者 0.3333333
百工 各种 0.6666667
静影沉璧 璧玉 1.0000000
静影沉璧 浮沉 1.0000000
静影沉璧 如 0.3333333
静影沉璧 月影 1.0000000
望 看得 0.5000000
望 遥望 0.5000000
望 站 0.3333333
无情 感情 0.5000000
无情 是 0.0046083
无情 没有 0.0126582
无情 的 0.0008703
辞歌 歌唱 0.3333333
辞歌 写 0.0476190
辞歌 诗来 0.3333333
辞歌 的 0.0008703
议以克合 一致 0.3333333
议以克合 意见 0.2000000
议以克合 人 0.0054645
议以克合 两个 0.1428571
议以克合 的 0.0008703
范 起 0.2000000
可知 所致 0.3333333
可知 缘由 0.3333333
可知 预料 0.2500000
不闻 听 0.1666667
不闻 信息 0.3333333
不闻 的 0.0017406
不闻 号令 0.5000000
渚 沙洲 0.3333333
渚 上 0.0222222
在野 隐居 0.1666667
在野 与 0.0625000
在野 一样 0.0833333
在野 在野 1.0000000
在野 时 0.0175439
诚仁 可以 0.0357143
诚仁 确实 0.1000000
诚仁 仁人 1.0000000
诚仁 算是 0.1666667
四海 天下 0.0357143
四海 了 0.0034602
四海 统一 0.3333333
八元 八元 0.5000000
莫能定 条溪 0.5000000
莫能定 这 0.0126582
畴昔 昨夜 0.5000000
子蟠 青年 1.0000000
子蟠 名叫 0.2500000
子蟠 蟠 1.0000000
之奠 祭品 0.5000000
之奠 美的 0.5000000
小丘 小丘 0.5000000
小丘 买 1.0000000
小丘 我 0.0040161
小丘 了 0.0034602
白章 白色 0.5000000
白章 长着 1.0000000
白章 花纹 0.5000000
白章 身上 0.5000000
耸 高耸 0.5000000
自解 您 0.0294118
自解 表示 0.2500000
自解 误会 0.5000000
自解 解释 0.2500000
知志乎 只 0.0833333
知志乎 有志于 0.5000000
知志乎 道义 0.1250000
知志乎 知道 0.0243902
纵使 放 0.3333333
纵使 回家 0.1666667
之上 在 0.0116279
之上 升起 0.5000000
之上 岸边 0.3333333
之上 几顷 0.5000000
之上 上 0.0222222
而释 释放出来 1.0000000
而释 解除 0.2000000
而释 囚禁 0.5000000
而释 全部 0.1666667
若加 好像 0.0434783
若加 是 0.0046083
若加 接待 0.3333333
穷尽 透彻 0.5000000
穷尽 能 0.0181818
人之不义 不 0.0075188
人之不义 安定 1.0000000
人之不义 民生 1.0000000
时致 祭祀 0.5000000
时致 按时 1.0000000
绿缛而 青草 0.3333333
绿缛而 茂盛 0.2500000
绿缛而 本来 0.1428571
绿缛而 绿油油 1.0000000
而善 然而 0.0769231
而善 映照 0.5000000
患无仲 怕 0.5000000
患无仲 没有 0.0126582
患无仲 管仲 0.0400000
患无仲 就 0.0072464
并示 看看 0.3333333
并示 并 0.0250000
正卯 应该 0.0344828
正卯 除掉 0.2500000
正卯 少正卯 0.5000000
下臣 啊 0.0188679
东野 在 0.0058140
东野 但是 0.1250000
东野 是 0.0046083
东野 信 0.2000000
东野 孟东野 0.5000000
东野 给 0.0625000
东野 或者 0.3333333
书册 好 0.0666667
书册 书籍 1.0000000
众谓 都 0.0123457
众谓 大家 0.1111111
众谓 柳家 0.5000000
先乎 如果 0.0227273
先乎 早 0.3333333
先乎 比 0.0666667
草茅 普通百姓 1.0000000
零丁孤苦 零丁孤苦 1.0000000
俯而 他 0.0052083
俯而 俯听 0.5000000
俯而 低着头 0.5000000
陷于 判处死刑 0.3333333
陷于 被 0.0178571
陷于 的 0.0008703
陷于 构成 0.5000000
旷 旷废 1.0000000
旷 的 0.0008703
凡六穴 泉眼 1.0000000
凡六穴 共有 1.0000000
凡六穴 六个 0.5000000
伎 姿态 0.5000000
无朋 朋党 0.0416667
无朋 没有 0.0253165
拜公于 在 0.0058140
拜公于 乌公 0.2000000
拜公于 军门 0.5000000
拜公于 拜见 0.1666667
文 有名 0.3333333
文 越来越 0.2000000
文 的 0.0008703
文 晋文公 0.3333333
波澜不惊 浪静 1.0000000
波澜不惊 风停 1.0000000
光耀 金光 1.0000000
光耀 闪烁 0.5000000
光耀 似 1.0000000
言 字 0.6666667
言 有些 0.3333333
言 说来 0.2500000
言 的话 0.0526316
言 接受批评 0.5000000
言 说 0.0085470
言 写 0.1428571
言 几句话 0.5000000
言 开口 0.3333333
言 这番话 0.2500000
言 时 0.0175439
履 脚踏 1.0000000
观夫 巴陵郡 0.2500000
观夫 的 0.0008703
故在易 易经 0.1666667
故在易 所以 0.0344828
故在易 上 0.0222222
以蔽 屏障 0.5000000
强 笑 0.3333333
强 仰慕 0.2500000
强 说 0.0085470
汝来 你 0.0140845
汝来 来看 0.2000000
来往 往来 0.2500000
来往 告别 0.2000000
来往 朋友 0.2000000
求 要说 1.0000000
求 去 0.0163934
智仙 智仙 0.5000000
不作于 日 0.1428571
不作于 在 0.0058140
不作于 发生 0.1428571
不作于 并 0.0250000
凡 当官 0.5000000
凡 凡是 0.5000000
凡 这 0.0126582
凡 的 0.0008703
眷慕 眷恋 1.0000000
困于 周郎 1.0000000
必离乎 一定 0.0500000
必离乎 背离 0.3333333
必离乎 又 0.0117647
必离乎 会 0.0172414
忧 NULL 0.0036101
忧 担忧 0.3333333
忧 为 0.0294118
忧 会 0.0344828
使晋 如果 0.0227273
使晋 晋朝 1.0000000
进 马上 1.0000000
进 您 0.0588235
进 NULL 0.0072202
进 召见 0.5000000
进 去 0.0163934
进 拜见 0.1666667
进 就 0.0072464
礼 武器 0.5000000
礼 礼 0.2727273
礼 礼制 0.5000000
礼 对礼 0.3333333
浊浪 浊浪 1.0000000
非成 不是 0.0333333
非成 完成 0.1666667
非成 并 0.0250000
虽多 再 0.0909091
虽多 多 0.2000000
虽多 由于 0.0370370
虽多 这是 0.0263158
之中 中央 0.5000000
之中 之中 0.0909091
之中 的 0.0008703
凶者 是 0.0046083
凶者 危害 0.3333333
凶者 有 0.0084034
凶者 来说 0.1666667
之兆 你 0.0140845
之兆 葬 1.0000000
之兆 到 0.0175439
之兆 河阳 0.1666667
伤 就是 0.0294118
伤 伤 1.0000000
叛晋 晋国 0.3333333
叛晋 背叛 0.5000000
叛晋 们 0.0769231
凛乎 得 0.0500000
凛乎 我 0.0040161
凛乎 吓 0.5000000
横江 横穿 1.0000000
横江 的 0.0008703
争子 你 0.0140845
争子 有 0.0084034
争子 来争 1.0000000
之速 快 1.0000000
之速 速度 0.3333333
之速 愈 0.2500000
夺 权力 0.5000000
尝例 子厚 0.0384615
尝例 按例 0.3333333
尝例 曾 0.1111111
明哲 头脑 0.3333333
恶 能够 0.0588235
同 与 0.0625000
同 同路 0.5000000
岳阳楼 岳阳楼 0.3333333
惑 真是 0.2500000
惑 这 0.0126582
惑 大惑不解 0.5000000
惑 令人 0.1666667
惑 疑难 0.1818182
公相 宰相 0.1250000
公相 车辆 0.5000000
公相 公卿 0.5000000
公相 职位 0.2000000
赋敛 苛捐杂税 0.3333333
状 情景 0.3333333
状 的 0.0008703
适有 正好 0.5000000
口 想 0.0909091
若此 如果 0.0227273
若此 这样的话 1.0000000
争妍 争艳 1.0000000
争妍 竞美 0.5000000
其言 自己 0.0185185
其言 NULL 0.0036101
其言 建议 0.2500000
其言 沉默寡言 0.5000000
其言 批评 0.5000000
其言 提出批评 0.5000000
其言 她 0.3333333
其言 连续不断 0.5000000
视其 看一看 1.0000000
视其 装蛇 0.5000000
视其 瓦罐 1.0000000
后者 后嗣 0.2500000
后者 延误 0.2500000
后者 人 0.0054645
后者 后面 0.2000000
后者 应声 0.5000000
后者 的 0.0008703
二公 山 0.1666667
不可 不可估量 0.3333333
不可 立即 0.2000000
不可 说完 0.5000000
不可 推究 0.3333333
不可 不能 0.0851064
不可 保全 0.1111111
不可 可能 0.1666667
不可 不 0.0225564
不可 常法 0.2500000
不可 天子 0.2500000
不可 驶入 0.3333333
不可 志向 0.5000000
不可 得当 0.2500000
不可 实行 0.1666667
不可 停留 0.3333333
不可 的 0.0034813
不可 不可 0.3333333
不可 国君 0.2000000
不可 江景 0.5000000
不可 预先 0.5000000
不及 都 0.0123457
不及 这些 0.0588235
不及 比不上 0.2500000
不及 他力 0.5000000
不及 的 0.0008703
其信然 大概 0.1428571
其信然 是 0.0092166
其信然 真的 0.5000000
其信然 难道 0.0833333
其信然 这 0.0253165
壮隽伟 回味无穷 1.0000000
壮隽伟 气势雄伟 0.5000000
壮隽伟 而 0.0065359
出入 出入 0.3333333
出入 融会贯通 1.0000000
无乃伤 未免 1.0000000
无乃伤 有点 0.5000000
巫医 巫师 1.0000000
起拜 起身 1.0000000
起拜 这番 1.0000000
殄 中断 0.5000000
殄 世系 1.0000000
殄 没有 0.0126582
其初 他 0.0052083
其初 的 0.0008703
吞 吞 1.0000000
坟墓 坟墓 0.3333333
坟墓 先人 0.5000000
坟墓 拜谒 1.0000000
请 NULL 0.0036101
请 法令 0.3333333
请 并 0.0500000
请 聘请 0.3333333
请 请 0.3333333
夫子 危害 0.3333333
夫子 对 0.0312500
夫子 这 0.0126582
夫子 士大夫 0.2000000
无君者 他 0.0052083
无君者 去 0.0163934
无君者 重用 0.0625000
无君者 明君 0.5000000
以贻之 他 0.0052083
以贻之 赠给 0.5000000
以贻之 来 0.0227273
沐浴 洗澡 1.0000000
劳其形 他 0.0052083
劳其形 着 0.0250000
劳其形 琐事 1.0000000
劳其形 劳累 1.0000000
劳其形 身体 0.1666667
其物 拿 0.1428571
其物 着 0.0250000
其物 物品 1.0000000
先天下之忧而忧 先天下之忧而忧 1.0000000
之不贤 要不是 1.0000000
之不贤 贤人 0.0769231
若不接 好像 0.0434783
若不接 我 0.0040161
若不接 理会 0.5000000
塞其隘 堵住 1.0000000
塞其隘 通道 1.0000000
塞其隘 水流 0.3333333
不以 而 0.0130719
不以 兴高采烈 0.5000000
不以 因为 0.0769231
清莹 清澈 0.2500000
清莹 溪水 0.2000000
秦而 后 0.0294118
秦而 就 0.0072464
横当 石横 1.0000000
兴理 人来 0.5000000
兴理 治理 0.1000000
兴理 会 0.0172414
兴理 周王 1.0000000
兴理 将 0.0666667
兴理 依靠 0.1111111
兴理 什么 0.0500000
兴理 国家 0.0434783
专而忍 专横 0.3333333
专而忍 凶残 0.5000000
专而忍 而 0.0065359
专而忍 内心 0.0909091
废退 受到牵连 0.5000000
废退 贬谪 1.0000000
废退 废弃 0.5000000
废退 而 0.0065359
废退 遭到 1.0000000
非人 不是 0.0333333
非人 居住 0.5000000
非人 中原 1.0000000
自慰 写作 0.3333333
自慰 自慰 0.2500000
自慰 来 0.0227273
陈者 面前 0.5000000
敌国 敌国 0.5000000
敌国 互为 1.0000000
恐惧 诚惶诚恐 1.0000000
亡身 丧身 1.0000000
亡身 也 0.0100000
亡身 要 0.0476190
愚人 愚人 0.2500000
而名 条溪 0.5000000
而名 而 0.0065359
览 触景生情 0.3333333
览 当 0.0666667
览 时 0.0175439
览 他们 0.0125000
不忘仇 不忘 1.0000000
不忘仇 父仇 1.0000000
小子后生 后辈 1.0000000
小子后生 年轻 0.1428571
小子后生 的 0.0008703
人愿 解除 0.2000000
人愿 是 0.0046083
人愿 他们 0.0125000
尤美 和 0.0084034
尤美 尤其 0.5000000
尤美 美好 0.1428571
尤美 山谷 0.1428571
舜佐尧 辅佐 0.3333333
舜佐尧 尧 0.2000000
舜佐尧 舜 0.1111111
国之臣 三千个 0.2500000
国之臣 全国 0.1428571
国之臣 的 0.0008703
八日 八日 0.5000000
择师 选择 0.2500000
择师 老师 0.0769231
择师 来教 1.0000000
择师 就 0.0072464
虽谏 他 0.0052083
虽谏 意见 0.2000000
虽谏 虽然 0.0666667
铮铮 叮叮当当 1.0000000
获免 死罪 0.1666667
以人钺 以 0.0526316
以人钺 身份 0.3333333
愤发 便 0.0312500
愤发 怒吼 0.5000000
愤发 呼啸 1.0000000
官以 官为 0.3333333
官以 谏议 0.2500000
如此 这个 0.0400000
如此 本来 0.1428571
如此 样子 0.3333333
如此 孩子 0.1666667
如此 可是 0.0666667
如此 往往 0.5000000
如此 深入人心 0.2500000
如此 行事 0.5000000
如此 的 0.0008703
如此 他 0.0052083
如此 确实 0.0500000
如此 怎样 0.5000000
如此 用心 0.3333333
如此 却是 1.0000000
可冀其 希望 0.0769231
可冀其 怎么 0.0714286
可冀其 成人 1.0000000
可冀其 立业 1.0000000
故 NULL 0.0036101
故 所以 0.2068966
故 旧时 1.0000000
故 因此 0.1578947
而外 人 0.0054645
而外 而 0.0065359
而外 阿谀奉承 1.0000000
隐忍 自己 0.0185185
隐忍 箕子 0.0769231
隐忍 保全 0.1111111
隐忍 忍辱 0.5000000
寤 惊醒 0.5000000
得罪 得罪 0.5000000
得罪 罪上加罪 0.5000000
得罪 非难 1.0000000
得罪 的 0.0017406
患有 有 0.0084034
患有 不怕 0.2000000
无告 无门 0.3333333
夫贤而辱 这里 0.0625000
夫贤而辱 到 0.0175439
夫贤而辱 为了 0.0666667
夫贤而辱 安慰 0.3333333
夫贤而辱 被 0.0178571
人风者 民情 0.5000000
人风者 考察 0.3333333
人风者 民风 0.5000000
人风者 用来 0.1666667
之臣 组成 0.2500000
之臣 的 0.0017406
之臣 平日 0.5000000
可不 君主 0.0384615
可不 不 0.0150376
可不 警惕 0.5000000
可不 令人 0.1666667
可不 吗 0.0434783
可不 能 0.0363636
例出 为州 1.0000000
例出 外放 0.5000000
例出 牵连 1.0000000
赠 临别赠言 0.5000000
名节 珍惜 1.0000000
名节 和 0.0084034
名节 的 0.0008703
出游 他 0.0052083
出游 出去 0.2500000
出游 一道 0.3333333
出游 游玩 0.5000000
救 局面 0.2500000
救 由谁来 1.0000000
救 混乱 1.0000000
救 救援 0.5000000
救 解救 0.5000000
柳州 往 0.5000000
柳州 柳州 0.2500000
柳州 派 0.2500000
柳州 被 0.0178571
手足 桓公 0.0769231
手足 住 0.1666667
手足 手脚 0.3333333
手足 的 0.0008703
黔 所住 1.0000000
黔 灶 1.0000000
黔 烟囱 1.0000000
黔 一地 1.0000000
黔 之处 1.0000000
黔 熏黑 1.0000000
黔 上 0.0222222
黔 不及 1.0000000
闾 他 0.0052083
闾 在 0.0058140
闾 家乡 0.3333333
之德 帝王 0.3333333
之德 智谋 0.2500000
之德 准则 0.2000000
之德 的 0.0017406
而元庆能 而 0.0065359
十无一 十家 0.2500000
十无一 难得 0.2500000
十无一 中 0.0208333
始来 初次 0.5000000
理势 情理 0.5000000
理势 和 0.0084034
自持 能够 0.0588235
自持 自身 0.2000000
自持 约束 0.2500000
置 奇石 0.5000000
滁于 滁州 0.0909091
韩亲 优厚 0.3333333
韩亲 用 0.0357143
听泉 之声 0.2500000
听泉 泉水 0.1111111
听泉 俯听 0.5000000
违害 灾祸 0.5000000
违害 躲避 1.0000000
供给 供给 0.3333333
供给 从事 1.0000000
魏 危险 0.3333333
魏 魏 0.4285714
魏 的 0.0043516
魏 来说 0.1666667
始之以 经常 0.1666667
始之以 您 0.0294118
始之以 由于 0.0370370
始之以 我 0.0040161
始之以 起初 0.5000000
愈应 韩愈 0.1250000
愈应 回答 0.1666667
向 如果 0.0454545
向 方向 0.3333333
向 大规模 0.3333333
向 过去 0.5000000
山巨源 山巨源 1.0000000
山巨源 见到 0.1250000
相因 形势 0.2500000
相因 之间 0.0625000
相因 因果关系 0.5000000
从予 跟 0.1428571
从予 两位 0.2000000
从予 我 0.0040161
从予 客人 0.0666667
从予 随着 0.2000000
童子 童子 0.7500000
童子 小孩 0.3333333
位而巷 辞官 0.5000000
位而巷 的 0.0008703
位而巷 回乡 0.3333333
屈曲 汇合 1.0000000
屈曲 后 0.0294118
屈曲 地向 0.3333333
屈曲 南流 1.0000000
其中 倒 0.3333333
其中 和 0.0084034
其中 憎恨 0.3333333
其中 喜爱 0.3333333
其中 的 0.0008703
其中 他们 0.0125000
其中 了 0.0034602
不言 提 1.0000000
不言 不 0.0150376
二者 说法 0.2500000
二者 两种 0.6666667
圣者 聪明 0.1428571
圣者 圣人 0.0555556
理 边远 0.3333333
有时 到 0.0175439
有时 是因为 0.3333333
有时 飘零 0.5000000
月晕而风 月亮 0.1428571
相依 形影相依 0.5000000
时 记忆 0.3333333
时 一样 0.0833333
时 NULL 0.0108303
时 九月 1.0000000
时 当时 0.0833333
时 昭宗 0.3333333
时 时候 0.1250000
时 这时 0.0769231
时 时 0.0877193
时 声望 1.0000000
人士 人士 0.5000000
修 闲适 1.0000000
祸斯及 身边 0.2500000
祸斯及 祸患 0.0714286
祸斯及 会 0.0172414
祸斯及 才 0.0285714
祸斯及 降临 0.2500000
峰回路转 路上 0.2000000
峰回路转 回转 1.0000000
峰回路转 顺着 0.3333333
峰回路转 山峰 0.3333333
峰回路转 的 0.0008703
喜笑 喜笑 0.5000000
之仇 事 0.0434783
之仇 百姓 0.0555556
之仇 怨仇 1.0000000
之仇 的 0.0008703
滁人 当地人 0.5000000
滁人 滁州 0.1818182
于外 在 0.0058140
于外 宫外 0.5000000
以相取 在 0.0058140
以相取 对方 0.2000000
以相取 笑 0.3333333
以相取 表示 0.2500000
以相取 愿意 0.2500000
以相取 之下 0.2000000
谂 觏 0.3333333
数月 没 0.2000000
数月 过 0.0322581
数月 几个 0.1666667
数月 月 0.1666667
夺其外 行动 1.0000000
夺其外 影响 0.5000000
夺其外 啊 0.0188679
夺其外 他们 0.0125000
夺其外 了 0.0034602
六十步 走 0.1000000
六十步 东北 1.0000000
六十步 六十步 0.5000000
游泳 嬉戏 1.0000000
游泳 游动 1.0000000
岂 NULL 0.0036101
岂 难道说 0.2500000
岂 哪里 0.3076923
岂 难道 0.2500000
岂 近于 0.3333333
岂 此处 0.5000000
殚其地 都 0.0123457
殚其地 东西 0.1428571
殚其地 交出去 0.5000000
殚其地 把 0.0178571
殚其地 了 0.0034602
蛇者乎 这种 0.0344828
蛇者乎 还 0.0333333
蛇者乎 毒蛇 0.5000000
蛇者乎 比 0.0666667
顾其用 但 0.1000000
顾其用 重用 0.0625000
顾其用 他们 0.0125000
于何 考核 0.3333333
于何 到 0.0175439
于何 又 0.0117647
安 舒适 0.5000000
文学 他 0.0052083
文学 言辞 0.5000000
文学 文章 0.1000000
不遇 感慨 0.5000000
不遇 怀才不遇 0.5000000
不遇 不得志 0.3333333
不遇 会 0.0172414
以地 把 0.0178571
其得 称得起 0.2500000
其得 能够 0.0588235
其得 回乡 0.3333333
非周 不是 0.0333333
非周 采用 0.2500000
以温 又 0.0117647
以温 温生 0.2000000
一世 事 0.0434783
一世 一代 0.5000000
一世 一朝 1.0000000
一世 了 0.0034602
地 所处 0.2000000
地 地方 0.0833333
地 的 0.0008703
其性者 是 0.0046083
其性者 出于 0.5000000
其性者 本性 0.5000000
其性者 的 0.0008703
其性者 行侠仗义 0.5000000
魏之野 领地 1.0000000
魏之野 的 0.0008703
之野产异 野外 1.0000000
之野产异 奇蛇 0.5000000
之野产异 一种 0.2500000
之野产异 出产 0.2000000
同州 同州 0.3333333
同州 一个 0.0294118
通其兵 可以 0.0178571
通其兵 地 0.0238095
通其兵 攻打 0.1666667
通其兵 它们 0.1250000
通其兵 通行无阻 1.0000000
通其兵 那里 0.0769231
通其兵 就 0.0072464
喜有 他 0.0052083
喜有 喜悦 0.5000000
喜有 赏赐 0.5000000
喜有 时 0.0175439
喜有 就 0.0072464
蓬蒿 在 0.0058140
蓬蒿 草野 0.5000000
蓬蒿 之间 0.0625000
蓬蒿 身份 0.3333333
迂大 可 0.2000000
迂大 大 0.1250000
迂大 这样 0.0232558
迂大 迂阔 0.1111111
迂大 就 0.0072464
迂阔 人 0.0109290
迂阔 迂阔 0.3333333
迂阔 的 0.0017406
教学 意图 1.0000000
教学 所在 1.0000000
忽焉 他 0.0052083
其所止 将要 0.1250000
其所止 向 0.0500000
其所止 飞 0.5000000
其所止 何处 0.5000000
其所止 不知 1.0000000
有溪 临时 1.0000000
有溪 需要 0.3333333
董生 董生 1.0000000
不忮不求 钱财 0.5000000
不忮不求 但是 0.1250000
不忮不求 贪图 0.3333333
不忮不求 妒忌 0.3333333
不忮不求 不 0.0150376
不忮不求 别人 0.0625000
虽 万乘 0.5000000
虽 NULL 0.0036101
虽 虽然 0.4000000
虽 虽 1.0000000
虽 一丝一毫 0.3333333
之惑 蛊惑 0.5000000
之惑 的 0.0008703
中主 只是 0.0625000
中主 即使 0.1666667
中主 中等 1.0000000
中主 一个 0.0294118
梦 在 0.0058140
梦 梦 0.5000000
梦 NULL 0.0036101
梦 吧 0.0666667
梦 做梦 0.5000000
梦 梦见 1.0000000
梦 这 0.0126582
加修 方面 0.1250000
加修 没有 0.0126582
加修 品德 0.2000000
加修 加强 0.3333333
加修 修养 0.5000000
居者 住在一起 0.2500000
居者 的 0.0017406
不爱死 不惜 0.5000000
不爱死 生命 0.2000000
可使 变为 0.3333333
可使 就 0.0072464
京师 京城 0.6000000
京师 谋生 0.5000000
京师 我 0.0040161
过 他 0.0052083
过 过头 0.5000000
过 亭 0.3333333
过 NULL 0.0072202
过 有些 0.3333333
过 黄泥 0.3333333
过 了 0.0034602
太行 太行山 0.2500000
太行 的 0.0008703
然此 然而 0.0769231
然此 可能 0.1666667
存 又 0.0235294
博士 博士 1.0000000
博士 职位 0.2000000
博士 的 0.0008703
共工 共工 1.0000000
才能 隐身 0.2500000
才能 的 0.0008703
师郯子 曾 0.1111111
师郯子 向 0.0500000
师郯子 郯子 0.5000000
封济 受封 0.2500000
封济 为济 0.5000000
争 NULL 0.0036101
凌上 犯上作乱 0.5000000
同其乐 乐趣 0.1000000
同其乐 享受 0.2500000
同其乐 共同 0.2000000
同其乐 大家 0.1111111
同其乐 和 0.0084034
同其乐 能 0.0181818
聚 征集 1.0000000
来 今年以来 0.3333333
来 不肯 0.3333333
来 回来 0.1333333
来 来成 0.5000000
来 要来 0.5000000
来 了 0.0034602
可谓 可以 0.0357143
可谓 是 0.0184332
可谓 二位 0.5000000
可谓 算不上 0.3333333
可谓 说 0.0170940
丰山 丰山 0.3333333
丰山 是 0.0046083
丰山 上面 0.1428571
尽脱 凋落 1.0000000
尽脱 全部 0.1666667
尽脱 叶子 0.5000000
尽脱 了 0.0034602
且议 皇帝 0.0312500
且议 建议 0.2500000
且议 和 0.0084034
且议 提了 1.0000000
且议 向 0.0500000
有力 夺走 0.5000000
此则 就是 0.0294118
此则 这 0.0126582
及舜自为 本人 1.0000000
及舜自为 到 0.0175439
及舜自为 做 0.0303030
及舜自为 舜 0.1111111
及舜自为 时 0.0175439
及舜自为 了 0.0034602
恂 小心翼翼 1.0000000
恂 地 0.0238095
恂 爬起来 0.3333333
改 这就是说 1.0000000
始终 人 0.0054645
始终 有始有终 0.5000000
始终 上 0.0222222
始终 了 0.0034602
自古 自古以来 1.0000000
自古 就 0.0072464
地僻 政务 0.5000000
地僻 当地 0.1666667
地僻 僻静 1.0000000
地僻 而且 0.0833333
细鳞 嘴大鳞细 0.5000000
孩提 大 0.1250000
孩提 这么 0.3333333
孩提 孩子 0.1666667
孩提 像 0.0277778
自知 自知 1.0000000
自知 原因 0.0909091
蒙冒 共同 0.2000000
蒙冒 蒙蔽 0.3333333
间环 山光水色 0.5000000
盘旋 地方 0.0416667
横槊赋诗 明志 1.0000000
横槊赋诗 横握 1.0000000
横槊赋诗 赋诗 1.0000000
横槊赋诗 长矛 1.0000000
正襟危坐 衣襟 0.2000000
正襟危坐 整理 0.5000000
之亲 自己 0.0185185
之亲 离 1.0000000
之亲 不 0.0075188
潜形 它 0.0222222
潜形 隐没 1.0000000
潜形 形体 1.0000000
潜形 了 0.0034602
不行 不能 0.0425532
不行 推行 0.5000000
不行 政治 0.2000000
不行 当时 0.0833333
不行 主张 0.2500000
不行 通行 0.5000000
伯玉 伯玉 1.0000000
夫意 料想到 0.3333333
加诸 自己 0.0185185
加诸 把 0.0178571
加诸 强加于人 1.0000000
无良 都 0.0123457
无良 没有 0.0126582
无良 好马 0.2500000
无良 一匹 0.5000000
衰者 年长 0.5000000
衰者 身弱 1.0000000
出视 看 0.1111111
出视 出去 0.2500000
出视 一下 0.1428571
尧 所以 0.0344828
尧 说 0.0085470
尧 尧 0.4000000
滁人游 这里 0.0625000
滁人游 在 0.0058140
滁人游 人 0.0054645
滁人游 滁州 0.0909091
滁人游 是 0.0046083
滁人游 游览 0.1000000
市者 不仕 0.5000000
市者 隐身 0.2500000
制诏州 诏书 0.5000000
制诏州 颁布 1.0000000
树林 树林 1.0000000
辞富 富贵 0.5000000
辞富 放弃 0.3333333
凿 泉水 0.1111111
凿 疏通 0.5000000
始至 刚一 1.0000000
始至 到任 0.3333333
有无 神灵 0.2000000
有无 是否 1.0000000
有无 存在 0.2000000
不烦 耳 1.0000000
不烦 厌烦 1.0000000
不烦 不会 0.0714286
不烦 进入 1.0000000
不烦 觉得 0.1666667
不烦 中 0.0208333
漱涤 选取 0.1428571
握手 手拉手 1.0000000
主之势 皇帝 0.0312500
主之势 也 0.0100000
主之势 孤单 0.2000000
主之势 会 0.0172414
主之势 势力 0.3333333
稼 耕种 0.5000000
百司 各 0.5000000
百司 部门 0.5000000
百司 主管 0.5000000
零落 零落 0.3333333
零落 不堪 0.3333333
呵 前面 0.1666667
呵 吆喝 1.0000000
呵 开道 1.0000000
质钱 把 0.0178571
伺其隙 空子 0.5000000
宜有 对此 0.3333333
宜有 应 0.5000000
宜有 官员 0.2500000
起而争 争斗 1.0000000
之辞 他 0.0052083
之辞 推辞 0.2500000
之辞 话 0.1000000
其俗 当地 0.1666667
其俗 民俗 1.0000000
其俗 那里 0.0769231
乐于 享受 0.2500000
乐于 欢乐 0.3333333
乐于 身体 0.1666667
非辜 百姓 0.0555556
非辜 无辜 1.0000000
之衰 他 0.0052083
之衰 衰落 0.3333333
之衰 的 0.0017406
安此 安享 0.5000000
安此 之所以 0.1666667
安此 知道 0.0243902
章章明 是 0.0046083
章章明 明明白白 0.5000000
章章明 的 0.0008703
章章明 那 0.0370370
唐 这块 1.0000000
唐 唐朝 0.5000000
汝之子始 十岁 0.5000000
汝之子始 现在 0.0322581
三百余 三百余 1.0000000
三百余 犯人 0.5000000
三百余 登记在册 0.3333333
投以 扔 0.5000000
投以 小石头 0.5000000
四 四人 0.5000000
四 并 0.0250000
四 四处 1.0000000
夫国以 兴盛 0.3333333
夫国以 国家 0.0434783
夫国以 由于 0.0370370
有荐 有人 0.0555556
有荐 推荐 0.1250000
朝暮 傍晚 0.2000000
朝暮 和 0.0084034
朝暮 清晨 0.5000000
汝之纯明 你 0.0140845
汝之纯明 承受 0.2500000
而过 着 0.0250000
而过 船上 0.3333333
而过 我 0.0040161
三子 人 0.0327869
三子 诸位 0.5000000
三子 这 0.1012658
三子 重用 0.0625000
三子 三个 0.5555556
小弱 主人 0.2000000
可爱 可爱 0.5000000
可爱 的 0.0008703
辨 辩论 1.0000000
辨 能够 0.0588235
辨 辨别 1.0000000
清风徐来 缓慢 1.0000000
清风徐来 清风 0.3333333
清风徐来 吹过来 1.0000000
清风徐来 地 0.0238095
万事 的 0.0017406
万事 数不清 0.5000000
诸 当地人 0.5000000
诸 问一问 0.3333333
请归取 家眷 0.3333333
之来 官吏 0.2000000
之来 来到 0.1666667
修身 准则 0.2000000
修身 自身 0.2000000
修身 这些 0.0588235
修身 用 0.0357143
修身 修养 0.5000000
修身 来 0.0227273
徐元庆 下邦 0.5000000
徐元庆 徐元庆 0.1111111
以及 直到 0.1666667
以及 部门 0.5000000
否 不 0.0075188
义气 之气 1.0000000
义气 刚正 0.5000000
殒 病 0.5000000
殒 丧失 0.3333333
何若 如何 0.2000000
朋之多且 朋党 0.0416667
朋之多且 之多 0.5000000
朋之多且 范围 1.0000000
朋之多且 人数 1.0000000
朋之多且 之大 1.0000000
晦 自己 0.0185185
晦 起 0.2000000
晦 隐藏 0.3333333
折而人于 转身 0.5000000
折而人于 投入 0.5000000
折而人于 怀抱 0.2500000
折而人于 的 0.0008703
岩穴之士 间 0.3333333
岩穴之士 可能 0.1666667
岩穴之士 使 0.0333333
岩穴之士 山野 0.3333333
岩穴之士 就 0.0072464
不得而知 却 0.0243902
不得而知 别人 0.0625000
不得而知 不让 0.3333333
不得而知 知道 0.0243902
为名 官为 0.3333333
群雄 的 0.0008703
群雄 割据一方 1.0000000
其端 开始 0.2000000
其端 发生 0.1428571
其端 案件 0.2500000
之远 江湖 1.0000000
之余烈 这种 0.0344828
之余烈 就是 0.0294118
之余烈 肃杀之气 0.5000000
之余烈 发出 0.0833333
徒以 只是 0.0625000
徒以 朝 0.2000000
之所易 容易 0.5000000
之所易 地 0.0238095
之所易 却 0.0243902
之所易 做到 0.1250000
之所易 很 0.0526316
之所易 了 0.0034602
容貌 从 0.0384615
容貌 容貌 1.0000000
崭然 超人 0.5000000
崭然 显露出 1.0000000
财粟 钱财 0.5000000
苟慕义 仰慕 0.2500000
苟慕义 即使 0.1666667
苟慕义 一般 0.1428571
其句 断句 0.2500000
其句 书本上 0.3333333
之食 食物 1.0000000
飘零 消亡 1.0000000
飘零 时候 0.1250000
飘零 会 0.0172414
飘零 飘零 0.5000000
飘零 就 0.0072464
飘零 了 0.0034602
兵象 着 0.0250000
兵象 象征 0.5000000
兵象 战争 0.2500000
戒 NULL 0.0036101
戒 准备 0.2000000
戒 行李 0.5000000
乱人 贤明 0.1428571
乱人 扰乱 0.1666667
弟者 主人 0.2000000
岂不知 不 0.0075188
岂不知 安逸 0.3333333
岂不知 过 0.0322581
岂不知 难道 0.0833333
戏 应该 0.0344828
戏 他 0.0104167
戏 开玩笑 0.4285714
戏 我 0.0040161
戏 和 0.0168067
戏 这 0.0126582
戏 并 0.0250000
愚堂 有个 0.0909091
愚堂 愚堂 1.0000000
费皆出 均 0.2500000
费皆出 河东 0.5000000
费皆出 费用 1.0000000
又例 贬为 0.5000000
又例 又 0.0117647
公问 桓公 0.0769231
举匏樽以 酒杯 0.1666667
举匏樽以 举起 0.5000000
未见 看不出 1.0000000
未见 他们 0.0125000
愚溪 愚溪 0.6000000
事后 失败 0.3333333
奇特 杰出 0.3333333
锵 流动 0.5000000
锵 铿锵 1.0000000
锵 般的 0.3333333
锵 发出 0.0833333
锵 时 0.0175439
忽 忽然 0.5000000
清流 清流 1.0000000
门 大官 0.5000000
门 大门 0.5000000
门 的 0.0008703
老聃 师襄 1.0000000
自蜀 他 0.0052083
自蜀 一封信 0.5000000
其文 几十万 0.3333333
其文 的 0.0017406
王衍之 王衍之 0.5000000
王衍之 为 0.0147059
荐誉 他 0.0104167
荐誉 赞扬 0.5000000
荐誉 推荐 0.1250000
天高 天高 1.0000000
耳目 耳目 0.6666667
赵 一目了然 0.2000000
赵 燕 0.4666667
赵 赵 0.5833333
东北 向 0.0500000
误 将来 0.5000000
官守者 官位 0.2500000
官守者 人 0.0054645
官守者 职守 0.3333333
官守者 的 0.0008703
而蔽 同时 0.1250000
曲眉丰颊 丰腴 1.0000000
曲眉丰颊 那些 0.0555556
曲眉丰颊 弯曲 1.0000000
曲眉丰颊 眉毛 1.0000000
曲眉丰颊 面颊 1.0000000
叶戏 这种 0.0344828
叶戏 桐树叶 1.0000000
叶戏 开 1.0000000
明天 当政 0.5000000
而致 再 0.0909091
而致 安顿 0.5000000
而致 奋不顾身 0.5000000
而致 却 0.0243902
何恨乎 又 0.0117647
兹谓 这 0.0253165
兹谓 叫做 0.6666667
之奇者 山水 0.2000000
之奇者 出奇 1.0000000
之奇者 是 0.0046083
之奇者 美景 0.1428571
之奇者 中 0.0208333
时而 按规定 1.0000000
沉痛 哀告 0.5000000
一方 美人 1.0000000
一方 天各一方 0.5000000
孜孜 到 0.0175439
孜孜 死 0.0357143
孜孜 才 0.0285714
孜孜 罢休 0.2500000
秦 秦国 0.1724138
保其 头脑 0.3333333
晖 皇甫晖 0.5000000
莫得 不能 0.0212766
莫得 人 0.0054645
莫得 同时 0.1250000
莫得 出现 0.0833333
莫得 身上 0.5000000
莫得 一个 0.0294118
孰若 心中 0.1428571
孰若 背后 0.3333333
孰若 还 0.0666667
孰若 没有 0.0253165
孰若 不如 0.2222222
大罪 大罪 1.0000000
尤小 你 0.0140845
尤小 那时 0.2000000
尤小 小 0.1000000
尤小 我 0.0040161
尤小 比 0.0666667
破 军队 0.1666667
漠然 所 0.0322581
罗 招聘 1.0000000
奭 过 0.0322581
奭 奭 0.5000000
之障 屏障 0.5000000
之障 其他 0.2500000
之障 是 0.0046083
之障 几个 0.1666667
王之弟 如果 0.0227273
王之弟 小弟弟 0.1666667
王之弟 受封 0.2500000
王之弟 成王 0.1250000
王之弟 应当 0.1666667
囚首丧面 头发 0.2500000
灵公之虐 人 0.0054645
灵公之虐 为 0.0147059
灵公之虐 暴虐 1.0000000
灵公之虐 晋文公 0.1666667
穷裔 在 0.0058140
穷裔 边远 0.3333333
穷裔 荒僻 1.0000000
望远 登高 0.5000000
相知 地位 0.1428571
满目 萧瑟 0.5000000
满目 他们 0.0125000
盘谷 里面 0.5000000
盘谷 盘谷 0.1111111
盘谷 太行山 0.2500000
有容 涵容 0.5000000
有容 有 0.0084034
有容 而 0.0065359
圣乎 还 0.0333333
圣乎 圣人 0.0555556
圣乎 是 0.0046083
圣乎 称得起 0.2500000
圣乎 吗 0.0217391
圣乎 能 0.0181818
目司 看 0.1111111
目司 眼管 0.5000000
昔 太祖 0.3333333
昔 从前 0.2500000
饮少辄 稍微 0.5000000
饮少辄 一点 0.2000000
饮少辄 醉 0.5000000
饮少辄 喝 0.3333333
饮少辄 就 0.0072464
之行 一番 0.5000000
之行 作为 0.0625000
之行 测验 0.3333333
之行 此行 1.0000000
位益 地位 0.1428571
位益 越来越 0.2000000
位益 尊贵 0.3333333
位益 的 0.0008703
生而影 不能 0.0212766
生而影 你 0.0140845
生而影 活着 0.2000000
酒 祭江 0.5000000
酒 寄托 0.3333333
酒 酿酒 0.3333333
酒 斟酒 0.2500000
酒 替 0.1666667
酒 他 0.0052083
酒 酒 0.1818182
酒 三 0.5000000
酒 清 0.2500000
故舍 所以 0.0344828
故舍 离开 0.1250000
故舍 京师 1.0000000
戏乎 不过 0.0909091
戏乎 玩笑话 0.3333333
戏乎 啊 0.0188679
怪 责怪 0.2000000
怪 我 0.0040161
山东 山以东 1.0000000
山东 崤 0.3333333
山东 掩蔽 1.0000000
山东 了 0.0034602
阴阳 相比 0.5000000
阴阳 阴阳 0.5000000
阴阳 和 0.0084034
肌骨 肌骨 1.0000000
一气 肃杀之气 0.5000000
一气 秋风 0.3333333
而 求师 0.3333333
而 寿命 0.5000000
而 去 0.0327869
而 如果 0.0227273
而 杯酒 0.3333333
而 话 0.1000000
而 囚犯 0.0769231
而 上次 0.5000000
而 好看 0.5000000
而 并 0.1500000
而 看到 0.1666667
而 因而 0.1428571
而 便 0.0625000
而 听到 0.1666667
而 回来 0.1333333
而 着 0.0500000
而 宫外 0.5000000
而 积聚 0.5000000
而 明白人 0.3333333
而 游人 0.5000000
而 谁又能 0.3333333
而 旅居 0.5000000
而 而且 0.3333333
而 便会 0.2500000
而 感到 0.1000000
而 愚字来 0.5000000
而 一会儿 0.5000000
而 衣襟 0.4000000
而 攻打 0.1666667
而 会 0.0344828
而 听后 0.5000000
而 撵出去 0.2500000
而 日后 1.0000000
而 身强力壮 0.5000000
而 无用 0.3333333
而 河边 0.5000000
而 争先 0.5000000
而 竞美 0.5000000
而 佳木 0.5000000
而 悲伤 0.2500000
而 污辱 0.5000000
而 两败俱伤 0.5000000
而 脱落 0.3333333
而 身强 0.5000000
而 实行 0.1666667
而 怎么 0.0714286
而 也 0.0100000
而 具有 0.5000000
而 自杀 0.5000000
而 觉得 0.3333333
而 怕 0.5000000
而 进用 0.5000000
而 带 0.3333333
而 选择 0.5000000
而 从而 0.2000000
而 开口 0.3333333
而 龟甲 0.5000000
而 开玩笑 0.2857143
而 乘坐 0.3333333
而 登高 0.5000000
而 不得已 0.3333333
而 住处 0.2500000
而 而朝 1.0000000
而 弄 0.3333333
而 利害关系 0.5000000
而 两旁 0.2500000
而 旋律 0.3333333
而 而是 0.2500000
而 不断 0.2000000
而 杀戮 0.2000000
而 寂静 0.6666667
而 争荣 0.5000000
而 花纹 0.5000000
而 皋 1.0000000
而 归来 0.3333333
而 渺茫 1.0000000
而 函谷关 1.0000000
而 回去 0.5000000
而 奔腾 0.3333333
而 打 0.5000000
而 因为 0.1538462
而 行事 0.5000000
而 脑袋 1.0000000
而 如果说 0.1666667
而 停止 0.3333333
而 纷纷 0.5000000
而 仍 0.5000000
而 喜欢 0.2222222
而 德行 0.1666667
而 陈述 0.2500000
而 可是 0.2000000
而 而 0.4705882
而 从不 0.3333333
而 随之 0.5000000
而 凭 0.3333333
而 往下走 0.3333333
而 之一 0.3333333
而 然而 0.3846154
而 关系 0.3333333
而 条件 0.3333333
而 爬起来 0.3333333
而 变成 0.1666667
而 疑难 0.0909091
而 却 0.1707317
而 误会 0.5000000
而 速度 0.3333333
而 危害 0.3333333
而 船舷 0.5000000
而 并且 0.2307692
而 无疑 0.2500000
而 生活 0.0909091
而 那么 0.0357143
而 居于 0.2500000
而 他们 0.0250000
而 无门 0.3333333
而 NULL 0.0722022
而 同时 0.3750000
而 恐吓 0.5000000
而 一排排 0.5000000
而 勤恳 0.5000000
而 显示 0.5000000
而 水时 0.5000000
而 正义 0.1428571
而 决堤 0.5000000
而 即便 0.1000000
而 实践 0.2500000
而 的 0.0034813
而 衰弱 0.5000000
而 大树 0.3333333
而 没有 0.0126582
而 有时 0.2000000
而 仰面 0.5000000
而 了 0.0103806
悲者 周礼 0.5000000
悲者 没有 0.0126582
悲者 却 0.0243902
悲者 日子 0.2000000
悲者 悲伤 0.1250000
悲者 将 0.0666667
逃 避开 0.5000000
逃 它 0.0222222
兵 南唐 0.5000000
无赦 不能 0.0212766
无赦 他 0.0052083
无赦 赦免 0.2000000
无赦 而 0.0065359
无赦 了 0.0034602
真 消息 0.1666667
真 确实 0.1000000
真 传来 0.3333333
真 不 0.0150376
患已 发觉 0.5000000
契 契 0.2000000
而况 是 0.0046083
而况 何况 0.5000000
而况 又 0.0117647
愚触 犯罪 0.3333333
愚触 由于 0.0370370
愚触 而 0.0065359
愚触 愚昧 0.2000000
敢 我 0.0040161
必有我师 学习 0.0625000
必有我师 从师 0.1428571
必有我师 让 0.0625000
必有我师 一定 0.0500000
必有我师 可以 0.0178571
必有我师 其中 0.1428571
必有我师 有 0.0084034
必有我师 我 0.0040161
杀人者 杀人犯 1.0000000
杀人者 不会 0.0714286
杀人者 处死 0.0769231
杀人者 被 0.0178571
杀人者 那么 0.0357143
惑者 可谓 0.3333333
惑者 他 0.0052083
惑者 糊涂 0.3333333
惑者 更 0.5000000
咨而处 请教 0.0909091
咨而处 呢 0.0138889
咨而处 得到 0.1250000
咨而处 从而 0.1000000
咨而处 哪里 0.0769231
咨而处 处理 0.1428571
咨而处 商量 0.2500000
浣 洗衣 1.0000000
鲜少 极少 1.0000000
君臣 是 0.0046083
君臣 君臣 0.3333333
君臣 上 0.0222222
施于 在 0.0058140
施于 则 0.3333333
施于 刑罚 0.5000000
其出 超出 1.0000000
其出 一般 0.1428571
其出 他们 0.0125000
出为 做 0.0303030
出为 京 0.5000000
由 由此 1.0000000
由 NULL 0.0036101
由 门庭 0.2500000
由 说来 0.2500000
由 升任 0.5000000
其明 是 0.0046083
其明 明白事理 0.5000000
骤得 实现 0.3333333
骤得 希望 0.0769231
骤得 这些 0.0588235
骤得 立即 0.2000000
骤得 不会 0.0714286
佐 在 0.0058140
佐 助理 0.5000000
刀锯 也 0.0100000
刀锯 不受 0.5000000
推让 谦让 0.6666667
飞仙以 追随着 0.5000000
飞仙以 于 0.0526316
飞仙以 太空 1.0000000
飞仙以 仙人 1.0000000
遭圣神 皇帝 0.0312500
遭圣神 圣明 0.2000000
遭圣神 有 0.0084034
遭圣神 国家 0.0434783
遭圣神 的 0.0008703
迂之小者 小 0.1000000
迂之小者 迂 1.0000000
迂之小者 罢了 0.1250000
聪明 称颂 0.5000000
聪明 一个 0.0294118
醉翁之意不在酒 醉翁 0.3333333
男二人 两个 0.1428571
男二人 有 0.0084034
将 接去 1.0000000
将 阐明 0.2000000
将 作为 0.0625000
将 NULL 0.0252708
将 说些 0.5000000
将 临死时 0.2500000
将 将近 0.5000000
将 快要 0.3333333
将 怜悯 0.1666667
将 服从 0.5000000
将 迈步 0.3333333
将 为了 0.1333333
将 遣使 0.2500000
将 将要 0.2500000
将 大将 0.4000000
将 呈递 0.5000000
将 他 0.0052083
将 料理 0.5000000
将 将会 0.2000000
恒 恒州 1.0000000
望山 这里 0.0625000
望山 望山 1.0000000
望山 仰面 0.5000000
尤当仗 应该 0.0344828
尤当仗 人们 0.0625000
尤当仗 坚持 0.1666667
尤当仗 尤其 0.5000000
尤当仗 大节 0.5000000
之途 竞逐 0.5000000
疏泉 凿 1.0000000
疏泉 便 0.0312500
疏泉 疏通 0.5000000
疏泉 去 0.0163934
疏泉 岩石 0.5000000
年 这年 0.5000000
年 好多年 0.2500000
年 年龄 0.5000000
年 今年 0.5000000
年 终年 0.5000000
年 十九岁 0.5000000
年 管 0.5000000
令 法令 0.6666667
反复 反复 0.5000000
反复 论证 1.0000000
胜言哉 酿造 0.3333333
胜言哉 社会 0.1666667
专而名 独占 1.0000000
专而名 才能 0.1250000
专而名 它 0.0222222
专而名 我 0.0040161
何患 处 0.2000000
何患 什么 0.0500000
何患 之 0.0588235
何患 可怕 0.5000000
何患 令人 0.1666667
何患 那 0.0370370
愚益 更加 0.2000000
愚益 愚人 0.1250000
愚益 愚昧 0.2000000
孰失 得 0.0500000
孰失 算失 0.5000000
孰失 算 0.2500000
孰失 什么 0.0500000
中 触动 0.5000000
中 睡着 0.5000000
中 NULL 0.0036101
中 年间 1.0000000
中 中年 0.5000000
中 了 0.0103806
神明 神明 1.0000000
神明 对不起 1.0000000
惟人 为了 0.0666667
惟人 路途遥远 0.5000000
殷有 殷代 0.5000000
殷有 有 0.0084034
始饮 滁州 0.0909091
始饮 才 0.0285714
更 不能不 1.0000000
更 为 0.0147059
更 称道 0.3333333
更 名称 0.3333333
更 千百年来 0.5000000
更 改个 0.5000000
更 誊写 0.3333333
更 它 0.0666667
以南 以南 1.0000000
以南 地区 1.0000000
以南 准备考 0.5000000
故归 他 0.0052083
故归 都 0.0123457
故归 投奔 0.3333333
故归 去 0.0163934
故归 因此 0.0526316
尔 外面 0.2500000
尔 袁州 0.2000000
尔 逃荒 0.3333333
尔 偶尔 0.5000000
尔 你们 0.1111111
云 说 0.0256410
云 孟东野 0.1250000
云 这篇序 0.5000000
云 古人 0.2000000
琅 是 0.0046083
琅 琅琊山 0.5000000
安于 于 0.0526316
安于 自得 1.0000000
安于 安然 0.5000000
实为 造成 0.3333333
实为 是 0.0046083
实为 实在 0.1428571
实为 这 0.0126582
一湖 洞庭湖 0.5000000
一湖 上 0.0222222
感慨 一带 0.1666667
感慨 燕赵 0.5000000
诛戮 杀戮 0.4000000
诛戮 形成 0.0833333
诛戮 之 0.0588235
诛戮 人士 0.5000000
国者 是 0.0092166
国者 国家 0.0434783
国者 固然 0.3333333
国者 治理 0.1000000
国者 的 0.0008703
一 只 0.0833333
一 一位 0.2857143
一 NULL 0.0072202
一 拜访 0.2500000
一 场合 0.3333333
一 和 0.0084034
一 曾经 0.1000000
一 统一 0.3333333
一 一句 0.3333333
急之则 如果 0.0227273
急之则 操之过急 0.5000000
邙 嵩 0.5000000
邙 邙二山 0.5000000
其次 其次 1.0000000
天日 白日 1.0000000
天日 苍天 0.5000000
屠灭 自相残杀 0.5000000
东都 都 0.0246914
东都 东 0.4000000
疏远 和 0.0084034
疏远 疏远 0.2857143
疏远 距离 0.5000000
疏远 平日 0.5000000
故坐 受到牵连 0.5000000
故坐 所以 0.0344828
赎 赎回 1.0000000
目为 是 0.0046083
目为 看作 1.0000000
目为 把 0.0178571
目为 他们 0.0125000
之死 死去 0.1428571
之死 已经 0.0333333
之死 比起 0.5000000
之死 那 0.0370370
魁 的 0.0008703
魁 奇特 1.0000000
美人兮天 心中 0.1428571
美人兮天 天各一方 0.5000000
美人兮天 遥望 0.5000000
美人兮天 啊 0.0188679
美人兮天 的 0.0008703
而复 回复 1.0000000
而复 又 0.0235294
而复 死罪 0.1666667
果以 如果 0.0227273
及期 规定 0.1666667
及期 时间 0.0833333
及期 的 0.0008703
及期 了 0.0034602
暂为 那些 0.0555556
暂为 暂时 0.2500000
蒋氏观 一家 0.3333333
蒋氏观 从 0.0384615
蒋氏观 来看 0.2000000
蒋氏观 蒋某 0.5000000
交口 一致 0.3333333
交口 赞扬 0.5000000
有子 儿子 0.2000000
渺渺 胸怀 0.3333333
渺渺 我 0.0040161
闵其穷 好像 0.0434783
闵其穷 是 0.0046083
闵其穷 处境 0.3333333
闵其穷 我 0.0040161
闵其穷 同情 0.3333333
闵其穷 穷困 0.1428571
十月 十五 0.5000000
故其为 所以 0.0344828
故其为 它 0.0222222
故其为 发出 0.0833333
· · 0.6666667
其响 响亮 0.5000000
其响 声音 0.0909091
顾其 得以 0.2500000
顾其 齐桓公 0.0909091
顾其 使 0.0333333
非特二子 叹气 1.0000000
祭 祭 1.0000000
数子者 人 0.0054645
数子者 几个 0.1666667
数子者 心里 0.3333333
蜀 四川 0.5000000
蜀 称赞 0.3333333
蜀 中曾 0.3333333
蜀 信 0.2000000
蜀 一个 0.0294118
蜀 了 0.0034602
祖居 有 0.0084034
几 多次 0.3333333
几 有 0.0084034
归而谋 妻子 0.3333333
归而谋 和 0.0084034
归而谋 我 0.0040161
归而谋 商量 0.2500000
二十 唱和 1.0000000
二十 一边 0.2500000
二十 互相 0.0625000
二十 当今 0.5000000
十五日 十五日 0.5000000
师之所存 军 0.3333333
忌 求进 0.5000000
夫 NULL 0.0072202
夫 德才 0.2000000
夫 就任 0.2500000
夫 前代 0.3333333
夫 两国 0.5000000
夫 不怕 0.2000000
夫 那阳 0.5000000
夫 人 0.0054645
夫 怎么 0.0714286
夫 女色 0.3333333
夫 可怕 0.5000000
夫 面南 0.5000000
二生固 可 0.2000000
二生固 确实 0.0500000
二生固 二位 0.5000000
尝 我 0.0040161
尝 又 0.0117647
尝 曾经 0.3000000
尝 读过 1.0000000
主上 皇上 0.3333333
之厚 淳厚 0.5000000
之厚 教化 0.1250000
之厚 的 0.0008703
之厚 风俗 0.2000000
设有 假设 1.0000000
设有 的话 0.0526316
怀抱 优异 0.5000000
怀抱 他 0.0052083
七月 七月 1.0000000
疏 奏章 0.5000000
疏 日益 0.1666667
疏 淡薄 1.0000000
疏 疏远 0.4285714
忘 忘 1.0000000
渺 渺小 1.0000000
其室 十家 0.2500000
东门 东门外 0.5000000
竖刁 是 0.0046083
竖刁 竖刁 1.0000000
得文 和 0.0084034
得文 文人 0.5000000
顾之忧 东顾 0.5000000
顾之忧 国 0.2000000
顾之忧 两 0.3333333
顾之忧 没有 0.0126582
顾之忧 忧 1.0000000
顾之忧 之 0.0588235
奔腾 间 0.3333333
奔腾 澎湃 0.5000000
奔腾 忽然 0.5000000
奔腾 奔腾 0.3333333
奔腾 又 0.0117647
奔腾 发出 0.0833333
出其 宦官 0.1111111
出其 喜怒 0.5000000
出其 的 0.0017406
有假 名义 1.0000000
有假 有 0.0084034
有假 的 0.0017406
之大本 听说 0.0769231
之大本 他臣 0.5000000
之大本 聘请 0.3333333
观察使 观察使 1.0000000
君用 任用 0.0909091
君用 君主 0.0384615
君用 了 0.0034602
而列 偏僻 0.2500000
而列 这个 0.0400000
而列 到 0.0175439
而列 却 0.0243902
而列 安排 0.2500000
茫茫 已经 0.0333333
茫茫 模糊 1.0000000
泉 鸟 0.5000000
泉 酿泉 0.3333333
泉 落 1.0000000
泉 一样 0.0833333
泉 展翅 0.5000000
不违 违背 0.1666667
不违 不 0.0075188
不违 事理 0.2000000
其佣 工钱 1.0000000
无涯 得 0.0500000
无涯 渊深 0.5000000
自不斥 自然 0.1666667
自不斥 贬斥 0.2000000
自不斥 不会 0.0714286
自不斥 被 0.0178571
伏 了 0.0034602
各为 大家 0.1111111
各为 了 0.0034602
各为 作 0.2000000
各为 各自 0.3333333
故楚 所以 0.0344828
故楚 楚国 0.5000000
杀人 杀了人 0.5000000
而言 分析 0.3333333
而言 作揖 0.5000000
而言 说道 0.2000000
而言 的话 0.0526316
而言 一下 0.1428571
而言 指着 0.3333333
而言 他们 0.0125000
而言 所说 0.1000000
于兹 六年 0.3333333
于兹 已经 0.0333333
于兹 到 0.0175439
于兹 这时 0.0769231
当否 事情 0.1000000
当否 正确 0.1666667
当否 与否 0.5000000
失其政 灭亡 0.2500000
失其政 以后 0.2000000
失其政 唐朝 0.1666667
万人 调解 1.0000000
浮沉 随大流 0.5000000
国无其 这样 0.0232558
国无其 箕子 0.0769231
国无其 没有 0.0126582
国无其 的 0.0008703
以愚 我 0.0040161
以愚 用 0.0357143
以愚 诗来 0.3333333
以愚 愚 0.5000000
之士 人 0.0054645
之士 中曾 0.3333333
之士 道德 0.1818182
之士 的 0.0026110
薨 于 0.0526316
薨 死 0.0357143
薨 导致 0.5000000
薨 桓公 0.0769231
薨 丞相 0.2500000
薨 一死 0.2500000
皇帝 皇帝 0.0625000
皇帝 太祖 0.3333333
皇帝 吟诗 1.0000000
齐 齐 1.0000000
齐 齐国 0.2500000
齐 伯夷 0.3333333
齐 楚 0.2000000
德 采取 0.2000000
德 的 0.0008703
利泽施 他 0.0052083
利泽施 别人 0.0625000
利泽施 施 1.0000000
利泽施 恩泽 0.5000000
利泽施 给 0.0625000
利泽施 把 0.0178571
利泽施 利益 0.3333333
不熟 不 0.0075188
不熟 熟悉 0.2500000
不熟 算是 0.0833333
箕子 箕子 0.2307692
箕子 周朝 0.1250000
箕子 由于 0.0370370
箕子 归顺 0.2500000
且夫 况且 0.3333333
缟衣 白衣 0.5000000
缟衣 穿着 0.5000000
缟衣 一样 0.0833333
缟衣 黑裙 1.0000000
微 这种 0.0344828
微 NULL 0.0072202
非竹 乐曲 1.0000000
非竹 丝竹 0.5000000
非竹 的 0.0008703
非竹 演奏 1.0000000
有行 有人 0.0555556
有行 已经 0.0333333
有行 走过 0.5000000
毕至 清晨 0.5000000
数十万 字 0.3333333
数十万 几十万 0.3333333
数十万 文章 0.1000000
强者 反而 0.1666667
强者 强壮 1.0000000
强者 年少 0.5000000
强者 的 0.0017406
千百年 千百年来 0.5000000
千百年 使得 0.1000000
千百年 向 0.0500000
千百年 得不到 0.5000000
染溪 染溪 0.5000000
染溪 为 0.0147059
山间 山间 0.5000000
山间 就是 0.0294118
山间 这是 0.0263158
患 祸患 0.0714286
患 根源 0.2000000
述 的 0.0008703
不肯 不肯 0.3333333
不肯 又 0.0117647
不肯 来 0.0227273
大法 他 0.0052083
大法 献出 1.0000000
明年 一年 0.1428571
明年 到 0.0175439
明年 次年 1.0000000
明年 第二年 0.6666667
明年 了 0.0034602
二日 二日 0.5000000
故必复 再 0.0909091
故必复 贤者 0.3333333
故必复 接替 0.5000000
故必复 他 0.0052083
故必复 所以 0.0344828
故必复 必须 0.5000000
故必复 找到 0.3333333
故必复 一个 0.0294118
处者 辞官 0.5000000
不屑 不屑一顾 1.0000000
就 就职 1.0000000
就 自己 0.0185185
就 成就 0.5000000
就 宣扬 0.3333333
就 哪有什么 0.5000000
就 定夺 0.5000000
就 或者 0.3333333
就 离去 0.1666667
就 的 0.0017406
就 睡 0.5000000
就 度日 0.2500000
就 轻车 0.5000000
就 到期 0.3333333
