
\data\
ngram 1=47
ngram 2=1471
ngram 3=14835

\1-grams:
-2.140046	"	-2.120336
-4.388998	#	-1.719175
-3.383247	$	-2.582341
-4.374757	''	-1.060956
-2.781545	(	-2.845568
-4.610844	)	-1.309361
-1.310072	,	-3.79319
-1.392007	.	-2.935624
-2.17557	:	-2.474352
-1.390486	</s>
-99	<s>	-3.917447
-1.512512	cc	-2.184875
-1.955363	cd	-1.09081
-1.049545	dt	-1.764175
-2.839179	ex	-3.005536
-3.442875	fw	-1.950735
-0.9515584	in	-1.72456
-1.079881	jj	-1.509434
-2.398513	jjr	-2.361575
-2.794976	jjs	-1.88123
-1.857734	md	-2.527163
-0.885352	nn	-0.9795432
-1.233057	nnp	-0.8007164
-2.602248	nnps	-2.196728
-1.209984	nns	-1.038919
-3.481409	pdt	-2.64605
-2.001491	pos	-1.703631
-1.721251	prp	-2.68215
-2.006202	prp$	-3.088017
-1.382427	rb	-1.875808
-2.660105	rbr	-2.795266
-2.875782	rbs	-2.889588
-3.625571	rp	-2.215629
-2.781902	sym	-1.605201
-1.620793	to	-3.434852
-3.974025	uh	-2.066966
-1.467001	vb	-0.4765716
-1.78321	vbd	-2.396548
-1.784396	vbg	-1.424342
-6.167002	vbg|nn	-0.2495408
-1.63898	vbn	-1.166501
-1.791615	vbp	-1.601277
-1.598304	vbz	-2.834398
-2.287024	wdt	-2.869536
-2.49413	wp	-2.635431
-3.656605	wp$	-2.577775
-2.45257	wrb	-2.648059

\2-grams:
-2.470884	" "	-0.4752308
-4.027186	" ''
-1.974108	" (	-0.1670334
-2.355089	" ,	-0.1689307
-2.188337	" .	0.145188
-1.791658	" :	0.3883525
-0.9000816	" </s>
-1.483118	" cc	0.116745
-2.072944	" cd	-0.6825608
-1.303731	" dt	0.1375649
-2.851095	" ex	-0.01444548
-3.027186	" fw	-0.275251
-1.079753	" in	-0.2658824
-0.8522549	" jj	-0.6364676
-2.665459	" jjr	-0.08398485
-2.948005	" jjs	-0.3334511
-1.933765	" md	-0.2394
-0.8246982	" nn	-0.130913
-1.089167	" nnp	-0.475683
-2.726156	" nnps	-0.6305985
-1.293187	" nns	0.1473984
-3.425127	" pdt	1.663542
-1.545744	" prp	-0.7335665
-2.355089	" prp$	0.5122317
-1.630987	" rb	0.3894411
-2.985794	" rbr	-0.09583771
-3.410403	" rbs	-0.08866251
-2.234795	" sym	-0.1524489
-1.865819	" to	-0.1736084
-2.748433	" uh	-1.090336
-1.721835	" vb	0.1066738
-1.737152	" vbd	-0.2265843
-1.663574	" vbg	-0.5862805
-1.721835	" vbn	-0.2210327
-2.207643	" vbp	-0.2760167
-1.519331	" vbz	-0.1938694
-1.919976	" wdt	-0.460939
-2.286824	" wp	-0.05636752
-3.726156	" wp$
-2.234795	" wrb	0.03571373
-0.01447782	# cd	-1.36617
-1.78533	# nn
-2.784617	$ .
-0.02419481	$ cd	-0.863594
-2.483587	$ dt
-1.743225	$ jj	-0.4627136
-1.580497	$ nn	-0.7177905
-2.784617	$ sym
-2.784617	$ vbg
-1.210853	'' "	-0.964671
-0.9098234	'' ,	-0.03209613
-1.072551	'' .	0.725751
-1.511883	'' :
-0.7337321	'' </s>
-1.511883	'' cc
-1.812913	'' cd
-1.812913	'' dt
-1.022863	'' in	-0.1966787
-1.812913	'' jj
-1.19613	'' md	-0.1656248
-1.072551	'' nn	-0.1544828
-1.812913	'' nnp
-1.210853	'' nns
-1.812913	'' prp
-1.511883	'' rb
-1.812913	'' to
-1.812913	'' vbd
-1.812913	'' vbg
-1.812913	'' vbz
-1.939162	( "	-0.4791543
-2.645958	( $	0.7067873
-3.085291	( .
-3.386321	( :
-3.085291	( </s>
-1.007923	( cc	0.36991
-1.399549	( cd	-1.04617
-1.085291	( dt	-0.06253457
-2.769537	( ex	-0.297721
-1.909199	( fw	-0.4953366
-0.8397779	( in	0.07849121
-1.246441	( jj	-0.2700797
-2.541223	( jjr	-0.2934233
-3.085291	( md
-1.219003	( nn	-0.7210375
-0.6088938	( nnp	-0.9023327
-2.645958	( nnps	-0.1417638
-1.806537	( nns	-0.3101489
-2.024593	( prp	0.01336867
-2.344928	( prp$	-0.01707351
-1.080969	( rb	-0.8285853
-2.769537	( rbr	0.07227078
-2.541223	( rbs	-0.6083227
-2.307139	( to	-0.05802876
-3.085291	( uh	-0.6037014
-2.024593	( vb	-0.2589934
-2.645958	( vbd
-1.472507	( vbg	-0.3784519
-1.638133	( vbn	-0.5903605
-2.386321	( vbp	-1.028001
-3.085291	( vbz
-1.608169	( wdt	-0.0639289
-2.043898	( wp	-0.1561183
-3.085291	( wp$	-0.8278098
-2.272377	( wrb	-0.09271614
-0.9742814	) ,
-0.8010141	) .	0.8010218
-1.591065	) :
-1.591065	) </s>
-1.591065	) cc
-1.290035	) dt
-0.9890046	) in	-0.08688715
-1.290035	) md
-0.9742814	) nn	-0.3682471
-1.290035	) nns
-0.9890046	) prp	-0.1698582
-1.290035	) vb
-1.591065	) vbd
-1.290035	) vbg	-0.8958817
-1.591065	) vbn
-1.591065	) vbz
-1.775756	, "	-1.503838
-3.954013	, $	0.3118609
-4.857103	, ''
-3.954013	, (	-0.147912
-4.24032	, .	-0.3947979
-4.556073	, :
-4.24032	, </s>
-0.7827989	, cc	-0.3840163
-2.000374	, cd	-0.2964087
-0.8885736	, dt	0.1014752
-2.113594	, ex	-1.125529
-3.175862	, fw	-0.5602061
-0.9260015	, in	-0.3126001
-1.199378	, jj	-0.3453553
-2.51075	, jjr	-0.6109082
-4.24032	, jjs
-1.94276	, md	-0.1493087
-1.297436	, nn	-0.5950201
-1.094875	, nnp	-0.5383434
-2.524665	, nnps	-0.866823
-1.56863	, nns	-0.2913001
-3.534884	, pdt	1.344213
-3.74316	, pos	-0.2072882
-1.273111	, prp	-1.595868
-2.137772	, prp$	-0.3206841
-1.091956	, rb	-0.2583096
-2.781556	, rbr	-0.1134957
-2.629216	, rbs	-0.150082
-4.857103	, rp
-2.07463	, to	-0.03457606
-3.681012	, uh	-0.4248614
-1.961681	, vb	-0.2444346
-1.791897	, vbd	0.05939877
-1.427351	, vbg	-0.2571845
-1.815711	, vbn	-0.6350328
-1.951847	, vbp	-0.4200431
-1.615308	, vbz	-0.05003262
-1.666491	, wdt	-0.5081769
-2.105055	, wp	-0.4818962
-2.763682	, wp$	0.3791796
-1.90869	, wrb	0.02705848
-1.617709	. "	-1.333296
-3.930068	. #	0.6392019
-4.775166	. $
-3.519894	. ''	-0.6037304
-3.872076	. (	-0.08586429
-3.629038	. ,	-0.1905022
-3.184102	. .	0.7675981
-3.695985	. :	-0.02213897
-0.02313302	. </s>
-2.625947	. cc	-0.06903738
-3.004314	. cd	-0.08950233
-2.478501	. dt	-0.07466042
-3.930068	. ex	-0.004383504
-2.391351	. in	-0.1612771
-2.900105	. jj	0.07269329
-4.775166	. jjr
-4.474136	. jjs
-3.930068	. md	-0.04303491
-2.835647	. nn	-0.1034296
-2.503325	. nnp	-0.2122042
-3.775166	. nnps	-0.1065801
-3.121953	. nns	-0.1653127
-2.73774	. prp	-0.7014729
-4.034803	. prp$	-0.08140227
-2.641627	. rb	-0.5012401
-4.474136	. rbr
-2.779531	. sym	-0.4811928
-3.775166	. to	-0.01190108
-4.474136	. uh
-3.452947	. vb	0.04910809
-4.158383	. vbd
-3.162382	. vbg	0.2203054
-3.312768	. vbn	-0.04855886
-4.034803	. vbp	-0.2206235
-3.872076	. vbz	-0.1823837
-4.173106	. wdt	-0.2024367
-3.930068	. wp	-0.09402117
-3.775166	. wrb	-0.06326813
-1.628146	: "	-0.2425027
-3.991758	: #
-3.201707	: $	0.4210054
-3.088668	: (	-0.2254931
-3.374974	: ,	-0.388823
-3.251395	: .
-3.991758	: :
-1.571802	: </s>
-1.028442	: cc	0.2932832
-1.867906	: cd	-0.7095464
-0.783585	: dt	0.1945226
-2.235883	: ex	-0.4396821
-2.877814	: fw	-0.7090851
-0.8997391	: in	0.05160642
-1.278267	: jj	-0.2022653
-2.358289	: jjr	-0.5216936
-1.686406	: md	-0.348344
-1.249818	: nn	-0.4106419
-1.334702	: nnp	-0.6852827
-2.576784	: nnps	-0.2172648
-1.52936	: nns	-0.3278108
-3.14666	: pdt	2.21148
-1.242021	: prp	-1.067394
-1.962374	: prp$	-0.03009427
-1.111516	: rb	-0.00296998
-2.761309	: rbr	-0.03928971
-2.5446	: rbs	0.02296937
-3.374974	: sym	-0.753818
-1.719916	: to	-0.01654422
-3.201707	: uh	0.1492816
-1.741338	: vb	-0.08263183
-1.874486	: vbd	-0.19254
-1.566876	: vbg	-0.19339
-1.784932	: vbn	-0.1106353
-1.690728	: vbp	-0.2863123
-1.493447	: vbz	-0.3592572
-1.877814	: wdt	-0.1645948
-2.07268	: wp	0.07752717
-3.251395	: wp$	-0.07679968
-2.047275	: wrb	-0.1862433
-2.420668	<s> "	-0.8828477
-4.159911	<s> $	-0.3947344
-2.925436	<s> (	-0.2066596
-2.977353	<s> .	-1.437991
-3.123482	<s> :	-0.1659274
-1.159274	<s> cc	-0.4265137
-1.884043	<s> cd	-1.208204
-0.6674192	<s> dt	-0.5105393
-2.03006	<s> ex	-0.8596381
-4.159911	<s> fw	-0.7482823
-0.7496707	<s> in	-1.232922
-1.24343	<s> jj	-1.008597
-2.925436	<s> jjr	-0.737595
-2.411206	<s> jjs	-0.7616373
-2.368454	<s> md	-0.1606874
-1.581902	<s> nn	-0.6134034
-0.9846526	<s> nnp	-0.6667743
-2.868209	<s> nnps	-0.4801919
-1.537144	<s> nns	-1.371106
-1.177685	<s> prp	-1.757782
-1.994221	<s> prp$	-0.05087161
-0.9027923	<s> rb	-0.4690945
-2.411206	<s> rbr	0.3377155
-4.036331	<s> rbs	-0.4959769
-4.036331	<s> sym	-0.52327
-2.059856	<s> to	-0.7984471
-2.901633	<s> uh	-0.6250389
-2.180097	<s> vb	-0.781433
-2.890203	<s> vbd	-1.170855
-1.706287	<s> vbg	-0.721031
-2.25425	<s> vbn	-1.072233
-2.776694	<s> vbp	-0.6264215
-2.462827	<s> vbz	-1.007494
-2.919361	<s> wdt	-0.4386345
-2.004372	<s> wp	-0.3735864
-4.475664	<s> wp$
-1.777999	<s> wrb	-0.06293273
-2.340781	cc "	-0.8076723
-2.938645	cc #	-0.2399759
-3.399376	cc $	-0.3895191
-3.700406	cc (	-0.1641354
-4.654648	cc )
-1.874331	cc ,	-1.105977
-3.751558	cc .	1.02338
-3.375895	cc :	-0.4749047
-4.353618	cc </s>
-3.613256	cc cc	-0.2750131
-1.896494	cc cd	0.02312076
-0.8600207	cc dt	0.03792667
-2.296713	cc ex	-0.5181056
-3.540705	cc fw	-0.1419018
-1.232387	cc in	-0.2612324
-0.8138523	cc jj	-0.4453735
-2.085274	cc jjr	0.01500368
-3.575467	cc jjs	-0.08148989
-1.922254	cc md	0.0592432
-0.8739709	cc nn	-0.2178841
-1.03472	cc nnp	-0.2573891
-2.406675	cc nnps	-0.02050579
-1.171489	cc nns	-0.04039216
-3.613256	cc pdt	1.607455
-4.654648	cc pos
-1.455991	cc prp	-0.626381
-1.637615	cc prp$	0.1175387
-1.142364	cc rb	0.4231846
-2.314204	cc rbr	-0.468932
-2.663422	cc rbs	-0.09550047
-4.654648	cc rp
-1.958292	cc to	0.05451143
-3.914285	cc uh	0.08931679
-1.403497	cc vb	0.2195187
-1.681059	cc vbd	-0.2621527
-1.567222	cc vbg	-0.03659225
-1.739776	cc vbn	-0.6469899
-2.068061	cc vbp	-0.1934817
-1.745092	cc vbz	-0.2817514
-2.883796	cc wdt	0.4885885
-2.296713	cc wp	0.3404819
-3.478557	cc wp$	-0.1542747
-2.209044	cc wrb	-0.2565467
-2.487539	cd "	-0.2932302
-4.211814	cd $
-2.479421	cd (	-0.2716247
-4.211814	cd )
-0.959933	cd ,	-0.1713104
-1.191039	cd .	0.2766076
-1.904318	cd :	0.07663631
-1.902184	cd </s>
-1.605433	cd cc	-0.1077393
-1.259991	cd cd	-0.8463728
-2.050447	cd dt	-0.210994
-3.910784	cd ex	-0.9359159
-3.910784	cd fw
-1.086333	cd in	-0.460692
-1.230902	cd jj	-0.474031
-2.632031	cd jjr	-0.4133239
-2.796841	cd jjs	-0.3991881
-2.243331	cd md	-0.8942784
-0.7177991	cd nn	0.1618371
-1.701269	cd nnp	0.02229702
-2.298001	cd nnps	0.03096539
-0.7062575	cd nns	-0.5084636
-1.459766	cd pos	-0.420741
-2.479421	cd prp	-0.5300155
-4.211814	cd prp$
-2.053452	cd rb	-0.2769242
-3.097871	cd rbr	-0.4585149
-2.910784	cd rbs	-0.8580337
-2.09124	cd sym	-0.07764202
-1.755448	cd to	-0.5025047
-2.706665	cd vb	-0.1180369
-1.900061	cd vbd	-0.1842763
-2.298001	cd vbg	-0.07283795
-2.050447	cd vbn	-0.5538881
-2.578346	cd vbp	-0.5469452
-1.565411	cd vbz	0.08782232
-2.203214	cd wdt	-0.995848
-3.097871	cd wp	-0.2056137
-3.910784	cd wp$
-2.780451	cd wrb	-0.03065532
-2.036269	dt "	-1.33253
-3.278767	dt $	-0.2197683
-3.887167	dt (	-0.3074759
-4.816586	dt )	-0.9665823
-2.254293	dt ,	0.720484
-2.493334	dt .	-0.07534921
-3.183117	dt :	-0.2288396
-4.515556	dt </s>
-3.163373	dt cc	-0.2750425
-1.806286	dt cd	0.1911223
-2.581058	dt dt	-0.19908
-4.500833	dt ex	-0.09919181
-3.549414	dt fw	-0.3105935
-2.021054	dt in	-0.2691747
-0.6083462	dt jj	-0.4714403
-2.145413	dt jjr	-0.0410918
-2.103936	dt jjs	-0.60164
-2.328035	dt md	-0.22742
-0.4009116	dt nn	-0.3632765
-0.9476478	dt nnp	-0.1304286
-2.281292	dt nnps	-0.4693762
-1.115277	dt nns	0.1749005
-4.500833	dt pdt	1.931027
-3.913496	dt pos	-0.3129515
-1.767368	dt prp	-0.2709367
-3.080189	dt prp$	-0.3239042
-1.83932	dt rb	-0.438633
-2.422134	dt rbr	-1.157814
-2.255485	dt rbs	-0.9065856
-4.038435	dt sym	-0.09242062
-3.203802	dt to	-0.03269541
-4.076223	dt uh	-0.7119673
-2.918959	dt vb	-0.007256269
-2.49025	dt vbd	0.2356027
-1.884366	dt vbg	-0.5500137
-1.887423	dt vbn	-0.2224081
-2.775193	dt vbp	-0.2970983
-1.839549	dt vbz	-0.2467439
-3.188197	dt wdt	-0.7380369
-2.441838	dt wp	-0.6375495
-3.913496	dt wp$	-0.2593993
-4.076223	dt wrb	-0.1483407
-3.32838	ex "
-1.809866	ex ,	-0.4233015
-2.588017	ex :	-0.4200545
-2.588017	ex cc
-1.772077	ex dt	-0.3014142
-2.72632	ex jj	-0.02861018
-0.9445642	ex md	-1.00858
-2.42529	ex nn	-0.1277789
-2.538329	ex nns
-3.02735	ex prp
-2.152288	ex rb	-0.3741621
-2.42529	ex to	0.05749699
-2.02735	ex vb	-0.164176
-0.9356827	ex vbd	-0.9726294
-2.538329	ex vbn	-0.2013591
-0.6928958	ex vbp	-1.127248
-0.3051271	ex vbz	-1.877412
-3.32838	ex wdt
-3.32838	ex wp
-3.32838	ex wrb
-1.940732	fw "	-0.1166568
-2.113999	fw (
-2.730782	fw )
-0.9383906	fw ,	-0.08679485
-0.9983885	fw .	0.5298463
-1.99042	fw :
-2.730782	fw </s>
-1.554691	fw cc	-0.4577544
-2.429752	fw cd	-0.8943381
-1.77654	fw dt	0.1017233
-0.9047075	fw fw	-0.004973531
-1.369054	fw in	-0.35069
-1.526662	fw jj	-0.1268871
-2.429752	fw jjr	-0.8419393
-1.99042	fw md	0.03066808
-0.8795239	fw nn	-0.4473802
-0.709593	fw nnp	-0.09522682
-1.429752	fw nns	-0.375845
-1.99042	fw pos	-0.3128833
-2.429752	fw prp
-2.113999	fw rb
-2.730782	fw sym
-2.113999	fw to	-0.3308935
-1.99042	fw vb	-0.1970695
-1.77654	fw vbd	-0.2147741
-1.554691	fw vbg	-0.4445952
-2.113999	fw vbn
-2.113999	fw vbp
-1.68939	fw vbz	-0.10541
-2.429752	fw wdt
-2.730782	fw wp
-2.254652	in "	-1.192628
-2.914568	in $	-0.5730512
-4.914568	in ''
-3.784234	in (	-0.05097121
-4.914568	in )	-0.9424486
-2.271115	in ,	0.3147889
-3.233327	in .	1.126893
-3.118688	in :	-0.2662997
-4.136416	in </s>
-2.7532	in cc	-0.3055713
-1.509136	in cd	-0.6662426
-0.4858744	in dt	0.06682587
-2.672772	in ex	-0.3326594
-3.516628	in fw	-0.1617305
-1.672275	in in	0.1738427
-0.923763	in jj	-0.3407135
-2.363728	in jjr	-0.9474636
-2.573133	in jjs	-0.9363676
-3.582129	in md	0.5457101
-0.8747573	in nn	-0.3334508
-0.9278634	in nnp	-0.7988739
-2.444746	in nnps	0.1983191
-1.244461	in nns	0.2485111
-2.883159	in pdt	0.3521824
-4.3705	in pos	0.02423579
-1.418815	in prp	-0.3232105
-1.433197	in prp$	-0.01783466
-1.75984	in rb	0.1157126
-2.957919	in rbr	-0.5472294
-2.64975	in rbs	-0.2771074
-3.835387	in sym	-0.2864972
-2.390172	in to	0.1064357
-4.598814	in uh
-3.247115	in vb	-0.1723636
-3.334784	in vbd	-0.6574541
-1.380796	in vbg	-0.7036235
-2.176978	in vbn	-0.3087375
-3.475235	in vbp	-0.1530048
-2.810764	in vbz	-0.1473374
-2.241547	in wdt	0.07495821
-2.410777	in wp	0.008980513
-4.011478	in wp$	0.06041658
-2.613538	in wrb	-0.645751
-2.094727	jj "	-0.9000543
-3.443828	jj $	-0.1202998
-4.485221	jj ''
-2.931945	jj (	-0.2329657
-4.470498	jj )
-1.403604	jj ,	-0.4514589
-1.487944	jj .	-0.2454195
-2.133038	jj :	0.04112732
-3.543213	jj </s>
-1.493109	jj cc	-0.1023905
-2.095612	jj cd	-0.4395307
-2.190204	jj dt	-0.5472372
-4.485221	jj ex	0.03830403
-3.973337	jj fw	-0.2590256
-1.287183	jj in	0.02134585
-1.127905	jj jj	0.1669843
-3.832008	jj jjr	0.1155285
-3.301951	jj jjs	-0.6344975
-2.779785	jj md	0.7185916
-0.3859115	jj nn	-0.2231951
-1.682618	jj nnp	-0.1059682
-2.462999	jj nnps	0.2403952
-0.6128023	jj nns	-0.8550334
-3.941153	jj pdt	1.510545
-4.184191	jj pos	-0.05093351
-2.597322	jj prp	-0.3861094
-3.100509	jj prp$	-0.290206
-2.171881	jj rb	-0.3772336
-4.786251	jj rbr	-0.5210114
-3.856832	jj rbs	-0.9229485
-4.29723	jj rp	-0.2078848
-2.89976	jj sym	-0.2672489
-1.492336	jj to	-0.3566983
-2.784085	jj vb	0.04999304
-2.820109	jj vbd	0.1800122
-2.765062	jj vbg	0.0362078
-2.731255	jj vbn	-0.4351912
-2.891381	jj vbp	-0.1986463
-2.654312	jj vbz	-0.3781272
-3.339093	jj wdt	0.05341089
-3.254772	jj wp	-0.06043613
-4.470498	jj wp$	-0.2345276
-2.976691	jj wrb	-0.3278563
-2.291665	jjr "	-0.4942533
-2.865696	jjr (	-0.04251393
-1.38318	jjr ,	-0.4299511
-1.20176	jjr .	-0.09144759
-2.125333	jjr :	-0.1739904
-3.768786	jjr </s>
-1.440406	jjr cc	-0.7078056
-2.768786	jjr cd	-0.1392784
-1.675364	jjr dt	-0.8888718
-0.5406424	jjr in	-0.265523
-1.942711	jjr jj	-0.6654906
-3.768786	jjr jjs
-2.865696	jjr md	-0.3642584
-0.5411564	jjr nn	-0.672161
-1.760186	jjr nnp	-0.1009285
-2.654843	jjr nnps	-0.3892688
-0.867873	jjr nns	-0.564257
-2.426363	jjr prp	-0.5896666
-2.978736	jjr prp$	-0.2361591
-2.321628	jjr rb	-0.6784862
-2.814543	jjr sym	-0.08635947
-1.424394	jjr to	0.005390882
-2.263636	jjr vb	-0.2693577
-2.467756	jjr vbd	-0.1688675
-2.012911	jjr vbg	-0.3333168
-2.978736	jjr vbn	-0.1349017
-2.814543	jjr vbp	-0.1679258
-2.291665	jjr vbz	-0.2212081
-3.467756	jjr wdt
-3.152003	jjr wp
-2.564666	jjr wrb	-0.1447654
-2.583045	jjs "
-2.632733	jjs $	0.7424667
-1.373096	jjs ,	-0.1258318
-1.710338	jjs .	0.1480849
-2.259153	jjs :	-0.1154675
-3.072066	jjs </s>
-1.816793	jjs cc	-0.5168511
-1.423706	jjs cd	-0.8209979
-1.64882	jjs dt	-0.1783437
-0.8706689	jjs in	-0.3981493
-1.000184	jjs jj	-0.4084946
-3.373096	jjs jjr
-2.632733	jjs md	0.3968313
-0.5502743	jjs nn	0.03928816
-1.895975	jjs nnp	-0.3087575
-2.117824	jjs nnps	-0.289607
-0.7141311	jjs nns	-0.1221796
-3.373096	jjs pdt
-3.373096	jjs pos
-2.117824	jjs prp	-0.3184156
-2.756313	jjs prp$
-1.373096	jjs rb	-0.4194477
-3.072066	jjs rbr
-3.072066	jjs rbs	-0.9372671
-2.632733	jjs sym	-0.254623
-1.867946	jjs to	-0.4930341
-1.867946	jjs vb	-0.1255589
-2.226968	jjs vbd	-0.2086866
-1.975156	jjs vbg	-0.02999729
-2.168976	jjs vbp	-0.128285
-2.197005	jjs vbz	-0.07307731
-2.756313	jjs wdt	-0.3399326
-3.072066	jjs wp
-2.583045	jjs wrb	-0.3373828
-2.878117	md "	-1.010021
-3.309481	md (	-0.3833199
-4.309481	md )
-2.068932	md ,	-0.8756745
-2.483406	md .	-0.1297902
-2.847083	md :	-0.2351571
-4.309481	md </s>
-2.374983	md cc	-0.8904531
-2.83236	md cd	-0.9472151
-1.788343	md dt	-0.4657365
-3.2303	md ex	-0.5979629
-4.309481	md fw
-2.20911	md in	-0.2282575
-2.476972	md jj	-0.3687914
-3.268088	md jjr	-0.3413444
-3.105361	md jjs	-1.224522
-4.309481	md md
-2.464383	md nn	-0.5437748
-2.145128	md nnp	-1.085661
-3.569118	md nnps	-0.4967405
-2.666028	md nns	-0.4311342
-3.692698	md pdt	1.931027
-1.902941	md prp	-1.472061
-3.163353	md prp$	0.6085103
-0.7625685	md rb	-1.422988
-3.406391	md rbr	-0.1724312
-2.804331	md rbs	-1.062154
-3.569118	md sym	-0.2873976
-2.360091	md to	-1.212029
-0.1290398	md vb	-0.8046958
-3.406391	md vbd	-0.2504927
-3.464383	md vbg	-0.1094287
-3.464383	md vbn	-0.2620408
-3.309481	md vbp	-0.206038
-3.268088	md vbz	-0.2840031
-3.355239	md wdt	-0.549112
-4.309481	md wrb
-2.116854	nn "	-0.320817
-4.491751	nn $	0.8854376
-4.003047	nn ''	-0.1489772
-2.537508	nn (	-0.1822146
-4.327559	nn )	-0.1480685
-0.9143894	nn ,	-0.212549
-0.9075662	nn .	-0.3041892
-1.764869	nn :	-0.05202985
-3.00996	nn </s>
-1.344384	nn cc	-0.05235791
-2.783491	nn cd	-0.3893933
-2.087564	nn dt	-0.1633778
-3.462257	nn ex	0.2624182
-3.367987	nn fw	-0.2156017
-0.5547075	nn in	0.3535919
-1.984041	nn jj	0.4771731
-2.873561	nn jjr	-0.4577857
-4.327559	nn jjs	-0.07352975
-1.586758	nn md	-0.6315124
-1.13757	nn nn	0.3235343
-2.165858	nn nnp	-0.1055298
-3.628589	nn nnps	-0.1415757
-1.235072	nn nns	-0.1376588
-4.20262	nn pdt	1.572693
-1.762105	nn pos	-0.08968735
-2.321806	nn prp	-0.4942188
-3.549407	nn prp$	0.1572202
-1.734889	nn rb	-0.1299098
-3.099958	nn rbr	-0.08027208
-4.10571	nn rbs	-0.5130659
-3.920074	nn rp	-0.04625022
-2.528985	nn sym	-0.3450993
-1.361	nn to	0.02660918
-4.980771	nn uh	-0.9306672
-2.426888	nn vb	-0.1345263
-1.633441	nn vbd	-0.1829724
-2.20845	nn vbg	-0.1193005
-1.999632	nn vbn	-0.7698956
-2.23962	nn vbp	-0.2778972
-1.205817	nn vbz	0.345325
-1.998953	nn wdt	-0.8386428
-2.719508	nn wp	-0.4969686
-3.455726	nn wp$	-0.7613492
-2.472241	nn wrb	-0.7227793
-2.258331	nnp "	-0.02011502
-4.63308	nnp $	0.2766582
-4.089011	nnp ''	-0.3075814
-2.099053	nnp (	-0.288482
-4.144059	nnp )
-0.9152842	nnp ,	-0.049824
-1.227392	nnp .	0.2578194
-1.903915	nnp :	-0.2569773
-1.96237	nnp </s>
-1.280318	nnp cc	-0.5413144
-2.034289	nnp cd	0.1863987
-2.269467	nnp dt	0.05848849
-3.758018	nnp ex	-0.01444548
-2.873412	nnp fw	-0.4931517
-1.194379	nnp in	-0.1309834
-1.888786	nnp jj	0.1869853
-3.365908	nnp jjr	-0.2284986
-4.63308	nnp jjs
-1.581156	nnp md	-0.7828962
-1.214944	nnp nn	-0.1869178
-0.6520767	nnp nnp	-0.1065383
-2.000116	nnp nnps	0.08185339
-1.495409	nnp nns	0.4543209
-4.317326	nnp pdt	1.931027
-0.9437706	nnp pos	-0.1015251
-2.719266	nnp prp	-0.2926644
-3.63308	nnp prp$	0.4318332
-1.834084	nnp rb	-0.8079569
-3.456988	nnp rbr	-0.3150343
-4.317326	nnp rbs
-4.934109	nnp rp
-2.050448	nnp sym	-0.6689597
-1.920851	nnp to	-0.3015307
-4.934109	nnp uh
-2.205756	nnp vb	-0.2027555
-1.316061	nnp vbd	0.2167413
-2.411665	nnp vbg	-0.1878474
-4.934109	nnp vbg|nn
-2.82352	nnp vbn	-0.4332471
-2.0915	nnp vbp	-0.3635182
-1.21819	nnp vbz	-0.2415652
-2.696063	nnp wdt	-0.997924
-3.020296	nnp wp	-0.6666034
-4.031019	nnp wp$	-0.3824328
-3.1016	nnp wrb	-0.3980475
-2.117981	nnps "	-0.1917878
-3.565139	nnps ''
-1.866169	nnps (	-0.5583051
-3.565139	nnps )
-0.8367854	nnps ,	0.1587706
-1.005233	nnps .	-0.2727766
-1.656654	nnps :	0.03242391
-1.857569	nnps </s>
-1.044001	nnps cc	-0.644304
-3.565139	nnps cd
-2.150166	nnps dt	-0.4492268
-0.9523553	nnps in	-0.1117473
-2.008837	nnps jj	-0.2276562
-2.824776	nnps jjr	-0.1649662
-1.332143	nnps md	-0.5464164
-1.412851	nnps nn	-0.1525812
-2.775089	nnps nnp	-0.2563533
-2.24292	nnps nns	0.001797169
-1.620656	nnps pos	-0.4829773
-2.610897	nnps prp	-0.161207
-3.565139	nnps prp$
-1.434805	nnps rb	-0.198127
-2.948356	nnps rbr	0.07227078
-2.088018	nnps sym	-0.06488377
-1.587416	nnps to	-0.1610759
-2.361019	nnps vb	-0.08543536
-1.179533	nnps vbd	0.1138653
-1.974075	nnps vbg	-0.4057345
-1.620656	nnps vbn	-0.175424
-0.8722922	nnps vbp	-0.02043796
-1.578367	nnps vbz	-0.0647797
-2.523746	nnps wdt	-0.2726004
-1.801711	nnps wp	-0.9727631
-3.264109	nnps wp$	-0.8891815
-2.963079	nnps wrb	-0.2038345
-2.265221	nns "	-1.196082
-4.957186	nns $
-4.216823	nns ''
-2.303973	nns (	0.004503727
-4.656156	nns )
-0.8677045	nns ,	-0.3565545
-0.8602062	nns .	-0.1364832
-1.637455	nns :	-0.3406885
-2.96155	nns </s>
-1.221347	nns cc	-0.03274059
-3.249615	nns cd	-0.3963839
-2.405736	nns dt	0.01056111
-3.634966	nns ex	-0.3892428
-4.112088	nns fw	-0.1278569
-0.5986037	nns in	-0.3166268
-1.939735	nns jj	0.3604003
-2.701913	nns jjr	-0.3557609
-4.054096	nns jjs	-0.3241218
-1.407325	nns md	-0.3894939
-2.110849	nns nn	0.4449477
-2.647556	nns nnp	-0.2371188
-4.054096	nns nnps	-0.2629902
-2.260829	nns nns	0.004986048
-4.340403	nns pdt	1.931027
-2.070131	nns pos	-0.6855403
-2.354041	nns prp	-0.1314898
-3.151006	nns prp$	-0.3375485
-1.507091	nns rb	-0.7266301
-2.904107	nns rbr	0.4545116
-3.781095	nns rbs	0.03648606
-4.340403	nns rp	-0.387389
-2.480064	nns sym	-0.1210766
-1.39122	nns to	-0.1486561
-2.57337	nns vb	-0.2312616
-1.475743	nns vbd	-0.3330774
-1.965517	nns vbg	-0.1282099
-1.737078	nns vbn	-0.6166977
-0.9902465	nns vbp	0.007542372
-1.786337	nns vbz	-0.198372
-1.668936	nns wdt	-0.9238383
-2.135018	nns wp	-0.819524
-3.208998	nns wp$	0.1478299
-2.497793	nns wrb	-0.7459848
-0.0008945307	pdt dt	-0.2715427
-1.986742	pos "	-0.9027146
-3.375669	pos $	0.4210054
-2.961599	pos (	-0.07557794
-1.760885	pos ,	0.04014397
-1.953531	pos .	-0.3526572
-2.785508	pos :	-0.2972312
-3.548936	pos </s>
-2.178947	pos cc	-0.4842017
-2.007357	pos cd	-0.7477976
-3.165719	pos dt	0.02509034
-4.165719	pos ex
-3.262629	pos fw	-0.2039254
-2.359539	pos in	0.1017113
-0.6082118	pos jj	-0.6316528
-2.767779	pos jjr	-0.3566117
-1.71547	pos jjs	-1.037516
-2.703321	pos md	0.3511631
-0.4151335	pos nn	-0.5073957
-1.066729	pos nnp	-0.2694546
-2.660569	pos nnps	-0.04583451
-0.8938774	pos nns	-0.5234832
-3.563659	pos pos	-0.2075706
-3.051776	pos prp	-0.2048841
-4.165719	pos prp$
-2.007357	pos rb	-0.3146522
-3.051776	pos rbr	-0.3444796
-2.038614	pos rbs	-1.50031
-2.674357	pos sym	-0.3179946
-3.124326	pos to	-0.04506823
-4.165719	pos uh
-2.750746	pos vb	-0.1682448
-2.425356	pos vbd	-0.3978542
-1.695897	pos vbg	-0.7826538
-1.978198	pos vbn	-0.8214775
-2.750746	pos vbp	-0.4503897
-2.449716	pos vbz	-0.1310564
-3.425356	pos wdt	-0.209931
-4.165719	pos wp
-4.165719	pos wp$
-4.165719	pos wrb
-2.588629	prp "	-0.2960796
-3.542872	prp $	0.3118609
-4.445962	prp ''
-3.19069	prp (	-0.1596103
-4.445962	prp )
-1.459638	prp ,	0.1338289
-1.275407	prp .	-0.4073317
-2.231118	prp :	0.123022
-3.600864	prp </s>
-1.818596	prp cc	-0.3018035
-3.332019	prp cd	-0.4016789
-1.915762	prp dt	-0.115853
-3.829179	prp ex	-0.09919181
-4.445962	prp fw
-1.261555	prp in	-0.01494145
-1.630384	prp jj	-0.5169994
-2.690087	prp jjr	-0.4203102
-3.843902	prp jjs
-0.8394732	prp md	-0.9804243
-1.741812	prp nn	-0.09700358
-2.030989	prp nnp	-0.291046
-3.048022	prp nnps	-0.1448908
-2.065751	prp nns	0.1837913
-3.829179	prp pdt	1.931027
-2.998804	prp prp	-0.08180964
-3.084234	prp prp$	-0.2814023
-1.277759	prp rb	-0.6838349
-2.713568	prp rbr	-0.4347824
-3.829179	prp rbs
-4.144932	prp rp
-3.030989	prp sym	-0.2627638
-1.684034	prp to	-0.1789908
-1.798579	prp vb	-0.1219963
-0.8478284	prp vbd	-0.08413339
-2.501479	prp vbg	0.03324914
-2.646621	prp vbn	0.162772
-0.7329758	prp vbp	0.5190434
-0.7377962	prp vbz	-0.5642431
-3.491719	prp wdt	-0.2845442
-2.843902	prp wp	-0.2688341
-4.445962	prp wp$
-2.940812	prp wrb	-0.2653196
-2.123642	prp$ "	-1.300037
-3.420706	prp$ $	0.7424667
-3.371018	prp$ (	-0.4743702
-3.860038	prp$ )
-3.081887	prp$ ,	-0.128313
-3.31597	prp$ .	0.4399691
-2.683947	prp$ cc	-1.16597
-2.268974	prp$ cd	-0.7324682
-3.371018	prp$ dt	-0.09155446
-3.559008	prp$ fw	-0.2009057
-3.371018	prp$ in	-0.81963
-0.5804855	prp$ jj	-0.6892626
-2.79934	prp$ jjr	-0.6456357
-2.131685	prp$ jjs	-0.7590665
-2.882315	prp$ md	-0.3915342
-0.377022	prp$ nn	-0.4572721
-1.691246	prp$ nnp	-0.309077
-3.420706	prp$ nnps
-0.6194891	prp$ nns	-0.3153529
-4.161068	prp$ pdt
-4.161068	prp$ pos
-3.860038	prp$ prp	-0.9856962
-2.144035	prp$ rb	-0.6822426
-3.081887	prp$ rbr	-0.3097175
-2.548285	prp$ rbs	-1.305283
-3.420706	prp$ to	-0.3551862
-3.559008	prp$ vb	-0.8515234
-2.617	prp$ vbd	-0.5513077
-2.375739	prp$ vbg	-0.7091959
-2.064158	prp$ vbn	-1.25761
-3.206826	prp$ vbp	-0.3083253
-3.544285	prp$ vbz
-2.66088	rb "	-0.3981924
-2.898241	rb $	-0.1485862
-3.204948	rb (	-0.2026362
-4.784731	rb )
-0.8768365	rb ,	-0.6555817
-1.284907	rb .	-0.24562
-2.22363	rb :	0.1793022
-3.462512	rb </s>
-2.061276	rb cc	-0.1691436
-1.941499	rb cd	-0.5543029
-1.216295	rb dt	0.1843593
-2.840249	rb ex	0.1027932
-4.044369	rb fw
-0.8788276	rb in	0.06710482
-0.9467013	rb jj	-0.1367111
-1.782998	rb jjr	-0.147393
-2.999402	rb jjs	-0.2575375
-2.203806	rb md	0.128816
-2.002976	rb nn	-0.1644328
-1.942747	rb nnp	-0.4501102
-3.253253	rb nnps	0.03611889
-2.332945	rb nns	-0.179127
-3.462512	rb pdt	1.344213
-3.881641	rb pos	-0.05093351
-2.019063	rb prp	-0.6982478
-2.475101	rb prp$	-0.08180976
-1.098632	rb rb	-0.1109815
-2.019063	rb rbr	-0.6174892
-3.171947	rb rbs	0.2230123
-3.994681	rb rp	-0.1868458
-2.881641	rb sym	0.01768613
-1.642342	rb to	-0.1047416
-1.025593	rb vb	0.07972026
-1.53285	rb vbd	-0.1472836
-1.583334	rb vbg	-0.08662534
-1.080495	rb vbn	0.4638746
-1.602888	rb vbp	-0.2283664
-1.47192	rb vbz	0.3126051
-3.240663	rb wdt	-0.0447796
-2.694826	rb wp	-0.02337027
-2.270184	rb wrb	-0.201249
-1.817255	rbr ,	0.08647829
-2.393508	rbr .	0.1711237
-2.905391	rbr :	-0.2001943
-1.916386	rbr cc	-0.6346264
-3.507451	rbr cd
-1.905391	rbr dt	-0.969085
-1.373912	rbr in	-0.1960164
-0.1805011	rbr jj	-0.4433405
-3.206421	rbr nn
-2.717401	rbr nnp	-0.3771366
-3.507451	rbr nns
-3.206421	rbr prp
-0.7856404	rbr rb	-0.3227963
-2.662353	rbr to	0.03064525
-2.890668	rbr vb
-2.553209	rbr vbd	-0.222471
-2.905391	rbr vbg
-1.132703	rbr vbn	-0.3365458
-2.890668	rbr vbp	-0.6839452
-2.662353	rbr vbz	-0.2175088
-3.507451	rbr wrb
-2.690418	rbs "	-0.3525585
-1.93075	rbs ,	-0.261926
-2.178534	rbs .	0.4721537
-2.690418	rbs :
-2.675694	rbs cc
-2.675694	rbs cd
-0.9461246	rbs in	-0.5743892
-0.2946545	rbs jj	-0.7528759
-2.991448	rbs md
-1.486298	rbs nn	-0.1958243
-1.83008	rbs nnp	-0.6052313
-1.62972	rbs nnps	-0.3657892
-0.9702583	rbs nns	-0.2984387
-2.675694	rbs prp
-1.235573	rbs rb	-0.363922
-2.675694	rbs to
-2.292478	rbs vb	-0.192131
-1.912266	rbs vbd	-0.4770267
-1.773964	rbs vbg	-0.5301557
-1.209692	rbs vbn	-0.09234041
-2.088358	rbs vbp	-0.2104151
-2.14635	rbs vbz	-0.2496748
-2.544068	rp "
-2.544068	rp (
-1.69897	rp ,	-0.7902827
-1.942008	rp :	-0.3598511
-2.544068	rp cd
-0.4436975	rp dt	-0.3075894
-0.4073475	rp in	-0.2930594
-1.201645	rp jj	-1.468784
-2.243038	rp jjr
-1.430125	rp nn	-0.5655144
-1.544068	rp nns	-0.9152957
-1.754018	rp prp$	-0.725817
-1.502675	rp rb	-1.01761
-1.927285	rp to	-0.7466176
-2.243038	rp vbg	-0.9462426
-2.544068	rp vbn
-2.544068	rp wp
-2.482516	sym "	-0.1237369
-0.6540175	sym ,	0.1910536
-0.7421536	sym .	-0.2120187
-1.752138	sym :	-0.2201785
-1.510545	sym </s>
-1.184209	sym cc	0.09888303
-2.385606	sym cd	-0.2853772
-1.829304	sym dt	-0.1337429
-3.385606	sym ex
-1.037301	sym in	-0.09871733
-1.686636	sym jj	-0.1637016
-2.768823	sym jjr	-0.2486571
-1.499116	sym md	-0.8122854
-1.34818	sym nn	0.02512407
-1.841538	sym nnp	0.08848685
-3.084576	sym nnps
-1.645244	sym nns	-0.07030147
-3.385606	sym pos
-2.306425	sym prp	-0.2702982
-2.595556	sym prp$	-0.2573927
-1.817405	sym rb	-0.3124046
-3.385606	sym rbs
-1.579426	sym to	0.05844307
-3.385606	sym uh
-1.686636	sym vb	-0.3069041
-1.385606	sym vbd	-0.2038905
-2.106853	sym vbg	-0.125549
-1.566062	sym vbn	-0.461162
-1.732394	sym vbp	-0.252408
-1.288696	sym vbz	-0.3180334
-1.970633	sym wdt	-0.1355934
-2.595556	sym wp	-0.4091822
-2.783546	sym wrb
-2.385014	to "	-0.8060038
-2.90293	to $	-0.3773493
-4.245352	to (
-3.166171	to ,	-0.3896013
-3.267629	to .	0.6083735
-3.400254	to :	-0.1789029
-3.342262	to cc	-0.3266079
-1.870604	to cd	-0.6608889
-0.8553007	to dt	-0.2843659
-4.245352	to fw	-0.8951508
-2.481924	to in	-0.477576
-1.336599	to jj	-1.012537
-2.432439	to jjr	-0.2191391
-3.944322	to jjs	-0.114997
-4.546382	to md
-1.460022	to nn	-0.2210556
-1.367118	to nnp	-0.212889
-3.055021	to nnps	-0.3222727
-1.688447	to nns	-0.3411849
-3.370291	to pdt	1.482516
-3.929599	to pos
-2.213944	to prp	0.1943493
-1.778485	to prp$	-0.2265639
-2.144982	to rb	-0.4224153
-2.955318	to rbr	-0.4023162
-3.224163	to rbs	0.1109636
-4.546382	to sym
-4.546382	to uh
-0.198019	to vb	-0.5637417
-3.643292	to vbd	-0.4572266
-1.913925	to vbg	-0.5241314
-2.782954	to vbn	-1.383448
-3.083984	to vbp	-0.2862832
-3.59214	to vbz	-0.05122405
-2.559611	to wdt	-0.7352579
-2.665569	to wp	-0.4076907
-2.966599	to wrb	-0.3202762
-1.408607	uh "	-0.3187079
-0.2301741	uh ,	0.01611334
-0.8976271	uh .	0.6320471
-2.198657	uh :
-2.198657	uh </s>
-1.458294	uh cc	-0.7498445
-2.198657	uh cd
-2.198657	uh dt
-1.897627	uh in	-0.8176652
-1.897627	uh jj	-0.9664276
-1.198657	uh nn	-0.2857107
-1.897627	uh nnp
-1.581874	uh nns
-2.198657	uh pos
-1.897627	uh prp
-1.897627	uh to
-2.198657	uh vb
-2.198657	uh vbn
-1.897627	uh vbz
-2.380021	vb "	-0.7135002
-3.181653	vb $	-0.2524105
-4.083384	vb ''
-3.302227	vb (	-0.3991519
-4.700167	vb )
-1.630129	vb ,	-0.09549856
-1.4337	vb .	0.0539062
-2.288547	vb :	-0.2613761
-3.586224	vb </s>
-1.903593	vb cc	-0.2666184
-2.240775	vb cd	-0.3275242
-0.689316	vb dt	-0.2474847
-3.855069	vb ex	-0.007236868
-3.855069	vb fw	-0.1315609
-0.8750007	vb in	-0.1829729
-0.9855858	vb jj	-0.2540615
-1.948119	vb jjr	-0.3887929
-4.098107	vb jjs	-0.1958395
-3.037409	vb md	0.213805
-1.170095	vb nn	-0.2840505
-1.526107	vb nnp	-0.3956692
-2.914837	vb nnps	-0.2265292
-1.426009	vb nns	0.1091681
-3.168688	vb pdt	1.142568
-3.098107	vb pos	-1.048848
-1.451948	vb prp	0.4819221
-1.346635	vb prp$	0.0003380775
-1.308879	vb rb	-0.2554426
-2.237769	vb rbr	-0.5485179
-3.377948	vb rbs	-0.4138902
-2.603257	vb rp	0.03108418
-3.399137	vb sym	-0.07917008
-1.334118	vb to	0.001464605
-3.910116	vb uh	-0.3197217
-2.179029	vb vb	-0.2603779
-2.755684	vb vbd	0.07380223
-1.865111	vb vbg	-0.3397105
-1.008909	vb vbn	-0.3023145
-3.237769	vb vbp	-0.1361046
-2.596363	vb vbz	-0.2144949
-2.975891	vb wdt	0.3153877
-2.325419	vb wp	-0.9966325
-4.700167	vb wp$
-2.265598	vb wrb	-0.3700966
-2.315773	vbd "	-0.5030245
-3.105205	vbd $	-0.03492665
-3.128686	vbd (	-0.1784685
-1.555944	vbd ,	-0.1074365
-1.637325	vbd .	-0.2564265
-2.308412	vbd :	-0.1882296
-4.383959	vbd </s>
-2.185302	vbd cc	-0.5194009
-1.884272	vbd cd	-0.5931482
-0.7472705	vbd dt	-0.2675366
-3.538861	vbd ex	-0.3036802
-3.781899	vbd fw	-0.2054918
-0.7840759	vbd in	-0.705802
-1.10452	vbd jj	-0.2386923
-2.280155	vbd jjr	-0.1427349
-3.480869	vbd jjs	-0.1988592
-3.179839	vbd md	-0.4084024
-1.297599	vbd nn	0.1187897
-1.542599	vbd nnp	-0.8271941
-3.128686	vbd nnps	-0.1239124
-1.62128	vbd nns	-0.4683013
-3.237831	vbd pdt	1.510545
-1.594378	vbd prp	0.08833051
-1.590867	vbd prp$	0.01273727
-0.9585878	vbd rb	-0.5540491
-2.591567	vbd rbr	0.2322878
-3.022231	vbd rbs	-0.537531
-2.740506	vbd rp	0.01272756
-3.128686	vbd sym	-0.0723528
-1.139929	vbd to	-0.1860377
-4.383959	vbd uh
-2.304778	vbd vb	-0.3291987
-2.475474	vbd vbd	-0.3158094
-1.736576	vbd vbg	-0.1095451
-0.9505091	vbd vbn	-0.3312495
-3.429716	vbd vbp	-0.2918481
-2.936801	vbd vbz	-0.09358662
-3.270015	vbd wdt	-0.2443949
-2.906838	vbd wp	-0.3203021
-2.449461	vbd wrb	-0.4303106
-2.227437	vbg "	-0.4974691
-3.152324	vbg $	0.01083088
-3.10402	vbg (	0.02489546
-4.382773	vbg )
-1.67691	vbg ,	-0.2754349
-1.63381	vbg .	-0.1175323
-2.479683	vbg :	-0.06494176
-3.341381	vbg </s>
-1.883086	vbg cc	-0.4981086
-2.181376	vbg cd	-0.5254896
-0.7126202	vbg dt	-0.3170116
-3.642411	vbg ex	0.0005441904
-0.8883404	vbg in	0.1840174
-1.015977	vbg jj	-0.239109
-2.097216	vbg jjr	-0.4096415
-4.081743	vbg jjs
-2.769989	vbg md	-0.5385785
-0.8232257	vbg nn	-0.2011924
-1.362827	vbg nnp	-0.04832184
-2.877623	vbg nnps	-0.02033871
-1.023697	vbg nns	-0.3287129
-3.081743	vbg pdt	1.364417
-3.206682	vbg pos	0.05271795
-1.631494	vbg prp	-0.3860723
-1.494032	vbg prp$	-0.002158403
-1.415225	vbg rb	-0.09229743
-2.56986	vbg rbr	-0.1390233
-3.341381	vbg rbs	-0.2822092
-2.650379	vbg rp	0.0363813
-3.303592	vbg sym	-0.02856769
-1.264839	vbg to	-0.02662349
-2.428531	vbg vb	-0.2465435
-3.040351	vbg vbd	0.02279019
-2.604622	vbg vbg	-0.4821678
-1.552185	vbg vbn	-0.2887141
-2.543924	vbg vbp	-0.5769038
-2.236645	vbg vbz	0.0005073547
-3.021045	vbg wdt	-0.09075052
-2.611921	vbg wp	-0.467665
-4.382773	vbg wp$
-2.543924	vbg wrb	-0.3447884
-0.30103	vbg|nn in
-2.162709	vbn "	-0.7471691
-3.205977	vbn $	-0.07631934
-2.971894	vbn (	-0.4137531
-1.314679	vbn ,	-0.09531021
-1.16196	vbn .	-0.466917
-2.05398	vbn :	0.08351386
-3.926136	vbn </s>
-1.664279	vbn cc	-0.1674064
-2.308089	vbn cd	-0.4645372
-1.183608	vbn dt	-0.4781612
-3.625107	vbn ex	-0.2699919
-4.528196	vbn fw
-0.462169	vbn in	-0.174978
-1.278998	vbn jj	-0.3915653
-2.287647	vbn jjr	-0.2440578
-3.787834	vbn jjs	-0.4964884
-2.838001	vbn md	0.2464801
-1.156575	vbn nn	-0.2599635
-1.706683	vbn nnp	-0.4845978
-3.081038	vbn nnps	-0.1647655
-1.357641	vbn nns	-0.01308513
-3.449015	vbn pdt	1.572693
-3.787834	vbn pos	-0.1168766
-2.041058	vbn prp	0.3955847
-1.969488	vbn prp$	-0.1163012
-1.281944	vbn rb	-0.7626592
-2.515359	vbn rbr	-0.308015
-3.081038	vbn rbs	-0.6040109
-2.996718	vbn rp	-0.5003062
-2.948413	vbn sym	-0.0293383
-0.9921434	vbn to	-0.1051762
-2.689348	vbn vb	-0.6427442
-2.722017	vbn vbd	-0.1437502
-2.035436	vbn vbg	-0.2556924
-1.498813	vbn vbn	-0.3123626
-2.856099	vbn vbp	-0.1929154
-2.438292	vbn vbz	-0.08557415
-3.382069	vbn wdt	-0.04468414
-3.051075	vbn wp	-0.07402098
-2.578807	vbn wrb	-0.2661312
-2.416531	vbp "	-0.6581571
-3.758789	vbp $	0.5104945
-3.296391	vbp (	-0.4868305
-1.517637	vbp ,	0.06510985
-1.647218	vbp .	-0.1366891
-2.366972	vbp :	-0.09196407
-4.375572	vbp </s>
-2.21721	vbp cc	-0.5314057
-2.245238	vbp cd	-0.7841381
-0.9421224	vbp dt	-0.2602577
-3.261629	vbp ex	-0.1507649
-3.63521	vbp fw	-0.1353914
-0.9202704	vbp in	-0.07715631
-0.9750342	vbp jj	-0.6023499
-1.991757	vbp jjr	-0.5322723
-3.585522	vbp jjs	-0.09156586
-2.762788	vbp md	0.2492305
-1.448715	vbp nn	-0.3802632
-1.970738	vbp nnp	-0.4853364
-2.898451	vbp nnps	-0.2084087
-1.561325	vbp nns	-0.1512929
-3.096819	vbp pdt	1.385606
-4.074542	vbp pos
-1.62046	vbp prp	0.4439538
-1.851826	vbp prp$	-0.3424209
-0.7954459	vbp rb	-0.416328
-2.092271	vbp rbr	-0.209287
-2.651296	vbp rbs	-0.1440827
-3.013844	vbp rp	-0.1184193
-3.296391	vbp sym	-0.1054056
-1.228515	vbp to	-0.06194258
-4.375572	vbp uh
-2.232557	vbp vb	-0.1736932
-2.742104	vbp vbd	-0.2272388
-1.23727	vbp vbg	-0.2922268
-0.8178244	vbp vbn	0.002257824
-3.1203	vbp vbp	-0.1441088
-2.411784	vbp vbz	-0.03989959
-3.296391	vbp wdt	-0.1230484
-2.676602	vbp wp	-0.5470198
-2.483478	vbp wrb	-0.1322151
-2.451611	vbz "	-0.6335597
-3.778831	vbz $	0.8854376
-3.422754	vbz (	-0.1295731
-4.568882	vbz )
-1.617544	vbz ,	0.3301091
-1.893104	vbz .	-0.1871724
-2.482522	vbz :	0.08199298
-3.952099	vbz </s>
-2.359367	vbz cc	-0.1461085
-2.069195	vbz cd	-0.6580988
-0.7350976	vbz dt	0.01222205
-2.878686	vbz ex	-1.062002
-4.568882	vbz fw
-0.949267	vbz in	0.2314725
-0.941209	vbz jj	-0.6145529
-1.999508	vbz jjr	-0.2469342
-3.489701	vbz jjs	-0.6630705
-2.836488	vbz md	-0.2556455
-1.450617	vbz nn	-0.7698969
-1.834082	vbz nnp	-0.8997352
-3.454939	vbz nnps	-0.1741234
-1.987957	vbz nns	-0.7907957
-2.956098	vbz pdt	1.063387
-1.77649	vbz prp	0.02733231
-1.963577	vbz prp$	-0.1128265
-0.7775423	vbz rb	-1.017241
-2.28108	vbz rbr	-0.9423922
-2.861312	vbz rbs	-0.5057313
-3.170942	vbz rp	-0.008884907
-3.422754	vbz sym	-0.007332027
-1.229232	vbz to	-0.2523586
-3.952099	vbz uh	-0.337385
-2.61464	vbz vb	-0.2979733
-2.600399	vbz vbd	-0.2715803
-1.406915	vbz vbg	-0.3325881
-0.862591	vbz vbn	-0.09814811
-3.121724	vbz vbp	-0.1354735
-2.682391	vbz vbz	0.04270273
-2.977817	vbz wdt	-0.0137201
-2.454939	vbz wp	-0.884613
-2.169208	vbz wrb	-0.5392915
-2.977266	wdt "	-0.2557392
-3.263573	wdt (
-2.116928	wdt ,	-1.028412
-3.263573	wdt .
-3.263573	wdt :
-3.880356	wdt cc
-2.482416	wdt cd	-0.1908926
-1.348877	wdt dt	-0.3552917
-2.649907	wdt ex	-0.3054022
-3.880356	wdt fw
-2.116928	wdt in	-0.4921373
-1.713039	wdt jj	-0.7517155
-3.880356	wdt jjr
-0.9156253	wdt md	-0.6475195
-1.72502	wdt nn	0.05515683
-1.72502	wdt nnp	-0.9826737
-2.558137	wdt nnps	-0.7672068
-1.704265	wdt nns	-0.7484227
-3.880356	wdt pdt
-1.43165	wdt prp	-1.000389
-2.348877	wdt prp$	-0.4200156
-1.484157	wdt rb	-1.120422
-3.035258	wdt rbs	0.005268216
-2.236903	wdt to	-1.207121
-2.19016	wdt vb	-0.03077036
-0.7433187	wdt vbd	-0.03180861
-2.977266	wdt vbg	-0.1833738
-2.880356	wdt vbn	-0.2418341
-0.6945308	wdt vbp	-0.1405962
-0.5903216	wdt vbz	0.2642069
-3.278296	wdt wdt	-0.2024367
-3.880356	wdt wp
-3.880356	wdt wrb
-2.594301	wp "	-0.2830984
-3.056699	wp (	-0.3283231
-1.828384	wp ,	-0.5123495
-2.770392	wp .	0.3308246
-3.372452	wp :
-2.933119	wp cc	-0.190954
-2.770392	wp cd	-0.3612883
-1.365986	wp dt	-0.205444
-3.673482	wp ex
-1.738983	wp in	-0.3253019
-1.847407	wp jj	-0.2579765
-2.828384	wp jjr	-0.6977999
-1.076885	wp md	-0.2169895
-1.559538	wp nn	-0.2536513
-1.494505	wp nnp	-0.8083831
-2.828384	wp nnps	-0.7825226
-1.822223	wp nns	-0.5592726
-3.673482	wp pdt
-1.068177	wp prp	-1.384166
-2.351262	wp prp$	-0.643277
-1.423062	wp rb	-1.38559
-3.372452	wp rbr
-2.933119	wp rbs	-0.1439613
-3.056699	wp sym
-2.10528	wp to	-1.143452
-2.594301	wp vb	-0.05053855
-0.7549272	wp vbd	-0.263294
-2.828384	wp vbg	-0.05798224
-2.770392	wp vbn	-0.2322555
-0.6547812	wp vbp	-0.1917161
-0.705466	wp vbz	-0.3295389
-3.056699	wp wdt
-3.673482	wp wp
-3.673482	wp wrb
-2.210853	wp$ "	-0.9525532
-1.771521	wp$ cd
-0.6858085	wp$ jj	-0.714314
-2.511883	wp$ jjs
-0.4012937	wp$ nn	-0.5408338
-1.557641	wp$ nnp	-0.06950656
-0.507562	wp$ nns	-0.6617644
-1.666785	wp$ vbg	-0.2455715
-2.511883	wp$ vbn
-2.210853	wp$ vbz
-2.600806	wrb "	-0.3503579
-3.714749	wrb (
-1.795671	wrb ,	-0.5113387
-1.982355	wrb .	-0.175763
-2.811659	wrb :	-0.1095812
-2.334538	wrb cc	-1.446476
-1.982355	wrb cd	-0.6496968
-0.6956325	wrb dt	-0.4251277
-2.18327	wrb ex	0.05484807
-2.237628	wrb in	-0.08786914
-0.9258736	wrb jj	-0.204584
-2.673356	wrb jjr	-0.1416636
-2.974386	wrb jjs	-0.5533895
-1.469236	wrb md	-0.1664751
-1.125917	wrb nn	-0.8662813
-1.028113	wrb nnp	-1.290646
-2.299775	wrb nnps	-0.2627327
-1.160866	wrb nns	-0.9925263
-2.924698	wrb pdt	1.841538
-0.767315	wrb prp	-1.047499
-1.78025	wrb prp$	-0.2983155
-1.57487	wrb rb	-0.3930263
-3.413719	wrb rbr
-2.924698	wrb rbs	-0.3525134
-1.447577	wrb to	-1.199781
-3.714749	wrb uh
-2.267591	wrb vb	-0.08439124
-1.951321	wrb vbd	-0.3078267
-1.817122	wrb vbg	-0.01618975
-1.78533	wrb vbn	-0.2531044
-1.817122	wrb vbp	-0.6151044
-1.621327	wrb vbz	-1.136982
-2.974386	wrb wdt	-0.1675038
-3.112689	wrb wp	-0.163366

\3-grams:
-0.5563025	" " jj
-1.163015	" " nn
-0.7781513	" " nnp
-1.01191	" " nns
-1.163015	" " rb
-1.302219	" " vbd
-1.302219	" " vbn
-1.302219	" " wp
-0.04326564	'' " </s>
-1.05387	( " dt
-0.8883637	( " jj
-0.6690068	( " nn
-0.4929155	( " nnp
-1.193074	( " prp
-1.589986	, " "
-2.68806	, " (
-0.9879256	, " cc
-2.039955	, " cd
-0.8433012	, " dt
-2.413327	, " ex
-2.827264	, " fw
-0.9607733	, " in
-1.391151	, " jj
-2.536955	, " jjr
-1.826075	, " md
-1.391151	, " nn
-1.117559	, " nnp
-1.701136	, " nns
-0.9914422	, " prp
-2.127105	, " prp$
-1.288956	, " rb
-2.827264	, " rbr
-1.738925	, " to
-2.522553	, " uh
-1.967404	, " vb
-1.634189	, " vbd
-1.348954	, " vbg
-1.850898	, " vbn
-2.002166	, " vbp
-1.447879	, " vbz
-1.303196	, " wdt
-1.826075	, " wp
-1.826075	, " wrb
-2.598662	. " "
-2.903373	. " (
-2.903373	. " ,
-2.903373	. " :
-0.03952293	. " </s>
-2.254367	. " cc
-2.598662	. " cd
-1.878703	. " dt
-2.078275	. " in
-2.764169	. " jj
-2.078275	. " nnp
-2.903373	. " nns
-1.927008	. " prp
-2.903373	. " prp$
-2.254367	. " rb
-2.613064	. " sym
-2.903373	. " to
-2.613064	. " vbd
-2.598662	. " vbz
-2.109528	: " .
-1.363612	: " </s>
-1.804818	: " cc
-1.804818	: " cd
-0.858462	: " dt
-1.284431	: " in
-1.187521	: " jj
-1.970324	: " md
-1.322219	: " nn
-0.845098	: " nnp
-1.695591	: " nns
-0.7008541	: " prp
-1.81922	: " prp$
-1.249669	: " rb
-1.970324	: " uh
-1.81922	: " vb
-1.81922	: " vbg
-1.804818	: " vbp
-2.109528	: " vbz
-1.585461	: " wp
-1.81922	: " wrb
-2.101942	<s> " (
-1.797232	<s> " cc
-2.101942	<s> " cd
-0.8119578	<s> " dt
-1.797232	<s> " ex
-1.209898	<s> " in
-1.401783	<s> " jj
-1.401783	<s> " nn
-0.6156632	<s> " nnp
-2.101942	<s> " nnps
-1.797232	<s> " nns
-0.6570559	<s> " prp
-1.811633	<s> " prp$
-1.452936	<s> " rb
-1.797232	<s> " vb
-1.797232	<s> " wp
-1.314633	<s> " wrb
-1.769475	cc " dt
-2.059783	cc " in
-0.4565347	cc " jj
-2.059783	cc " jjr
-0.7575647	cc " nn
-0.8825034	cc " nnp
-2.059783	cc " nnps
-1.035114	cc " nns
-1.92058	cc " prp
-1.535716	cc " rb
-1.755073	cc " vb
-1.755073	cc " vbd
-1.535716	cc " vbg
-1.359625	cc " vbn
-2.059783	cc " vbz
-2.059783	cc " wrb
-1.470192	cd " (
-1.330988	cd " in
-0.7242759	cd " jj
-0.8211859	cd " nn
-0.9461246	cd " nnp
-1.056255	cd " nns
-1.470192	cd " vbd
-1.330988	cd " vbg
-1.056255	cd " vbz
-2.827264	dt " ,
-2.827264	dt " :
-1.666374	dt " cd
-2.039955	dt " dt
-2.68806	dt " fw
-2.536955	dt " in
-0.4902827	dt " jj
-2.522553	dt " jjr
-2.522553	dt " jjs
-2.68806	dt " md
-0.4664501	dt " nn
-0.7674801	dt " nnp
-2.827264	dt " nnps
-1.348954	dt " nns
-2.413327	dt " prp
-2.039955	dt " rb
-2.827264	dt " rbr
-2.413327	dt " to
-2.522553	dt " uh
-2.68806	dt " vb
-2.522553	dt " vbd
-1.634189	dt " vbg
-2.002166	dt " vbn
-0.5240675	fw " in
-2.706862	in " (
-2.402152	in " :
-2.182795	in " cc
-1.682193	in " cd
-1.006704	in " dt
-2.706862	in " ex
-1.682193	in " in
-0.5377003	in " jj
-2.706862	in " md
-0.6305324	in " nn
-1.011556	in " nnp
-2.567659	in " nnps
-1.128437	in " nns
-2.706862	in " pdt
-1.618523	in " prp
-2.402152	in " prp$
-1.814818	in " rb
-2.402152	in " to
-2.706862	in " vb
-2.006704	in " vbd
-1.279705	in " vbg
-1.847003	in " vbn
-2.706862	in " vbz
-2.416554	in " wrb
-2.448161	jj " (
-2.324533	jj " ,
-2.324533	jj " .
-1.87861	jj " :
-1.349101	jj " cc
-2.214402	jj " cd
-1.670334	jj " dt
-2.73847	jj " fw
-1.339341	jj " in
-0.734875	jj " jj
-1.913372	jj " md
-0.494243	jj " nn
-1.024071	jj " nnp
-0.8252362	jj " nns
-2.433759	jj " prp
-2.324533	jj " rb
-2.324533	jj " sym
-2.324533	jj " to
-2.599266	jj " uh
-2.324533	jj " vb
-1.951161	jj " vbd
-2.324533	jj " vbg
-2.038311	jj " vbn
-2.599266	jj " vbp
-1.737281	jj " vbz
-2.73847	jj " wrb
-0.2730013	jjr " jj
-0.9327288	jjr " nn
-1.083834	jjr " nnp
-1.083834	jjr " nns
-1.038076	md " rb
-0.08894108	md " vb
-1.409073	nn " (
-1.934498	nn " ,
-1.633469	nn " .
-1.245869	nn " :
-2.910864	nn " </s>
-1.205906	nn " cc
-2.606153	nn " cd
-1.886194	nn " dt
-0.6412009	nn " in
-1.465977	nn " jj
-2.910864	nn " jjr
-1.531479	nn " md
-0.9608274	nn " nn
-1.562887	nn " nnp
-2.910864	nn " nnps
-1.26732	nn " nns
-2.261857	nn " prp
-2.77166	nn " prp$
-1.717789	nn " rb
-1.842728	nn " sym
-1.474751	nn " to
-1.909675	nn " vb
-1.448944	nn " vbd
-1.863917	nn " vbg
-1.749974	nn " vbn
-1.960827	nn " vbp
-0.9859704	nn " vbz
-1.552163	nn " wdt
-2.77166	nn " wp
-2.620555	nn " wrb
-1.314051	nnp " (
-1.772688	nnp " ,
-2.007758	nnp " .
-1.374748	nnp " :
-1.772688	nnp " </s>
-1.333356	nnp " cc
-2.421695	nnp " cd
-2.131386	nnp " dt
-0.7836837	nnp " in
-1.471658	nnp " jj
-1.52965	nnp " md
-0.8976271	nnp " nn
-1.13171	nnp " nnp
-1.397025	nnp " nns
-2.282491	nnp " prp
-1.596597	nnp " rb
-1.445329	nnp " sym
-1.561835	nnp " to
-1.897627	nnp " vb
-1.170628	nnp " vbd
-2.282491	nnp " vbg
-1.596597	nnp " vbn
-2.421695	nnp " vbp
-1.052529	nnp " vbz
-1.772688	nnp " wdt
-2.421695	nnp " wp
-2.421695	nnp " wrb
-1.193074	nnps " :
-1.193074	nnps " </s>
-0.6690068	nnps " in
-0.8883637	nnps " nn
-1.193074	nnps " vbg
-1.05387	nnps " vbn
-1.612784	nns " (
-1.788875	nns " ,
-1.691965	nns " .
-1.135663	nns " :
-1.147897	nns " cc
-1.737723	nns " dt
-0.5813754	nns " in
-1.578022	nns " jj
-1.436693	nns " md
-1.330237	nns " nn
-1.913814	nns " nnp
-2.147573	nns " nns
-1.461516	nns " rb
-1.650572	nns " sym
-1.578022	nns " to
-1.390935	nns " vb
-1.311754	nns " vbd
-1.737723	nns " vbg
-1.515874	nns " vbn
-1.390935	nns " vbp
-1.294025	nns " vbz
-1.487845	nns " wdt
-1.612784	nns " wp
-2.437881	nns " wrb
-1.924893	pos " cd
-1.785689	pos " dt
-0.5355242	pos " jj
-0.6107752	pos " nn
-0.6107752	pos " nnp
-1.137584	pos " nns
-1.924893	pos " vbd
-1.620183	pos " vbg
-1.620183	pos " vbn
-1.298538	prp " .
-1.298538	prp " dt
-0.90309	prp " in
-0.8573325	prp " jj
-1.603249	prp " md
-0.8159398	prp " nn
-1.298538	prp " nnp
-1.31294	prp " rb
-1.464045	prp " to
-1.603249	prp " vbg
-1.464045	prp " vbn
-1.603249	prp " vbp
-1.603249	prp " vbz
-1.464045	prp " wp
-1.783343	prp$ " cd
-0.4576429	prp$ " jj
-1.644139	prp$ " jjs
-0.384214	prp$ " nn
-0.9960338	prp$ " nnp
-1.259275	prp$ " nns
-1.783343	prp$ " vbz
-1.869768	rb " :
-1.869768	rb " cc
-1.869768	rb " cd
-1.579459	rb " dt
-1.169609	rb " in
-0.5110678	rb " jj
-0.8228216	rb " nn
-1.455831	rb " nnp
-1.565057	rb " nns
-1.579459	rb " rb
-1.869768	rb " to
-1.123852	rb " vb
-1.3457	rb " vbd
-1.565057	rb " vbg
-1.579459	rb " vbn
-1.869768	rb " vbp
-1.869768	rb " wrb
-0.2087723	rbs " jj
-0.5098023	sym " nnp
-1.602574	to " dt
-1.907284	to " in
-0.8826144	to " jj
-0.7811568	to " nn
-1.602574	to " nnp
-1.383217	to " nns
-1.76808	to " rb
-0.3101096	to " vb
-1.616976	to " vbg
-1.907284	to " vbn
-0.5240675	uh " nn
-0.5240675	uh " to
-2.066062	vb " (
-0.8729883	vb " dt
-1.240965	vb " in
-0.6299502	vb " jj
-2.066062	vb " jjr
-1.041393	vb " nn
-0.997927	vb " nnp
-1.206203	vb " nns
-1.775754	vb " prp
-1.320146	vb " prp$
-1.417056	vb " rb
-2.066062	vb " to
-2.066062	vb " vbd
-1.775754	vb " vbg
-0.9777236	vb " vbn
-2.066062	vb " vbz
-1.026793	vbd " dt
-1.814102	vbd " fw
-1.290035	vbd " in
-0.7894323	vbd " jj
-0.6879746	vbd " nn
-1.400165	vbd " nnp
-1.523793	vbd " nns
-1.068186	vbd " rb
-1.674898	vbd " vb
-1.290035	vbd " vbd
-1.290035	vbd " vbg
-1.068186	vbd " vbn
-1.201094	vbg " dt
-1.113943	vbg " in
-0.5532761	vbg " jj
-0.9000635	vbg " nn
-1.041393	vbg " nnp
-1.076155	vbg " nns
-1.762048	vbg " prp
-1.901252	vbg " prp$
-1.610944	vbg " rb
-1.610944	vbg " to
-1.901252	vbg " vb
-1.901252	vbg " vbg
-1.487315	vbg " vbn
-1.377185	vbg " vbz
-1.901252	vbg " wrb
-1.9722	vbn " cc
-1.086734	vbn " dt
-0.8741263	vbn " in
-0.7027302	vbn " jj
-0.82142	vbn " nn
-0.8091855	vbn " nnp
-1.00376	vbn " nns
-1.9722	vbn " prp$
-1.462398	vbn " rb
-1.587337	vbn " to
-1.806694	vbn " vbg
-1.821096	vbn " vbn
-1.821096	vbn " vbz
-1.18089	vbp " dt
-1.400247	vbp " in
-0.4676797	vbp " jj
-1.704958	vbp " jjr
-0.7829502	vbp " nn
-1.291021	vbp " nns
-1.565754	vbp " rb
-1.565754	vbp " rbr
-1.400247	vbp " vbg
-0.9590414	vbp " vbn
-1.704958	vbp " vbz
-1.863188	vbz " cd
-1.003328	vbz " dt
-1.863188	vbz " in
-0.4838028	vbz " jj
-0.8162413	vbz " nn
-1.449251	vbz " nnp
-1.863188	vbz " nnps
-1.33912	vbz " nns
-1.558477	vbz " prp
-1.214181	vbz " rb
-1.723984	vbz " to
-1.33912	vbz " vbg
-1.214181	vbz " vbn
-1.863188	vbz " vbz
-0.5098023	wdt " jj
-0.6490062	wdt " vb
-0.8250975	wp " jj
-0.8250975	wp " nn
-0.6858936	wp " prp
-0.8250975	wp " vbn
-0.04694625	wp$ " nnp
-0.8598596	wrb " dt
-0.8598596	wrb " jj
-0.7206557	wrb " nn
-0.8598596	wrb " nnp
-0.8598596	wrb " nnps
-0.06694679	. # cd
-0.008272526	cc # cd
-0.1401757	( $ cd
-0.05115252	, $ cd
-0.06694679	: $ cd
-0.2230375	<s> $ dt
-0.05115252	cc $ cd
-1.001189	cc $ nn
-0.02593573	dt $ cd
-1.584765	dt $ jj
-1.584765	dt $ nn
-0.01999663	in $ cd
-1.907742	in $ jj
-1.522879	in $ nn
-0.03066882	jj $ cd
-1.389369	jj $ jj
-0.1545776	jjs $ cd
-0.2337588	nn $ cd
-0.04694625	nnp $ cd
-0.06694679	pos $ cd
-0.05115252	prp $ cd
-0.1545776	prp$ $ cd
-0.02316787	rb $ cd
-1.493203	rb $ nn
-0.009984221	to $ cd
-0.01336396	vb $ cd
-0.02227639	vbd $ cd
-0.02482358	vbg $ cd
-0.02020339	vbn $ cd
-0.08383361	vbp $ cd
-0.2337588	vbz $ cd
-0.6964781	. '' "
-0.2138798	. '' </s>
-0.885466	nn '' ,
-0.7199593	nn '' .
-0.7343612	nn '' in
-0.4518104	nnp '' ,
-0.5910143	nnp '' nn
-1.798995	" ( cc
-1.053078	" ( dt
-1.494284	" ( fw
-1.053078	" ( in
-1.011686	" ( jj
-0.5906804	" ( nn
-0.7106557	" ( nnp
-1.659791	" ( rb
-1.798995	" ( to
-1.508686	" ( vbg
-1.274927	" ( vbn
-1.798995	" ( wdt
-0.6490062	, ( cc
-0.5098023	, ( nnp
-0.6490062	. ( dt
-0.6490062	. ( nnp
-0.6490062	: ( cd
-0.6490062	: ( vbg
-1.597175	<s> ( cc
-1.597175	<s> ( cd
-0.6208094	<s> ( dt
-0.7051303	<s> ( in
-1.457971	<s> ( jj
-0.8098657	<s> ( nnp
-1.183238	<s> ( prp
-1.073107	<s> ( rb
-1.597175	<s> ( vbd
-0.7001588	cc ( cd
-0.7001588	cc ( rb
-1.339106	cd ( $
-0.8293038	cd ( cd
-0.7323937	cd ( dt
-1.188001	cd ( in
-1.47831	cd ( jj
-0.8293038	cd ( nn
-1.188001	cd ( nnp
-1.173599	cd ( vbg
-1.339106	cd ( vbn
-1.47831	cd ( wrb
-0.3273589	dt ( jj
-0.9763651	dt ( rb
-0.8869713	in ( cc
-0.8869713	in ( in
-1.038076	in ( nnp
-0.6532125	in ( rb
-1.17728	in ( vbn
-1.901252	jj ( "
-0.5320867	jj ( cc
-1.487315	jj ( cd
-1.901252	jj ( dt
-1.762048	jj ( fw
-0.7936082	jj ( in
-1.201094	jj ( jj
-1.113943	jj ( nn
-1.076155	jj ( nnp
-0.9248871	jj ( rb
-1.901252	jj ( rbr
-1.610944	jj ( vbg
-1.762048	jj ( vbp
-0.6490062	jjr ( in
-0.4412057	md ( cc
-0.7459162	md ( in
-0.7459162	md ( rb
-1.665112	nn ( "
-1.045323	nn ( cc
-1.513844	nn ( cd
-0.9661418	nn ( dt
-1.7029	nn ( fw
-0.7711651	nn ( in
-1.212814	nn ( jj
-2.490209	nn ( jjr
-1.110825	nn ( nn
-0.8578023	nn ( nnp
-1.744293	nn ( nns
-2.185499	nn ( prp
-2.185499	nn ( prp$
-1.072195	nn ( rb
-1.966142	nn ( vb
-1.297135	nn ( vbg
-1.513844	nn ( vbn
-2.351005	nn ( vbp
-1.364082	nn ( wdt
-2.351005	nn ( wp
-2.351005	nn ( wrb
-2.290664	nnp ( "
-1.181844	nnp ( cc
-1.290988	nnp ( cd
-1.232996	nnp ( dt
-1.119053	nnp ( in
-1.534026	nnp ( jj
-1.512837	nnp ( nn
-0.2823879	nnp ( nnp
-2.290664	nnp ( nns
-2.276262	nnp ( prp
-2.441768	nnp ( prp$
-1.303577	nnp ( rb
-2.441768	nnp ( to
-1.880814	nnp ( vbg
-1.688928	nnp ( vbn
-1.755875	nnp ( wdt
-1.793663	nnp ( wp
-2.580972	nnp ( wrb
-1.444886	nnps ( cc
-1.444886	nnps ( dt
-1.444886	nnps ( fw
-1.305682	nnps ( in
-0.2076083	nnps ( nnp
-1.140176	nnps ( nns
-1.444886	nnps ( rb
-1.444886	nnps ( vbg
-1.875061	nns ( "
-1.134699	nns ( cc
-1.449093	nns ( cd
-1.051152	nns ( dt
-1.750123	nns ( fw
-0.7611179	nns ( in
-1.040429	nns ( jj
-1.206054	nns ( nn
-0.8750613	nns ( nnp
-2.399129	nns ( nnps
-1.449093	nns ( nns
-2.399129	nns ( prp
-1.019744	nns ( rb
-2.259925	nns ( rbs
-1.61182	nns ( vb
-2.399129	nns ( vbd
-1.422764	nns ( vbg
-1.985192	nns ( vbn
-2.094418	nns ( vbp
-1.422764	nns ( wdt
-1.875061	nns ( wp
-2.399129	nns ( wp$
-2.399129	nns ( wrb
-0.8108323	pos ( cc
-0.8108323	pos ( in
-0.6597275	pos ( nnp
-0.9500362	pos ( rb
-0.71088	prp ( cc
-0.6964781	prp ( in
-0.8619848	prp ( rb
-0.5240675	prp$ ( jj
-0.3848636	prp$ ( rb
-0.8016323	rb ( cc
-1.3257	rb ( cd
-1.020989	rb ( dt
-0.4658403	rb ( in
-1.3257	rb ( nnp
-1.035391	rb ( rb
-1.3257	rb ( vbg
-0.39794	vb ( cc
-0.8391457	vb ( in
-0.7299193	vb ( rb
-0.5872518	vbd ( cc
-0.71088	vbd ( in
-1.001189	vbd ( rb
-1.02467	vbg ( cc
-0.885466	vbg ( dt
-0.7343612	vbg ( in
-1.02467	vbg ( nnp
-0.885466	vbg ( rb
-0.60206	vbn ( cc
-0.9975082	vbn ( dt
-0.5149098	vbn ( in
-0.9975082	vbn ( nnp
-1.302219	vbn ( vbg
-1.302219	vbn ( vbn
-0.8250975	vbp ( cc
-0.8250975	vbp ( dt
-0.5203869	vbp ( in
-0.6858936	vbp ( rb
-0.6017356	vbz ( in
-0.7528404	vbz ( rb
-0.2230375	wp ( in
-0.04694625	dt ) vbg
-0.04694625	in ) prp
-0.5609549	nn ) .
-0.7001588	nn ) prp
-0.7690079	" , cc
-0.7690079	" , dt
-0.8939466	" , in
-1.27881	" , nnp
-1.113304	" , prp$
-1.27881	" , rb
-1.418014	" , vbn
-1.27881	" , wdt
-0.6490062	'' , cc
-0.6017356	. , "
-0.8920443	. , cc
-0.8920443	. , prp
-0.2230375	: , "
-2.38703	cc , "
-1.666374	cc , dt
-2.526234	cc , ex
-0.2578731	cc , in
-1.634189	cc , jj
-2.526234	cc , nn
-2.526234	cc , nnp
-2.38703	cc , prp
-0.6765136	cc , rb
-1.525045	cc , rbr
-1.826075	cc , rbs
-1.576197	cc , to
-2.002166	cc , uh
-1.458098	cc , vbg
-1.701136	cc , vbn
-2.221523	cc , vbz
-2.235925	cc , wdt
-2.235925	cc , wrb
-2.348791	cd , "
-0.9918101	cd , cc
-1.08162	cd , cd
-0.7440256	cd , dt
-1.973128	cd , ex
-0.9894304	cd , in
-1.406783	cd , jj
-2.47373	cd , jjr
-2.210489	cd , md
-1.561685	cd , nn
-0.9094588	cd , nnp
-2.583861	cd , nnps
-1.820518	cd , nns
-1.24756	cd , prp
-2.251881	cd , prp$
-1.354254	cd , rb
-2.137938	cd , to
-2.583861	cd , vb
-1.544311	cd , vbd
-1.57064	cd , vbg
-1.853941	cd , vbn
-2.348791	cd , vbp
-1.68368	cd , vbz
-1.733368	cd , wdt
-2.693087	cd , wp
-1.194977	cd , wrb
-1.74938	dt , "
-1.085172	dt , cc
-2.195302	dt , cd
-0.8102444	dt , dt
-1.960233	dt , ex
-0.8676876	dt , in
-1.250539	dt , jj
-2.304528	dt , jjr
-1.960233	dt , md
-1.250539	dt , nn
-1.043779	dt , nnp
-2.085172	dt , nnps
-1.501595	dt , nns
-0.9442447	dt , prp
-2.470035	dt , prp$
-1.043779	dt , rb
-2.304528	dt , rbr
-2.304528	dt , rbs
-2.195302	dt , to
-2.31893	dt , vb
-2.085172	dt , vbd
-1.74938	dt , vbg
-1.960233	dt , vbn
-1.90908	dt , vbp
-1.784142	dt , vbz
-2.195302	dt , wdt
-2.085172	dt , wp
-2.195302	dt , wrb
-0.615424	ex , cc
-1.26443	ex , dt
-1.26443	ex , nns
-0.5642715	ex , prp
-0.9597196	ex , rb
-1.125226	ex , vbg
-1.538308	fw , "
-1.124371	fw , cc
-1.233597	fw , cd
-0.750999	fw , dt
-0.8893017	fw , in
-1.124371	fw , jj
-1.233597	fw , nn
-1.538308	fw , nnp
-1.247999	fw , nns
-1.538308	fw , vbd
-1.399104	fw , vbg
-1.538308	fw , vbz
-1.68921	in , "
-0.9902402	in , cc
-2.166332	in , cd
-1.075251	in , dt
-2.166332	in , ex
-0.4517223	in , in
-1.467361	in , jj
-2.551195	in , jjr
-2.166332	in , md
-1.643453	in , nn
-1.60206	in , nnp
-2.690399	in , nnps
-1.830539	in , nns
-1.353418	in , prp
-2.276462	in , prp$
-1.105634	in , rb
-2.385688	in , rbr
-2.40009	in , to
-2.690399	in , vb
-2.166332	in , vbd
-1.331699	in , vbg
-1.768391	in , vbn
-1.138303	in , vbp
-2.40009	in , vbz
-2.40009	in , wdt
-2.551195	in , wp
-1.865301	in , wrb
-1.832419	jj , "
-0.6506559	jj , cc
-2.453228	jj , cd
-1.060428	jj , dt
-2.178527	jj , ex
-0.953703	jj , in
-0.730401	jj , jj
-2.507586	jj , jjr
-1.984707	jj , md
-1.393643	jj , nn
-1.423606	jj , nnp
-2.604496	jj , nnps
-1.705954	jj , nns
-3.29039	jj , pdt
-1.421226	jj , prp
-2.303466	jj , prp$
-1.092613	jj , rb
-2.285737	jj , rbr
-2.905526	jj , rbs
-2.050209	jj , to
-2.103894	jj , vb
-1.912825	jj , vbd
-1.498986	jj , vbg
-1.701406	jj , vbn
-2.139609	jj , vbp
-1.754258	jj , vbz
-2.178527	jj , wdt
-2.341255	jj , wp
-2.285737	jj , wrb
-1.992319	jjr , "
-0.704365	jjr , cc
-1.063387	jjr , dt
-2.131522	jjr , ex
-0.8541273	jjr , in
-1.130334	jjr , jj
-1.239478	jjr , jjr
-1.431364	jjr , nn
-1.717586	jjr , nnp
-1.607455	jjr , nns
-1.155157	jjr , prp
-1.043184	jjr , rb
-1.043184	jjr , rbr
-1.482516	jjr , vbg
-2.131522	jjr , vbz
-1.992319	jjr , wdt
-1.606712	jjs , cc
-0.8239087	jjs , dt
-1.441206	jjs , ex
-0.9586073	jjs , in
-1.606712	jjs , jj
-1.221849	jjs , nn
-1	jjs , nnp
-1.745916	jjs , nns
-0.8239087	jjs , prp
-1.606712	jjs , prp$
-1.606712	jjs , rb
-1.606712	jjs , rbs
-1.441206	jjs , to
-1.606712	jjs , vbd
-1.455608	jjs , vbg
-1.221849	jjs , vbz
-0.8981265	md , cc
-1.462398	md , dt
-0.3540585	md , in
-1.847262	md , md
-1.240549	md , prp
-0.7090703	md , rb
-1.337459	md , vb
-1.696157	md , vbg
-1.847262	md , vbz
-1.740046	nn , "
-0.7482141	nn , cc
-2.032958	nn , cd
-0.8874049	nn , dt
-2.166015	nn , ex
-3.066382	nn , fw
-0.9996833	nn , in
-1.210257	nn , jj
-2.486598	nn , jjr
-1.944166	nn , md
-1.133401	nn , nn
-1.185283	nn , nnp
-2.635018	nn , nnps
-1.656449	nn , nns
-3.82302	nn , pdt
-3.974124	nn , pos
-1.242256	nn , prp
-2.104961	nn , prp$
-1.089345	nn , rb
-3.136963	nn , rbr
-2.643136	nn , rbs
-2.09557	nn , to
-3.974124	nn , uh
-1.939277	nn , vb
-1.757817	nn , vbd
-1.382885	nn , vbg
-1.779701	nn , vbn
-2.072946	nn , vbp
-1.635823	nn , vbz
-1.567382	nn , wdt
-2.427893	nn , wp
-3.005684	nn , wp$
-2.064216	nn , wrb
-1.740072	nnp , "
-3.764741	nnp , (
-0.7745482	nnp , cc
-1.958127	nnp , cd
-0.8412888	nnp , dt
-2.294549	nnp , ex
-3.350805	nnp , fw
-1.067002	nnp , in
-1.556427	nnp , jj
-2.788376	nnp , jjr
-2.138012	nnp , md
-1.638614	nnp , nn
-0.6961926	nnp , nnp
-2.500311	nnp , nnps
-1.977433	nnp , nns
-3.240674	nnp , pos
-1.449451	nnp , prp
-2.270637	nnp , prp$
-1.245771	nnp , rb
-3.350805	nnp , rbr
-2.842734	nnp , rbs
-2.155502	nnp , to
-2.155502	nnp , vb
-1.631435	nnp , vbd
-1.619152	nnp , vbg
-1.839848	nnp , vbn
-1.898251	nnp , vbp
-1.584256	nnp , vbz
-1.515035	nnp , wdt
-1.72216	nnp , wp
-2.226434	nnp , wp$
-1.662799	nnp , wrb
-1.825264	nnps , "
-0.7598708	nnps , cc
-1.728354	nnps , cd
-0.9154404	nnps , dt
-2.335066	nnps , ex
-1.038158	nnps , in
-1.686961	nnps , jj
-1.686961	nnps , md
-2.183961	nnps , nn
-0.9801658	nnps , nnp
-1.265956	nnps , nnps
-1.686961	nnps , nns
-1.348143	nnps , prp
-2.47427	nnps , prp$
-1.14857	nnps , rb
-2.335066	nnps , to
-2.169559	nnps , vb
-1.728354	nnps , vbd
-1.524234	nnps , vbg
-1.686961	nnps , vbn
-1.686961	nnps , vbp
-1.61441	nnps , vbz
-1.552263	nnps , wdt
-1.330414	nnps , wp
-2.060333	nnps , wp$
-2.169559	nnps , wrb
-1.808448	nns , "
-3.835397	nns , (
-3.835397	nns , :
-0.6735068	nns , cc
-2.29709	nns , cd
-1.041817	nns , dt
-2.263407	nns , ex
-3.048089	nns , fw
-1.011024	nns , in
-1.153974	nns , jj
-2.52128	nns , jjr
-1.96563	nns , md
-1.254425	nns , nn
-1.432425	nns , nnp
-2.767262	nns , nnps
-1.219663	nns , nns
-1.361127	nns , prp
-2.186391	nns , prp$
-1.016129	nns , rb
-3.31133	nns , rbr
-2.727753	nns , rbs
-2.064175	nns , to
-1.879966	nns , vb
-1.928113	nns , vbd
-1.26928	nns , vbg
-1.795015	nns , vbn
-1.949602	nns , vbp
-1.722125	nns , vbz
-1.544174	nns , wdt
-1.940262	nns , wp
-2.658118	nns , wp$
-2.060097	nns , wrb
-0.7516212	pos , cc
-1.860441	pos , cd
-2.011546	pos , dt
-2.011546	pos , ex
-1.006894	pos , in
-1.082614	pos , jj
-2.15075	pos , md
-1.404834	pos , nn
-1.043106	pos , nnp
-1.626683	pos , nns
-1.082614	pos , prp
-1.846039	pos , prp$
-1.174385	pos , rb
-2.011546	pos , rbs
-1.846039	pos , to
-1.736813	pos , vbd
-1.29089	pos , vbg
-2.011546	pos , vbn
-2.15075	pos , vbp
-1.450591	pos , vbz
-2.011546	pos , wdt
-2.15075	pos , wp
-1.103804	pos , wrb
-1.430021	prp , "
-0.8102325	prp , cc
-2.427529	prp , cd
-0.9863238	prp , dt
-2.208173	prp , ex
-0.8527849	prp , in
-1.418122	prp , jj
-2.73224	prp , jjr
-1.70757	prp , md
-1.509202	prp , nn
-1.051825	prp , nnp
-2.73224	prp , nnps
-1.907143	prp , nns
-1.262048	prp , prp
-2.441931	prp , prp$
-0.9218658	prp , rb
-2.73224	prp , rbs
-1.907143	prp , to
-1.643901	prp , vb
-1.782204	prp , vbd
-1.395259	prp , vbg
-2.318303	prp , vbn
-1.782204	prp , vbp
-1.588384	prp , vbz
-1.782204	prp , wdt
-2.083234	prp , wp
-1.986324	prp , wrb
-0.6858936	prp$ , prp
-0.8250975	prp$ , rb
-2.31683	rb , "
-3.514607	rb , (
-1.340868	rb , cc
-1.988817	rb , cd
-0.6748987	rb , dt
-1.737633	rb , ex
-3.514607	rb , fw
-0.8360128	rb , in
-1.173896	rb , jj
-2.402745	rb , jjr
-1.797305	rb , md
-1.314609	rb , nn
-1.051166	rb , nnp
-2.416533	rb , nnps
-1.542407	rb , nns
-3.239874	rb , pdt
-1.076665	rb , prp
-1.968376	rb , prp$
-1.22575	rb , rb
-3.004805	rb , rbr
-2.376416	rb , rbs
-2.032834	rb , to
-1.899295	rb , vb
-1.836013	rb , vbd
-1.615639	rb , vbg
-2.027081	rb , vbn
-1.85099	rb , vbp
-1.390699	rb , vbz
-2.363827	rb , wdt
-2.351592	rb , wp
-1.907895	rb , wrb
-1.145804	rbr , cc
-1.022175	rbr , dt
-0.9120448	rbr , in
-1.131402	rbr , jj
-1.436112	rbr , jjr
-1.296908	rbr , nnp
-1.436112	rbr , prp
-1.296908	rbr , rb
-1.145804	rbr , vbg
-1.145804	rbr , vbn
-1.436112	rbr , wdt
-0.9684402	rbs , cc
-0.8029335	rbs , in
-0.8173354	rbs , jj
-1.107644	rbs , nns
-1.107644	rbs , prp
-0.8029335	rbs , rb
-0.06694679	rp , in
-1.652408	sym , "
-0.6597068	sym , cc
-1.953438	sym , cd
-0.845098	sym , dt
-2.477505	sym , ex
-1.163387	sym , in
-1.389166	sym , jj
-2.338301	sym , md
-1.50114	sym , nn
-0.9912261	sym , nnp
-2.063568	sym , nns
-1.333649	sym , prp
-1.953438	sym , prp$
-1.284431	sym , rb
-2.172794	sym , to
-2.338301	sym , vb
-1.527469	sym , vbd
-1.50114	sym , vbg
-1.476316	sym , vbn
-2.172794	sym , vbp
-1.409369	sym , vbz
-1.284431	sym , wdt
-2.187196	sym , wp
-2.338301	sym , wrb
-0.3802112	to , cc
-1.126127	to , in
-0.9869236	to , rb
-0.8214169	to , vbp
-1.424091	uh , cc
-1.714399	uh , cd
-0.7132105	uh , dt
-1.714399	uh , ex
-1.424091	uh , in
-1.409689	uh , jj
-1.300462	uh , nn
-0.764363	uh , nnp
-1.575195	uh , nns
-0.8223549	uh , prp
-1.575195	uh , rb
-1.714399	uh , vbp
-1.714399	uh , vbz
-1.714399	uh , wdt
-1.714399	uh , wrb
-1.70831	vb , "
-0.6435266	vb , cc
-2.511244	vb , cd
-0.9766162	vb , dt
-2.028645	vb , ex
-0.7519745	vb , in
-1.478973	vb , jj
-2.511244	vb , jjr
-1.92391	vb , md
-1.40728	vb , nn
-1.478973	vb , nnp
-2.67675	vb , nnps
-1.747819	vb , nns
-1.299186	vb , prp
-2.115795	vb , prp$
-0.9560945	vb , rb
-2.67675	vb , rbr
-2.115795	vb , to
-1.362468	vb , vb
-2.166948	vb , vbd
-1.39794	vb , vbg
-1.92391	vb , vbn
-2.815954	vb , vbp
-2.070038	vb , vbz
-1.893947	vb , wdt
-2.67675	vb , wp
-2.115795	vb , wrb
-0.982917	vbd , "
-0.8689737	vbd , cc
-2.573931	vbd , cd
-0.989166	vbd , dt
-2.283623	vbd , ex
-0.7488338	vbd , in
-1.430075	vbd , jj
-1.549261	vbd , md
-1.681887	vbd , nn
-1.485592	vbd , nnp
-1.714072	vbd , nns
-1.204766	vbd , prp
-2.283623	vbd , prp$
-0.9955062	vbd , rb
-1.873773	vbd , to
-2.573931	vbd , vb
-1.597566	vbd , vbd
-1.365617	vbd , vbg
-2.049864	vbd , vbn
-1.748834	vbd , vbp
-1.572743	vbd , vbz
-2.159994	vbd , wdt
-2.434727	vbd , wrb
-1.404834	vbg , "
-0.664471	vbg , cc
-1.015668	vbg , dt
-2.45178	vbg , ex
-0.8929504	vbg , in
-1.363441	vbg , jj
-1.214502	vbg , nn
-1.344136	vbg , nnp
-1.501744	vbg , nns
-1.29089	vbg , prp
-2.312576	vbg , prp$
-1.043106	vbg , rb
-2.312576	vbg , rbs
-2.312576	vbg , to
-2.45178	vbg , vb
-1.802774	vbg , vbd
-1.082614	vbg , vbg
-2.45178	vbg , vbn
-2.45178	vbg , vbp
-1.529772	vbg , vbz
-2.037843	vbg , wdt
-2.147069	vbg , wp
-1.983069	vbn , "
-0.6169207	vbn , cc
-2.172125	vbn , cd
-0.9510667	vbn , dt
-2.669125	vbn , ex
-0.8243517	vbn , in
-1.235794	vbn , jj
-2.959434	vbn , jjr
-1.782154	vbn , md
-1.505948	vbn , nn
-1.505948	vbn , nnp
-2.545497	vbn , nnps
-1.622453	vbn , nns
-1.299704	vbn , prp
-2.06739	vbn , prp$
-0.9934097	vbn , rb
-2.654723	vbn , rbs
-2.06739	vbn , to
-2.172125	vbn , vb
-1.912488	vbn , vbd
-1.421126	vbn , vbg
-1.570065	vbn , vbn
-1.934764	vbn , vbp
-1.682039	vbn , vbz
-1.983069	vbn , wdt
-2.654723	vbn , wp
-2.06739	vbn , wrb
-1.515513	vbp , "
-0.9285163	vbp , cc
-1.954845	vbp , cd
-0.8941475	vbp , dt
-2.079784	vbp , ex
-0.7507253	vbp , in
-1.743992	vbp , jj
-1.535716	vbp , md
-1.410777	vbp , nn
-1.10206	vbp , nnp
-2.603852	vbp , nnps
-1.653815	vbp , nns
-1.195177	vbp , prp
-1.903693	vbp , prp$
-0.9548452	vbp , rb
-1.954845	vbp , to
-2.189914	vbp , vb
-1.954845	vbp , vbd
-1.556905	vbp , vbg
-2.189914	vbp , vbn
-1.816543	vbp , vbp
-1.496207	vbp , vbz
-2.079784	vbp , wdt
-2.079784	vbp , wp
-1.954845	vbp , wrb
-1.571126	vbz , "
-1.059243	vbz , cc
-2.392543	vbz , cd
-0.7694939	vbz , dt
-2.173186	vbz , ex
-0.6748757	vbz , in
-1.432824	vbz , jj
-2.697254	vbz , jjr
-1.672584	vbz , md
-1.474216	vbz , nn
-1.407269	vbz , nnp
-2.697254	vbz , nnps
-1.553398	vbz , nns
-1.27924	vbz , prp
-2.283317	vbz , prp$
-0.8944327	vbz , rb
-2.55805	vbz , rbs
-2.048248	vbz , to
-1.951338	vbz , vb
-2.55805	vbz , vbd
-1.720889	vbz , vbg
-2.048248	vbz , vbn
-1.696065	vbz , vbp
-1.349277	vbz , vbz
-2.392543	vbz , wdt
-2.173186	vbz , wp
-2.283317	vbz , wrb
-0.1952263	wdt , in
-1.509344	wdt , prp
-0.763428	wdt , rb
-1.509344	wdt , vbg
-1.204634	wdt , wrb
-1.286304	wp , cc
-0.447158	wp , in
-1.286304	wp , nnp
-1.591014	wp , prp
-0.5228788	wp , rb
-1.300706	wp , vbg
-1.591014	wp , vbn
-1.664994	wrb , cc
-1.52579	wrb , dt
-0.3062942	wrb , in
-1.52579	wrb , prp
-0.6180481	wrb , rb
-1.664994	wrb , vb
-1.52579	wrb , wrb
-0.03266912	" . </s>
-0.1401757	'' . </s>
-0.3848636	) . "
-0.3848636	) . </s>
-0.2230375	, . nnp
-0.6879746	. . .
-1.046672	. . </s>
-1.336981	. . cc
-1.197777	. . dt
-1.03227	. . in
-1.197777	. . nn
-1.336981	. . nnp
-1.197777	. . prp
-1.03227	. . rb
-1.336981	. . vbz
-0.8962505	<s> . dt
-0.7201593	<s> . in
-1.406053	<s> . jj
-0.845098	<s> . nn
-0.845098	<s> . nnp
-1.021189	<s> . nns
-1.406053	<s> . rb
-1.545257	<s> . vb
-0.7993405	<s> . vbg
-0.3442956	cc . </s>
-2.020776	cd . "
-0.03221653	cd . </s>
-2.627488	cd . cc
-2.352755	cd . cd
-1.979383	cd . dt
-1.941594	cd . in
-2.461981	cd . jj
-2.766692	cd . nn
-1.979383	cd . nnp
-2.766692	cd . prp
-2.627488	cd . rb
-2.476383	cd . sym
-1.582889	dt . "
-0.04564289	dt . </s>
-1.721192	dt . cd
-2.370198	dt . in
-1.721192	dt . jj
-2.065488	dt . nn
-2.065488	dt . nnp
-1.339106	fw . "
-1.47831	fw . ,
-1.339106	fw . :
-0.2272438	fw . </s>
-1.47831	fw . jj
-0.7781513	fw . sym
-0.7035176	in . "
-1.728187	in . (
-0.5351132	in . </s>
-1.588984	in . cc
-1.20412	in . cd
-1.423477	in . dt
-1.728187	in . in
-1.423477	in . jj
-1.728187	in . md
-0.9822713	in . nn
-1.423477	in . nnp
-1.728187	in . nns
-1.728187	in . rb
-1.728187	in . sym
-1.728187	in . vbg
-1.554014	jj . "
-3.206049	jj . ''
-3.206049	jj . ,
-0.02786123	jj . </s>
-2.423246	jj . cc
-2.453209	jj . dt
-2.122216	jj . in
-2.821186	jj . jj
-2.645095	jj . nn
-2.520156	jj . nnp
-2.645095	jj . prp
-3.345253	jj . prp$
-2.453209	jj . rb
-3.054945	jj . sym
-3.206049	jj . vb
-3.206049	jj . wrb
-2.173739	jjr . "
-0.01679801	jjr . </s>
-2.312943	jjr . in
-2.312943	jjr . nnp
-2.173739	jjr . rb
-1.26947	jjs . "
-0.06069784	jjs . </s>
-1.408674	jjs . cd
-1.26728	md . "
-0.03368311	md . </s>
-1.571461	nn . "
-4.120151	nn . #
-3.374235	nn . ''
-3.980947	nn . (
-3.332842	nn . .
-3.829843	nn . :
-0.02207174	nn . </s>
-2.649959	nn . cc
-3.260292	nn . cd
-2.554691	nn . dt
-3.980947	nn . ex
-2.439737	nn . in
-3.052016	nn . jj
-2.855721	nn . nn
-2.610807	nn . nnp
-4.120151	nn . nnps
-3.198144	nn . nns
-2.817932	nn . prp
-2.721022	nn . rb
-4.120151	nn . rbr
-2.911837	nn . sym
-3.980947	nn . vb
-3.332842	nn . vbg
-3.170115	nn . vbn
-3.980947	nn . vbp
-3.980947	nn . vbz
-4.120151	nn . wp
-4.120151	nn . wrb
-1.513593	nnp . "
-3.31343	nnp . ''
-3.038697	nnp . ,
-3.162325	nnp . .
-0.02511478	nnp . </s>
-3.147923	nnp . cc
-3.31343	nnp . cd
-2.384499	nnp . dt
-3.452634	nnp . ex
-2.427964	nnp . in
-3.452634	nnp . jj
-3.147923	nnp . nn
-2.451445	nnp . nnp
-3.452634	nnp . nns
-2.706718	nnp . prp
-3.038697	nnp . rb
-2.752475	nnp . sym
-3.452634	nnp . vb
-3.452634	nnp . vbg
-3.31343	nnp . vbn
-1.445963	nnps . "
-0.02842771	nnps . </s>
-2.166619	nnps . dt
-2.305823	nnps . prp
-2.305823	nnps . rb
-1.737144	nns . "
-3.842896	nns . #
-3.842896	nns . (
-3.538185	nns . .
-0.01794304	nns . </s>
-2.59183	nns . cc
-3.552587	nns . cd
-2.605618	nns . dt
-2.463511	nns . in
-2.983036	nns . jj
-3.842896	nns . md
-3.842896	nns . nn
-2.716768	nns . nnp
-3.428959	nns . nns
-2.634582	nns . prp
-2.619858	nns . rb
-2.818226	nns . sym
-3.842896	nns . to
-3.552587	nns . vb
-3.142737	nns . vbg
-3.703692	nns . vbn
-3.703692	nns . wdt
-3.703692	nns . wrb
-0.01628795	pos . </s>
-1.8189	pos . nnp
-1.537087	prp . "
-2.916471	prp . .
-0.02010565	prp . </s>
-2.777267	prp . cc
-2.777267	prp . dt
-2.777267	prp . in
-2.611761	prp . nnp
-2.916471	prp . nns
-2.916471	prp . prp
-2.916471	prp . sym
-0.06694679	prp$ . </s>
-1.818583	rb . "
-2.94103	rb . .
-0.01495546	rb . </s>
-2.721673	rb . cc
-3.106537	rb . dt
-2.545582	rb . in
-3.245741	rb . jj
-2.458432	rb . nnp
-3.245741	rb . nnps
-3.245741	rb . nns
-3.245741	rb . prp
-2.955432	rb . rb
-2.955432	rb . sym
-3.245741	rb . vbg
-3.245741	rb . vbn
-0.03476211	rbr . </s>
-0.07255067	rbs . </s>
-2.250165	sym . "
-0.01506375	sym . </s>
-2.084658	sym . dt
-2.389369	sym . in
-2.389369	sym . vbg
-0.1026623	to . </s>
-0.7422357	uh . "
-0.154902	uh . </s>
-1.576271	vb . "
-0.02218978	vb . </s>
-2.363377	vb . cc
-2.722075	vb . dt
-2.873179	vb . in
-2.873179	vb . jj
-2.873179	vb . nn
-3.012383	vb . nnp
-3.012383	vb . prp
-2.707673	vb . rb
-3.012383	vb . sym
-2.873179	vb . vb
-1.632691	vbd . "
-0.01990699	vbd . </s>
-2.49255	vbd . dt
-2.18784	vbd . nnp
-1.602835	vbg . "
-0.02550719	vbg . </s>
-2.20457	vbg . dt
-2.355675	vbg . nnp
-2.190169	vbg . sym
-1.968296	vbn . "
-0.01463305	vbn . </s>
-2.588085	vbn . cc
-3.112152	vbn . cd
-2.463146	vbn . dt
-2.821844	vbn . in
-2.411994	vbn . nnp
-3.112152	vbn . nns
-3.112152	vbn . prp
-2.411994	vbn . rb
-2.807442	vbn . sym
-3.112152	vbn . to
-1.552263	vbp . "
-2.47427	vbp . .
-0.02765007	vbp . </s>
-2.335066	vbp . cc
-2.47427	vbp . cd
-2.335066	vbp . prp
-2.47427	vbp . rb
-1.52965	vbz . "
-0.02256583	vbz . </s>
-2.282491	vbz . dt
-0.05115252	wp . </s>
-0.9542425	wrb . "
-0.0602959	wrb . </s>
-1.842241	" : "
-1.842241	" : </s>
-1.332438	" : cc
-0.5634306	" : dt
-1.981445	" : ex
-1.0894	" : in
-1.031408	" : jj
-1.691136	" : md
-1.332438	" : nn
-1.567508	" : nnp
-1.691136	" : nns
-1.281286	" : prp
-1.842241	" : prp$
-1.691136	" : rb
-1.981445	" : to
-1.842241	" : vb
-1.691136	" : vbd
-1.457377	" : vbg
-1.691136	" : vbn
-1.691136	" : vbp
-1.842241	" : vbz
-1.981445	" : wdt
-0.6858936	. : dt
-0.9851918	<s> : dt
-1.094418	<s> : in
-1.094418	<s> : jj
-0.9851918	<s> : nn
-1.094418	<s> : nnp
-1.259925	<s> : nns
-1.094418	<s> : vb
-1.399129	<s> : vbg
-1.259925	<s> : wp
-0.3245111	cc : in
-0.885466	cc : rb
-0.885466	cc : rbs
-1.763104	cd : "
-2.053412	cd : $
-1.914208	cd : </s>
-0.6740276	cd : cc
-1.763104	cd : cd
-0.7392943	cd : dt
-1.228315	cd : in
-1.639475	cd : jj
-2.053412	cd : jjr
-1.914208	cd : md
-1.639475	cd : nn
-1.763104	cd : nnp
-1.639475	cd : nns
-1.307496	cd : prp
-0.9852768	cd : rb
-1.748702	cd : to
-1.763104	cd : vb
-2.053412	cd : vbd
-1.748702	cd : vbp
-1.353253	cd : vbz
-1.914208	cd : wrb
-1.541211	dt : "
-1.390106	dt : </s>
-0.7584072	dt : dt
-1.031408	dt : in
-1.156347	dt : jj
-1.680415	dt : md
-1.031408	dt : nn
-1.266478	dt : nnp
-1.266478	dt : prp
-1.375704	dt : rb
-1.541211	dt : vbg
-1.680415	dt : vbp
-1.156347	dt : wp
-1.375704	dt : wrb
-0.4448863	ex : cc
-0.4448863	ex : dt
-1.703622	in : "
-1.318759	in : </s>
-0.950782	in : cc
-0.7544873	in : dt
-0.9208187	in : in
-1.19382	in : jj
-1.19382	in : nn
-1.552518	in : nnp
-1.703622	in : nns
-1.19382	in : prp
-1.842826	in : prp$
-1.017729	in : rb
-1.842826	in : rbr
-1.842826	in : to
-1.703622	in : vbd
-1.703622	in : vbg
-1.538116	in : vbz
-1.91285	jj : "
-2.700159	jj : (
-1.875061	jj : </s>
-1.09092	jj : cc
-2.051152	jj : cd
-0.8207036	jj : dt
-2.051152	jj : ex
-0.8019542	jj : in
-1.291485	jj : jj
-2.176091	jj : jjr
-1.69897	jj : md
-1.085011	jj : nn
-1.264046	jj : nnp
-2.700159	jj : nnps
-1.352183	jj : nns
-1.079181	jj : prp
-1.954242	jj : prp$
-1.056615	jj : rb
-1.808115	jj : to
-1.592515	jj : vb
-2.286222	jj : vbd
-1.778151	jj : vbg
-2.560955	jj : vbn
-1.91285	jj : vbp
-1.69897	jj : vbz
-2.40985	jj : wdt
-2.176091	jj : wp
-2.700159	jj : wrb
-0.8653014	jjr : cc
-0.6434527	jjr : dt
-1.084658	jjr : in
-1.389369	jjr : jj
-1.389369	jjr : nn
-1.250165	jjr : nnp
-1.389369	jjr : nns
-0.9754319	jjr : prp
-1.389369	jjr : vbz
-0.8598596	jjs : dt
-0.7206557	jjs : in
-0.8598596	jjs : vbd
-0.559308	md : cc
-1.06911	md : dt
-0.9036036	md : in
-1.208314	md : prp
-0.9180055	md : rb
-1.208314	md : vb
-1.710752	nn : "
-3.262848	nn : $
-3.123644	nn : (
-1.619305	nn : </s>
-1.068226	nn : cc
-1.863719	nn : cd
-0.739505	nn : dt
-2.312812	nn : ex
-2.73878	nn : fw
-0.9073374	nn : in
-1.315535	nn : jj
-2.340841	nn : jjr
-1.690857	nn : md
-1.24047	nn : nn
-1.380211	nn : nnp
-2.73878	nn : nnps
-1.619305	nn : nns
-2.972539	nn : pdt
-1.184493	nn : prp
-1.94873	nn : prp$
-1.090421	nn : rb
-3.262848	nn : rbr
-2.516932	nn : rbs
-1.671834	nn : to
-1.776569	nn : vb
-1.863719	nn : vbd
-1.504095	nn : vbg
-1.761057	nn : vbn
-1.863719	nn : vbp
-1.452474	nn : vbz
-1.844834	nn : wdt
-2.069774	nn : wp
-3.262848	nn : wp$
-2.101959	nn : wrb
-1.553074	nnp : "
-2.776111	nnp : (
-1.988802	nnp : </s>
-1.025873	nnp : cc
-1.632255	nnp : cd
-0.7606819	nnp : dt
-2.4714	nnp : ex
-0.9332848	nnp : in
-1.583037	nnp : jj
-2.636907	nnp : jjr
-1.583037	nnp : md
-1.428135	nnp : nn
-1.160963	nnp : nnp
-2.636907	nnp : nnps
-1.751441	nnp : nns
-1.406945	nnp : prp
-2.252043	nnp : prp$
-1.166872	nnp : rb
-2.776111	nnp : rbr
-1.729165	nnp : to
-2.776111	nnp : uh
-1.729165	nnp : vb
-1.687772	nnp : vbd
-1.687772	nnp : vbg
-1.538833	nnp : vbn
-1.358097	nnp : vbp
-1.367437	nnp : vbz
-1.473892	nnp : wdt
-1.988802	nnp : wp
-2.776111	nnp : wp$
-2.075952	nnp : wrb
-1.654401	nnps : "
-1.240464	nnps : cc
-1.005395	nnps : dt
-1.654401	nnps : ex
-0.9542425	nnps : in
-1.515197	nnps : md
-1.364093	nnps : nn
-1.654401	nnps : nnp
-1.654401	nnps : nnps
-1.364093	nnps : nns
-1.515197	nnps : prp
-1.654401	nnps : prp$
-1.005395	nnps : rb
-1.654401	nnps : to
-1.349691	nnps : vbd
-1.364093	nnps : vbn
-1.654401	nnps : vbp
-1.349691	nnps : vbz
-1.958003	nns : "
-1.375248	nns : </s>
-1.031929	nns : cc
-1.814581	nns : cd
-0.8228009	nns : dt
-2.319731	nns : ex
-2.760936	nns : fw
-0.9323407	nns : in
-1.102247	nns : jj
-2.365488	nns : jjr
-1.676278	nns : md
-1.244184	nns : nn
-1.290347	nns : nnp
-2.365488	nns : nnps
-1.395451	nns : nns
-1.375248	nns : prp
-1.958003	nns : prp$
-1.158363	nns : rb
-2.760936	nns : rbr
-2.416641	nns : rbs
-1.666518	nns : to
-1.842609	nns : vb
-2.040977	nns : vbd
-1.493656	nns : vbg
-1.775662	nns : vbn
-1.548878	nns : vbp
-1.493656	nns : vbz
-1.939519	nns : wdt
-2.319731	nns : wp
-2.173602	nns : wrb
-1.126127	pos : cc
-1.126127	pos : dt
-0.4771213	pos : in
-0.8214169	pos : jj
-1.126127	pos : nn
-1.126127	pos : rb
-1.260601	prp : "
-1.821556	prp : </s>
-1.038753	prp : cc
-0.8724211	prp : dt
-0.7524459	prp : in
-1.670451	prp : jj
-1.436693	prp : md
-1.546823	prp : nn
-1.96076	prp : nnp
-1.821556	prp : nns
-1.214844	prp : prp
-1.96076	prp : prp$
-1.068716	prp : rb
-1.656049	prp : to
-1.670451	prp : vbg
-1.821556	prp : vbn
-1.670451	prp : vbp
-1.670451	prp : vbz
-1.436693	prp : wrb
-1.606859	rb : "
-1.658011	rb : </s>
-0.9276329	rb : cc
-2.167814	rb : cd
-0.8287076	rb : dt
-2.002307	rb : ex
-0.8287076	rb : in
-1.447158	rb : jj
-2.002307	rb : md
-1.282348	rb : nn
-1.38501	rb : nnp
-2.002307	rb : nns
-1.199374	rb : prp
-2.167814	rb : prp$
-1.113943	rb : rb
-2.307018	rb : rbs
-2.016709	rb : to
-1.561101	rb : vb
-1.658011	rb : vbd
-1.414973	rb : vbg
-1.78295	rb : vbn
-1.606859	rb : vbp
-1.48192	rb : vbz
-2.002307	rb : wdt
-2.167814	rb : wp
-2.016709	rb : wrb
-0.3479762	rbr : in
-0.2087723	rp : in
-1.074674	sym : </s>
-0.6792259	sym : cc
-1.089076	sym : in
-1.379385	sym : md
-1.240181	sym : nnp
-1.379385	sym : prp
-1.240181	sym : rb
-1.379385	sym : vbn
-1.089076	sym : vbz
-0.8920443	to : </s>
-0.8920443	to : cc
-0.8920443	to : in
-0.8920443	to : vb
-1.633469	vb : "
-1.297676	vb : </s>
-0.8801408	vb : cc
-0.9492217	vb : dt
-2.157536	vb : ex
-0.920258	vb : in
-1.265492	vb : jj
-2.157536	vb : jjr
-1.265492	vb : nn
-1.265492	vb : nnp
-1.370227	vb : nns
-1.156347	vb : prp
-1.867227	vb : prp$
-1.181171	vb : rb
-1.41162	vb : vb
-1.852825	vb : vbd
-1.50853	vb : vbg
-1.743599	vb : vbz
-1.867227	vb : wp
-1.852825	vb : wrb
-0.5314789	vbd : "
-1.821463	vbd : </s>
-1.172457	vbd : cc
-1.407526	vbd : dt
-0.7967933	vbd : in
-1.682259	vbd : jj
-1.821463	vbd : md
-1.531155	vbd : nn
-1.682259	vbd : nnp
-1.821463	vbd : nns
-1.297396	vbd : prp
-1.821463	vbd : prp$
-0.9963657	vbd : rb
-1.821463	vbd : to
-1.821463	vbd : vb
-1.682259	vbd : vbd
-1.124939	vbg : "
-1.124939	vbg : </s>
-1.124939	vbg : cc
-0.7569619	vbg : dt
-1.235069	vbg : in
-1.649006	vbg : jj
-1.124939	vbg : nn
-1.649006	vbg : nnp
-1.344296	vbg : prp
-1.649006	vbg : prp$
-0.9488475	vbg : rb
-1.649006	vbg : vbg
-1.649006	vbg : wrb
-1.806195	vbn : "
-1.806195	vbn : </s>
-0.8407478	vbn : cc
-1.915422	vbn : cd
-0.7840202	vbn : dt
-2.080929	vbn : ex
-0.850967	vbn : in
-1.131794	vbn : jj
-2.080929	vbn : md
-1.432824	vbn : nn
-1.571126	vbn : nnp
-1.360273	vbn : nns
-1.173186	vbn : prp
-1.696065	vbn : prp$
-1.059243	vbn : rb
-1.915422	vbn : to
-2.220133	vbn : vb
-2.220133	vbn : vbd
-1.696065	vbn : vbg
-1.929824	vbn : vbn
-1.929824	vbn : vbz
-2.080929	vbn : wdt
-2.220133	vbn : wp
-2.220133	vbn : wrb
-1.449806	vbp : "
-1.615313	vbp : </s>
-1.464208	vbp : cc
-1.754516	vbp : cd
-0.6468723	vbp : dt
-0.8624721	vbp : in
-1.615313	vbp : jj
-1.754516	vbp : md
-1.054358	vbp : nn
-1.754516	vbp : nns
-1.464208	vbp : prp
-1.054358	vbp : rb
-1.449806	vbp : to
-1.754516	vbp : vb
-1.615313	vbp : vbp
-1.615313	vbp : vbz
-1.615313	vbp : wp
-1.132117	vbz : "
-1.541967	vbz : </s>
-1.044967	vbz : cc
-0.8310874	vbz : dt
-0.9102685	vbz : in
-1.308209	vbz : jj
-1.18327	vbz : md
-1.541967	vbz : nn
-1.832276	vbz : nnp
-1.693072	vbz : nns
-1.693072	vbz : prp
-1.08636	vbz : rb
-1.832276	vbz : to
-1.693072	vbz : vb
-1.832276	vbz : vbg
-1.832276	vbz : vbp
-1.541967	vbz : vbz
-1.832276	vbz : wp
-1.418339	vbz : wrb
-0.6490062	wrb : dt
-0.6490062	wrb : in
-0.472186	" cc "
-1.876047	" cc ,
-2.289984	" cc cd
-0.9758663	" cc dt
-2.15078	" cc ex
-1.221849	" cc in
-1.430125	" cc jj
-2.15078	" cc md
-1.288796	" cc nn
-1.765917	" cc nnp
-1.464887	" cc nns
-1.464887	" cc prp
-1.544068	" cc prp$
-1.012589	" cc rb
-2.289984	" cc rbs
-1.765917	" cc to
-1.876047	" cc vb
-1.502675	" cc vbd
-1.876047	" cc vbg
-1.876047	" cc vbn
-1.765917	" cc vbp
-1.999676	" cc vbz
-1.834005	( cc "
-1.98511	( cc ,
-2.124314	( cc cd
-1.01667	( cc dt
-1.056179	( cc in
-1.123125	( cc jj
-2.124314	( cc jjr
-1.600247	( cc md
-0.9981866	( cc nn
-1.147949	( cc nnp
-1.710377	( cc nns
-2.124314	( cc prp
-1.378398	( cc prp$
-0.6002467	( cc rb
-2.124314	( cc rbr
-2.124314	( cc to
-1.710377	( cc vb
-1.98511	( cc vbd
-1.819604	( cc vbg
-1.710377	( cc vbn
-1.834005	( cc vbp
-1.600247	( cc vbz
-2.542825	, cc "
-3.529912	, cc $
-3.51551	, cc (
-2.002422	, cc ,
-3.120062	, cc :
-1.967094	, cc cd
-0.7820483	, cc dt
-2.134785	, cc ex
-3.529912	, cc fw
-1.021226	, cc in
-0.9654012	, cc jj
-2.199243	, cc jjr
-3.681017	, cc jjs
-1.804791	, cc md
-1.068695	, cc nn
-1.109573	, cc nnp
-2.46152	, cc nnps
-1.343522	, cc nns
-3.529912	, cc pdt
-1.120545	, cc prp
-1.664371	, cc prp$
-0.9363176	, cc rb
-2.494521	, cc rbr
-2.542825	, cc rbs
-1.831266	, cc to
-3.681017	, cc uh
-1.570514	, cc vb
-1.474421	, cc vbd
-1.676364	, cc vbg
-2.819032	, cc vbn
-1.991519	, cc vbp
-1.666064	, cc vbz
-2.659331	, cc wdt
-2.318429	, cc wp
-3.51551	, cc wp$
-2.134785	, cc wrb
-1.371068	. cc ,
-0.7178553	. cc dt
-1.895135	. cc ex
-0.9450991	. cc in
-1.194977	. cc jj
-1.371068	. cc nn
-1.755931	. cc nnp
-1.755931	. cc nns
-0.7178553	. cc prp
-1.604827	. cc prp$
-1.149219	. cc rb
-1.481198	. cc vb
-1.895135	. cc vbg
-1.590425	. cc vbp
-1.895135	. cc vbz
-1.895135	. cc wp
-1.590425	. cc wrb
-2.418923	: cc "
-1.548342	: cc #
-1.310103	: cc ,
-2.709232	: cc </s>
-2.295295	: cc cd
-0.7646585	: cc dt
-2.060225	: cc ex
-0.9298918	: cc in
-1.350532	: cc jj
-2.295295	: cc jjr
-1.641096	: cc md
-1.486194	: cc nn
-1.662286	: cc nnp
-1.531952	: cc nns
-1.099993	: cc prp
-1.732867	: cc prp$
-0.7303194	: cc rb
-2.295295	: cc rbr
-2.709232	: cc rbs
-1.531952	: cc to
-1.662286	: cc vb
-1.817187	: cc vbd
-1.516158	: cc vbg
-2.418923	: cc vbn
-1.921923	: cc vbp
-1.759196	: cc vbz
-2.060225	: cc wp
-1.921923	: cc wrb
-3.224132	<s> cc "
-1.207487	<s> cc ,
-2.839268	<s> cc cc
-2.255692	<s> cc cd
-0.576422	<s> cc dt
-1.556722	<s> cc ex
-0.9556071	<s> cc in
-1.305666	<s> cc jj
-2.71433	<s> cc jjr
-1.682921	<s> cc md
-1.239022	<s> cc nn
-1.152037	<s> cc nnp
-2.663177	<s> cc nnps
-1.583996	<s> cc nns
-3.224132	<s> cc pdt
-1.00676	<s> cc prp
-1.877057	<s> cc prp$
-1.28904	<s> cc rb
-2.71433	<s> cc rbr
-2.338666	<s> cc rbs
-2.11227	<s> cc to
-2.098906	<s> cc vb
-2.073352	<s> cc vbd
-1.644292	<s> cc vbg
-2.338666	<s> cc vbn
-2.026355	<s> cc vbp
-1.579993	<s> cc vbz
-2.949399	<s> cc wdt
-1.703606	<s> cc wp
-1.730929	<s> cc wrb
-0.7873089	cc cc md
-0.7873089	cc cc vbp
-0.7873089	cc cc vbz
-1.703291	cd cc $
-2.352298	cd cc ,
-0.3299195	cd cc cd
-0.9436235	cd cc dt
-1.305351	cd cc in
-1.460253	cd cc jj
-1.244654	cd cc jjr
-2.061989	cd cc md
-2.047587	cd cc nn
-1.43029	cd cc nnp
-2.047587	cd cc nns
-2.213094	cd cc prp
-2.352298	cd cc prp$
-1.263959	cd cc rb
-2.047587	cd cc rbr
-2.352298	cd cc to
-1.703291	cd cc vb
-1.606381	cd cc vbd
-2.047587	cd cc vbg
-1.82823	cd cc vbn
-2.213094	cd cc vbp
-1.938361	cd cc vbz
-1.560955	dt cc ,
-1.051152	dt cc cd
-0.5392691	dt cc dt
-1.395448	dt cc in
-0.69897	dt cc jj
-1.700159	dt cc jjr
-1.286222	dt cc nn
-1.700159	dt cc nnp
-1.560955	dt cc rb
-1.700159	dt cc vbg
-1.395448	dt cc vbn
-1.395448	dt cc vbz
-0.39794	fw cc dt
-0.6316988	fw cc fw
-0.9220075	fw cc jj
-2.208314	in cc ,
-1.286307	in cc dt
-0.5278996	in cc in
-1.286307	in cc jj
-2.06911	in cc jjr
-2.06911	in cc md
-0.9852768	in cc nn
-2.208314	in cc nnp
-2.208314	in cc nns
-2.06911	in cc prp
-0.7548278	in cc rb
-2.208314	in cc to
-1.286307	in cc vb
-1.508155	in cc vbd
-1.421005	in cc vbg
-1.559308	in cc vbn
-2.06911	in cc vbp
-2.06911	in cc vbz
-1.903604	in cc wp
-1.207126	in cc wrb
-2.81602	jj cc "
-3.340088	jj cc #
-2.338899	jj cc ,
-3.200884	jj cc :
-2.552779	jj cc cd
-1.438835	jj cc dt
-3.340088	jj cc ex
-1.774628	jj cc in
-0.1788642	jj cc jj
-2.315418	jj cc jjr
-3.340088	jj cc jjs
-2.131773	jj cc md
-1.384656	jj cc nn
-1.675093	jj cc nnp
-3.200884	jj cc nnps
-2.11705	jj cc nns
-2.448043	jj cc prp
-2.251749	jj cc prp$
-1.153262	jj cc rb
-2.037869	jj cc rbr
-3.049779	jj cc rbs
-2.594172	jj cc to
-1.71911	jj cc vb
-2.196231	jj cc vbd
-1.702077	jj cc vbg
-1.441883	jj cc vbn
-2.293141	jj cc vbp
-2.089021	jj cc vbz
-3.200884	jj cc wdt
-3.200884	jj cc wp
-3.035377	jj cc wrb
-2.074296	jjr cc ,
-1.660359	jjr cc dt
-1.550228	jjr cc in
-1.550228	jjr cc jj
-0.3888603	jjr cc jjr
-2.074296	jjr cc md
-2.074296	jjr cc nn
-2.074296	jjr cc nns
-1.550228	jjr cc rb
-0.4418889	jjr cc rbr
-1.769585	jjr cc vb
-1.935092	jjr cc vbg
-1.935092	jjr cc vbz
-1.163015	jjs cc dt
-1.302219	jjs cc jj
-0.7781513	jjs cc jjs
-0.30103	jjs cc rbs
-1.375704	md cc dt
-1.680415	md cc jj
-0.1491686	md cc md
-1.156347	md cc nn
-1.680415	md cc prp$
-1.266478	md cc vb
-1.680415	md cc vbz
-2.823474	nn cc "
-2.983175	nn cc #
-3.683334	nn cc $
-3.683334	nn cc (
-2.145026	nn cc ,
-3.54413	nn cc .
-3.54413	nn cc :
-2.098568	nn cc cd
-0.9279667	nn cc dt
-3.54413	nn cc ex
-3.683334	nn cc fw
-1.484099	nn cc in
-0.8394665	nn cc jj
-2.03979	nn cc jjr
-2.293965	nn cc md
-0.4136711	nn cc nn
-1.73602	nn cc nnp
-3.683334	nn cc nnps
-1.372751	nn cc nns
-2.357634	nn cc prp
-1.741518	nn cc prp$
-1.464661	nn cc rb
-2.658664	nn cc rbr
-3.54413	nn cc rbs
-1.851058	nn cc to
-1.299928	nn cc vb
-1.709531	nn cc vbd
-1.485631	nn cc vbg
-1.761326	nn cc vbn
-2.104909	nn cc vbp
-1.752726	nn cc vbz
-3.269397	nn cc wdt
-2.682145	nn cc wp
-3.378623	nn cc wp$
-2.733298	nn cc wrb
-3.399708	nnp cc "
-3.094997	nnp cc #
-2.423342	nnp cc ,
-2.375038	nnp cc cd
-0.7479953	nnp cc dt
-1.57461	nnp cc in
-1.139243	nnp cc jj
-3.094997	nnp cc jjr
-3.109399	nnp cc md
-1.463459	nnp cc nn
-0.2907436	nnp cc nnp
-2.507663	nnp cc nnps
-1.724372	nnp cc nns
-2.27358	nnp cc prp
-1.262856	nnp cc prp$
-1.567431	nnp cc rb
-3.260504	nnp cc rbr
-2.87564	nnp cc rbs
-2.27358	nnp cc to
-1.946221	nnp cc vb
-2.085589	nnp cc vbd
-2.041007	nnp cc vbg
-2.109723	nnp cc vbn
-2.699549	nnp cc vbp
-2.206633	nnp cc vbz
-3.109399	nnp cc wdt
-3.109399	nnp cc wp
-3.399708	nnp cc wrb
-1.618048	nnps cc cd
-0.750286	nnps cc dt
-1.976746	nnps cc in
-1.002624	nnps cc jj
-1.742987	nnps cc nn
-0.7082247	nnps cc nnp
-0.5620967	nnps cc nnps
-1.15941	nnps cc nns
-1.345047	nnps cc prp$
-1.742987	nnps cc rb
-2.267054	nnps cc to
-1.976746	nnps cc vb
-1.976746	nnps cc vbg
-2.127851	nnps cc vbn
-2.694446	nns cc "
-3.067818	nns cc #
-2.167637	nns cc ,
-2.112589	nns cc cd
-1.027417	nns cc dt
-3.177044	nns cc ex
-1.542714	nns cc in
-0.8349253	nns cc jj
-2.133778	nns cc jjr
-2.144774	nns cc md
-0.8919829	nns cc nn
-1.806419	nns cc nnp
-2.656657	nns cc nnps
-0.4950396	nns cc nns
-2.337898	nns cc prp
-1.592824	nns cc prp$
-1.448037	nns cc rb
-3.067818	nns cc rbr
-3.177044	nns cc rbs
-1.995476	nns cc to
-1.296506	nns cc vb
-1.744612	nns cc vbd
-1.47102	nns cc vbg
-1.663956	nns cc vbn
-2.036868	nns cc vbp
-1.776797	nns cc vbz
-3.342551	nns cc wdt
-3.067818	nns cc wp
-3.481755	nns cc wp$
-2.832748	nns cc wrb
-1.732688	pos cc ,
-0.4682578	pos cc cd
-1.20862	pos cc dt
-1.427977	pos cc in
-0.7826517	pos cc jj
-1.442379	pos cc nn
-0.7314993	pos cc nnp
-1.732688	pos cc nns
-1.427977	pos cc rb
-1.732688	pos cc to
-2.373282	prp cc ,
-0.8492146	prp cc dt
-1.396917	prp cc in
-1.025306	prp cc jj
-2.082973	prp cc md
-1.673123	prp cc nn
-0.566668	prp cc nnp
-1.959345	prp cc nns
-1.180208	prp cc prp
-0.8949721	prp cc prp$
-1.348612	prp cc rb
-1.585973	prp cc to
-1.284943	prp cc vb
-1.959345	prp cc vbd
-1.724276	prp cc vbg
-2.068572	prp cc vbn
-2.068572	prp cc vbp
-2.234078	prp cc vbz
-2.373282	prp cc wdt
-2.373282	prp cc wp$
-2.234078	prp cc wrb
-0.02996322	prp$ cc prp$
-2.179063	rb cc ,
-2.179063	rb cc cd
-1.444702	rb cc dt
-2.469372	rb cc ex
-1.060698	rb cc in
-1.276298	rb cc jj
-2.330168	rb cc jjr
-1.547364	rb cc md
-1.422426	rb cc nn
-2.164661	rb cc nnp
-2.055435	rb cc nns
-2.164661	rb cc prp
-0.3617278	rb cc rb
-2.164661	rb cc rbr
-2.164661	rb cc to
-1.060698	rb cc vb
-1.577328	rb cc vbd
-1.325516	rb cc vbg
-1.493007	rb cc vbn
-2.179063	rb cc vbp
-1.577328	rb cc vbz
-2.179063	rb cc wp
-2.164661	rb cc wrb
-0.9230438	rbr cc jjr
-0.3606157	rbr cc rb
-0.8129134	rbr cc rbr
-1.336981	rbr cc vb
-1.336981	rbr cc vbn
-1.657005	sym cc "
-1.80811	sym cc cd
-0.5579445	sym cc dt
-1.087454	sym cc in
-1.055269	sym cc jj
-1.80811	sym cc jjr
-1.247155	sym cc nn
-0.8589745	sym cc nnp
-1.298307	sym cc nns
-1.947313	sym cc prp
-1.657005	sym cc rb
-1.947313	sym cc rbr
-1.947313	sym cc to
-1.533376	sym cc vb
-1.947313	sym cc vbd
-1.80811	sym cc vbg
-1.947313	sym cc vbn
-1.657005	sym cc vbz
-1.947313	sym cc wrb
-0.6453256	to cc in
-0.9500362	to cc nn
-0.9500362	to cc nns
-0.6597275	to cc vb
-0.3056824	uh cc dt
-0.4448863	uh cc vb
-2.128554	vb cc ,
-2.252182	vb cc cd
-1.517821	vb cc dt
-1.717393	vb cc in
-1.240272	vb cc jj
-2.252182	vb cc md
-0.8520917	vb cc nn
-2.018423	vb cc nnp
-2.54249	vb cc nns
-2.23778	vb cc prp
-2.23778	vb cc prp$
-1.334176	vb cc rb
-1.842332	vb cc to
-0.2426913	vb cc vb
-2.018423	vb cc vbd
-2.018423	vb cc vbg
-2.54249	vb cc vbn
-2.018423	vb cc vbp
-2.23778	vb cc vbz
-2.54249	vb cc wdt
-2.018423	vb cc wp
-2.018423	vb cc wrb
-1.805369	vbd cc cd
-1.084714	vbd cc dt
-1.052529	vbd cc jj
-1.944573	vbd cc md
-1.022566	vbd cc nn
-1.805369	vbd cc nnp
-1.805369	vbd cc nns
-1.944573	vbd cc prp
-1.052529	vbd cc rb
-1.639863	vbd cc vb
-0.5965971	vbd cc vbd
-0.7836837	vbd cc vbn
-1.944573	vbd cc vbp
-1.295567	vbd cc vbz
-1.944573	vbd cc wp
-1.944573	vbd cc wrb
-1.940893	vbg cc dt
-1.499687	vbg cc in
-0.9682082	vbg cc jj
-0.7672933	vbg cc nn
-1.955295	vbg cc nnp
-1.955295	vbg cc nns
-2.245603	vbg cc prp
-1.420506	vbg cc rb
-1.955295	vbg cc vb
-2.245603	vbg cc vbd
-0.2928612	vbg cc vbg
-1.458294	vbg cc vbn
-2.245603	vbg cc vbz
-2.1064	vbg cc wrb
-2.305123	vbn cc ,
-2.305123	vbn cc cd
-1.037843	vbn cc dt
-1.562887	vbn cc in
-0.8816462	vbn cc jj
-2.305123	vbn cc jjr
-1.960827	vbn cc md
-1.164947	vbn cc nn
-1.960827	vbn cc nnp
-1.562887	vbn cc nns
-2.47063	vbn cc prp
-1.909675	vbn cc prp$
-1.012659	vbn cc rb
-2.609834	vbn cc rbr
-1.633469	vbn cc vb
-1.131524	vbn cc vbd
-1.659797	vbn cc vbg
-0.5003054	vbn cc vbn
-2.195897	vbn cc vbp
-1.585164	vbn cc vbz
-2.195897	vbn cc wp
-2.195897	vbn cc wrb
-1.904279	vbp cc cd
-0.8361432	vbp cc dt
-1.904279	vbp cc in
-1.599568	vbp cc jj
-0.6532125	vbp cc nn
-1.765075	vbp cc nns
-1.765075	vbp cc prp
-1.61397	vbp cc rb
-0.5351132	vbp cc vb
-1.765075	vbp cc vbd
-1.904279	vbp cc vbn
-1.079181	vbp cc vbp
-1.904279	vbp cc vbz
-1.380211	vbp cc wp
-1.431364	vbz cc cd
-0.8670923	vbz cc dt
-1.541494	vbz cc in
-1.541494	vbz cc jj
-1.306425	vbz cc md
-1.255273	vbz cc nn
-1.431364	vbz cc nnp
-0.7181533	vbz cc nns
-1.955431	vbz cc prp
-1.955431	vbz cc prp$
-1.650721	vbz cc rb
-1.816227	vbz cc to
-1.816227	vbz cc vbg
-1.955431	vbz cc vbn
-1.955431	vbz cc vbp
-0.6780361	vbz cc vbz
-1.431364	vbz cc wp
-1.816227	vbz cc wrb
-0.4448863	wp cc wp
-0.8214169	wrb cc in
-1.126127	wrb cc to
-1.126127	wrb cc wp
-0.1760913	wrb cc wrb
-1.051152	" cd "
-1.560955	" cd .
-1.700159	" cd cc
-1.395448	" cd in
-0.4771213	" cd nn
-0.8081145	" cd nnp
-0.6532125	" cd nns
-1.560955	" cd vbn
-1.102831	# cd .
-0.05484867	# cd :
-2.506339	$ cd (
-1.418	$ cd ,
-1.556303	$ cd .
-2.367135	$ cd :
-1.80618	$ cd cc
-0.1829307	$ cd cd
-1.380211	$ cd dt
-0.8519375	$ cd in
-2.201628	$ cd jj
-2.367135	$ cd md
-2.21603	$ cd nn
-2.367135	$ cd nnp
-2.201628	$ cd nns
-2.367135	$ cd rb
-2.367135	$ cd sym
-1.71903	$ cd to
-2.506339	$ cd vbz
-1.593484	( cd .
-1.20862	( cd cd
-0.9867718	( cd in
-0.6250439	( cd nn
-1.593484	( cd nnp
-1.083682	( cd nns
-0.3847117	( cd sym
-1.732688	( cd vbn
-0.9591018	, cd ,
-1.351579	, cd .
-2.602645	, cd :
-2.297935	, cd cc
-1.742786	, cd cd
-0.8610937	, cd in
-1.078578	, cd jj
-2.602645	, cd jjr
-2.602645	, cd md
-0.6720375	, cd nn
-1.710601	, cd nnp
-1.953639	, cd nnps
-0.8273451	, cd nns
-2.078578	, cd pos
-2.188708	, cd rb
-2.602645	, cd rbr
-2.463441	, cd sym
-2.312336	, cd to
-2.312336	, cd vbd
-1.856729	, cd vbg
-1.680638	, cd vbn
-1.338215	, cd vbz
-1.175488	, cd wdt
-2.463441	, cd wrb
-1.377564	. cd ,
-0.5155795	. cd cd
-1.377564	. cd in
-1.22646	. cd nn
-1.212058	. cd nnp
-1.22646	. cd nns
-0.9927008	. cd sym
-1.377564	. cd vbd
-1.516768	. cd vbn
-1.082459	: cd cd
-0.6467304	: cd in
-1.123852	: cd jj
-0.4903832	: cd nn
-1.869768	: cd nnp
-1.169609	: cd nns
-1.565057	: cd rb
-1.869768	: cd rbr
-1.869768	: cd sym
-1.869768	: cd vbn
-1.730564	: cd vbz
-1.220762	: cd wdt
-1.550228	<s> cd .
-2.638567	<s> cd :
-1.249198	<s> cd </s>
-2.638567	<s> cd cc
-1.591621	<s> cd cd
-1.121799	<s> cd in
-0.8512583	<s> cd jj
-2.333857	<s> cd jjr
-1.290591	<s> cd md
-0.600395	<s> cd nn
-1.570432	<s> cd nnp
-0.6231381	<s> cd nns
-2.22463	<s> cd rb
-2.348258	<s> cd vb
-1.989561	<s> cd vbd
-2.348258	<s> cd vbg
-2.1145	<s> cd vbn
-1.290591	<s> cd vbz
-2.364867	cc cd (
-0.9519746	cc cd ,
-1.145371	cc cd .
-2.19936	cc cd :
-1.980003	cc cd cc
-1.612027	cc cd cd
-2.213762	cc cd dt
-0.8889229	cc cd in
-1.226676	cc cd jj
-2.213762	cc cd md
-0.6543509	cc cd nn
-1.758155	cc cd nnp
-1.980003	cc cd nnps
-0.8496696	cc cd nns
-1.295757	cc cd pos
-2.213762	cc cd rb
-2.213762	cc cd sym
-2.213762	cc cd to
-1.716762	cc cd vbd
-2.19936	cc cd vbg
-1.855065	cc cd vbn
-2.19936	cc cd vbp
-1.644211	cc cd vbz
-2.090134	cc cd wdt
-2.504071	cc cd wp
-2.393029	cd cd "
-1.997581	cd cd (
-1.289065	cd cd ,
-1.261627	cd cd .
-1.872642	cd cd :
-1.951823	cd cd </s>
-1.747703	cd cd cc
-1.629604	cd cd cd
-1.446673	cd cd dt
-0.6893719	cd cd in
-1.289065	cd cd jj
-2.048733	cd cd jjr
-2.558535	cd cd md
-1.195948	cd cd nn
-1.997581	cd cd nnp
-1.571612	cd cd nnps
-0.5385233	cd cd nns
-2.393029	cd cd prp
-1.83788	cd cd rb
-1.997581	cd cd sym
-1.328574	cd cd to
-2.697739	cd cd vb
-1.83788	cd cd vbd
-2.697739	cd cd vbg
-2.048733	cd cd vbn
-2.173672	cd cd vbp
-2.393029	cd cd vbz
-2.40824	dt cd "
-2.766937	dt cd (
-1.419235	dt cd ,
-1.648572	dt cd .
-2.165202	dt cd :
-1.578936	dt cd </s>
-1.648572	dt cd cc
-1.677861	dt cd cd
-2.766937	dt cd dt
-1.547902	dt cd in
-1.093846	dt cd jj
-2.056057	dt cd jjs
-2.766937	dt cd md
-0.8327634	dt cd nn
-1.352289	dt cd nnp
-2.197387	dt cd nnps
-0.646688	dt cd nns
-0.779851	dt cd pos
-2.197387	dt cd prp
-1.949602	dt cd rb
-2.080881	dt cd rbs
-2.533179	dt cd sym
-2.269937	dt cd to
-2.643309	dt cd vb
-1.688081	dt cd vbd
-2.056057	dt cd vbg
-1.989111	dt cd vbn
-2.643309	dt cd vbp
-1.239448	dt cd vbz
-2.533179	dt cd wdt
-2.918042	dt cd wp
-3.057246	dt cd wrb
-0.04694625	fw cd nns
-2.706462	in cd "
-2.427708	in cd (
-0.7170119	in cd ,
-0.9756795	in cd .
-1.867613	in cd :
-2.752219	in cd </s>
-1.331713	in cd cc
-1.465912	in cd cd
-2.072993	in cd dt
-3.452378	in cd ex
-1.257755	in cd in
-1.392595	in cd jj
-2.92831	in cd jjr
-2.53037	in cd md
-0.6778905	in cd nn
-1.797977	in cd nnp
-2.476013	in cd nnps
-0.8239372	in cd nns
-2.2151	in cd pos
-2.308522	in cd prp
-2.093678	in cd rb
-3.313174	in cd rbr
-2.2151	in cd sym
-1.505065	in cd to
-3.147667	in cd vb
-1.83723	in cd vbd
-2.405432	in cd vbg
-2.072993	in cd vbn
-2.502342	in cd vbp
-1.697862	in cd vbz
-2.752219	in cd wdt
-3.313174	in cd wp
-2.706462	in cd wrb
-1.220817	jj cd ,
-1.134336	jj cd .
-1.991669	jj cd :
-1.877726	jj cd </s>
-1.815578	jj cd cc
-1.76122	jj cd cd
-2.432875	jj cd dt
-1.576696	jj cd in
-1.486519	jj cd jj
-1.06739	jj cd nn
-1.950276	jj cd nnp
-0.3561853	jj cd nns
-0.8878653	jj cd pos
-2.737585	jj cd prp
-2.323648	jj cd rb
-2.737585	jj cd sym
-2.213518	jj cd to
-2.323648	jj cd vbd
-2.737585	jj cd vbg
-1.950276	jj cd vbn
-2.598381	jj cd vbp
-1.500307	jj cd vbz
-2.598381	jj cd wrb
-0.7459162	jjr cd in
-0.7459162	jjr cd pos
-1.556102	jjs cd cd
-0.7732987	jjs cd jj
-0.5180262	jjs cd nn
-1.695306	jjs cd nnps
-0.4308761	jjs cd nns
-1.695306	jjs cd vbn
-1.695306	jjs cd vbz
-0.1346986	md cd nn
-1.223037	md cd rb
-0.9327288	md cd vb
-1.720159	nn cd "
-1.051152	nn cd ,
-1.006949	nn cd .
-2.244227	nn cd :
-1.498311	nn cd cc
-1.498311	nn cd cd
-2.105023	nn cd dt
-0.9668316	nn cd in
-1.720159	nn cd jj
-1.544068	nn cd md
-0.845098	nn cd nn
-1.720159	nn cd nnp
-0.6232493	nn cd nns
-2.105023	nn cd prp
-1.953918	nn cd rb
-1.544068	nn cd sym
-1.939516	nn cd to
-1.83029	nn cd vbd
-1.322219	nn cd vbz
-2.244227	nn cd wdt
-2.121669	nnp cd "
-2.2318	nnp cd (
-0.3483705	nnp cd ,
-0.8998205	nnp cd .
-1.723729	nnp cd :
-1.10048	nnp cd </s>
-1.996731	nnp cd cc
-2.355428	nnp cd cd
-2.506533	nnp cd dt
-1.266352	nnp cd in
-1.89982	nnp cd jj
-2.2318	nnp cd md
-1.468457	nnp cd nn
-1.996731	nnp cd nnp
-1.209624	nnp cd nns
-2.645737	nnp cd pos
-2.645737	nnp cd prp
-2.506533	nnp cd rb
-2.2318	nnp cd sym
-1.945578	nnp cd to
-2.506533	nnp cd vb
-1.644548	nnp cd vbd
-2.355428	nnp cd vbg
-2.121669	nnp cd vbn
-2.341026	nnp cd vbp
-1.577601	nnp cd vbz
-2.645737	nnp cd wdt
-2.506533	nnp cd wrb
-1.314283	nns cd cc
-1.039549	nns cd in
-0.8044802	nns cd nn
-1.453486	nns cd nnp
-0.3853509	nns cd nns
-1.163178	nns cd to
-1.765075	pos cd "
-1.765075	pos cd </s>
-0.7966347	pos cd cd
-0.7781513	pos cd jj
-1.490342	pos cd jjs
-0.6268836	pos cd nn
-1.255273	pos cd nnp
-0.6812412	pos cd nns
-1.765075	pos cd rbs
-1.904279	pos cd vbz
-0.7206557	prp cd in
-0.8598596	prp cd nn
-0.3357921	prp cd nns
-0.9890046	prp$ cd cd
-1.3333	prp$ cd jj
-0.4941546	prp$ cd nn
-1.638011	prp$ cd nnp
-0.4007329	prp$ cd nns
-1.638011	prp$ cd sym
-2.175212	rb cd ,
-1.843233	rb cd .
-2.589149	rb cd :
-2.065082	rb cd cc
-1.445293	rb cd cd
-2.589149	rb cd dt
-1.010724	rb cd in
-1.311754	rb cd jj
-2.29884	rb cd jjr
-0.3838403	rb cd nn
-1.843233	rb cd nnp
-2.449945	rb cd nnps
-0.5831614	rb cd nns
-2.449945	rb cd rb
-2.589149	rb cd sym
-1.940143	rb cd to
-2.284438	rb cd vbd
-2.449945	rb cd vbg
-2.065082	rb cd vbn
-1.729289	rb cd vbz
-1.940143	rb cd wdt
-0.4412057	sym cd cd
-0.6067123	sym cd nn
-2.421695	to cd (
-1.00368	to cd ,
-1.170628	to cd .
-2.131386	to cd :
-1.675778	to cd cc
-1.184417	to cd cd
-1.772688	to cd dt
-1.062994	to cd in
-1.471658	to cd jj
-0.4133272	to cd nn
-0.7949647	to cd nns
-1.897627	to cd pos
-2.282491	to cd rb
-2.282491	to cd to
-2.282491	to cd vbd
-2.421695	to cd vbz
-1.681241	vb cd ,
-1.459392	vb cd .
-1.915	vb cd cc
-1.180639	vb cd cd
-1.791372	vb cd dt
-0.8796089	vb cd in
-0.8466086	vb cd jj
-0.5843312	vb cd nn
-2.066105	vb cd nnp
-2.066105	vb cd nnps
-0.7269987	vb cd nns
-1.418	vb cd pos
-2.066105	vb cd rb
-2.205309	vb cd to
-2.066105	vb cd vbn
-2.066105	vb cd vbz
-1.831666	vbd cd ,
-1.955295	vbd cd .
-1.721536	vbd cd cc
-1.323596	vbd cd cd
-0.8007171	vbd cd in
-0.9433846	vbd cd jj
-0.5858732	vbd cd nn
-1.831666	vbd cd nnp
-0.5265592	vbd cd nns
-2.245603	vbd cd rb
-2.245603	vbd cd sym
-2.1064	vbd cd to
-2.245603	vbd cd vbg
-2.245603	vbd cd vbz
-1.201397	vbg cd .
-1.533376	vbg cd cc
-1.201397	vbg cd cd
-1.80811	vbg cd dt
-0.9972771	vbg cd in
-0.9003671	vbg cd jj
-0.6828832	vbg cd nn
-1.298307	vbg cd nnp
-0.6331954	vbg cd nns
-1.657005	vbg cd pos
-1.947313	vbg cd vbn
-1.947313	vbg cd vbz
-1.966024	vbn cd "
-1.552087	vbn cd .
-1.82682	vbn cd :
-1.317018	vbn cd cc
-1.552087	vbn cd cd
-0.9896592	vbn cd in
-1.106165	vbn cd jj
-1.966024	vbn cd jjr
-0.6886292	vbn cd nn
-1.661314	vbn cd nnp
-0.4797454	vbn cd nns
-1.661314	vbn cd to
-1.82682	vbn cd vbz
-1.571539	vbp cd .
-1.176091	vbp cd cd
-1.87625	vbp cd dt
-1.227244	vbp cd in
-0.6532125	vbp cd jj
-1.87625	vbp cd jjr
-0.7323937	vbp cd nn
-1.87625	vbp cd nnp
-0.5070845	vbp cd nns
-1.87625	vbp cd rb
-1.87625	vbp cd vbg
-1.87625	vbp cd vbn
-2.1064	vbz cd ,
-1.955295	vbz cd .
-2.245603	vbz cd </s>
-1.955295	vbz cd cd
-0.5454445	vbz cd in
-1.101747	vbz cd jj
-0.5312041	vbz cd nn
-0.7143573	vbz cd nns
-1.721536	vbz cd rb
-2.1064	vbz cd rbr
-1.940893	vbz cd to
-2.245603	vbz cd vb
-2.245603	vbz cd vbg
-1.940893	vbz cd vbz
-1.955295	vbz cd wdt
-2.245603	vbz cd wrb
-1.004652	wdt cd jj
-0.7299193	wdt cd nn
-1.004652	wdt cd nns
-1.004652	wdt cd vbd
-0.7299193	wdt cd vbz
-0.6490062	wp cd nns
-0.3586975	wp cd vbz
-1.173599	wrb cd cd
-0.9542425	wrb cd in
-1.064373	wrb cd jj
-0.6910011	wrb cd nn
-0.7323937	wrb cd nns
-1.47831	wrb cd pos
-1.47831	wrb cd vbd
-0.6910011	wrb cd vbz
-1.232094	" dt "
-1.644274	" dt ,
-2.179063	" dt .
-2.330168	" dt cd
-0.6900319	" dt jj
-2.164661	" dt jjr
-1.820366	" dt jjs
-0.4681832	" dt nn
-0.8661232	" dt nnp
-2.179063	" dt nnps
-1.143672	" dt nns
-1.820366	" dt prp
-2.055435	" dt rb
-2.469372	" dt rbr
-2.469372	" dt rbs
-2.469372	" dt vbd
-2.055435	" dt vbg
-2.164661	" dt vbn
-1.444702	" dt vbz
-2.164661	" dt wp
-2.046946	( dt "
-2.046946	( dt )
-1.907742	( dt cd
-2.046946	( dt fw
-1.907742	( dt in
-0.60206	( dt jj
-1.907742	( dt jjr
-0.4749552	( dt nn
-0.7569619	( dt nnp
-2.046946	( dt nnps
-1.742236	( dt nns
-1.742236	( dt prp
-1.907742	( dt rb
-2.046946	( dt vbg
-1.742236	( dt vbn
-1.30103	( dt vbz
-2.123432	, dt "
-3.714446	, dt $
-3.424137	, dt ,
-3.300509	, dt .
-3.300509	, dt cc
-1.943224	, dt cd
-2.689776	, dt dt
-3.714446	, dt fw
-1.816241	, dt in
-0.6638237	, dt jj
-1.943224	, dt jjr
-2.054716	, dt jjs
-2.169189	, dt md
-0.4411575	, dt nn
-0.792728	, dt nnp
-2.136021	, dt nnps
-1.111197	, dt nns
-1.565409	, dt prp
-3.575242	, dt prp$
-1.801212	, dt rb
-2.335061	, dt rbr
-2.228167	, dt rbs
-3.424137	, dt to
-3.300509	, dt vb
-2.355746	, dt vbd
-1.885744	, dt vbg
-1.896648	, dt vbn
-2.76441	, dt vbp
-1.733001	, dt vbz
-3.575242	, dt wdt
-2.506132	, dt wp
-1.903378	. dt cd
-2.042582	. dt in
-0.6631967	. dt jj
-2.042582	. dt jjr
-1.903378	. dt md
-0.4393327	. dt nn
-0.9956352	. dt nnp
-1.255273	. dt nns
-1.903378	. dt prp
-1.903378	. dt rb
-1.737871	. dt vbd
-2.042582	. dt vbg
-1.737871	. dt vbn
-1.903378	. dt vbp
-1.066216	. dt vbz
-2.042582	. dt wp
-1.977724	: dt "
-2.649378	: dt ,
-2.814885	: dt .
-1.929419	: dt cd
-2.305083	: dt dt
-1.761014	: dt in
-0.6399708	: dt jj
-2.062044	: dt jjr
-1.977724	: dt jjs
-2.430021	: dt md
-0.3801575	: dt nn
-1.037911	: dt nnp
-2.208173	: dt nnps
-1.249131	: dt nns
-1.929419	: dt prp
-1.606112	: dt rb
-2.814885	: dt rbr
-2.25393	: dt rbs
-2.305083	: dt to
-2.66378	: dt vb
-2.16678	: dt vbd
-1.761014	: dt vbg
-1.9529	: dt vbn
-2.208173	: dt vbp
-1.639971	: dt vbz
-2.66378	: dt wdt
-2.25393	: dt wp
-2.159885	<s> dt "
-3.715987	<s> dt $
-3.855191	<s> dt (
-2.270426	<s> dt ,
-3.55048	<s> dt .
-3.715987	<s> dt :
-3.564882	<s> dt cc
-1.866237	<s> dt cd
-2.159885	<s> dt dt
-1.881388	<s> dt in
-0.6740676	<s> dt jj
-2.174776	<s> dt jjr
-2.104953	<s> dt jjs
-1.660568	<s> dt md
-0.4837565	<s> dt nn
-0.9248673	<s> dt nnp
-2.169755	<s> dt nnps
-1.070655	<s> dt nns
-3.715987	<s> dt pos
-1.810422	<s> dt prp
-1.910618	<s> dt rb
-2.475806	<s> dt rbr
-2.140792	<s> dt rbs
-3.55048	<s> dt uh
-2.995331	<s> dt vb
-1.927431	<s> dt vbd
-1.902449	<s> dt vbg
-1.924583	<s> dt vbn
-2.075851	<s> dt vbp
-1.125198	<s> dt vbz
-3.564882	<s> dt wdt
-2.258016	<s> dt wp
-2.087057	cc dt "
-3.235833	cc dt $
-2.564178	cc dt ,
-2.794627	cc dt .
-1.943369	cc dt cd
-3.235833	cc dt dt
-3.40134	cc dt fw
-2.038753	cc dt in
-0.6747121	cc dt jj
-2.016476	cc dt jjr
