造就 为 0.0086957
造就 伟人 0.3333333
问题 于是 0.0714286
问题 NULL 0.0016199
问题 焉 0.0212766
问题 深思远虑 0.1666667
问题 证据 1.0000000
问题 则 0.0123457
问题 解之者 0.2000000
问题 患之疏 0.2500000
序 序 1.0000000
迂 迂之小者 0.3333333
信义 信义 1.0000000
信义 固人 0.1428571
今天 自力 0.3333333
今天 今者 1.0000000
盟约 背盟败约 0.3333333
管理 矣 0.0104167
管理 尝为 0.4000000
变化无常 变化 0.2500000
战船 舳舻 0.5000000
腐肌 死 0.0357143
腐肌 肌 0.5000000
一家人 父子 0.2000000
一家人 尚 0.3333333
盘 故曰 0.1666667
盘 盘 0.2500000
阴暗 窈 1.0000000
阴暗 阴翳 0.2500000
阴暗 惨淡 0.3333333
阴暗 晦明 0.3333333
不仕 市者 0.5000000
不仕 不 0.0144928
熟悉 NULL 0.0010799
熟悉 不为 0.1000000
熟悉 不熟 0.3333333
游山玩水 山水 0.2500000
游山玩水 乐 0.1428571
游山玩水 之 0.0027778
亲友们 张上 0.3333333
便 日出 1.0000000
便 反眼 0.5000000
便 切 0.5000000
便 书以 0.3333333
便 暝 0.2500000
便 NULL 0.0005400
便 壬戌 1.0000000
便 而范雎 0.2500000
便 登舟 0.2000000
便 则 0.0246914
便 重修 0.2500000
便 作是 0.5000000
便 硕士 0.2500000
便 没为 0.2500000
便 周公入 0.2000000
便 摄衣 0.2500000
便 其间 0.2000000
便 乃出 0.3333333
便 遂 0.0833333
便 而 0.0073260
便 愤发 0.3333333
便 一败涂地 0.3333333
便 以告 0.1428571
便 马群 0.2500000
便 且 0.0555556
便 乃日 0.5000000
便 疏泉 0.2000000
便 行歌 0.5000000
便 甘食 0.1428571
便 八愚 0.2500000
深 居嵩 0.2000000
以致 背盟败约 0.3333333
旷废 旷 0.5000000
一种 之野产异 0.2500000
一种 NULL 0.0005400
一种 可者 0.2500000
一种 恒其德贞 0.1428571
倒 其中 0.1428571
倒 颓乎 0.2500000
倒 者 0.0094340
志同道合 吾谁与归 0.1428571
志同道合 同道 0.5000000
顺利 遂 0.0833333
顺利 牛羊 0.2500000
疾病 抑别 0.2500000
其余 其余 0.5000000
谷 谷 0.5000000
可信 可信 0.2000000
可信 真若 0.2000000
仁爱 仁且 0.3333333
这年 是 0.0161290
这年 年 0.1250000
处理 不通 0.1666667
处理 议 0.2000000
处理 咨而处 0.1428571
处理 编之于 0.1428571
处理 南面 0.1428571
简直 真若 0.2000000
总是 若 0.0434783
总是 屡 0.2000000
总是 必 0.2222222
总是 应 0.1666667
落叶 叶脱 0.2500000
落叶 之 0.0027778
尚未 未形之患 0.2000000
凋落 尽脱 0.2500000
抢夺 争先 0.2500000
美色 色 0.2000000
称 NULL 0.0005400
称 谓之 0.2500000
称 故曰 0.1666667
称 位卑则 0.3333333
称 悲歌 0.5000000
灵秀之气 其气 0.1428571
灵秀之气 之灵 0.2500000
祖无泽 而是 0.2500000
祖无泽 无泽知 0.3333333
一批 不得志 0.2000000
一批 名之士 0.2000000
一批 又 0.0270270
一批 之 0.0055556
一批 纵 0.1428571
传授给 圣 0.4000000
传授给 法授 0.4000000
挟持 以为 0.0370370
挟持 人主 0.2500000
挟持 质 1.0000000
忠孝 忠孝 0.5000000
带到 以书至 0.2000000
佳木 葱茏 0.5000000
佳木 而 0.0036630
洞箫 洞箫 0.3333333
洞箫 者 0.0094340
高位 庙堂 0.3333333
高位 之高 1.0000000
高位 辞尊 0.5000000
真的 信 0.2000000
真的 其信然 0.2500000
真的 真若 0.2000000
不知 其所止 0.2000000
已 自成 0.2500000
已 当不复 0.2500000
已 藏之久 0.3333333
已 殚亡 0.3333333
已 比干 0.2500000
已 时夜 0.3333333
已 已 0.1428571
举行宴会 也 0.0034602
举行宴会 宴 0.5000000
御史大夫 乌公 0.4000000
御史大夫 大夫 0.1176471
御史大夫 御史大夫 1.0000000
是因为 NULL 0.0005400
是因为 武子 0.3333333
是因为 有时 0.3333333
倾注 东注 0.2000000
开 叶戏 0.3333333
于 安于 0.3333333
于 长终 0.3333333
于 实具兹道 0.3333333
于 祀 0.2000000
于 NULL 0.0005400
于 于 0.0128205
于 万世 0.3333333
于 蹇 0.1250000
于 薨 0.1666667
于 之众 0.2500000
于 化及民 0.1428571
于 飞仙以 0.2500000
于 人影 0.2000000
于 立 0.2000000
于 十五年 0.3333333
于 吏 0.2000000
于 希夷 0.3333333
于 五倍 0.2000000
于 囚奴 0.2500000
生存 全乎 0.2500000
可 若予 0.5000000
可 仰见 0.3333333
可 而今 0.3333333
可 二生固 0.3333333
可 迂大 0.2000000
形影相依 形 1.0000000
形影相依 相依 1.0000000
献帝 献 0.3333333
喜怒 喜怒 0.3333333
喜怒 出其 0.2500000
为了 正邦典 0.2500000
为了 之乐 0.1428571
为了 惟人 0.5000000
为了 NULL 0.0010799
为了 以防 0.2500000
为了 将 0.0714286
为了 求此 0.2500000
为了 于里 0.3333333
为了 禄仕乎 0.2000000
为了 所以 0.0909091
为了 衣食 0.2500000
为了 夫贤而辱 0.2000000
这番话 言 0.0714286
这番话 NULL 0.0005400
这番话 之 0.0055556
干的事 丈夫 0.1666667
用餐 食 0.3333333
用餐 朝夕 0.2500000
便是 大丈夫 0.4000000
消灭 消磨 0.2500000
饭 一盂 0.5000000
愚泉 愚泉 0.6666667
齐国 及其 0.1666667
齐国 蔓延 0.2500000
齐国 一败涂地 0.3333333
齐国 齐 0.3333333
齐国 之治 0.5000000
齐国 齐国 0.6000000
齐国 彼独恃 0.3333333
齐国 之强 0.2000000
辅佐 董 0.3333333
辅佐 管仲相 0.3333333
辅佐 舜佐尧 0.3333333
从早到晚 从祝规 0.2500000
潇水 潇水 1.0000000
潇水 潇湘 0.3333333
世家 世家 0.2500000
起程 使 0.0434783
起程 取汝者 0.2000000
十倍 十倍 1.0000000
乱国 尽言于 0.3333333
乱国 乱国 1.0000000
野味 山肴野蔌 0.2500000
标新立异 以为 0.0370370
标新立异 立异 0.3333333
短命 矣 0.0104167
短命 嗣 0.3333333
事有 欧阳修 0.1666667
心中 之明 0.2000000
心中 窃怪 0.3333333
心中 NULL 0.0005400
心中 美人兮天 0.2000000
心中 孰若 0.1250000
心中 退而惧 0.2500000
心中 无忧 0.5000000
思考 深思远虑 0.1666667
从未 以事免 0.2500000
从未 未尝 0.1111111
共有 凡六穴 0.3333333
学业 问业 0.1666667
学业 受业 0.5000000
收入 竭其 0.2500000
谨慎 涿人 0.5000000
争论不休 犹断 0.2000000
争论不休 断然 0.2500000
容易 也 0.0034602
容易 之所易 0.1666667
斟 酌 0.2857143
经书 可见 0.2000000
经书 考诸经 0.2000000
经书 已 0.0714286
沉寂 寂寥 0.6666667
兰花 岸芷汀兰 0.2000000
呜呜 呜呜 0.5000000
呜呜 其声 0.5000000
草木 望之蔚 0.5000000
草木 摧败 0.2000000
草木 尽死 0.2500000
草木 草木 1.0000000
怨恨 NULL 0.0005400
怨恨 毒邪 0.3333333
怨恨 若毒 0.2000000
不留 矣 0.0104167
不留 类 0.2000000
醉翁亭 也 0.0034602
醉翁亭 醉翁亭 0.5000000
搽 粉白黛绿 0.1428571
信奉 古 0.1666667
信奉 知信乎 0.1666667
人质 则 0.0123457
人质 其质 0.2000000
人质 NULL 0.0005400
人质 没为 0.2500000
大江 东来 0.2500000
白眼相看 相识 0.2500000
白眼相看 不 0.0144928
深信不疑 其 0.0091743
深信不疑 已信 0.2000000
懂 狄所 0.1666667
心花怒放 喜洋洋 0.5000000
心花怒放 者 0.0094340
积石 其旁 0.5000000
积石 其上 0.3333333
长幼 无长 0.5000000
长幼 无少 0.3333333
已有 矣 0.0104167
已有 利三世 0.1666667
已有 之 0.0027778
睡着 舟 0.3333333
睡着 中 0.1250000
完成 会计 0.1250000
完成 洪范 0.2500000
完成 之成 0.2500000
完成 成之日 0.2500000
完成 于 0.0128205
完成 非成 0.3333333
美的 之奠 0.5000000
美的 时羞 0.3333333
对人 之于 0.2500000
对人 身 0.3333333
乐趣 嗟盘 0.3333333
乐趣 之乐 0.1428571
乐趣 宴酣 0.3333333
乐趣 NULL 0.0010799
乐趣 人之乐 0.2500000
乐趣 兮 0.0714286
乐趣 乐 0.2857143
乐趣 同其乐 0.1666667
不见 不开 0.5000000
道士 道士 0.6666667
祸患 祸 1.0000000
祸患 NULL 0.0010799
祸患 未形之患 0.2000000
祸患 祸患 0.5000000
祸患 祸之作 0.3333333
祸患 祸斯及 0.2000000
祸患 患生 0.2500000
祸患 非欲养 0.2500000
祸患 患 0.5000000
祸患 深而觉 0.2000000
祸患 而势 0.1250000
出出进进 其门 0.2500000
出出进进 之出 0.1428571
是不是 其 0.0091743
是不是 乎 0.0526316
是不是 不然 0.0769231
是不是 夫水 0.2500000
夔 NULL 0.0005400
学识渊博 多 0.2000000
学识渊博 学广而闻 0.5000000
曾经 委吏 0.2500000
曾经 NULL 0.0010799
曾经 尝居 0.1666667
曾经 一 0.0909091
曾经 修尝考 0.1666667
曾经 尝 0.5000000
曾经 尝疑乎 0.2000000
加以 黝垩丹漆 0.1111111
加以 说 0.1000000
加以 虽十易 0.2500000
加以 之论 0.5000000
加以 之 0.0055556
犯罪 愚触 0.2500000
犯罪 罪 0.2000000
犯罪 余以 0.5000000
所作 之料 1.0000000
幼小 幼 0.5000000
高高的 危巢 0.5000000
各种 山肴野蔌 0.2500000
各种 百工 0.5000000
在于 在 0.1923077
倾斜 倾楫 0.5000000
牢固 牢 0.3333333
平庸 不肖 0.1666667
罪大恶极 罪大恶极 0.5000000
罪大恶极 乃 0.0555556
议论 论 0.5000000
使者 使者 1.0000000
使者 乃问 0.2500000
韩国 范雎 0.5000000
韩国 秦而收 1.0000000
制成 以为 0.0370370
制成 饵 0.5000000
奇蛇 之野产异 0.2500000
奇蛇 蛇 1.0000000
违背 悖乱 0.3333333
违背 违乎 0.2000000
违背 干誉 1.0000000
违背 背圣 0.2500000
违背 悖于 0.2000000
违背 不违 0.3333333
敬慕 慕 0.5000000
宁愿 宁以义 0.2500000
驾车 先后 0.2000000
驾车 为 0.0086957
山峦 山高月小 0.1666667
判刑 刑入 0.3333333
之世而 无邪 0.2000000
之世而 昏而 0.5000000
温生 生为 0.5000000
温生 NULL 0.0005400
温生 罗而致 0.2500000
温生 生 0.2000000
温生 以温 0.5000000
消耗 精 1.0000000
大概 其 0.0091743
大概 盖 0.1333333
大概 当不复 0.2500000
大概 此乎 0.1666667
大概 其亦闻乎 0.2000000
大概 其信然 0.1250000
圣王 圣师 0.2500000
有所 鉴矣 0.3333333
有所 有所 0.3333333
有所 贤者 0.0526316
操劳 牛马 0.3333333
操劳 然 0.1111111
浩荡 泛滥 0.5000000
水神 冯夷 0.3333333
捕到 得 0.0400000
捕到 举网 0.2500000
消散 长烟一空 0.1666667
辞官 处者 1.0000000
辞官 位而巷 0.3333333
金鲤 锦鳞 1.0000000
距离 去己 0.3333333
距离 疏远 0.2000000
间隔 日 0.1000000
间隔 贱者 0.2500000
间隔 隔 0.3333333
起居饮食 若 0.0434783
起居饮食 起居饮食 0.2500000
起居饮食 不 0.0144928
停后 音 0.5000000
描绘 之述备 0.2000000
私下里 私立 1.0000000
惠帝 无惠帝 0.2000000
高明 高 1.0000000
中土 为华 0.1666667
抽搐 畹 1.0000000
优良 丛于 0.5000000
优良 厥 0.1428571
桂木 桂 1.0000000
歌词 曰 0.0116279
歌词 NULL 0.0005400
歌词 歌 0.2000000
官府 NULL 0.0005400
官府 官借师 0.2500000
德操 恒其德贞 0.1428571
在外 退亦忧 0.2500000
外界 外事 0.3333333
外界 物喜 0.1428571
回 往 0.2500000
回 从嫂 0.2000000
回 东京 0.2000000
回 省 0.5000000
比不上 不及 0.2000000
比不上 其臣 0.5000000
比不上 未若 0.5000000
比不上 也 0.0034602
夜里 读书 0.5000000
夜里 夜 1.0000000
夜里 子方 0.5000000
学馆 越 0.3333333
当权 权贵 0.2000000
当权 事者 0.2500000
楚 齐 0.1111111
楚 楚 1.0000000
他力 不及 0.2000000
他力 思其力 0.3333333
看过 顾而乐 0.1111111
看过 见天 0.2500000
大规模 发愤 0.2500000
大规模 西 0.2500000
大规模 向 0.1428571
买 小丘 0.2500000
控制 把持 0.6666667
马上 进 0.1111111
造父 造父 0.5000000
妻子儿女 取 0.1250000
妻子儿女 妻子 0.5000000
失意 不以己 0.2500000
子孙 子孙 0.5000000
子孙 无遗 0.3333333
东流 流入 0.5000000
东流 东 0.2500000
世 合乎 0.1666667
世 盖世之 0.1666667
水边 水 0.5000000
水边 钓于 0.5000000
出动 未出 0.2500000
出动 秦兵 0.2500000
第六年 六年 0.3333333
第六年 唐太宗 0.2000000
堆成 睥睨 0.2000000
堆成 梁之形 0.1428571
可称 可谓 0.1000000
提出批评 得 0.0400000
提出批评 其言 0.1250000
土地 土燥 0.2500000
土地 人 0.0185185
土地 土肥 0.5000000
土地 盘之土 0.3333333
蛟龙 蛟龙 1.0000000
蛟龙 NULL 0.0005400
还 NULL 0.0032397
还 未为 0.2500000
还 汝俱幼 0.2500000
还 其泽乎 0.2500000
还 未出 0.2500000
还 未至 0.3333333
还 逆知 0.2000000
还 吾谁与归 0.1428571
还 黄河 0.2500000
还 夫水 0.5000000
还 尚存 0.3333333
还 蛇者乎 0.2500000
还 幼 0.5000000
还 恶未稔 0.2000000
还 未 0.3750000
还 断然 0.2500000
还 俱 0.3333333
还 未若 0.5000000
还 孰若 0.2500000
还 尚何取 0.2500000
还 圣乎 0.1666667
可能 得 0.0400000
可能 不可 0.0344828
可能 岩穴之士 0.2000000
可能 NULL 0.0005400
可能 必无之事 0.2500000
可能 然此 0.5000000
计较 而略 0.5000000
计较 取 0.1250000
计较 其礼 0.5000000
想方设法 设方计 0.3333333
商鞅 商鞅 1.0000000
称霸 霸 1.0000000
山水 之奇者 0.2000000
山水 百态 0.5000000
山水 山水 0.2500000
山水 山川 0.5000000
听任 纵一苇 0.1250000
听任 听忌者 0.2000000
听任 之 0.0027778
随大流 与物 0.5000000
随大流 浮沉 1.0000000
发作 而剧 0.2500000
春光明媚 公教 1.0000000
时令 阴 0.2500000
拿下 收魏 0.5000000
拿下 下 0.0588235
拿下 用于 0.0909091
拿下 江陵 0.2500000
写下 遂 0.0833333
有先有后 先后 0.2000000
有先有后 有 0.0151515
有先有后 闻道 0.3333333
身弱 衰者 0.5000000
东顾 顾之忧 0.1666667
东顾 无东 1.0000000
厨房 庖 1.0000000
何在 且 0.0555556
何在 萧何 0.3333333
揭发 NULL 0.0005400
揭发 招人过 0.3333333
揭发 尽言以 0.2500000
当作 之心 0.0588235
当作 高不事 0.1250000
屋里 书礼于 0.2000000
屋里 拜受 0.5000000
拜见 进谒 0.1111111
拜见 进 0.1111111
拜见 拜公于 0.2500000
拜见 怒其来 0.2500000
拜见 复进 0.3333333
拜见 继见 0.1428571
学问 得 0.0400000
学问 其道 0.1666667
视死如归 视死如归 0.6666667
灶 黔 0.1250000
土著居民 断然 0.2500000
朝政 视政 0.3333333
朝政 问其政 0.2500000
朝政 之 0.0027778
融化 混 1.0000000
规劝 NULL 0.0005400
规劝 于 0.0128205
规劝 觏 0.5000000
羞与为伍 不齿 0.2500000
几顷 之上 0.1666667
几顷 田于 0.3333333
看一看 视其 0.3333333
毒气 寒暑 0.2500000
梦见 梦 0.1428571
预料 可知 0.3333333
预料 不 0.0144928
预料 寿者 0.2000000
预料 知其 0.5000000
褚遂良 与 0.0169492
褚遂良 褚遂良 0.5000000
党人 党人 1.0000000
有利于 以利 0.2500000
有利于 其嗣人 0.2500000
黛绿 粉白黛绿 0.1428571
自得 安于 0.3333333
招聘 罗 1.0000000
落入 落 0.3333333
落入 陷阱 0.3333333
高 NULL 0.0005400
地要 适兹土 0.1666667
因要 以事 1.0000000
特别 贫力 0.1428571
特别 益奇 0.3333333
特别 尤甚 0.5000000
滥杀 滥 1.0000000
弟子 师 0.0666667
弟子 弟子 0.6000000
弟子 不必 0.3333333
弟子 贤于 0.2000000
旗帜 旄 1.0000000
旗帜 旌旗蔽空 0.3333333
玩笑话 NULL 0.0005400
玩笑话 成之邪 0.2500000
玩笑话 戏乎 0.3333333
记下来 醒能述 0.2000000
好自为之 五伯 1.0000000
好自为之 勉乎 0.2500000
何时 何时 0.5000000
何时 而乐耶 0.1666667
一首 首为 0.3333333
一首 诗六韵 0.2500000
成果 儒效阔 0.2000000
陈子昂 何如 0.1666667
陈子昂 从事 0.2500000
陈子昂 议 0.2000000
陈子昂 陈子昂 0.3333333
下邦 人 0.0185185
下邦 徐元庆 0.5000000
产生 女色 0.2500000
产生 闻而慕 0.1428571
产生 之 0.0027778
产生 去国 0.2500000
产生 患生 0.2500000
存在 NULL 0.0005400
存在 有无 0.3333333
存在 我 0.0555556
存在 遗世独立 0.2000000
存在 无尽 0.2000000
徐 两下 0.5000000
曹参 参以 0.5000000
讥笑 止于 0.5000000
讥笑 笑 0.6000000
讥笑 忧谗畏讥 0.1666667
讥笑 后世 0.2500000
什么 何言哉 0.1428571
什么 通达 0.2500000
什么 秦者 0.2500000
什么 何者 0.1666667
什么 NULL 0.0016199
什么 孰得 0.5000000
什么 何患 0.1666667
什么 问其官 0.2000000
什么 无求 0.2500000
什么 孰失 0.2500000
什么 人世 0.2000000
什么 兴理 0.1250000
什么 故何 0.2500000
什么 此何声 0.3333333
什么 所存 0.2500000
什么 之力 1.0000000
什么 奚所望 0.2500000
用尽 殚亡 0.3333333
前人 前人 0.5000000
献上 并献近 0.5000000
生前 不能 0.0370370
人世 无 0.0454545
狗 宁焉 0.2500000
狗 不得 0.0666667
狗 狗 0.5000000
繁密 丰草 0.5000000
宾胥 宾胥 1.0000000
避开 恶此 0.2000000
避开 逃 0.5000000
二年 二年 0.2500000
孟东野 云 0.1666667
孟东野 孟东野 0.3333333
孟东野 东野 0.4000000
孟东野 之 0.0055556
只要 得 0.0400000
只要 但 1.0000000
只要 使易 0.2000000
只要 一士 0.1666667
人所能 所居 0.3333333
端正 问客 0.2000000
不犯 为 0.0086957
不犯 极恶 0.5000000
不犯 不 0.0144928
喊冤 吁 0.5000000
负责 掌司 1.0000000
这么 孩提 0.2500000
这么 何者 0.1666667
这么 六二 0.1250000
学习 师 0.1333333
学习 学于 0.5000000
学习 之 0.0166667
学习 斯文 0.5000000
学习 耻师 0.1666667
学习 吾师 0.5000000
学习 师道 0.2500000
学习 通习 0.3333333
学习 必有我师 0.1250000
秋天 夫秋 0.3333333
秋天 盖夫秋 0.5000000
秋天 秋声 0.3333333
秋天 NULL 0.0005400
秋天 故其 0.2500000
秋天 秋实 0.3333333
秋天 此 0.0526316
得以 威公得 0.5000000
得以 NULL 0.0005400
得以 使 0.0434783
得以 顾其 0.3333333
发生 及其 0.1666667
发生 NULL 0.0005400
发生 作之日 0.2500000
发生 用武之地 0.1666667
发生 以四无事 0.2000000
发生 不作于 0.2500000
发生 其端 0.3333333
几乎 死者 0.1428571
几乎 数矣 0.2000000
杯酒 酌 0.2857143
杯酒 先生 0.0344828
杯酒 而 0.0073260
杯酒 寿 0.1428571
仙人 飞仙以 0.2500000
真才实学 一士 0.1666667
真才实学 NULL 0.0005400
真才实学 不至 1.0000000
真才实学 焉 0.0212766
真才实学 多才士 0.2000000
王侯 王侯 0.5000000
王侯 不事 0.5000000
王侯 高不事 0.1250000
里巷 相慕悦 0.1428571
五年 位 0.3333333
五年 居于 0.2500000
五年 五年 0.2500000
所处 所处 0.3333333
所处 NULL 0.0005400
所处 地 0.2500000
所处 不平 0.3333333
所处 吾 0.0126582
躯体 之质 0.2500000
圈 NULL 0.0005400
心志 予 0.0909091
原本 理有 1.0000000
关隘 凭恃 0.2500000
关隘 之 0.0027778
客地 东亦客 0.2000000
思想 其官 0.2500000
皇后 后时 1.0000000
风俗 土俗 0.2500000
风俗 之厚 0.2500000
风俗 古所云 0.3333333
风俗 邪 0.0769231
风俗 风俗 0.3333333
职务 居卑 0.2500000
职务 五年 0.2500000
职务 失 0.3333333
自 得 0.0400000
自 计 1.0000000
自 NULL 0.0005400
自 其人 0.2500000
自 自视 0.5000000
凭借着 以 0.0200000
凭借着 太医 0.5000000
姓安 曰 0.0116279
进攻 秦兵 0.2500000
不能不 更 0.0909091
只愿 听 0.1428571
僻静 地僻 0.2500000
一整天 终日 0.1666667
称职 其职 0.2000000
辅助 而佐 0.5000000
辅助 天子 0.0833333
结交 新 0.2500000
人数 朋之多且 0.2000000
幽静 幽而势 0.5000000
幽静 窈而深 0.3333333
幽静 深秀者 0.2000000
幽静 宅 0.5000000
懂道理 其闻道 0.2000000
懂道理 也 0.0034602
治国 NULL 0.0016199
治国 训俗 0.2000000
治国 以之事国 0.2000000
治国 托国 0.2000000
更何况 况号 0.5000000
通向 巫峡 0.3333333
原野 之野 0.2500000
性情 盖 0.0666667
性情 不敏 0.2000000
性情 之 0.0027778
最后 NULL 0.0005400
最后 灭亡 0.3333333
最后 尤不终 0.1250000
最后 竟赖 0.2500000
孝敬 亲亲 0.5000000
慰问 吊汝之 0.5000000
说些 何言哉 0.1428571
说些 将 0.0357143
当面 有誉 0.3333333
推举 NULL 0.0005400
推举 能举 0.5000000
见面 隔 0.3333333
享受 乐于 0.3333333
享受 有 0.0303030
享受 同其乐 0.1666667
大惑不解 矣 0.0104167
大惑不解 惑 0.1666667
就任 节度 0.2500000
就任 为 0.0086957
就任 夫 0.0769231
就任 辍汝而 0.3333333
长得 益奇 0.3333333
展翅 泉 0.2000000
展翅 上者 0.2000000
无穷无尽 无穷 0.2000000
无穷无尽 之 0.0055556
先生 阳子 0.5000000
先生 先生 0.5172414
先生 河东 0.5000000
先生 起 0.1428571
先生 今 0.0833333
直抵 潇湘 0.3333333
山林 山林 0.3333333
山林 然而 0.0769231
山林 知 0.1111111
一道 NULL 0.0005400
一道 出游 0.2500000
一道 之 0.0027778
态度 可者 0.2500000
态度 无一 0.5000000
回家 还家 0.5000000
回家 NULL 0.0005400
回家 纵使 0.5000000
回家 退 1.0000000
回家 纵而来 0.1428571
回家 诸妇 0.3333333
弹冠相庆 相庆 0.5000000
气节 节概 0.5000000
气节 所惜者 0.2000000
从而 成功 0.3333333
从而 感极 0.3333333
从而 而立 0.5000000
从而 使民知 1.0000000
从而 咨而处 0.1428571
从而 而 0.0073260
从而 祸福 0.2500000
从而 决去 0.5000000
从而 以乐生 0.3333333
匹夫 耳 0.1428571
匹夫 匹夫 0.5000000
匹夫 三 0.2500000
国家 无救 0.3333333
国家 休息 0.3333333
国家 为国 0.2500000
国家 NULL 0.0010799
国家 王之治 0.3333333
国家 其国 0.2500000
国家 之常法乎 0.3333333
国家 夫国以 0.3333333
国家 触法 0.3333333
国家 国者 0.1666667
国家 遭圣神 0.2000000
国家 大典 0.2500000
国家 兴理 0.1250000
国家 国典 0.2000000
国家 败国 0.5000000
国家 言及 0.3333333
国家 之国 0.2000000
国家 出而仕 0.2000000
国家 以二国委秦 0.2000000
国家 为常者 0.2500000
外放 为 0.0086957
外放 例出 0.3333333
许多 诸公 1.0000000
另外 休息 0.3333333
另外 四国 0.5000000
隐身 深藏 0.5000000
隐身 市者 0.5000000
隐身 才能 0.5000000
隐身 恃 0.5000000
乐曲 非竹 0.2500000
对王 NULL 0.0005400
专长 专攻 0.5000000
找 寻 0.3333333
一天天 贱者 0.2500000
一天天 日益 0.1818182
一天天 者 0.0188679
一天天 门墙 0.2857143
光武帝 世祖 0.3333333
竟会 汝遽 0.2500000
不断 绝者 0.3333333
不断 不 0.0144928
不断 往来 0.3333333
不断 而 0.0036630
不断 蔓延 0.2500000
事连 禽兽 0.5000000
事连 此宜 0.5000000
吓 凛乎 0.3333333
吓 而骇者 0.2000000
类 断斯狱 0.1666667
位 理而闻 0.2000000
位 道 0.0588235
创造 为 0.0086957
创造 造物者 0.2500000
创造 独为 0.3333333
死得 则 0.0123457
死得 后 0.0909091
死得 已 0.0714286
后 顾笑 0.1111111
后 闻而荐 0.2000000
后 定 0.5000000
后 用于 0.0909091
后 知放四凶 0.2000000
后 而是 0.2500000
后 汉献帝 0.2500000
后 其土 0.2000000
后 仲尼 0.3333333
后 蒋氏 0.2000000
后 触 0.2500000
后 闻 0.1000000
后 水落石出 0.1666667
后 NULL 0.0016199
后 坞 0.2000000
后 游人 0.3333333
后 还 0.2000000
后 而腊 0.3333333
后 莫对 0.2500000
后 以啮 0.3333333
后 周公入 0.2000000
后 秦而 0.5000000
后 叹 0.2000000
后 出而 0.3333333
后 唐太宗 0.2000000
后 之 0.0027778
后 读其文 0.1666667
后 即位 0.3333333
后 屈曲 0.2500000
后 节度 0.2500000
后 所止 0.1666667
后 朝鲜 0.3333333
耻辱 耻师 0.1666667
耻辱 NULL 0.0010799
耻辱 焉 0.0212766
䲡 观史 0.3333333
䲡 䲡 0.5000000
阴凉处 乔木 0.3333333
所谓 理者 0.2000000
所谓 天者 0.3333333
所谓 所谓 0.1333333
皋 而 0.0036630
东 而东 0.3333333
东 留守 0.3333333
东 NULL 0.0005400
东 东都 0.5000000
够晚 后 0.0909091
渺茫 而 0.0036630
湘江 潇湘 0.3333333
建议 且议 0.2000000
建议 其言乎 0.2500000
建议 其言 0.1250000
建议 陈子昂 0.3333333
这类 物 0.1250000
这类 是 0.0161290
这类 独为 0.3333333
责怪 其 0.0091743
责怪 不敏 0.2000000
责怪 NULL 0.0005400
责怪 怪 0.5000000
责怪 怒其来 0.2500000
预见 龟卜 0.1250000
小心翼翼 恂 0.5000000
慷慨仗义 统于 1.0000000
必定会 事有必至 0.1250000
可怕 夫 0.0769231
可怕 何患 0.1666667
师 羞 0.2000000
树枝 虬龙 0.2000000
一丝一毫 一毫 0.3333333
一丝一毫 虽 0.1000000
一丝一毫 而莫取 0.2500000
连续 连 0.3333333
连续 继见 0.1428571
蓝田县 尉拜 0.5000000
蓝田县 蓝田 0.3333333
消除 不 0.0144928
消除 除害 0.1428571
消除 肌 0.5000000
消除 去 0.0476190
重修 重修 0.2500000
重修 乃 0.0555556
声 无人 0.3333333
声 号令 0.3333333
残害 虐于 1.0000000
残害 害 1.0000000
以 NULL 0.0016199
以 以当 0.5000000
以 刚直 0.2500000
以 托国 0.2000000
以 相师 0.3333333
以 取怜 0.2500000
以 聊以 0.5000000
以 立异 0.3333333
以 而耻 0.2500000
以 以人钺 0.5000000
以 布衣 0.5000000
以 耻师 0.1666667
以 吾民 0.3333333
以 以成 0.2000000
以 利达 1.0000000
以 以存祀 0.1428571
以 必本于 0.2000000
这番 起拜 0.5000000
之篇 之章 1.0000000
传来 传之非 0.5000000
传来 其传 0.5000000
传来 真 0.1666667
人之常情 之至情 0.3333333
人之常情 也 0.0034602
吹过来 清风徐来 0.2500000
更难 必能 0.3333333
违如愚 不 0.0144928
违如愚 违如愚 0.3333333
往往 如此 0.0714286
往往 之祸常 0.5000000
写信 辄 0.1428571
写信 自疏 0.1666667
写信 书 0.0666667
奏议 议附于 0.2000000
奏议 谨议 0.2000000
奏议 为典 0.3333333
奏议 议者 0.3333333
奏议 议 0.2000000
汉献帝 汉献帝 0.5000000
汉献帝 后 0.0909091
有座 有亭翼然 0.3333333
一旦 一日 0.2500000
一旦 一旦 0.5000000
一旦 无仲 0.1250000
一旦 得志 0.5000000
一旦 悟 0.3333333
精练 精敏 0.2500000
种种 刑戮 0.5000000
鬼神 鬼神 1.0000000
亲身 身履 0.2000000
料想到 固有 0.2000000
料想到 意其 0.3333333
料想到 夫意 1.0000000
不当 则 0.0123457
不当 志 0.2500000
刻苦 NULL 0.0005400
有生之年 以 0.0200000
有生之年 尽吾齿 0.2500000
地带 刚 0.5000000
地带 所 0.0652174
窥伺 国 1.0000000
下来 可以 0.0500000
下来 久 0.1428571
下来 不 0.0144928
下来 生而知之 0.1250000
菜肴 肴 1.0000000
有始有终 始终 0.2500000
有始有终 者 0.0094340
非难 得罪 0.2000000
甘甜 甘 1.0000000
根源 患 0.5000000
根源 为 0.0086957
根源 所以 0.0909091
根源 应 0.1666667
根源 愈 0.0769231
明智 之明 0.2000000
明智 NULL 0.0005400
孔庙 夫子庙 1.0000000
寄托 酒 0.1000000
寄托 于 0.0128205
寄托 使人 0.2000000
必然 NULL 0.0010799
必然 必传于 0.3333333
房屋 闲居 0.2500000
房屋 NULL 0.0010799
去行 其庐 1.0000000
去行 无所礼于 0.2500000
游玩 与 0.0169492
游玩 出游 0.2500000
专 专 0.5000000
桓公 之言 0.1250000
桓公 仲能 0.1250000
桓公 威公果 0.3333333
桓公 NULL 0.0005400
桓公 手足 0.2500000
桓公 公之问 0.2000000
桓公 虽威公 0.5000000
桓公 公问 1.0000000
桓公 薨 0.1666667
桓公 公之为 0.3333333
桓公 威公处 0.3333333
桓公 用 0.0909091
桓公 威公声 0.3333333
依附 伺候 0.1250000
职守 其职 0.4000000
职守 官守者 0.2500000
品德 躬 0.2500000
品德 夫道 0.5000000
品德 其泽乎 0.2500000
品德 视其德 0.2500000
品德 加修 0.2000000
不想 不欲 0.5000000
不想 闻 0.1000000
万物 鸿蒙 0.3333333
万物 物各有主 0.2500000
万物 造物者 0.2500000
万物 NULL 0.0010799
万物 万物 0.3333333
万物 物过 0.5000000
万物 则 0.0123457
万物 物 0.3750000
万物 鉴万类 0.2500000
万物 惟物 0.2000000
名士 唐贤 0.5000000
名士 今人 0.3333333
全白 白 0.5000000
全白 或化 0.5000000
显露出 崭然 0.5000000
周游列国 席不暇暖 0.1111111
指着 而言 0.1250000
指着 抚汝指 0.1666667
指着 指 0.5000000
正面 位 0.3333333
正面 面阳 0.5000000
再拜 再拜 1.0000000
汹涌 风起水涌 0.2000000
几位 诸兄 0.5000000
士大夫 NULL 0.0005400
士大夫 士大夫 0.6000000
士大夫 夫子 0.2500000
巡夜 关击 0.2500000
巡夜 者 0.0094340
巡夜 柝 0.2500000
之众 几千人 1.0000000
次年 明年 0.1666667
掏出 出肺 0.5000000
身体 如吾之衰者 0.1666667
身体 劳其形 0.2000000
身体 圣贤 0.3333333
身体 乐于 0.3333333
身体 身得安焉 0.3333333
身体 之身 0.5000000
阴风 阴风 1.0000000
窈窕 窈窕 0.5000000
神仙 闻 0.1000000
神仙 登仙予 0.1250000
贤者 求士于 0.2000000
贤者 故必复 0.1250000
贤者 贤者 0.0526316
学生 诸生 0.3333333
学生 故生师 0.2500000
亲自 文词 0.5000000
亲自 为 0.0086957
亲自 口讲指画 0.5000000
至 而恐 0.3333333
下雨 础润而雨 0.1428571
看得 甚远 0.1666667
看得 望 0.3333333
滔滔不绝 东注 0.2000000
东门外 东门 1.0000000
东门外 东门外 0.1666667
食物 之食 1.0000000
便会 触刑 0.2500000
便会 而 0.0036630
便会 辟 0.5000000
便会 患生 0.2500000
道义 所守者 0.2000000
道义 行谊 0.2500000
道义 NULL 0.0016199
道义 节义 0.1666667
道义 知志乎 0.2500000
道义 惟义 0.2500000
力量 NULL 0.0005400
力量 改葬 0.3333333
力量 重而恃力 0.2500000
力量 其力 0.2857143
力量 尚何取 0.2500000
准则 修身 0.1666667
准则 以之事国 0.2000000
准则 不变 0.3333333
准则 古人 0.2000000
准则 之德 0.2000000
邪道 无邪 0.2000000
不安 听 0.1428571
不安 然而 0.0769231
不安 悚 0.2500000
颈肿 瘘 1.0000000
背离 其非经 0.3333333
背离 道 0.0588235
背离 必离乎 0.2500000
虚心 从师 0.2500000
虚心 犹且 0.3333333
出人头地 人 0.0185185
出人头地 有 0.0151515
出人头地 出于 0.1666667
响声 湃 1.0000000
响声 有声 0.1666667
正确 褒贬 0.3333333
正确 得失 0.2500000
正确 当否 0.3333333
正确 之 0.0055556
正确 序彝伦 0.2000000
制订 为 0.0086957
制订 设教禁 0.2500000
比起 之死 0.2500000
比起 比 0.2000000
封给 NULL 0.0005400
封给 以封 0.2500000
推荐 闻而荐 0.2000000
推荐 荐誉 0.2500000
推荐 举 0.2857143
推荐 以仲且 0.5000000
推荐 石 0.5000000
推荐 者 0.0094340
推荐 有荐 0.5000000
行路 行者 0.5000000
长矛 横槊赋诗 0.2500000
受宠 负恃 0.3333333
能够 自持 0.3333333
能够 威公果 0.3333333
能够 秦者 0.2500000
能够 NULL 0.0021598
能够 受尽 0.2000000
能够 古道 0.2500000
能够 其得 0.3333333
能够 辨 0.2000000
能够 必传于 0.3333333
能够 人心 0.3333333
能够 能 0.1111111
能够 虽能 0.2500000
能够 犹得 1.0000000
随波逐流 俗 0.3333333
雾气 白露 0.2500000
雾气 而林 0.5000000
找到 得 0.0400000
找到 欲求 0.5000000
找到 故必复 0.1250000
走过 之者 0.1666667
走过 有行 0.3333333
前 将行 0.5000000
旅客 所 0.0217391
旅客 商旅 0.2500000
性格 涿人 0.5000000
贪图 贪 0.3333333
贪图 不忮不求 0.1428571
贪图 贪者 0.3333333
万世 欲帝 0.5000000
万世 万世 0.3333333
没能 不 0.0144928
没能 凭 0.5000000
灵柩 归葬 0.6000000
灵柩 嫂丧来 0.2000000
野外 之野产异 0.2500000
见识 踔厉风发 0.1250000
专横 专而忍 0.2500000
专横 心 0.1666667
专横 其为 0.3333333
怎么样 则 0.0123457
怎么样 何如 0.3333333
堵塞 秦之冲 0.1666667
太过分 甚哉 0.5000000
太过分 亦 0.0384615
熏黑 黔 0.1250000
喜好 所好者 0.3333333
乘凉 乔木 0.3333333
坚固 既固 0.5000000
坚固 既安 0.3333333
骁将 健将 0.5000000
诗来 以愚 0.2500000
诗来 NULL 0.0005400
诗来 辞歌 0.2500000
沉浸 阴翳 0.2500000
十七日 十七日 0.5000000
贤能 有 0.0151515
贤能 贤者 0.0526316
寒暑 风雨 0.1666667
出生 卒 0.1428571
出生 乃生 0.3333333
图谋 存 0.5000000
不 若日 0.5000000
不 不待 0.5000000
不 不省 0.3333333
不 不息 0.2000000
不 不悔 0.3333333
不 是惑 0.1666667
不 不用 0.3333333
不 不 0.3913043
不 其情 0.3333333
不 之亲 0.3333333
不 从祝规 0.2500000
不 不宜 0.4000000
不 不拘 0.2000000
不 无邪 0.2000000
不 夫亦以 0.3333333
不 人之不义 0.3333333
不 之不求 0.3333333
不 若不察 0.2500000
不 不苟 0.5000000
不 封邪 0.3333333
不 山高月小 0.1666667
不 不违 0.3333333
不 父不受 0.1666667
不 不久 0.3333333
不 不穷 0.2000000
不 岂不知 0.2500000
不 不信 0.2500000
不 可不 0.2222222
不 不善 0.1666667
不 所用 0.1666667
不 无介然 0.2000000
不 不足 0.3333333
不 不加 0.2500000
不 守其道 0.2000000
不 不可 0.1034483
不 不疑 0.3333333
不 真 0.3333333
不 不耻 0.5000000
不 不求 0.3333333
不 不忮不求 0.2857143
不 违如愚 0.3333333
不 不为 0.1000000
不 不熟 0.3333333
不 故不为 0.2000000
不 不加修 0.3333333
不 苟焉 0.5000000
不 余未信 0.2500000
不 不悲 0.2500000
不 其礼 0.5000000
不 非子 0.3333333
不 不知 0.3513514
不 不答 0.2500000
不 老 0.1666667
不 物喜 0.1428571
不 鲜不为 0.5000000
不 高不事 0.1250000
不 不必 0.3333333
不 NULL 0.0080994
不 必无之事 0.2500000
不 出不使 0.3333333
不 陟 0.2500000
不 非 0.0666667
不 不言 0.6666667
不 无不 0.3333333
不 或异 0.1250000
不 狄所 0.1666667
不 背负 0.5000000
不 否 1.0000000
短促 须臾 0.2000000
短促 蜉蝣 0.2500000
敲打 扣舷 0.2000000
忠臣 则 0.0123457
忠臣 忠臣 1.0000000
明白 理而闻 0.2000000
明白 诚难明 0.2000000
明白 通达 0.2500000
明白 理闻道 0.2500000
即使 父子 0.2000000
即使 中主 0.2500000
即使 苟慕义 0.3333333
即使 出于 0.1666667
即使 虽威公 0.5000000
即使 虽使 0.5000000
环境 物喜 0.1428571
中曾 之士 0.1428571
中曾 称 0.1428571
中曾 蜀 0.1666667
名誉 NULL 0.0005400
名誉 韩 0.0312500
正好 适有 1.0000000
正好 秦之冲 0.1666667
舜 及舜自为 0.1666667
舜 称舜为 0.3333333
舜 而舜皆用 0.2500000
舜 舜佐尧 0.3333333
舜 舜 1.0000000
棹 兰桨 0.1666667
东到 叫嚣 0.5000000
任免 进退 1.0000000
新近 也 0.0034602
新近 新 0.2500000
各据 所在 0.5000000
诗书 废 0.2500000
朝代 NULL 0.0005400
朝代 周 0.1666667
停留 不可 0.0344828
停留 其 0.0091743
停留 留 0.2000000
形似 踞 0.2000000
魏国 收魏 0.5000000
上去 环之可上 0.2000000
朝 耳 0.1428571
朝 徒以 0.5000000
朝 无仲 0.1250000
朝 有仲焉 0.1666667
朝 立于 0.2500000
此事 其 0.0183486
此事 以白 0.3333333
气势雄伟 壮隽伟 0.3333333
气势雄伟 诚闳 0.5000000
私人 其 0.0091743
私人 诛 0.0588235
私人 独以 0.2500000
私人 私怨 0.2500000
周礼 周礼 0.3333333
周礼 悲者 0.1666667
躲避 违害 0.5000000
柳镇 NULL 0.0005400
柳镇 讳 0.2500000
柳镇 镇 0.2000000
柳镇 皇考 0.5000000
但 NULL 0.0016199
但 之者 0.1666667
但 其贤 0.2000000
但 顾其用 0.3333333
但 消长 0.1666667
但 自成 0.2500000
但 违乎 0.2000000
但 朝取 0.5000000
超 不过 0.1666667
告别 所 0.0217391
告别 于 0.0128205
告别 常 0.5000000
告别 告行 1.0000000
告别 来往 0.3333333
耍出 奋其 1.0000000
环绕着 环之可上 0.2000000
环绕着 滁皆山 0.3333333
一下手 引手 0.5000000
离去 NULL 0.0005400
离去 去 0.1904762
离去 就 0.0714286
依偎 乎 0.0526316
依偎 枕藉 0.3333333
消遣 于 0.0128205
消遣 自肆 0.3333333
祖先 先人 0.3333333
狭窄 狭隘 1.0000000
信 谩 0.2500000
信 汝之书 0.3333333
信 书 0.0666667
信 东野 0.1000000
信 蜀 0.1666667
之物 不祥 0.2500000
黎安二生 赠二生 0.2500000
黎安二生 书以 0.3333333
装饰 黝垩丹漆 0.1111111
装饰 加 0.2000000
装饰 不 0.0144928
装饰 装饰 0.5000000
责备 深 0.1428571
权力 NULL 0.0005400
权力 夺 0.5000000
履行 之道 0.1428571
履行 行 0.2000000
履行 古人 0.2000000
用蛇来 租入 0.3333333
用蛇来 当其 0.1666667
恐慌 而恐 0.3333333
恐慌 肃然 0.5000000
著名 名士 0.3333333
后面 所 0.0217391
后面 后者 0.1666667
后面 称 0.1428571
后面 以后 0.3333333
后面 乘之于 0.1666667
知州 袁州 0.5000000
知州 守令 0.3333333
著述 NULL 0.0005400
实践 NULL 0.0005400
实践 身履 0.2000000
实践 而 0.0036630
实践 所蹈 0.3333333
衰弱 如吾之衰者 0.1666667
衰弱 而 0.0036630
一年 NULL 0.0010799
一年 一岁 0.6000000
一年 岁 0.5000000
事迹 之迹 0.1428571
过来 后方 0.3333333
过来 悔悟 0.2000000
地位 位益 0.2500000
地位 之地 0.2000000
地位 故无贵 0.2500000
地位 无用 0.2000000
地位 相知 1.0000000
地位 位卑则 0.3333333
地位 夫位 0.5000000
巫峡 巫峡 0.3333333
执行 NULL 0.0005400
褒贬 正 0.1111111
褒贬 褒贬 0.3333333
石 先生 0.3793103
石 起 0.1428571
礼品 马币 0.3333333
得名 刘梦得 0.2500000
得名 禹 1.0000000
风在 风起水涌 0.2000000
野蛮 NULL 0.0005400
不受 不 0.0144928
不受 刀锯 0.5000000
功业 之成 0.2500000
功业 谓 0.1000000
功业 功业 0.2500000
地蒙上 愚辱 0.5000000
地蒙上 焉 0.0212766
地笑 客喜 0.2000000
报丧 无 0.0454545
报丧 如耿兰 1.0000000
报丧 耿兰之报 0.2857143
不近人情 非 0.0666667
不近人情 人情 0.3333333
不近人情 不近人情 0.5000000
不近人情 者 0.0094340
扩大 增其 0.5000000
忧虑 未始 0.1666667
忧虑 百忧感 0.2000000
忧虑 之忧 0.2500000
奔赴前线 赴敌 0.5000000
奔赴前线 之兵 0.5000000
弓箭 罗弓 0.5000000
董 丞相 0.3333333
进士 举进士 0.3333333
进士 宏词 0.1666667
进士 进士 1.0000000
安乐 共乐 1.0000000
竞逐 形势 0.5000000
竞逐 之途 1.0000000
色彩 惨淡 0.3333333
阴险 险狠 0.3333333
阴险 阴贼 0.2500000
不同 异 0.5000000
不同 NULL 0.0005400
不同 异趣 0.3333333
不同 也吾意 0.2000000
不同 不同 1.0000000
打算 身图 0.5000000
打算 莅事者 0.2500000
松江 松江 0.3333333
松江 之 0.0027778
尺寸 尺寸 1.0000000
孩子 孩提 0.2500000
孩子 其子 0.2500000
孩子 伛偻 0.2500000
孩子 教 0.5000000
孩子 如此 0.0714286
孩子 者 0.0094340
片刻 少焉 0.3333333
当今 三十 0.3333333
当今 二十 0.2500000
补充 诚欲以 1.0000000
补充 补其 1.0000000
补充 不足者 0.3333333
斥退 当退 1.0000000
斥退 退四凶 0.2500000
斥退 退弥子 0.3333333
斥退 之伪朋 0.2500000
游人 游人 0.3333333
游人 而 0.0036630
英俊 俊杰廉悍 0.2000000
直接 用力 0.5000000
表彰 可 0.1333333
表彰 其 0.0183486
表彰 NULL 0.0005400
表彰 旌 0.7500000
表彰 旌其 0.5000000
脸 粉白黛绿 0.1428571
逃亡 去 0.0476190
逃亡 微子 0.2500000
逃亡 已 0.0714286
广 多 0.2000000
天边 一在 0.2000000
天边 天之涯 0.3333333
衣襟 摄衣 0.2500000
衣襟 正襟危坐 0.5000000
衣襟 裾 0.3333333
衣襟 而 0.0073260
夕阳 山 0.5000000
夕阳 夕阳 0.3333333
稷 稷 0.5000000
首领 之雄 0.5000000
监察 监察 1.0000000
好多年 阁下 0.1428571
好多年 有 0.0151515
好多年 年 0.1250000
好多年 见于 0.3333333
身强力壮 康强 0.2000000
身强力壮 而 0.0036630
姓名 问其 0.5000000
姓名 姓名 0.3333333
杀 杀 0.3000000
杀 NULL 0.0010799
杀 乃 0.0555556
杀 见 0.0833333
杀 我 0.0555556
杀 以 0.0200000
月光 皓月千里 0.5000000
月光 接天 0.2500000
安静 既安 0.3333333
星星 星月 1.0000000
夕照 夕阴 1.0000000
大将 耳 0.1428571
大将 之外 0.2500000
大将 相与 0.1250000
大将 将 0.0714286
呈递 拜 0.2500000
呈递 将 0.0357143
欺世盗名 者 0.0094340
不滥赏 赏 0.2500000
不滥赏 僭 0.3333333
不滥赏 不 0.0144928
不滥赏 天子 0.0833333
欲望 遂 0.0833333
蒙难 正 0.1111111
蒙难 蒙难 0.1818182
买下 买 0.3333333
具有 其 0.0091743
具有 而 0.0036630
与 不合 0.5000000
与 偕 0.2000000
与 同归 0.2500000
与 与 0.0338983
与 侣 0.5000000
与 不维 0.2500000
与 NULL 0.0005400
与 鏖六国 0.1666667
与 在野 0.2000000
与 麋鹿 0.3333333
与 褚遂良 0.5000000
与 得失 0.2500000
与 同 0.5000000
与 同乎 0.2000000
与 继见 0.1428571
表弟 卢遵 0.2500000
表弟 舅弟 0.5000000
挽起 束带结发 0.2500000
死亡 旦旦 0.1666667
死亡 有 0.0151515
天下大事 南面 0.1428571
坏 NULL 0.0005400
坏 者 0.0188679
坏 尤甚 0.5000000
不去 NULL 0.0005400
不去 也 0.0034602
不去 不时 0.3333333
囚徒 囚奴 0.2500000
达到 NULL 0.0010799
达到 此哉 0.2000000
达到 已 0.0714286
训育 推道 0.5000000
训育 训俗 0.2000000
县令 守令 0.3333333
县令 惟时 0.5000000
询问 以 0.0200000
接受 NULL 0.0005400
接受 也 0.0034602
接受 书礼于 0.2000000
接受 自归以 0.1666667
接受 加入 0.2000000
当地 NULL 0.0005400
当地 土俗 0.2500000
当地 其俗 0.3333333
当地 地僻 0.2500000
当地 之 0.0027778
当地 之美 0.3333333
泉水 以自洁 0.1428571
泉水 酿泉 0.2000000
泉水 出 0.1428571
泉水 斯泉于 0.5000000
泉水 得泉 0.3333333
泉水 凿 0.5000000
泉水 听泉 0.3333333
泉水 合流 0.5000000
泉水 泉甘而 0.3333333
文武全才 大夫 0.0588235
文武全才 文武 0.3333333
而是 也 0.0034602
而是 NULL 0.0005400
而是 是 0.0161290
而是 在乎 0.5000000
而是 良马 0.2500000
而是 而 0.0073260
而是 射者 0.5000000
奉承 谄言 0.2500000
奉承 无昧于 0.2000000
简单 事 0.0769231
简单 简 1.0000000
含冤受屈 其 0.0091743
含冤受屈 冤抑 0.3333333
操行 不变 0.3333333
前后 先后 0.2000000
前后 也 0.0034602
奉命 苟具 1.0000000
高处 以望 0.5000000
十次 虽十易 0.2500000
常法 不可 0.0344828
常法 天下 0.0256410
常法 为常者 0.2500000
常法 之常法乎 0.3333333
别人 攻人 0.1250000
别人 NULL 0.0005400
别人 不得而知 0.2500000
别人 不忮不求 0.1428571
别人 尽言以 0.2500000
别人 以告 0.1428571
别人 改 1.0000000
别人 人 0.0555556
别人 无求 0.2500000
别人 妒宠 0.5000000
别人 直者 0.2500000
别人 利泽施 0.1428571
别人 勇于 0.3333333
别人 不足者 0.3333333
据此 得以 0.2500000
据此 周人 0.5000000
燕赵 感慨 0.5000000
燕赵 多 0.2000000
提出 得 0.0400000
提出 时言于 0.2500000
提出 其言则 0.5000000
提出 不得 0.1333333
树 木遭 0.3333333
以石 有 0.0151515
以石 水声 0.1666667
衡山 衡 1.0000000
安逸 岂不知 0.2500000
安逸 NULL 0.0005400
安逸 自安佚 0.2500000
答应 不 0.0144928
答应 应 0.1666667
因果关系 相因 0.3333333
因果关系 之 0.0027778
仍 知 0.1111111
仍 而 0.0036630
余音 良久 0.2000000
余音 悲风 0.3333333
失误 得失 0.2500000
位置 秦之冲 0.1666667
位置 幽邃 0.5000000
接 孥 0.2500000
接 东京 0.2000000
接 取汝者 0.2000000
接 终丧而取 0.1111111
干 不忍 0.1666667
干 故不为 0.2000000
干 手偕作 0.2000000
或是 或利 0.3333333
倡导 倡而不和 0.5000000
中庸 而已 0.0666667
中庸 之大中 0.3333333
中庸 归 0.0909091
中庸 要 1.0000000
手脚 威公之 0.3333333
手脚 手足 0.2500000
手脚 耶 0.2000000
继 之 0.0027778
继 相 0.1428571
韩愈 愈应 0.5000000
韩愈 昌黎 0.5000000
韩愈 愈闻汝丧 0.2000000
韩愈 愈 0.3846154
凌乱不堪 杯盘狼藉 0.1666667
附在 议附于 0.2000000
某年 某年 1.0000000
相等 侔 0.5000000
相等 本相 0.2500000
既然 NULL 0.0005400
后辈 小子后生 0.3333333
凭 而 0.0036630
凭 之恩 0.5000000
凭 之强 0.2000000
释放 归者 0.5000000
释放 免而 0.5000000
名望 闻用 0.3333333
名望 有求于 0.2500000
像阳 若 0.0434783
像阳 秩禄 0.5000000
情理 不逆情 1.0000000
情理 理势 0.5000000
孜孜不倦 孳 0.6666667
国语 传 0.5000000
开方 开方 0.6250000
只顾 得以 0.2500000
誊写 俟 0.2000000
誊写 写 0.3333333
誊写 更 0.0909091
工匠 吏勤 0.2500000
叹气 非特二子 1.0000000
涂改 揩 1.0000000
脚踏 履 1.0000000
卦 之 0.0055556
攀登 环之可上 0.2000000
向上 出 0.1428571
向上 上 0.0500000
抓 诛 0.0588235
抓 执而 0.1428571
自家 饥其师 0.1666667
自家 不私于 0.2500000
染色 也 0.0034602
染色 染 0.3333333
低 位卑则 0.3333333
才 何言哉 0.1428571
才 NULL 0.0016199
才 而乐耶 0.1666667
才 以同利 0.2000000
才 致斯乎 1.0000000
才 祸斯及 0.2000000
才 乃生 0.3333333
才 会计 0.1250000
才 而后 0.4444444
才 则 0.0370370
才 归视 0.3333333
才 十岁 0.2000000
才 纵之乎 0.2000000
才 唆 0.3333333
才 丈夫 0.1666667
才 交相 1.0000000
才 同道 0.2500000
才 洪范 0.2500000
才 孜孜 0.2500000
才 始饮 0.5000000
才 惟 0.0666667
才 出而 0.3333333
才 犹信 0.2000000
才 不得已 0.2000000
才 良夜 0.1666667
才 良久 0.2000000
才 始 0.5000000
才 乃问 0.2500000
悔悟 悔悟 0.2000000
悔悟 虽欲 0.5000000
方圆 之秦 0.1428571
方圆 千里 0.3333333
响亮 之 0.0027778
响亮 其响 0.5000000
放出 偕 0.2000000
放出 赦 0.3333333
放出 纵 0.1428571
富贵 以 0.0200000
富贵 辞富 0.5000000
蜂起 并 0.2000000
对不起 神明 0.5000000
孟尝君 孟尝君 1.0000000
隐藏 晦 0.3333333
隐藏 之明 0.2000000
隐藏 夷 0.2000000
尹起 尹 1.0000000
轻松 弛 1.0000000
洗涤 濯 0.5000000
看不到 不见 1.0000000
欧阳修 欧阳修 0.1666667
欧阳修 不然 0.0769231
欧阳修 也吾意 0.2000000
得志 得志 0.5000000
得志 此人 0.1428571
恭敬 以求 0.3333333
贞元 十九年 1.0000000
眼前 耳 0.1428571
眼前 人惟见 0.3333333
眼前 焉 0.0212766
怎样 良夜 0.1666667
怎样 如此 0.0714286
秦国 秦以 0.5000000
秦国 NULL 0.0032397
秦国 用于 0.1818182
秦国 秦兵 0.2500000
秦国 之众 0.2500000
秦国 秦之攻 0.2500000
秦国 之秦 0.2857143
秦国 韩过 0.1428571
秦国 秦人得 0.3333333
秦国 秦争 0.5000000
秦国 秦之有 0.2500000
秦国 秦人 0.4000000
秦国 秦 0.8000000
秦国 五倍 0.2000000
秦国 秦之冲 0.1666667
秦国 以二国委秦 0.2000000
秦国 秦之所忌者 0.2500000
秦国 秦之 0.2500000
尽力而为 殚虑 0.5000000
死为义 服孝死义 0.3333333
奔跑 疾驰 0.5000000
哭泣 嫠 0.2000000
哭泣 如泣如诉 0.1666667
孤舟 孤舟 0.2500000
孤舟 之 0.0027778
休养生息 休养生息 0.2500000
讲诵 礼乐 0.5000000
讲诵 吾民 0.3333333
讲诵 谭 0.5000000
策略 自安之计 0.3333333
日 日 0.2000000
日 成之日 0.2500000
日 不作于 0.2500000
日 月 0.2727273
遇到 且国 0.3333333
遇到 遇汝从 0.5000000
遇到 必有合 0.2000000
遇到 德宗 0.2500000
遇到 草拂之而色 0.2500000
调解 万人 1.0000000
主意 宜 0.1428571
主意 有所 0.1111111
主意 出 0.1428571
预先 不可 0.0344828
预先 测者 0.3333333
不免 灭亡 0.3333333
不免 不免 0.3333333
不免 于 0.0128205
凶残 NULL 0.0005400
凶残 专而忍 0.2500000
灵魂 NULL 0.0005400
灵魂 不 0.0144928
大地 人影 0.2000000
小石头 小石 0.3333333
小石头 投以 0.5000000
会计 会计 0.1250000
会计 当 0.1666667
感情 专之望 0.1666667
感情 无情 0.2500000
安顿 成家 0.1666667
安顿 而致 0.2500000
所居 冯夷 0.3333333
封到 及 0.0909091
封到 封 0.3333333
封到 朝鲜 0.3333333
国武子 杀 0.1000000
国武子 国武子 0.5000000
国武子 见 0.0833333
国武子 武子 0.3333333
国武子 之所以 0.1111111
驶入 不可 0.0344828
驶入 入 0.2500000
驶入 也 0.0034602
闲适 恶 1.0000000
期终 以来 0.1428571
期终 NULL 0.0005400
期终 待 0.2000000
期终 终丧而取 0.1111111
正道 正 0.1111111
正道 NULL 0.0005400
正道 大道 0.5000000
肺肝来 肝 1.0000000
肺肝来 相示 0.2500000
国强民富 孝武乘 0.2500000
国强民富 丰富 0.5000000
有过 如是者 0.2500000
有过 有 0.0151515
有过 矣 0.0104167
明君 无君者 0.2500000
明君 矣 0.0104167
八愚 八愚 0.2500000
八愚 作 0.2500000
不学无术 无文 1.0000000
不学无术 不学 0.3333333
恩德 NULL 0.0005400
恩德 施德于 0.1666667
恩德 恩德 0.6000000
恩德 施恩 0.3333333
所有 应夫 0.2500000
所有 所有 1.0000000
意图 教学 0.5000000
当政者 仅得 1.0000000
鲍叔 论 0.2500000
鲍叔 鲍叔 0.2000000
坏事 急则败 0.1666667
墓穴 其穴 1.0000000
清晨 毕至 1.0000000
清晨 朝暮 0.3333333
鲜味 时羞 0.3333333
这件 祖死 0.2000000
这件 NULL 0.0005400
这件 叔 0.2000000
这件 以文者 0.2500000
这件 谨议 0.2000000
这件 父死 0.2000000
这件 以记 0.3333333
这件 若毒 0.2000000
这件 也吾意 0.2000000
道路 危道 0.3333333
道路 土断 0.5000000
道路 夹道 0.3333333
道路 塞途 0.2500000
道路 此 0.0526316
人人 异心 0.2500000
人人 人人 0.2500000
假 伪 0.2857143
假 之伪朋 0.2500000
溪边 溪 0.1111111
溪边 石上 1.0000000
李家 李氏 0.5000000
昏暗 薄暮冥冥 0.3333333
昏暗 无邪 0.2000000
怕 患无仲 0.2500000
怕 而 0.0036630
专使 NULL 0.0005400
命令 NULL 0.0005400
命令 王命 0.2500000
命令 县立 0.5000000
不要 NULL 0.0010799
不要 使 0.0434783
不要 无昧于 0.2000000
不要 恒无变 0.2000000
不要 不当 0.2500000
不要 加入 0.2000000
统一 四海 0.3333333
统一 一 0.1818182
数 马多 0.3333333
数 悉数 0.2500000
数 仲能 0.1250000
吃喝玩乐 游戏 0.5000000
山以东 山东 0.2500000
努力 勉乎 0.2500000
努力 务记览 0.2000000
努力 必以 0.3333333
袭击 后 0.0909091
袭击 之忧 0.2500000
袭击 乘之于 0.1666667
强寇 之 0.0027778
强寇 佐当寇 0.3333333
述说 说 0.1000000
述说 故为 0.3333333
映照 鉴万类 0.2500000
映照 而善 0.5000000
准确 龟卜 0.1250000
错误 独过 1.0000000
错误 窃 1.0000000
错误 臣 0.0833333
困境 穷 1.0000000
眼泪汪汪 出涕 0.5000000
眼泪汪汪 汪然 0.5000000
叔叔 季父 1.0000000
小利 之 0.0027778
未免 无乃伤 0.5000000
开玩笑 戏 0.2727273
开玩笑 其戏 0.1428571
开玩笑 若戏 0.5000000
开玩笑 而 0.0073260
一盘 蔬 1.0000000
下去 游于 0.2500000
灌水 灌 0.5000000
灌水 水之阳 0.2000000
灌水 不时之需 1.0000000
灌水 焉 0.0212766
处以 NULL 0.0005400
处以 执而 0.1428571
中原地区 之于 0.2500000
通达事理 理而闻 0.2000000
通达事理 者 0.0094340
通达事理 夫达 1.0000000
不周 阁下 0.1428571
复志赋 为 0.0086957
复志赋 复志赋 1.0000000
老死 而后 0.1111111
老死 老死 0.5000000
相仿 也 0.0034602
相仿 相似 0.2500000
合成 合而为一 0.2500000
合成 人 0.0185185
百步 之近 0.5000000
冒求 冒进 0.5000000
渔歌 渔歌 1.0000000
休闲 优乐 0.2500000
寂静 徒见 1.0000000
寂静 而 0.0073260
行为 法 0.1428571
行为 NULL 0.0010799
行为 行负 0.5000000
行为 行 0.4000000
行为 行义 0.5000000
指出 其 0.0091743
指出 各疏 0.2500000
金银财宝 货财 0.5000000
金银财宝 也 0.0034602
再次 复游于 0.3333333
诏书 制诏州 0.5000000
诏书 县立 0.5000000
随身携带 得 0.0400000
随身携带 枕戈为 0.1250000
这样的话 若此 0.5000000
六个 诗六韵 0.2500000
六个 凡六穴 0.3333333
以上 具是 1.0000000
明志 横槊赋诗 0.2500000
小吏 委吏 0.2500000
高山流水 水清 0.5000000
多闻 多 0.2000000
老人 矣 0.0104167
老人 提携 0.1428571
李愿 NULL 0.0010799
李愿 居 0.2000000
喝 三行 0.2500000
喝 饮少辄 0.2000000
喝 饮酒 0.1666667
野草 披蒙茸 0.2500000
妒嫉 听忌者 0.2000000
说古道今 道 0.0588235
奔驰 驰骤 0.2000000
胜过 孰有 0.5000000
胜过 甚于 0.3333333
胜过 予乎 0.3333333
展开 翅 0.5000000
春秋 春秋 1.0000000
浊流 浊流 0.3333333
衬托 山高月小 0.1666667
想一想 念 0.1428571
听 顾笑 0.1111111
听 愿 0.2000000
听 耳司 0.5000000
听 亡诵 0.3333333
听 不闻 0.3333333
听 是非 0.2500000
听 昌黎 0.5000000
听 登仙予 0.1250000
听 悚 0.2500000
听 余闻 0.3333333
听 不闻义 0.2000000
立即 不可 0.0344828
立即 以来 0.1428571
立即 乎 0.0526316
立即 知 0.1111111
立即 骤得 0.2000000
商声 商声主 0.3333333
不好 有所 0.1111111
不好 不通 0.1666667
不好 政 1.0000000
不好 无治 0.3333333
漂荡 所止 0.1666667
尽孝 服孝死义 0.3333333
个 关击 0.2500000
个 百千 0.1666667
个 才 0.2857143
个 以应 0.2000000
乐而忘返 不能 0.0370370
乐而忘返 也 0.0034602
乐而忘返 乐而 1.0000000
乐而忘返 去 0.0476190
上下左右 俯仰 0.1666667
上下左右 左右 0.1666667
者 听忌者 0.2000000
者 之 0.0027778
般析理 数计 0.2000000
投案自首 束身 1.0000000
投案自首 归罪 1.0000000
融会贯通 出入 0.5000000
解救 救 0.2000000
解救 其乱 1.0000000
道德 NULL 0.0016199
道德 德而费于 0.3333333
道德 之士 0.2857143
道德 之士乎 0.5000000
道德 有道 0.5000000
道德 也 0.0034602
道德 其道 0.1666667
道德 古人 0.2000000
遭遇 之 0.0055556
交游 嬉游 0.2500000
返身 反而 0.5000000
返身 登舟 0.2000000
居于 穷居 0.3333333
居于 而 0.0036630
居于 野处 0.3333333
居于 居嵩 0.2000000
绿油油 绿缛而 0.2500000
正确对待 正 0.1111111
正确对待 蒙难 0.0909091
露出 水落石出 0.1666667
露出 东方 0.2500000
露出 出者 0.3333333
露出 之 0.0027778
易牙 易牙 1.0000000
斗牛 徘徊 0.5000000
斗牛 于 0.0128205
劝酒 相属 0.5000000
施 利泽施 0.1428571
临皋 临皋 0.5000000
然后 而后 0.1111111
然后 NULL 0.0005400
然后 纵 0.1428571
然后 登 0.5000000
然后 然后 0.5000000
言谈 言语 0.2000000
脸面 垢 0.5000000
脸面 夫面 0.5000000
几十年 数十年 0.2500000
几十年 尚 0.3333333
喂 谨食 0.2000000
一代 一世 0.2500000
一代 也 0.0034602
打招呼 呼 0.5000000
打招呼 前者 0.2500000
安然 安于 0.3333333
安然 而乐 0.2500000
推测 难测 0.3333333
推测 诚 0.3333333
罢职 罢 0.2500000
璧玉 静影沉璧 0.2500000
显赫 NULL 0.0005400
显赫 无 0.0454545
显赫 赫赫之功 0.2000000
怀才不遇 不遇 0.2500000
怀才不遇 之 0.0027778
一天 而文 0.4000000
一天 志气 0.4000000
一天 一日 0.7500000
一天 日益 0.2727273
一天 衰 0.3333333
一天 生日 0.4000000
第七天 七日 0.5000000
遥望 美人兮天 0.2000000
遥望 望 0.3333333
并蓄 停蓄 0.2500000
愉快 以乐生 0.3333333
急速 衔枚疾走 0.2500000
永远 也 0.0034602
永远 恒无变 0.2000000
永远 无尽 0.2000000
时代 之世 0.3333333
时代 不平 0.3333333
时代 周武之世 0.3333333
布衫 夏一葛 0.2500000
接待 其 0.0091743
接待 新 0.2500000
接待 若加 0.3333333
大节 尤当仗 0.2000000
大节 大节 1.0000000
身上 莫得 0.1666667
身上 白章 0.2500000
杀了人 杀人 1.0000000
杀了人 而义者 0.2000000
来看 汝来 0.5000000
来看 省 0.5000000
来看 而观 0.5000000
来看 蒋氏观 0.2500000
平易 安闲 1.0000000
智谋 后 0.0909091
智谋 我 0.0555556
智谋 之德 0.2000000
智谋 斯谟斯猷 0.1428571
收获 农不耕收 0.2500000
啊 嗟盘 0.3333333
啊 东亦客 0.2000000
啊 一世之雄 0.2500000
啊 NULL 0.0026998
啊 嘻 0.3333333
啊 秩 0.3333333
啊 异哉 0.5000000
啊 苛政猛于虎 0.1666667
啊 美人兮天 0.2000000
啊 尤不终 0.1250000
啊 夺其外 0.2000000
啊 戏乎 0.3333333
啊 呜呼哀哉 0.2500000
啊 相离 0.3333333
啊 应 0.1666667
啊 宜行 0.2500000
啊 饮且 0.5000000
啊 悲人穷 0.2000000
啊 谏议 0.1428571
啊 启 0.1666667
啊 彼苍者 0.2000000
啊 疾 0.2500000
啊 也 0.0588235
啊 蒙难 0.0909091
啊 兮 0.3571429
啊 容有 0.2500000
万里 一碧万顷 0.5000000
三千 三千 0.5000000
实在 理者 0.2000000
实在 难测 0.3333333
实在 诚难明 0.2000000
实在 NULL 0.0010799
实在 实为 0.2500000
实在 诚畏 0.2500000
能以 真能 0.5000000
河南 与 0.0169492
河南 吾辈 0.5000000
河南 河南 0.3333333
阳城 阳城 1.0000000
处心积虑 处心积虑 1.0000000
反过来 杀者 0.5000000
反过来 反 0.2500000
夷 夷 0.2000000
车子 兮 0.0714286
树下 树 0.2500000
树下 休于 1.0000000
树下 终日 0.1666667
争先 而 0.0036630
争先 争先 0.2500000
称王 而制 0.2500000
称王 南面 0.1428571
江边 于江 0.3333333
含 远山 0.5000000
条 溪 0.1111111
条 莫能争 0.5000000
昏庸 之鄙暗 0.2000000
箫声 馀 0.5000000
箫声 悲风 0.3333333
箫声 其声 0.5000000
箫声 其然 0.2500000
水 NULL 0.0005400
水 盘之泉 0.3333333
脱落 落 0.3333333
脱落 脱 1.0000000
脱落 而 0.0036630
长江 江流 0.3333333
长江 长江 1.0000000
长江 顺流 0.2500000
长江 NULL 0.0005400
长江 江淮 0.5000000
且 食兮寿而康 0.1666667
这些 恶此 0.2000000
这些 NULL 0.0010799
这些 之庭 0.2000000
这些 入耳 1.0000000
这些 骤得 0.2000000
这些 其贤 0.2000000
这些 持吾言 0.1666667
这些 惟其 0.2500000
这些 赠二生 0.2500000
这些 贤圣 0.2500000
这些 不及 0.2000000
这些 赖 0.2000000
这些 以告 0.1428571
这些 修身 0.1666667
这些 以之事国 0.2000000
这些 此辈 0.3333333
不常去 所以 0.0909091
不常去 怒其来 0.2500000
不堪 零落 0.5000000
不堪 病 0.2500000
不堪 久已 0.3333333
对礼 是惑 0.1666667
对礼 于 0.0128205
对礼 礼 0.1666667
发财 饥其师 0.1666667
共享 以与民 0.2500000
反倒 反挤 0.3333333
正是 NULL 0.0005400
正是 乃 0.0555556
正是 夫然 0.5000000
深信 使人主 0.2000000
深信 亲 0.2500000
深信 必信 0.5000000
之色 愀 0.2500000
之色 然 0.1111111
听些 有誉 0.3333333
河水 而川分 0.2000000
河水 土断 0.5000000
起 晦 0.3333333
起 谟 1.0000000
起 是 0.0161290
起 垂头 0.2500000
起 范 1.0000000
桐树 叶 1.0000000
博取 取怜 0.2500000
博取 NULL 0.0005400
凶 退四凶 0.2500000
看待 视政 0.3333333
坚定 固人 0.1428571
促成 成之夫 0.2500000
促成 NULL 0.0005400
促成 以成 0.2000000
促成 举 0.1428571
促成 周公乃成 0.3333333
武后 武后 0.2500000
白茫茫 白露 0.2500000
其乐无穷 无央 1.0000000
其乐无穷 此乐何 1.0000000
其乐无穷 乐且 1.0000000
其乐无穷 极 0.2000000
杀戮 诛戮 0.4000000
杀戮 而 0.0036630
杀戮 戮 0.2500000
杀戮 盛 0.2000000
倒卧 而顿 0.2500000
倒卧 踣 1.0000000
解释 解之者 0.2000000
解释 解其惑者 0.3333333
解释 自解 0.2500000
解释 解惑 0.2000000
高下 高下 0.3333333
好久 乃 0.0555556
好久 良久 0.2000000
好久 已 0.0714286
日夜不停 逝者如斯 0.2000000
任北魏 拓跋 0.5000000
任北魏 为 0.0086957
六七里 六七里 0.3333333
六七里 山行 0.5000000
随 几何 0.2500000
背弃 背盟败约 0.3333333
称道 美 0.5000000
称道 相称 1.0000000
称道 更 0.1818182
梦得 梦得 0.5000000
梦得 亲 0.2500000
质押 NULL 0.0005400
质押 归 0.0909091
不过如此 予 0.0909091
不过如此 如是 0.3333333
地说 曰 0.0116279
地说 出涕 0.5000000
地方 适兹土 0.1666667
地方 NULL 0.0048596
地方 用武之地 0.1666667
地方 数城 0.2500000
地方 宅 0.5000000
地方 之 0.0111111
地方 注字处 0.3333333
地方 所居 0.3333333
地方 所存 0.2500000
地方 俱往 0.3333333
地方 乃营治之东 0.1428571
地方 地 0.2500000
地方 问道 0.2500000
石生 为 0.0173913
石生 以石生 0.5000000
石生 NULL 0.0005400
圆时 如 0.0833333
圆时 盈虚 0.1666667
圆时 彼 0.1250000
进去 周公入 0.2000000
进去 入则 1.0000000
进去 NULL 0.0005400
进去 小石 0.3333333
取 取之无禁 0.2000000
多少 问其禄 0.2000000
多少 从 0.1666667
长期保持 恒其德贞 0.1428571
长长的 长袖 0.5000000
出嫁 嫁 1.0000000
适当 中之戏 0.5000000
古文 之学于 0.5000000
古文 斯文 0.5000000
古文 古文 0.5000000
方式 编之于 0.1428571
窄 狭 0.2500000
狂风暴雨 骤至 0.3333333
狂风暴雨 风雨 0.1666667
刚强 为 0.0086957
刚强 刚直 0.2500000
刚强 号 0.2500000
终身 兼济 0.5000000
终身 必以 0.3333333
愚 以愚 0.2500000
愚 无道 0.3333333
不如 起居饮食 0.2500000
不如 NULL 0.0005400
不如 西归 0.2500000
不如 厚 0.5000000
不如 孰若 0.2500000
不如 不如 1.0000000
不如 其贤 0.2000000
做成 兰桨 0.1666667
侍奉 其 0.0091743
侍奉 母弃 0.5000000
侍奉 王侯 0.5000000
侍奉 高不事 0.1250000
侍奉 于贤以 0.2500000
时才 其戏 0.1428571
时才 不待 0.5000000
条件 NULL 0.0005400
条件 而 0.0036630
条件 盗名 1.0000000
讨好 谄言 0.2500000
讨好 媚 0.2000000
船桨 倾楫 0.5000000
灰白 苍苍 0.5000000
牛马 驰骤 0.2000000
牛马 之 0.0027778
人事 人事 0.6666667
人事 然者 1.0000000
无利可图 尽 0.1666667
无利可图 或利 0.3333333
无道 则 0.0123457
无道 愚 0.1666667
无道 无道 0.3333333
晚年 余年 0.2500000
晚年 以待 0.1111111
束好 束带结发 0.2500000
却是 如此 0.0714286
他们 何时 0.5000000
他们 仲能 0.1250000
他们 有余 0.1666667
他们 其于 1.0000000
他们 其必来 0.3333333
他们 以取 0.5000000
他们 目为 0.2500000
他们 其见利 0.2000000
他们 以快 0.2500000
他们 所守者 0.2000000
他们 览 0.2500000
他们 还家 0.5000000
他们 人愿 0.3333333
他们 问 0.0666667
他们 夺其外 0.2000000
他们 托国 0.2000000
他们 而人主 0.2500000
他们 以来 0.2857143
他们 同利之时 0.2000000
他们 谢 0.2000000
他们 成长 0.5000000
他们 已信 0.2000000
他们 而习 0.5000000
他们 闵 1.0000000
他们 彼有 1.0000000
他们 贪者 0.3333333
他们 顾其用 0.3333333
他们 物喜 0.1428571
他们 满目 0.5000000
他们 不意 0.1666667
他们 其出 0.3333333
他们 使人主 0.2000000
他们 NULL 0.0097192
他们 固人 0.1428571
他们 则 0.0123457
他们 其下 0.3333333
他们 出乎 0.5000000
他们 而已 0.0666667
他们 纵之乎 0.2000000
他们 阴贼 0.2500000
他们 而舜皆用 0.2500000
他们 成立 1.0000000
他们 变而为 0.2500000
他们 虑 0.5000000
他们 各疏 0.2500000
他们 德以 0.2500000
他们 其乐 0.2500000
他们 而 0.0073260
他们 读其文 0.1666667
他们 未见 0.5000000
他们 之 0.0027778
他们 其必 0.3333333
他们 而言 0.1250000
他们 其中 0.1428571
他们 伸其辞 0.2500000
他们 浊流 0.3333333
他们 或异 0.1250000
他们 守汝丧 0.1666667
他们 所惜者 0.2000000
他们 不疑 0.3333333
他们 彼固乱 0.5000000
哭丧 NULL 0.0005400
娱乐 嬉游 0.2500000
娱乐 优乐 0.2500000
取得成功 相与 0.1250000
地以 自克 0.3333333
地以 介然 0.2500000
洁净 以自洁 0.1428571
移家 遵从 0.5000000
移家 焉 0.0212766
移家 而家 0.3333333
掌握 明其道 0.5000000
狂悖 悖骜 0.5000000
憎恶 恶讦 0.2500000
憎恶 恶讪 0.2500000
迈步 进而 0.2500000
迈步 足 0.3333333
迈步 将 0.0357143
说法 不信 0.2500000
说法 也 0.0034602
说法 二者 0.3333333
说法 说 0.1000000
事物本质 本者 0.3333333
事物本质 矣 0.0104167
江陵 江陵 0.5000000
心里 悔 0.3333333
心里 寓 0.1428571
心里 数子者 0.3333333
互相 美 0.5000000
互相 NULL 0.0010799
互相 反相贼 0.3333333
互相 相益 0.5000000
互相 相保 0.3333333
互相 更相 0.5000000
互相 互答 0.5000000
互相 枕藉 0.3333333
互相 推刃 0.2000000
互相 相属 0.5000000
互相 相仇 0.3333333
互相 除害 0.1428571
互相 二十 0.2500000
聚会 多会于 0.3333333
聚会 此 0.0526316
时连 席不暇暖 0.1111111
简公 简公 0.5000000
简公 讫 0.5000000
守满 不能 0.0370370
守满 如 0.0833333
守满 守以 0.3333333
斗艳 争荣 0.3333333
没有 水波不兴 0.2500000
没有 国无其 0.2500000
没有 无马 0.3333333
没有 未尝 0.2222222
没有 无知 0.2500000
没有 起居无时 0.2000000
没有 无 0.3181818
没有 无求 0.2500000
没有 喜戚 0.2500000
没有 周时 0.2000000
没有 臣 0.0833333
没有 殄 0.3333333
没有 加修 0.2000000
没有 顾之忧 0.1666667
没有 不色 0.3333333
没有 群无留良 0.1666667
没有 莫 0.2000000
没有 无惑 0.3333333
没有 无肴 0.1666667
没有 不意 0.3333333
没有 无情 0.2500000
没有 非无马 0.2500000
没有 患无仲 0.2500000
没有 NULL 0.0048596
没有 无良 0.2500000
没有 未出 0.2500000
没有 装饰 0.5000000
没有 未知 0.1666667
没有 无愈 0.2000000
没有 以四无事 0.2000000
没有 赫赫之功 0.2000000
没有 无惠帝 0.2000000
没有 人世 0.2000000
没有 无酒 0.2500000
没有 处士 0.2000000
没有 其言乎 0.2500000
没有 无仲 0.1250000
没有 贫力 0.1428571
没有 汝不果 0.2500000
没有 可者 0.2500000
没有 而 0.0036630
没有 悲者 0.1666667
没有 未得 0.2000000
没有 无宁 0.3333333
没有 无朋 0.6666667
没有 不复 0.2500000
没有 莫如 0.3529412
没有 不悟 0.2500000
没有 无不 0.3333333
没有 斯人 0.2222222
没有 不果 0.5000000
没有 孰若 0.2500000
没有 无乎 0.2500000
寡妇 嫠 0.2000000
官场 吏气 0.2500000
实力 鏖六国 0.1666667
仰面 望山 0.3333333
仰面 而 0.0036630
自称 若 0.0434783
自称 故凡 0.2500000
自称 我 0.0555556
自称 莫 0.2000000
自称 此辈 0.3333333
无有 穷而情 0.1666667
了 有余 0.1666667
了 睥睨 0.2000000
了 夺其外 0.2000000
了 黄河 0.2500000
了 以梦得 0.2000000
了 中 0.2500000
了 颂云 0.3333333
了 殚其地 0.2000000
了 山鸣谷应 0.2000000
了 更酌 0.2500000
了 以平 0.3333333
了 听仲 0.5000000
了 犹信 0.2000000
了 之所易 0.1666667
了 惟此 0.2000000
了 用兵 0.2500000
了 悖于 0.2000000
了 失 0.3333333
了 仲之疾 0.2500000
了 既得 0.3333333
了 其国 0.2500000
了 盛 0.2000000
了 至 0.1000000
了 父不受 0.1666667
了 飘零 0.1666667
了 辄 0.1428571
了 庐之入 0.2500000
了 戕贼 0.3333333
了 一世 0.2500000
了 父受 0.2000000
了 尽死 0.2500000
了 安能 0.3333333
了 继见 0.1428571
了 自毙 0.5000000
了 腹心之疾 0.3333333
了 进元 0.3333333
了 合而为一 0.2500000
了 分裂 0.2500000
了 衣垢 0.3333333
了 少焉 0.3333333
了 记忆 0.3333333
了 既往 0.3333333
了 养祸 0.5000000
了 悲夫 0.2000000
了 以脱 0.3333333
了 杀 0.1000000
了 醒能述 0.2000000
了 软脚 0.2500000
了 星星 0.5000000
了 及期 0.2500000
了 之歌 0.2000000
了 其道 0.1666667
了 相与 0.1250000
了 汲郡 0.2000000
了 既 0.2857143
了 及其 0.1666667
了 梁之形 0.1428571
了 焉 0.1702128
了 秦之冲 0.1666667
了 而乐 0.2500000
了 也 0.0034602
了 门内 0.5000000
了 之附 0.5000000
了 过 0.1250000
了 无肴 0.1666667
了 书 0.0666667
了 留 0.2000000
了 乃问 0.2500000
了 客喜 0.2000000
了 以书至 0.2000000
了 醉能 0.5000000
了 书以 0.3333333
了 蜀 0.1666667
了 其可怪 0.3333333
了 大戚 0.2500000
了 安在 0.2000000
了 变 0.4000000
了 来 0.1250000
了 卧 0.2500000
了 尽脱 0.2500000
了 予亦惊 0.2500000
了 一端 0.2500000
了 登斯楼 0.2500000
了 及舜自为 0.1666667
了 须臾 0.2000000
了 始终 0.2500000
了 四海 0.3333333
了 诗歌 1.0000000
了 武后 0.2500000
了 离 0.1666667
了 垢 0.5000000
了 自谓 0.2500000
了 塞途 0.2500000
了 酌 0.2857143
了 小丘 0.2500000
了 增其 0.5000000
了 数十年 0.2500000
了 潜形 0.2500000
了 夫有 0.5000000
了 旦暮 0.2500000
了 有以 0.2500000
了 徙 0.4000000
了 君用 0.3333333
了 水落石出 0.1666667
了 妄称 0.2500000
了 四年 0.2857143
了 之者 0.1666667
了 无涯之戚 0.2000000
了 赵郡 0.3333333
了 既改 0.3333333
了 皇甫晖 1.0000000
了 知 0.1111111
了 死 0.0714286
了 重修 0.2500000
了 之序 0.3333333
了 醉 0.5000000
了 伏 1.0000000
了 刑 0.2500000
了 作师 0.2500000
了 终丧而取 0.1111111
了 折首 0.5000000
了 山东 0.2500000
了 各为 0.2500000
了 无仲 0.1250000
了 而 0.0073260
了 材孔良 0.2500000
了 昭宗 0.3333333
了 可以 0.0500000
了 以告 0.1428571
了 成 0.1111111
了 闻而慕 0.1428571
了 手刃 0.3333333
了 以正 0.1666667
了 无赦 0.2000000
了 而序 0.2000000
了 得于 0.5000000
了 今皆为 0.5000000
了 止 0.5000000
了 退四凶 0.2500000
了 归 0.1818182
了 二三里 0.2500000
了 渐起 0.3333333
了 侧 0.2000000
了 名之士 0.2000000
了 辞乎 0.5000000
了 木遭 0.3333333
了 大典 0.2500000
了 如往 0.1666667
了 仲尼 0.3333333
了 圣 0.2000000
了 矣 0.5416667
了 修尝考 0.1666667
了 登仙予 0.2500000
了 作 0.5000000
了 守 0.2000000
了 其泽矣 0.2000000
了 NULL 0.0205184
了 方其破 0.2500000
了 而大遗 0.2500000
了 势 0.3333333
了 丞相 0.1666667
了 胜 0.3333333
了 元庆之父 0.2000000
了 日月 0.2500000
了 水声 0.1666667
了 睡 0.2500000
了 孔 0.3333333
了 专 0.5000000
了 竟赖 0.2500000
了 江陵 0.2500000
了 除害 0.1428571
了 得 0.0800000
了 明年 0.1666667
了 及 0.0909091
了 之道 0.2857143
了 读其文 0.1666667
了 其中 0.1428571
了 良马 0.2500000
著称 刚直 0.2500000
呈 谨议 0.2000000
牛羊 牛羊 0.2500000
交错 NULL 0.0005400
颜色 成色 1.0000000
颜色 变 0.2000000
昨夜 之夜 1.0000000
昨夜 畴昔 1.0000000
这才 后方 0.3333333
这才 复来乎 0.2500000
这才 NULL 0.0005400
这才 所以 0.0909091
这才 必免 0.2500000
很多 多才士 0.2000000
旨意 NULL 0.0005400
旨意 意旨 0.3333333
旨意 诚畏 0.2500000
庆历 庆历 0.5000000
庆历 NULL 0.0005400
幸逢 民乐 1.0000000
幸逢 幸其 0.3333333
说话 苟焉 0.5000000
说话 嗫嚅 0.2500000
岂止 二 0.1666667
岂止 岂徒 0.5000000
都关 囚禁 0.3333333
子 宁武 0.3333333
攻取 以取 0.5000000
攻取 其国 0.1250000
薄薄的 裾 0.3333333
借助 以 0.0200000
借助 盖世之 0.1666667
明白人 为 0.0086957
明白人 睿 0.3333333
明白人 而 0.0036630
涂料 黝垩丹漆 0.1111111
咬 人 0.0185185
咬 以啮 0.3333333
咬 数矣 0.2000000
路边 其垠 0.5000000
悲痛 周礼 0.3333333
悲痛 余悲 0.2000000
悲痛 NULL 0.0005400
悲痛 衔哀 0.3333333
悲痛 悲哉 0.2000000
悲痛 几时 0.2000000
悲痛 极 0.2000000
天 见天 0.2500000
三个 三兄 0.5000000
三个 三人 0.2500000
三个 彼其初 0.2500000
三个 NULL 0.0005400
三个 三子 0.3846154
三个 者 0.0283019
三个 三人行 0.3333333
碰见 遇其良 0.5000000
记忆 虽能 0.2500000
记忆 记忆 0.3333333
记忆 时 0.0625000
投降 卖降 0.5000000
投降 恐后 0.2500000
衰亡 以 0.0200000
衰亡 一人亡 0.2000000
这条 是 0.0161290
这条 溪 0.2222222
这条 今是 0.5000000
技艺高超 吏勤 0.2500000
早就 斯乎 1.0000000
像是 如往 0.1666667
小船 纵一苇 0.1250000
小船 空明 0.2500000
旁边 墓侧 1.0000000
知识 者 0.0094340
知识 生而知之 0.1250000
认真 深思远虑 0.1666667
更换 更若役 0.1666667
拜访 于 0.0128205
拜访 进谒 0.1111111
拜访 一 0.0909091
拜访 无所礼于 0.2500000
长久 乎 0.0526316
长久 久存 0.2000000
长久 其能 0.3333333
长久 不久 0.1666667
表达 致诚 0.2000000
表达 外邪 0.2500000
表达 尽哀 0.5000000
刺史 连州 0.3333333
刺史 刺史 0.8000000
昌黎 闻其言 1.0000000
昌黎 韩愈 1.0000000
有点 无乃伤 0.5000000
有点 矣 0.0104167
北边 洛之北涯 0.3333333
来说 秦之有 0.2500000
来说 也 0.0034602
来说 凶者 0.2500000
来说 韩过 0.1428571
来说 魏 0.0526316
来说 身 0.3333333
相 适类 0.2500000
某日 焉 0.0212766
流传千古 熙鸿号 0.5000000
性能 其能 0.3333333
性能 名之以 0.3333333
这里 其气 0.1428571
这里 兹 0.5000000
这里 滁人游 0.1666667
这里 NULL 0.0010799
这里 饮于 0.3333333
这里 幸其 0.3333333
这里 去 0.0476190
这里 多会于 0.3333333
这里 望山 0.3333333
这里 前时 0.5000000
这里 余家 0.2500000
这里 也 0.0034602
这里 尝居 0.1666667
这里 夫贤而辱 0.2000000
这里 终丧而取 0.1111111
诽谤 恶讪 0.2500000
乐师 乐师 0.6666667
出来 不得已 0.2000000
出来 悉数 0.2500000
出来 NULL 0.0005400
出来 出见客 0.2000000
出来 以脱 0.3333333
出来 出而仕 0.2000000
出来 出不使 0.3333333
那里 无图 0.5000000
那里 其间 0.4000000
那里 土燥 0.2500000
那里 NULL 0.0016199
那里 空其 0.2000000
那里 谈 0.2000000
那里 通其兵 0.1428571
那里 而家 0.3333333
那里 观于 0.2500000
那里 留 0.2000000
盟主 之 0.0027778
盟主 盟主 1.0000000
只想 惟 0.0666667
只想 适之 0.3333333
渺小 渺 1.0000000
近处 之近 0.5000000
县官 求为 1.0000000
县官 县令 0.5000000
遣使 奉 0.2500000
遣使 于贤以 0.2500000
遣使 役 0.5000000
遣使 将 0.0357143
这本 之至情 0.3333333
这本 此人 0.1428571
广阔 廓 1.0000000
广阔 予怀 0.3333333
王良 王良 0.3333333
失传 不传 0.2500000
失传 也 0.0034602
登高 望远 1.0000000
登高 而 0.0036630
而阳 阳子 0.0333333
蔬菜 一盘 1.0000000
蔬菜 山肴野蔌 0.2500000
多次 不得志 0.2000000
多次 几 0.5000000
多次 数矣 0.2000000
卢遵 自 0.1250000
卢遵 卢遵 0.2500000
卢遵 之斥 0.3333333
卢遵 遵 0.2500000
太监 妇寺 0.2500000
荒僻 穷裔 0.3333333
疑心 不疑 0.3333333
一封 书 0.0666667
手段 以礼 0.2500000
手段 临 0.5000000
手段 NULL 0.0005400
手段 为 0.0086957
南飞 南飞 1.0000000
错杂 杂 1.0000000
儿子 在子 0.3333333
儿子 之子始 0.3333333
儿子 NULL 0.0010799
儿子 子 0.2222222
儿子 有子 1.0000000
儿子 子者 0.2500000
儿子 与汝子 0.2500000
儿子 子必 0.3333333
儿子 十岁 0.2000000
儿子 嗣 0.3333333
屈尊 辱以 1.0000000
国法 法 0.2857143
国法 王法 0.3333333
国法 正邦典 0.2500000
国法 法其 0.5000000
国法 之 0.0027778
国法 天子 0.0833333
黄泥 之坂 0.5000000
黄泥 过 0.1250000
黄泥 黄泥 0.3333333
人来 与 0.0169492
人来 兴理 0.1250000
应有 思死 0.5000000
应有 则 0.0123457
评论 鲍叔 0.2000000
评论 论人 0.5000000
竟然 其 0.0091743
竟然 患若此 0.1250000
竟然 周公乃成 0.3333333
分得 离 0.1666667
分得 判然 0.2500000
坚守 而存 0.3333333
做到 之难 0.2000000
做到 之所难 0.3333333
做到 将相 0.3333333
做到 难者 0.2500000
做到 元庆能 0.3333333
做到 会计 0.1250000
做到 必能 0.3333333
做到 之所易 0.1666667
势力 人 0.0185185
势力 势 0.3333333
势力 主之势 0.2000000
家伙 其余 0.2500000
家伙 哉 0.0416667
家伙 此辈 0.3333333
从南到北 隳 1.0000000
邦 邦 0.5000000
霜露 霜露 0.5000000
霜露 既降 0.3333333
读书 句读 0.3333333
读书 读书 0.5000000
读书 弦声 0.2500000
读书 亡诵 0.3333333
卢杞 卢杞 1.0000000
看作 目为 0.2500000
显要人物 欲 0.1250000
显要人物 要人争 0.2500000
德行 王者 0.5000000
德行 NULL 0.0010799
德行 问业 0.1666667
德行 盛德 0.2000000
德行 而 0.0036630
嫌 不暇 0.1666667
嫌 之 0.0027778
差不多 相若 1.0000000
差不多 也 0.0034602
父仇 不忘仇 0.5000000
齐桓公 威公之 0.3333333
齐桓公 孝公之 1.0000000
齐桓公 威公 0.7500000
齐桓公 莫盛于 0.5000000
齐桓公 也 0.0069204
齐桓公 威公在 0.3333333
齐桓公 彼威公 0.2500000
齐桓公 顾其 0.3333333
骤然 骤至 0.3333333
庐陵 欧阳修 0.1666667
言论 伸其辞 0.2500000
言论 说 0.1000000
亲戚 亲戚 0.5000000
二三里 入 0.2500000
二三里 二三里 0.2500000
叮叮当当 铮铮 1.0000000
人际 序彝伦 0.2000000
大 长日 0.5000000
大 孩提 0.2500000
大 NULL 0.0010799
大 一大 0.3333333
大 山高月小 0.1666667
大 前 0.1666667
大 迂大 0.2000000
登门 复进 0.3333333
不曾 相识 0.2500000
恒州 恒 1.0000000
一粟 粟 1.0000000
武夫 武夫 0.5000000
形体 潜形 0.2500000
属于 行为 0.3333333
属于 动物 0.5000000
属于 夷则 0.5000000
属于 为 0.0173913
属于 阴 0.2500000
暗自 悄然 0.3333333
暗自 予 0.0909091
暗自 亦 0.0384615
命运 焉 0.0212766
命运 有命 0.2500000
松动 动摇 0.3333333
不了 NULL 0.0005400
不了 不 0.0144928
音调 之音 1.0000000
留下 群无留良 0.1666667
掉 消磨 0.2500000
掉 折首 0.5000000
赵师韫 赵师韫 0.3333333
赵师韫 罪 0.2000000
赵师韫 师韫 1.0000000
赵师韫 之 0.0055556
尽情欢乐 众宾欢 0.2000000
尽情欢乐 也 0.0034602
变化 人事 0.3333333
变化 NULL 0.0010799
变化 之 0.0083333
变化 推移 0.5000000
同时 NULL 0.0005400
同时 逆知 0.2000000
同时 莫得 0.1666667
同时 而蔽 1.0000000
同时 而 0.0109890
同时 并献近 0.5000000
清秀 清秀 0.2500000
伟大 伟人 0.3333333
伟大 于 0.0128205
平时 里巷 0.5000000
平时 平居 1.0000000
贤臣 盖 0.0666667
欺侮 暴寡胁 0.3333333
字 言 0.1428571
字 数十万 0.3333333
获 宏词 0.1666667
荣耀 华 0.2500000
信托 与 0.0169492
信托 书 0.0666667
生纸 生纸 0.3333333
之道 理而闻 0.2000000
之道 是 0.0161290
之道 理闻道 0.2500000
之道 训俗 0.2000000
之道 大道 0.5000000
恩泽 于 0.0128205
恩泽 利泽施 0.1428571
万乘 万乘 0.3333333
万乘 虽 0.1000000
殷代 用广 0.3333333
殷代 殷有 0.5000000
遣 偕 0.2000000
叫做 固劳 0.2500000
叫做 兹谓 0.5000000
关 之关 1.0000000
所写 悉有 1.0000000
所写 法度 0.3333333
晋朝 使晋 0.5000000
成百上千 虽衍 0.5000000
成百上千 百千 0.1666667
中有 为 0.0086957
中有 其上 0.3333333
写成 写 0.3333333
写成 生纸 0.3333333
超出 其出 0.3333333
韩瑗 韩瑗 1.0000000
观点 是惑 0.1666667
观点 NULL 0.0010799
犯上作乱 凌上 1.0000000
犯上作乱 也 0.0034602
光荣 之宠命 0.2000000
背负着 至于 0.2500000
水天一色 上下 0.2500000
水天一色 天光 1.0000000
宣扬 也 0.0034602
宣扬 就 0.0714286
宣扬 辍汝而 0.3333333
依靠 兴理 0.1250000
依靠 兄嫂 0.2500000
依靠 彼独恃 0.3333333
依靠 其力 0.2857143
依靠 可恃者 0.3333333
依靠 所谓 0.0666667
依靠 其所托 0.2500000
依靠 资二生 0.1428571
员外郎 员外郎 1.0000000
备好 具 1.0000000
安全 身得安焉 0.3333333
杀害 NULL 0.0005400
杀害 戕 0.5000000
杀害 比干 0.2500000
回复 而复 0.2500000
生命 须臾 0.2000000
生命 NULL 0.0010799
生命 保 0.2000000
生命 不爱死 0.5000000
意思 周公以 0.3333333
意思 也 0.0103806
意思 戮 0.2500000
意思 以示 0.2000000
一会儿 而 0.0073260
一会儿 夕阳 0.3333333
一会儿 已 0.0714286
乘船 宾客 0.2000000
中伤 忧谗畏讥 0.1666667
恭恭敬敬 祗 1.0000000
归顺 箕子 0.1666667
归顺 昭王 0.3333333
归顺 以 0.0200000
归顺 归 0.0909091
波涛 波涛 0.5000000
规定 NULL 0.0005400
规定 及期 0.2500000
规定 令勿仇 0.3333333
规定 公罪 0.2000000
规定 其囚 0.5000000
规定 起居无时 0.2000000
目的 于里 0.3333333
八次 不 0.0144928
八次 虽十易 0.2500000
死刑 死 0.0357143
死刑 自归以 0.1666667
死刑 刑入 0.3333333
死刑 执而 0.1428571
疏密 疏数 1.0000000
棺木 其 0.0091743
棺木 棺 0.3333333
职位 博士 0.3333333
职位 在 0.0384615
职位 在位 0.2500000
职位 公相 0.2500000
职位 之位 0.2500000
加好 膏吾车 1.0000000
意旨 闵人穷 0.3333333
商量 归而谋 0.2500000
商量 咨而处 0.1428571
商量 奚所 0.3333333
商量 不谋于 0.3333333
愚岛 愚岛 0.5000000
具备 以 0.0400000
冀北 冀北 1.0000000
保持 保 0.2000000
保持 守其道 0.2000000
重 重然诺 0.5000000
功德 功德 0.5000000
功德 之 0.0027778
功德 上 0.0500000
之国 不息 0.2000000
之处 黔 0.1250000
关切 殷勤 0.2500000
看明 视其险易 0.5000000
因 NULL 0.0005400
因 物喜 0.1428571
因 以同利 0.2000000
因 以 0.0200000
因 为朋 0.2500000
因 饥渴 0.5000000
因 同道 0.2500000
利用 以小善 0.2500000
利用 小信 0.3333333
代表 西方 0.5000000
代表 商声主 0.3333333
愚沟 愚沟 0.2500000
篇文章 以名 0.3333333
篇文章 以记 0.3333333
篇文章 管仲相 0.3333333
篇文章 其亭 0.3333333
篇文章 书 0.0666667
篇文章 焉 0.0425532
栖身 攀栖鹘 0.3333333
栖身 之 0.0027778
在 仲之书 0.1666667
在 之明 0.2000000
在 伏于 0.2500000
在 有仲焉 0.1666667
在 百步 0.3333333
在 之间 0.0909091
在 于外 0.5000000
在 以相取 0.1666667
在 尽言于 0.3333333
在 一在 0.2000000
在 独列于 0.2000000
在 犹断 0.2000000
在 浩浩 0.3333333
在 秦之攻 0.2500000
在 聚于 0.5000000
在 违于理 0.3333333
在 夹道 0.3333333
在 先后 0.2000000
在 于是 0.2142857
在 颓乎 0.2500000
在 南方 0.5000000
在 内 0.2500000
在 之上 0.3333333
在 在乎 0.5000000
在 途 1.0000000
在 并 0.2000000
在 穷裔 0.3333333
在 树 0.2500000
在 终当久 0.1666667
在 滁水 0.2500000
在 睿 0.3333333
在 所存 0.2500000
在 临于 0.5000000
在 拜受 0.5000000
在 施德于 0.1666667
在 之心 0.1176471
在 晋之鄙 0.2500000
在 通习 0.3333333
在 觥筹交错 0.1428571
在 伺候 0.3750000
在 有仲 0.3333333
在 其垠 0.5000000
在 躬 0.2500000
在 而吾蛇 0.2500000
在 在子 0.3333333
在 病者 0.2500000
在 守护 0.2500000
在 东野 0.1000000
在 而家 0.3333333
在 采于 0.2500000
在 作庙 0.5000000
在 治 0.5000000
在 而势 0.1250000
在 死而后已 0.2000000
在 滁人游 0.1666667
在 万年 0.4000000
在 谈 0.2000000
在 蓬蒿 0.2500000
在 禽鸟 0.5000000
在 其门 0.2500000
在 未得 0.2000000
在 启 0.1666667
在 波涛 0.5000000
在 滁人仰 0.3333333
在 以共居 0.2500000
在 尝居 0.1666667
在 乃营治之东 0.1428571
在 拜公于 0.2500000
在 朝 0.2222222
在 有记 0.2000000
在 乘之于 0.1666667
在 孝武乘 0.2500000
在 当是 0.5000000
在 地之角 0.5000000
在 列屋 0.5000000
在 闾 0.2500000
在 徘徊 0.5000000
在 梦 0.1428571
在 余家 0.2500000
在 岂可 0.3333333
在 其用 0.2500000
在 众宾欢 0.2000000
在 法 0.1428571
在 康强 0.2000000
在 喧哗 0.1666667
在 临江 0.2500000
在 方 0.5000000
在 相征 0.2500000
在 前 0.5000000
在 愈闻汝丧 0.2000000
在 留 0.2000000
在 施于 0.3333333
在 NULL 0.0145788
在 于 0.2179487
在 以阴助 0.2500000
在 记于 0.5000000
在 不作于 0.2500000
在 宴 0.5000000
在 佐 0.5000000
在 坐茂树以 0.5000000
在 彼其初 0.2500000
在 掇幽芳 0.3333333
在 若夫 0.6666667
在 阴翳 0.2500000
在 虽死乎 0.1428571
在 而顿 0.2500000
在 满前 0.2500000
在 甚远 0.1666667
在 在 0.2692308
在 相慕悦 0.1428571
在 然皆乱亡 0.1666667
考核 于何 0.3333333
考核 问业 0.1666667
考核 考德 0.3333333
稍微 NULL 0.0005400
稍微 饮少辄 0.2000000
耕种 稼 1.0000000
耕种 农不耕收 0.2500000
士人 一士 0.1666667
士人 士以 0.5000000
士人 NULL 0.0021598
士人 言得士 0.2500000
士人 世皆称 0.5000000
士人 哉 0.0833333
再 贬 0.2500000
再 NULL 0.0005400
再 虽多 0.2500000
再 以前 0.5000000
再 赏罚 0.2500000
再 而致 0.2500000
再 纵 0.1428571
再 故必复 0.1250000
再 所止 0.1666667
再 复进 0.3333333
再 终丧而取 0.1111111
组成 之臣 0.2500000
组成 朋 0.2500000
组成 一大 0.3333333
组成 人为 0.1428571
心存 不 0.0144928
经籍 经史百子 0.2500000
效力 矣 0.0104167
效力 出而仕 0.2000000
铲除 消磨 0.2500000
铲除 铲削 0.5000000
收 赋 1.0000000
枯木 槁木 0.3333333
杀人犯 杀人者 0.2000000
可口 美可茹 0.5000000
私下 NULL 0.0010799
私下 专之望 0.1666667
定夺 决去 0.5000000
定夺 就 0.0714286
善行 中人 0.5000000
善行 之意 0.5000000
后代 传于 0.5000000
后代 然而 0.0769231
后代 后世 0.2500000
应该 知威 0.5000000
应该 庶几 0.5000000
应该 何言哉 0.1428571
应该 NULL 0.0010799
应该 正卯 0.3333333
应该 知放四凶 0.2000000
应该 固宜 0.3333333
应该 奉 0.5000000
应该 子者 0.2500000
应该 盛 0.2000000
应该 其戏 0.1428571
应该 宜乎 0.5000000
应该 宜行 0.2500000
应该 戏 0.0909091
应该 诛 0.2941176
应该 公所 0.3333333
应该 不宜 0.4000000
应该 时言于 0.2500000
应该 尤当仗 0.2000000
应该 合乎 0.1666667
应该 当言 0.3333333
采取 NULL 0.0005400
采取 德 0.5000000
采取 施恩 0.3333333
采取 德以 0.2500000
我要 从子 0.2500000
暴虐 灵公之虐 0.2500000
栋梁 梁之形 0.1428571
全国 海内 0.3333333
全国 天下 0.0512821
全国 NULL 0.0005400
全国 施德于 0.1666667
全国 国之臣 0.3333333
全国 后代 0.2500000
职官 不维 0.2500000
面色 温乎 0.5000000
牙齿 或 0.0833333
牙齿 动摇 0.3333333
四年 其后 0.1666667
四年 四年 0.4285714
青青 青青 0.5000000
后宫 事 0.0769231
后宫 其用 0.2500000
恰巧 遇有 1.0000000
办 举 0.1428571
办 以法 0.3333333
传授 传其道 0.5000000
传授 所以 0.0909091
传授 传道 0.3333333
举荐 NULL 0.0005400
举荐 举曹 1.0000000
业务 有 0.0151515
业务 术业 0.5000000
盱江人 盱江 0.5000000
邻居 也 0.0034602
邻居 死者 0.1428571
邻居 相藉 0.2000000
深渊 壑 1.0000000
做法 示于 0.2500000
做法 背圣 0.2500000
做法 是 0.0322581
做法 之事 0.3333333
做法 可乎 0.1428571
做法 者 0.0094340
难以 理者 0.2000000
难以 之难 0.2000000
难以 诚难明 0.2000000
难以 难知 0.5000000
难以 之所难 0.3333333
难以 能 0.0555556
母亲 在 0.0384615
一定 NULL 0.0010799
一定 其必来 0.3333333
一定 不必 0.3333333
一定 事有必至 0.1250000
一定 独善其身 0.1666667
一定 会计 0.1250000
一定 果能 0.3333333
一定 必有我师 0.1250000
一定 必离乎 0.2500000
一定 意其 0.3333333
一定 其必 0.3333333
一定 必 0.3333333
一定 必来 1.0000000
一定 必有 0.1666667
一定 终葬汝于 0.2000000
一定 必达 0.5000000
要来 胡为乎 0.3333333
要来 来 0.1250000
汉武帝 孝武乘 0.2500000
谈吐 言语 0.2000000
产马 马多 0.3333333
有志于 道 0.0588235
有志于 知志乎 0.2500000
离家 墨突 1.0000000
离家 不得 0.0666667
杂乱无章 披蒙茸 0.2500000
怜悯 闵人穷 0.3333333
怜悯 悲人穷 0.2000000
怜悯 哀而生 0.1666667
怜悯 君 1.0000000
怜悯 其时 1.0000000
怜悯 将 0.0357143
走出 步自雪堂 0.3333333
鸟 泉 0.2000000
鸟 攀栖鹘 0.3333333
是 伪 0.2857143
是 凶者 0.2500000
是 百千 0.1666667
是 逃避 0.2500000
是 智而为 0.2500000
是 我知 0.2000000
是 琅 0.5000000
是 其本 0.5000000
是 诚畏 0.2500000
是 枕戈为 0.1250000
是 传道 0.3333333
是 史佚 0.5000000
是 不过 0.1666667
是 松江 0.3333333
是 贤者 0.0526316
是 实为 0.2500000
是 利禄 0.3333333
是 愚者 0.2000000
是 谩 0.2500000
是 直则 0.2500000
是 国者 0.3333333
是 虽鸡 0.5000000
是 其性者 0.2000000
是 之身 0.5000000
是 无穷 0.2000000
是 传之非 0.5000000
是 故何 0.1250000
是 迂为 0.3333333
是 文不近 0.1666667
是 其信然 0.2500000
是 寿者 0.2000000
是 不齿 0.2500000
是 山之僧 0.2500000
是 东亦客 0.2000000
是 穷理 0.3333333
是 目为 0.2500000
是 斯谟斯猷 0.1428571
是 诚 0.3333333
是 六月 0.5000000
是 故其大者 0.2000000
是 闵其穷 0.1666667
是 也 0.1349481
是 求士 0.5000000
是 之于 0.2500000
是 蒙难 0.1818182
是 无情 0.2500000
是 一世之雄 0.2500000
是 成败 0.2000000
是 之奇者 0.2000000
是 惟物 0.2000000
是 彼威公 0.2500000
是 可谓 0.3000000
是 丰山 0.3333333
是 舅弟 0.5000000
是 此人 0.1428571
是 王良 0.3333333
是 不悟 0.2500000
是 幽谷 0.5000000
是 所惜者 0.2000000
是 汝其知 0.3333333
是 兄弟 0.5000000
是 毒疠 0.1666667
是 疏阔 0.3333333
是 常常 0.5000000
是 之障 0.2500000
是 人愿 0.3333333
是 颜渊 0.3333333
是 竖刁 0.1666667
是 其情 0.3333333
是 韩过 0.1428571
是 有命 0.2500000
是 不议 0.2500000
是 若加 0.3333333
是 与化 0.2500000
是 智者 0.4000000
是 圣乎 0.1666667
是 歌 0.2000000
是 固有 0.2000000
是 以防 0.2500000
是 用武之地 0.1666667
是 东野 0.1000000
是 贤 0.3333333
是 而已 0.0666667
是 醉翁亭 0.5000000
是 二 0.3333333
是 时人 0.5000000
是 三曰化 0.5000000
是 此者 0.5000000
是 滁人游 0.1666667
是 不善 0.1666667
是 管仲 0.1666667
是 作亭者 0.2500000
是 恶讪 0.2500000
是 庐陵 1.0000000
是 成 0.1111111
是 用心 0.1666667
是 之法乎 0.1428571
是 圣智 0.2500000
是 无乎 0.2500000
是 顾而乐 0.1111111
是 其然乎 0.3333333
是 授之书 0.2500000
是 忠信 0.5000000
是 太守 0.4000000
是 诚有 0.2000000
是 其梦邪 0.2500000
是 而况 0.2500000
是 遵 0.2500000
是 称舜为 0.3333333
是 所守者 0.2000000
是 宰相 0.2000000
是 之致尔 0.3333333
是 货财 0.5000000
是 是乎 0.2500000
是 康强 0.2000000
是 隐者 0.3333333
是 君臣 0.3333333
是 信 0.2000000
是 章章明 0.2500000
是 才 0.2857143
是 之至情 0.3333333
是 NULL 0.0156587
是 萧然 0.1666667
是 必然 0.2500000
是 其明 0.5000000
是 有若门 0.2000000
是 罪大恶极 0.2500000
是 禄仕乎 0.2000000
是 匪 0.5000000
是 华 0.2500000
是 特 0.5000000
是 谁 0.1000000
是 一毫 0.3333333
成长 成长 0.5000000
成长 牛羊 0.2500000
心情 其 0.0091743
心情 隋 0.2000000
心情 惧 1.0000000
心情 忧谗畏讥 0.1666667
牵连 例出 0.3333333
留守 留守 0.3333333
留守 河南 0.3333333
之多 大 0.5000000
之多 朋之多且 0.2000000
周六 长日 0.5000000
周六 周六 0.3333333
相背 背负 0.5000000
作 各为 0.2500000
作 首为 0.3333333
作 NULL 0.0005400
作 读者 0.2500000
作 之歌 0.2000000
囚禁 之 0.0027778
囚禁 而释 0.2500000
有利可图 乃 0.0555556
有利可图 其见利 0.2000000
低下 居卑 0.2500000
低下 卑且 0.2500000
油 NULL 0.0005400
这篇序 云 0.1666667
这篇序 之序 0.3333333
早晚 旦暮 0.2500000
早晚 朝夕 0.5000000
惊醒 寤 1.0000000
惊醒 予亦惊 0.2500000
谏 NULL 0.0005400
谏 建议 0.5000000
谏 臣 0.0833333
谏 谏 0.2500000
谏 陈子昂 0.3333333
处 险阻 0.2500000
处 也 0.0034602
处 NULL 0.0005400
处 何患 0.1666667
处 可疑 0.1666667
加字 注字处 0.3333333
加字 字 0.5000000
离不开 不绝于耳 0.3333333
离不开 于目 0.5000000
离不开 色不绝 0.5000000
君 为臣 0.2000000
君 NULL 0.0005400
君 死忠 0.2500000
君 之位 0.2500000
谁 NULL 0.0026998
谁 谁 0.5000000
谁 故凡 0.2500000
谁 吾谁与归 0.1428571
谁 孰能 0.2500000
谁 谓 0.1000000
谁 甚于 0.3333333
谁 尤 0.1111111
谁 相 0.1428571
军 也 0.0034602
军 师之所存 1.0000000
军 军 1.0000000
选 辄 0.1428571
选 取 0.1250000
不通 议附于 0.2000000
司法 参军 0.5000000
政事 不通 0.1666667
政事 庙 0.3333333
危险 危道 0.3333333
危险 魏 0.0526316
危险 韩过 0.1428571
孙子 孙子 1.0000000
四匹 驷马 0.2500000
波光 光 1.0000000
腰带 束带结发 0.2500000
上天 NULL 0.0005400
上天 固畏 1.0000000
上天 天威 0.5000000
上天 天命 0.2000000
上天 彼苍者 0.2000000
视为 为典 0.3333333
视为 可乎 0.1428571
视为 以 0.0200000
视为 大耻 0.3333333
天命 及 0.0909091
天命 天命 0.4000000
重任 强委重 0.2000000
重任 托国 0.2000000
办理 可疑 0.1666667
一切 宠辱皆忘 0.2000000
一切 百尔器备 0.1666667
感觉 羞 0.2000000
从 以书至 0.2000000
从 师 0.1333333
从 NULL 0.0032397
从 考诸经 0.2000000
从 自其 0.3333333
从 今年 0.5000000
从 自西 0.2500000
从 蒋氏观 0.2500000
从 学问 0.2500000
从 而泻 0.5000000
从 飞鸣 0.5000000
从 用之不竭 0.1666667
从 自愚 1.0000000
从 叫嚣 0.5000000
从 口径 0.2500000
从 之野 0.2500000
从 自唐 0.5000000
从 容貌 0.3333333
从 图 0.3333333
从 出此 0.2000000
愿意 以相取 0.1666667
愿意 愿 0.2000000
愿意 进于 0.3333333
愿意 幸生 0.2500000
伺候 起居饮食 0.2500000
伺候 伺候 0.3750000
赏识 之心 0.0588235
赏识 嘉其 1.0000000
过失 NULL 0.0010799
过失 过乎 0.5000000
过失 招人过 0.3333333
过失 其失 0.3333333
来不及 俟 0.2000000
来不及 不能 0.0370370
来不及 席不暇暖 0.1111111
警惕 可不 0.1111111
警惕 戒哉 0.5000000
壬戌 之秋 0.5000000
家庭 成家 0.1666667
再说 且 0.1111111
再说 万 0.3333333
之下 下 0.0588235
之下 以相取 0.1666667
之下 复游于 0.3333333
之下 进于 0.3333333
之下 之下 0.1666667
汴州 汴州 1.0000000
瞌睡 垂头 0.2500000
郯子 苌 1.0000000
郯子 师郯子 0.3333333
宗族 祀 0.2000000
宗族 以存祀 0.1428571
应用 其用 0.2500000
大宋 宋受 0.3333333
尔后 呼号 1.0000000
嘎嘎 长鸣 0.3333333
嘎嘎 戛然 0.5000000
丢弃 委 1.0000000
丢弃 区区 0.5000000
所在 教学 0.5000000
辩论 辨 0.2000000
先人 承 0.2500000
先人 坟墓 0.3333333
流失 放失 0.3333333
抗拒 秦 0.2000000
太晚 不暇 0.1666667
帝位 即位 0.3333333
争斗 起而争 1.0000000
批评 其言乎 0.2500000
批评 其言 0.1250000
迫切 切 0.5000000
消失 往 0.2500000
消失 隐耀 0.5000000
消失 也 0.0034602
消失 良久 0.2000000
清脆 清声 0.5000000
清脆 激越 1.0000000
选取 漱涤 1.0000000
选取 万物 0.3333333
选取 一人 0.3333333
选取 武士 0.5000000
选取 焉 0.0425532
烟飞 烟霏 1.0000000
洗脸 洗 1.0000000
装蛇 缶 0.5000000
装蛇 视其 0.3333333
边境线 贪 0.3333333
边境线 疆场 0.5000000
边境线 乃 0.0555556
复仇 复仇 1.0000000
复仇 也 0.0069204
复仇 NULL 0.0005400
复仇 其议 0.5000000
复仇 枕戈为 0.1250000
当成 仇者 0.5000000
当成 敌 1.0000000
当成 为 0.0086957
当成 其以 0.3333333
从事 供给 0.5000000
奸雄 奸豪得 0.3333333
建中 建中 1.0000000
应 宜 0.1428571
应 宜有 0.3333333
普通百姓 草茅 1.0000000
高歌 古称 1.0000000
龟甲 龟卜 0.1250000
龟甲 而 0.0036630
不明 趋义者 0.5000000
不明 不知 0.0270270
拜谒 坟墓 0.3333333
长 斥 0.1666667
长 不久 0.1666667
仁人君子 仁人 0.2500000
任职 于 0.0128205
任职 哉 0.0416667
从今以后 以往 1.0000000
从今以后 自今 0.3333333
曾 伯祖 0.2000000
曾 然吾尝闻 0.2000000
曾 师郯子 0.3333333
曾 嫂尝 0.5000000
曾 尝例 0.3333333
曾 拓跋 0.5000000
曾 论 0.2500000
曾 乘田 0.2000000
曾 尝辱 0.5000000
西边 莫如 0.0588235
西边 西归 0.2500000
预示 NULL 0.0005400
预示 础润而雨 0.1428571
施行 NULL 0.0005400
施行 施德于 0.1666667
施行 行于 0.2000000
万万 万 0.3333333
面貌 丹者 0.5000000
面貌 苍颜白发 0.1666667
面貌 渥然 1.0000000
极度 感极 0.3333333
祝贺 贺 0.7500000
精良 材孔良 0.2500000
潜伏 NULL 0.0005400
潜伏 伏于 0.2500000
潜伏 祸患 0.5000000
潜伏 闼 1.0000000
潜伏 帷 1.0000000
算是 诚仁 0.2500000
算是 为 0.0260870
算是 后 0.0909091
算是 虚语 0.2500000
算是 矣 0.0312500
算是 不熟 0.3333333
算是 不久 0.1666667
东边 东亦客 0.2000000
东边 乃营治之东 0.1428571
东边 念 0.1428571
函谷关 而 0.0036630
南方 南方 0.5000000
宽厚 宽厚 1.0000000
不变 者 0.0094340
不变 不变 0.3333333
人刚 始行 0.3333333
人刚 取汝者 0.2000000
无益 无益 0.5000000
无益 吾 0.0126582
午夜 半 1.0000000
洗衣 浣 1.0000000
两三家 二三 1.0000000
开学 菜且 1.0000000
可见 则 0.0123457
可见 其书诞 0.2500000
不干 为斯役 0.2500000
不干 不 0.0144928
祝辞 祝辞 0.5000000
触犯 触刑 0.2500000
触犯 抵罪 0.2500000
世俗 以 0.0200000
世俗 合乎 0.1666667
世俗 于俗 0.5000000
世俗 同乎 0.4000000
晕 NULL 0.0005400
巴陵郡 观夫 0.5000000
巴陵郡 巴陵郡 0.3333333
巴陵郡 巴陵 0.5000000
巴陵郡 胜状 1.0000000
折磨 风雨 0.1666667
通行无阻 通其兵 0.1428571
蜉蝣 蜉蝣 0.2500000
蜉蝣 寄 0.5000000
十五年 十五年 0.3333333
这股 山谷 0.5000000
这股 斯泉于 0.5000000
空疏 其 0.0091743
空疏 疏阔 0.3333333
潺潺 潺潺 0.3333333
潺潺 渐闻 0.3333333
潺潺 水声 0.1666667
丧 NULL 0.0005400
丧 守汝丧 0.1666667
丧 终丧而取 0.1111111
笑了笑 顾笑 0.1111111
不足 也 0.0034602
不足 其书诞 0.2500000
外面 尔 0.2000000
外面 顺之于 0.2000000
外面 乃 0.0555556
外面 外 1.0000000
鱼虾 鲜可食 0.2000000
鱼虾 鱼虾 0.5000000
鱼虾 侣 0.5000000
对于 也 0.0034602
对于 NULL 0.0005400
对于 于 0.0128205
对于 天之于 0.2500000
对于 其身 0.2000000
一边 抚汝指 0.3333333
一边 行歌 0.5000000
一边 二十 0.2500000
朝鲜 朝鲜 0.3333333
左右 左右 0.3333333
当做 以为 0.0740741
当做 未始 0.1666667
当做 国交 0.1666667
当做 直者 0.2500000
虎狼 以当强 0.2500000
虎狼 虎狼 0.3333333
虎狼 之秦 0.1428571
方正 俊杰廉悍 0.2000000
家人 不告 0.5000000
家人 NULL 0.0005400
临死时 之言 0.1250000
临死时 死 0.0357143
临死时 有记 0.2000000
临死时 将 0.0357143
永久 久 0.1428571
永久 国典 0.2000000
永久 永为 1.0000000
亵渎 黩刑 0.4000000
善良 NULL 0.0005400
善良 善人 0.3750000
不屈 骨鲠之臣 0.2500000
吉凶祸福 祸福 0.2500000
吉凶祸福 惧以 0.2500000
卷 卷 1.0000000
殷商 殷祀 0.2500000
进言 言责 0.3333333
危害 凶者 0.2500000
危害 而 0.0036630
危害 夫子 0.2500000
健在 堂 1.0000000
连州 改刺 0.2000000
连州 连州 0.3333333
看史 观史 0.3333333
虽死 即 1.0000000
后天下之乐而乐 后天下之乐而乐 1.0000000
施加 化及民 0.1428571
以身殉职 思死 0.5000000
以身殉职 其官 0.2500000
临行 将行 0.5000000
完善 不加修 0.3333333
完善 夫道 0.5000000
嬉笑 者 0.0094340
嬉笑 喧哗 0.1666667
委以重任 重而恃力 0.2500000
委以重任 者 0.0094340
委以重任 其所托 0.2500000
河阳 河阳 1.0000000
河阳 之兆 0.2500000
显示 清秀 0.2500000
显示 而 0.0036630
有益 其言则 0.5000000
有益 去 0.0476190
公卿 公相 0.2500000
公卿 公卿之 0.5000000
六二 六二 0.2500000
居民 居民 1.0000000
自恃 负恃 0.3333333
世上 世之 1.0000000
世上 NULL 0.0005400
世上 天之于 0.2500000
世上 大耻 0.3333333
世上 立 0.2000000
世上 夫世 0.3333333
不住 守 0.2000000
不住 不 0.0144928
活着 生而影 0.3333333
活着 NULL 0.0005400
活着 久存 0.2000000
活着 不 0.0144928
活着 生 0.2000000
之游 乎 0.0526316
之游 游乐 0.3333333
丰腴 曲眉丰颊 0.2000000
厌烦 不烦 0.1666667
纵横 踔厉风发 0.1250000
环绕 两山 0.3333333
环绕 谓 0.1000000
环绕 其环 0.3333333
阴公 阴公 0.5000000
关键 者 0.0188679
正在 NULL 0.0005400
正在 欧阳 0.5000000
正在 子方 0.5000000
飘然 蹁跹 0.2500000
云集 沙鸥翔集 0.3333333
接替 故必复 0.1250000
接替 以自代 0.3333333
担忧 抑亦为 0.2000000
担忧 其民 0.5000000
担忧 忧 0.2857143
担忧 退亦忧 0.2500000
担忧 进亦忧 0.2500000
李 盱江 0.5000000
遵照 NULL 0.0005400
遵照 顺德 0.3333333
抵充 租入 0.3333333
平地 平地 1.0000000
苌 弘 1.0000000
苌 师襄 1.0000000
商 商 1.0000000
见 多 0.2000000
宫外 而 0.0036630
宫外 于外 0.5000000
兼备 忠孝 0.5000000
结实 春生 0.5000000
结实 秋实 0.3333333
愚池 池 0.5000000
愚池 愚池 0.4000000
根本 NULL 0.0005400
根本 合 0.2500000
根本 刑之大本 0.3333333
破坏 坏礼 0.3333333
来换 以彼易 0.2500000
来换 此 0.0526316
丝竹 非竹 0.2500000
丝竹 非丝 0.5000000
立业 可冀其 0.2500000
献策 其君 0.2500000
献策 谏 0.2500000
不幸 不幸 0.8333333
以西 山西 0.3333333
病 疾 0.2500000
病 殒 0.5000000
住所 所 0.0217391
哪里 酒乎 0.2500000
哪里 岂 0.3636364
哪里 而今 0.3333333
哪里 咨而处 0.1428571
哪里 夫庸知 0.5000000
哪里 恶知 1.0000000
哪里 极 0.2000000
哪里 考德 0.3333333
哪里 有 0.0151515
哪里 恶得 0.3333333
神志 志气 0.2000000
称帝 臣位 0.3333333
称帝 万世 0.3333333
商议 亲近 0.2500000
虽然 逝者如斯 0.2000000
虽然 虽谏 0.3333333
虽然 悔悟 0.2000000
虽然 盈虚 0.1666667
虽然 虽 0.6000000
虽然 虽暂 1.0000000
虽然 虽能 0.2500000
虽然 虽有 0.1666667
虽然 虽善 0.5000000
虽然 虽十易 0.2500000
用功 刻苦 1.0000000
河东 费皆出 0.3333333
河东 河东 0.5000000
比 蛇者乎 0.2500000
比 NULL 0.0016199
比 贤于 0.2000000
比 生日 0.2000000
比 苛政猛于虎 0.1666667
比 而文 0.2000000
比 志气 0.2000000
比 先乎 0.3333333
比 衰 0.3333333
比 生乎 0.3333333
比 尤小 0.2000000
比 固先乎 0.3333333
下 下 0.1176471
下 卧 0.2500000
下 石焉者 0.2000000
下 NULL 0.0005400
下 名者 1.0000000
下 之下 0.1666667
下 睡 0.2500000
生 服孝死义 0.3333333
事用 以文者 0.2500000
喝醉 醉 0.2500000
望 之墓 0.3333333
现在 今夫 1.0000000
现在 汝之子始 0.5000000
现在 今生 0.3333333
现在 其泽矣 0.2000000
现在 NULL 0.0016199
现在 今则 0.5000000
现在 今代 0.5000000
现在 今 0.8333333
现在 今是 0.5000000
现在 今若取 0.3333333
现在 今吾使 0.2500000
现在 今以 0.5000000
现在 今余 1.0000000
现在 今吾嗣为 0.2500000
现在 自今 0.3333333
现在 方今 0.5000000
现在 不异于 0.2500000
现在 今其室 1.0000000
现在 人口 1.0000000
自愿 愿 0.2000000
飞 其所止 0.2000000
飞 不知 0.0270270
御史台 在 0.0384615
御史台 省时 1.0000000
早死 夭 0.5000000
百废俱兴 百废具兴 1.0000000
这篇师 说 0.1000000
这篇师 作师 0.2500000
为什么 何子 1.0000000
为什么 胡为乎 0.3333333
为什么 何者 0.1666667
为什么 少者 0.2500000
为什么 何耶 0.3333333
为什么 何哉 0.4000000
为什么 侧 0.2000000
为什么 奈何 1.0000000
为什么 何以 1.0000000
为什么 何则 0.3333333
为什么 问 0.0666667
为什么 其然 0.2500000
技术 术业 0.5000000
服饰 不维 0.2500000
毒蛇 蛇者乎 0.2500000
毒蛇 是 0.0161290
脸色 貌若 1.0000000
明明白白 矣 0.0104167
明明白白 章章明 0.2500000
便用 以礼 0.1250000
便用 惧以 0.2500000
便用 然后 0.2500000
借鉴 仲之疾 0.2500000
抵销 相当 0.2000000
在野 在野 0.2000000
仓促 孰谓 0.5000000
仓促 汝遽 0.2500000
而朝 而 0.0036630
励精图治 愿治之主 0.3333333
励精图治 虽有 0.1666667
不专 专之望 0.1666667
师则 谀 0.2500000
师则 近 0.3333333
师则 官盛则 1.0000000
八元 进元 0.3333333
八元 八元 1.0000000
盘子 杯盘狼藉 0.1666667
哀伤 穷而情 0.1666667
外貌 而惠中 0.2000000
外貌 秀外 1.0000000
穿 裘 0.3333333
穿 夏一葛 0.2500000
小丘 小丘 0.2500000
小丘 买 0.3333333
还会 长烟一空 0.1666667
纠正 病 0.2500000
纠正 为 0.0086957
推广 用广 0.3333333
推广 下 0.0588235
推广 他州 0.3333333
推广 其法于 0.1666667
所说 而言 0.1250000
所说 NULL 0.0010799
所说 所谓 0.3333333
所说 称 0.2857143
懊悔 曰 0.0116279
懊悔 悔 0.3333333
之上 临于 0.5000000
党羽 抉其 0.2500000
遗留下来 遗老 0.3333333
遗留下来 尽 0.1666667
当天 宵 0.5000000
流放 知放四凶 0.2000000
开始 而齿牙 0.5000000
开始 NULL 0.0005400
开始 其始 0.5000000
开始 始者 0.5000000
开始 其端 0.3333333
算 之士乎 0.5000000
算 会计 0.1250000
算 道 0.0588235
算 孰失 0.2500000
讨论 议论 1.0000000
地处 滁介 0.5000000
不避 NULL 0.0005400
安享 丰年 0.5000000
安享 安此 0.3333333
照耀 烛照 0.1250000
亲信 亲近 0.2500000
俯视 俯 1.0000000
零丁孤苦 零丁孤苦 1.0000000
鬓发 黑者 1.0000000
处在 居闲益 0.5000000
处在 之位 0.2500000
谋取私利 无图 0.5000000
谋取私利 利于 0.5000000
从不 NULL 0.0005400
从不 无所避 0.5000000
从不 而 0.0036630
横跨 白露 0.2500000
感到遗憾 不 0.0144928
感到遗憾 恨 0.5000000
为止 止者 1.0000000
正常 生人 0.5000000
正常 以正 0.1666667
行走 六七里 0.3333333
模样 所 0.0217391
模样 怙 1.0000000
山路 六七里 0.3333333
欢乐 NULL 0.0005400
欢乐 乐于 0.3333333
欢乐 身 0.3333333
设置 NULL 0.0005400
债主 其质 0.2000000
债主 使 0.0434783
言 无毁 0.3333333
暗示 所 0.0217391
暗示 乃 0.0555556
暗示 其意 0.1428571
暗示 以示 0.2000000
强壮 强者 0.3333333
失败 当 0.1666667
失败 事后 1.0000000
失败 成败 0.2000000
强 武夫 0.5000000
萎靡 志气 0.2000000
好吃 鲜可食 0.2000000
来往 不祥 0.2500000
求 不求 0.3333333
求 之不求 0.3333333
怀念 怀乡 0.3333333
怀念 去国 0.2500000
昏君 无惠帝 0.2000000
像 沧海 0.3333333
像 孩提 0.2500000
像 驾 0.5000000
像 NULL 0.0026998
像 已能 0.3333333
像 如泣如诉 0.3333333
像 自力 0.3333333
像 若 0.2608696
像 如慕 0.6666667
像 有亭翼然 0.3333333
像 真若 0.2000000
像 若书 0.5000000
像 驰骤 0.2000000
像 如吾之衰者 0.1666667
像 委身 0.5000000
像 是 0.0161290
像 数计 0.2000000
像 为华 0.1666667
像 毛发 0.2500000
像 词章 0.3333333
像 不复 0.2500000
像 车轮 0.3333333
像 龟卜 0.1250000
像 岂少 0.5000000
像 寄 0.5000000
智仙 也 0.0034602
智仙 智仙 1.0000000
被贬 学问 0.2500000
被贬 谪 0.3333333
被贬 滕子京 0.5000000
发怒 刑 0.2500000
发怒 怒有 0.5000000
冷静 之静者 0.2500000
我们 尧舜 0.2500000
我们 飘飘 0.5000000
我们 NULL 0.0010799
我们 以为 0.0370370
我们 哀吾生 0.5000000
我们 天之涯 0.3333333
我们 斯谟斯猷 0.1428571
我们 纵一苇 0.1250000
我们 所处 0.3333333
我们 携酒 0.2500000
我们 掠予 0.3333333
忧 顾之忧 0.1666667
十二句 诗六韵 0.2500000
十二句 歌 0.2000000
晋文公 文 0.4000000
晋文公 灵公之虐 0.2500000
晋文公 文公之 0.5000000
晋文公 文公死 0.5000000
晋文公 公之才 0.3333333
下降 水落石出 0.1666667
替 酒 0.1000000
替 为吾致 0.2500000
替 设方计 0.3333333
替 为 0.0260870
不是 非死 0.5000000
不是 非无马 0.2500000
不是 非若此 0.3333333
不是 非周 0.5000000
不是 非欲养 0.2500000
不是 曹孟德 0.2500000
不是 作之日 0.2500000
不是 不私于 0.2500000
不是 仕不为 0.2500000
不是 之质 0.2500000
不是 吏 0.2000000
不是 生而知之 0.1250000
不是 非 0.5333333
不是 苟非 0.3333333
不是 也 0.0103806
不是 抵罪 0.2500000
不是 非丝 0.5000000
不是 不然 0.1538462
不是 非人 0.3333333
不是 非成 0.3333333
浊浪 浊浪 1.0000000
在座 人 0.0185185
在座 其座 0.5000000
礼 刑礼 0.2500000
礼 之制 0.2500000
礼 NULL 0.0021598
礼 闻礼 0.5000000
礼 礼 0.5000000
礼 介然 0.2500000
或许 不宜 0.2000000
或许 或异 0.1250000
或许 如是 0.3333333
或许 倘 0.3333333
来信 书云 0.5000000
吟诗 皇帝 0.2500000
交往 所 0.0217391
交往 之交 0.2000000
交往 与 0.0338983
交往 游 0.3333333
危岸 千尺 0.3333333
名贵 嘉木异 0.5000000
未必 容有 0.2500000
之中 颓乎 0.2500000
之中 盘 0.2500000
之中 之庭 0.2000000
之中 之中 0.3333333
之中 陷阱 0.3333333
之中 之犯 0.2500000
之中 相慕悦 0.1428571
之中 之幕 0.2500000
之中 然皆乱亡 0.1666667
之中 野处 0.3333333
之中 阴翳 0.2500000
伤 伤 0.5000000
撩起 摄衣 0.2500000
撩起 予乃 0.5000000
设宴 张上 0.3333333
投进 投 1.0000000
那种 其家 1.0000000
那种 宁武 0.3333333
那种 恶讦 0.2500000
那种 颜子 0.5000000
那种 也 0.0034602
那种 其邈 0.2500000
暗地里 以阴助 0.2500000
宝藏 藏 1.0000000
宝藏 无尽 0.2000000
寻衅 突乎 0.5000000
四十七岁 四十七 0.5000000
刚正 骨鲠之臣 0.2500000
刚正 义气 0.5000000
同 父子 0.2000000
同 获 1.0000000
同 偕 0.2000000
同 与 0.0169492
同 或异 0.1250000
同 之语 0.3333333
同 游 0.3333333
同 黄泥 0.3333333
下面 下 0.1176471
下面 之情 0.3333333
下面 NULL 0.0005400
下面 下则 0.5000000
岳阳楼 也 0.0069204
岳阳楼 登斯楼 0.2500000
岳阳楼 岳阳楼 1.0000000
谋士 不咎 0.5000000
清静 清明 0.2500000
清静 其容 0.2500000
浅滩 多坻石 0.1428571
奇怪的是 窃怪 0.3333333
才行 牛羊 0.2500000
送别 别 0.3333333
外派 为 0.0086957
外派 无愈 0.2000000
一空 或 0.0833333
一空 长烟一空 0.1666667
够 直则 0.2500000
攻打 攻人 0.1250000
攻打 通其兵 0.1428571
攻打 秦之攻 0.2500000
攻打 以攻 0.5000000
攻打 而 0.0036630
二公 二公 1.0000000
不可 不可 0.0689655
不可 近 0.3333333
不及 黔 0.1250000
远离 有 0.0151515
远离 遗世独立 0.2000000
远离 去国 0.2500000
老子 今有 1.0000000
出入 出入 0.5000000
出入 得 0.0400000
出入 秦人 0.2000000
只 山林 0.3333333
只 孤鹤 0.3333333
只 NULL 0.0005400
只 利而 0.5000000
只 之恩 0.5000000
只 但闻 0.5000000
只 彼独恃 0.3333333
只 独为 0.3333333
只 知信乎 0.1666667
只 一 0.0909091
只 知志乎 0.2500000
发现 得泉 0.3333333
发现 NULL 0.0005400
发现 山谷 0.5000000
常在 多会于 0.3333333
其比 其 0.0091743
其比 源深 0.3333333
水势 渝 1.0000000
吞 吞 1.0000000
哗哗 江流 0.3333333
哗哗 有声 0.1666667
坟墓 NULL 0.0005400
坟墓 坟墓 0.3333333
坟墓 之室 0.3333333
主管 百司 0.3333333
主管 执事 0.3333333
受 复用 0.3333333
冷漠 邈乎 0.5000000
冷漠 其邈 0.2500000
请 NULL 0.0005400
请 苏君 0.2000000
请 请 0.2857143
请 求子 0.2500000
请 请予 0.2500000
罪行 罪 0.2000000
怒吼 怒号 1.0000000
怒吼 愤发 0.3333333
苛捐杂税 苛政猛于虎 0.1666667
苛捐杂税 赋敛 1.0000000
苛捐杂税 孰知 0.1666667
夺走 今皆为 0.5000000
夺走 夺 0.5000000
夺走 有力 1.0000000
客人 宾客 0.2000000
客人 NULL 0.0005400
客人 从予 0.2000000
客人 出见客 0.2000000
客人 问客 0.2000000
客人 客 1.0000000
客人 属客 0.2000000
客人 苏子 0.2500000
客人 客去 1.0000000
客人 客有 0.5000000
客人 客来 0.5000000
客人 无酒 0.2500000
客人 客喜 0.2000000
使命 之宠命 0.2000000
瓦罐 视其 0.3333333
先天下之忧而忧 先天下之忧而忧 1.0000000
抬头 仰见 0.3333333
转身 折而人于 0.2500000
转身 不折 0.5000000
悲凉 遗响 1.0000000
悲凉 托 1.0000000
假如 若 0.0869565
假如 苟 0.5000000
假如 NULL 0.0005400
加深 深 0.1428571
犯人 人 0.0185185
犯人 三百余 0.3333333
时候 顺流 0.2500000
时候 NULL 0.0010799
时候 穷而情 0.1666667
时候 时 0.0625000
时候 旌焉尧 1.0000000
时候 仲之疾 0.2500000
时候 飘零 0.1666667
使六国 必有 0.1666667
自慰 颇 1.0000000
自慰 亦 0.0384615
自慰 自慰 0.3333333
自慰 文墨 0.5000000
去取 而莫取 0.2500000
序文 而序 0.2000000
敌国 敌国 0.5000000
敌国 者 0.0094340
恐惧 退而惧 0.2500000
愚人 愚益 0.3333333
愚人 为 0.0086957
愚人 真愚 0.5000000
愚人 愚人 1.0000000
愚人 愚 0.1666667
愚人 愚者 0.4000000
洛河 洛之北涯 0.3333333
洛河 其南涯 0.3333333
计算 数计 0.2000000
任务 会计 0.1250000
任务 言责 0.3333333
任务 者 0.0094340
住 久 0.1428571
住 手足 0.2500000
住 NULL 0.0005400
住 尝居 0.1666667
住 居于 0.2500000
住 居是 0.5000000
八日 十一月 0.3333333
八日 八日 1.0000000
推挤 反挤 0.3333333
推挤 之 0.0027778
受封 封邪 0.3333333
受封 王之弟 0.2000000
受封 封济 0.5000000
受封 不当 0.2500000
用意 用心 0.1666667
以致于 无辞 0.3333333
称呼 之 0.0027778
如此 唐昭宗 0.2500000
如此 NULL 0.0010799
如此 患若此 0.1250000
如此 人心 0.3333333
如此 曰 0.0116279
如此 如此而已 0.3333333
如此 深 0.1428571
如此 容有 0.2500000
如此 云者 0.5000000
机运 如助 1.0000000
江景 不可 0.0344828
江景 复识 0.2000000
高耸 山高月小 0.1666667
高耸 耸 1.0000000
惧怕 则 0.0123457
太 是惑 0.1666667
太 须臾 0.2000000
太 黩刑 0.2000000
太 悲夫 0.2000000
太 患之疏 0.2500000
阻碍 教尼 0.2000000
砍柴 况吾与子 1.0000000
砍柴 渔樵 1.0000000
得罪 得罪 0.2000000
得罪 武后 0.2500000
法令 令 1.0000000
法令 请 0.1428571
面显 愀 0.2500000
之臣 成人 0.3333333
之臣 焉 0.0212766
堆积 积石 0.5000000
可是 遗老 0.3333333
可是 然周用 0.3333333
可是 NULL 0.0021598
可是 然 0.1111111
可是 患若此 0.1250000
可是 而 0.0109890
可是 然已 0.5000000
可是 然得 0.5000000
可是 然纣以 0.2500000
可是 如此 0.0714286
天下人 天下 0.0256410
天下人 贺 0.2500000
摧残 其 0.0091743
摧残 所以 0.0909091
摧残 摧败 0.2000000
是否 有无 0.3333333
弯曲 曲眉丰颊 0.2000000
柳州 顺赖 0.2500000
柳州 得 0.0400000
柳州 柳州 0.2500000
柳州 柳易播 0.2500000
做 屡 0.2000000
做 为 0.0434783
做 令出 0.3333333
做 NULL 0.0032397
做 出为 0.5000000
做 我则行 0.2000000
做 已能 0.3333333
做 倘 0.3333333
做 棹 1.0000000
做 夫为 0.5000000
做 宜行 0.2500000
做 伯祖 0.2000000
做 人君者 0.1666667
做 凡为 0.5000000
做 及舜自为 0.1666667
做 为此 0.4000000
做 偶一为之 0.3333333
做 县令 0.5000000
做 董 0.3333333
做 乘田 0.2000000
做 终始如一 0.2000000
问姓 问 0.0666667
问姓 之 0.0027778
大家 各为 0.2500000
大家 顺之于 0.2000000
大家 枕藉 0.3333333
大家 手偕作 0.2000000
大家 众谓 0.3333333
大家 众 1.0000000
大家 饮酒 0.1666667
大家 相与 0.1250000
大家 同其乐 0.1666667
变成 羽化 0.3333333
变成 为 0.0173913
变成 而 0.0036630
变成 或化 0.5000000
变成 槁木 0.3333333
毒害 之毒 0.5000000
攻占 方其破 0.2500000
下棋 奕 1.0000000
贫困 乎 0.0526316
贫困 为 0.0086957
贫困 贫力 0.1428571
贫困 贫 0.3333333
生计 于 0.0128205
生计 衣食 0.2500000
官员 之吏 1.0000000
官员 者 0.0188679
官员 宜有 0.3333333
无法 NULL 0.0005400
无法 商旅 0.2500000
无法 逃避 0.2500000
无法 农不耕收 0.2500000
无法 无御 0.3333333
无法 无以 0.3333333
无法 谋 0.2000000
无法 除害 0.1428571
无法 寿者 0.2000000
无法 亡以 0.3333333
无法 测者 0.3333333
无法 而势 0.1250000
政绩 为政 0.5000000
政绩 邪 0.0769231
此后 其后 0.3333333
此后 惟其 0.2500000
此后 然后 0.2500000
细丝 不绝如缕 0.2500000
无门 无告 1.0000000
无门 号 0.2500000
无门 而 0.0036630
为耻 师 0.0666667
为耻 相师 0.3333333
为耻 而耻 0.2500000
为耻 学于 0.2500000
指点 其经 1.0000000
供给 人 0.0185185
供给 供给 0.5000000
供给 之 0.0027778
坏人 NULL 0.0005400
坏人 者 0.0094340
坏人 用 0.0909091
刮风 NULL 0.0005400
魏 攻人 0.1250000
魏 韩 0.4687500
魏 魏 0.6315789
他家 余悲 0.2000000
过于 牛马 0.3333333
过于 若 0.0434783
最 故夫 0.2500000
全面 以 0.0200000
全面 穷理 0.3333333
苛刻 深 0.1428571
就会变 一瞬 0.5000000
向 求士于 0.2000000
向 NULL 0.0010799
向 其旁 0.5000000
向 师郯子 0.3333333
向 家人 0.3333333
向 千百年 0.2500000
向 寿 0.1428571
向 请于 0.2500000
向 衔哀 0.3333333
向 余 0.1428571
向 发愤 0.2500000
向 揖 0.3333333
向 谢 0.2000000
向 且议 0.2000000
向 或师 0.2500000
向 属客 0.2000000
向 或 0.0833333
向 东北 1.0000000
向 其所止 0.2000000
一匹 苟 0.5000000
一匹 无良 0.2500000
山巨源 山巨源 0.5000000
召见 诸生 0.3333333
召见 进 0.1111111
行进 之行声 0.5000000
童子 予谓 0.2500000
童子 童子 0.7500000
不再 当不复 0.2500000
不再 之心 0.0588235
保护 不能 0.0370370
保护 守护 0.2500000
保护 相保 0.3333333
呀 诚难明 0.2000000
呀 虚语 0.2500000
呀 矣 0.0104167
单传 一身 1.0000000
取得胜利 成功 0.3333333
取得胜利 有 0.0151515
取得胜利 以能 0.2500000
初次 京城 0.3333333
初次 始来 1.0000000
其中 NULL 0.0010799
其中 拔 0.2500000
其中 其理 1.0000000
其中 西出 0.5000000
其中 必有我师 0.1250000
吃 NULL 0.0005400
吃 食犬 0.5000000
吃 甘食 0.1428571
有时 NULL 0.0005400
有时 长烟一空 0.1666667
有时 思其力 0.3333333
有时 而 0.0036630
有时 霪雨 0.3333333
有种 自西 0.2500000
有种 有声 0.1666667
奉行 所 0.0217391
奉行 有 0.0151515
境界 希夷 0.3333333
时 孝武乘 0.2500000
时 台 0.3333333
时 或利 0.3333333
时 薄暮 0.5000000
时 其见利 0.2000000
时 览 0.2500000
时 言 0.0714286
时 敛 0.3333333
时 同利之时 0.2000000
时 康强 0.2000000
时 已信 0.2000000
时 不临 1.0000000
时 恶未稔 0.2000000
时 年兄 0.3333333
时 相当 0.2000000
时 侔 0.5000000
时 精敏 0.2500000
时 军门 0.5000000
时 NULL 0.0053996
时 昭王 0.3333333
时 在外 0.3333333
时 始者 0.5000000
时 高宗 0.2500000
时 无愈 0.2000000
时 深而觉 0.2000000
时 一有 0.2500000
时 见天 0.2500000
时 治 0.2500000
时 简公 0.5000000
时 于物 0.2500000
时 喜有 0.2000000
时 二年 0.2500000
时 其始 0.5000000
时 在野 0.2000000
时 唐太宗 0.2000000
时 之 0.0055556
时 及舜自为 0.1666667
时 威公在 0.3333333
时 献 0.3333333
时 十九 0.5000000
时 微子 0.2500000
时 时 0.2500000
时 锵 0.2000000
时 远具 0.5000000
人士 诛戮 0.2000000
人士 人士 1.0000000
哺育 涵煦于 0.3333333
顺着 顺流 0.2500000
顺着 山行 0.5000000
顺着 峰回路转 0.2000000
喜笑 喜笑 1.0000000
喜笑 愚者 0.2000000
数月 连月 1.0000000
到 酒乎 0.2500000
到 顺之于 0.2000000
到 之兆 0.2500000
到 侧 0.2000000
到 江南 0.4000000
到 奚所 0.3333333
到 顾安 0.3333333
到 下 0.3529412
到 以死 0.2500000
到 及其 0.1666667
到 适兹土 0.1666667
到 言及 0.3333333
到 不时 0.3333333
到 观于 0.2500000
到 于何 0.3333333
到 触 0.2500000
到 灵 0.3333333
到 得人于 0.3333333
到 而列 0.2000000
到 NULL 0.0048596
到 至 0.1000000
到 谪守 0.5000000
到 临溪 0.3333333
到 复游于 0.3333333
到 从子 0.2500000
到 夫贤而辱 0.2000000
到 念 0.1428571
到 安在 0.2000000
到 于今 0.5000000
到 终丧而取 0.1111111
到 于物 0.2500000
到 明年 0.1666667
到 孜孜 0.2500000
到 及 0.0909091
到 其囚 0.5000000
到 昭宗 0.3333333
到 及舜自为 0.1666667
到 谪 0.3333333
到 寓 0.1428571
到 于兹 0.2500000
到 有时 0.3333333
到 当诣 0.2500000
六十步 六十步 0.3333333
六十步 行 0.2000000
兴云布雨 云雨 1.0000000
兴云布雨 兴 0.5000000
数额 相当 0.2000000
岂 不 0.0144928
出现 NULL 0.0010799
出现 长烟一空 0.1666667
出现 祸之作 0.3333333
出现 出而 0.3333333
出现 渐起 0.3333333
出现 高洁 0.3333333
出现 或 0.0833333
出现 分裂 0.2500000
出现 作之日 0.2500000
出现 莫得 0.1666667
出现 一有 0.2500000
劳而 固劳 0.2500000
看到 NULL 0.0005400
看到 梦得 0.5000000
看到 仰见 0.3333333
看到 此名 0.5000000
看到 之 0.0055556
英雄豪杰 豪杰 1.0000000
没同 朋友 0.5000000
没同 不谋于 0.3333333
年少 少者 0.2500000
年少 强者 0.1666667
所住 黔 0.1250000
之罪 或 0.0833333
之罪 于罪 0.5000000
手攀鹘 攀栖鹘 0.3333333
缘故 皆 0.0384615
缘故 此乎 0.1666667
缘故 NULL 0.0005400
缘故 不继 1.0000000
缘故 以余故 0.2500000
缘故 也 0.0069204
缘故 出于 0.1666667
缘故 以示 0.2000000
一世 一世之雄 0.2500000
一世 固 0.1666667
贱职 乘田 0.2000000
贱职 矣 0.0104167
之声 鸣 1.0000000
之声 听泉 0.3333333
之声 之行声 0.5000000
琐事 劳其形 0.2000000
流传后世 自力 0.3333333
流传后世 以致 0.5000000
流传后世 必传于 0.3333333
地 然而 0.2307692
地 展力 0.5000000
地 终吾生 0.3333333
地 久存 0.2000000
地 尽言以 0.2500000
地 诩 0.3333333
地 从祝规 0.2500000
地 穷居 0.3333333
地 深思远虑 0.1666667
地 无尽 0.2000000
地 殚虑 0.5000000
地 之所易 0.1666667
地 送死 0.3333333
地 NULL 0.0016199
地 谨食 0.2000000
地 妄称 0.2500000
地 幸而 0.5000000
地 殷勤 0.2500000
地 顺德 0.3333333
地 贱者 0.2500000
地 见利 0.2500000
地 尤不终 0.1250000
地 有声 0.1666667
地 自肆 0.3333333
地 事理 0.2500000
地 而顿 0.2500000
地 学术 0.2500000
地 务记览 0.2000000
地 通其兵 0.1428571
地 汝遽 0.2500000
地 清风徐来 0.2500000
地 门墙 0.1428571
地 纵一苇 0.1250000
地 恂 0.2500000
地 洞然 0.5000000
地 甘食 0.1428571
地 终始如一 0.2000000
北面 巫峡 0.3333333
北面 水之阳 0.2000000
同州 下邦 1.0000000
同州 同州 0.5000000
同州 者 0.0094340
中年 年兄 0.3333333
中年 中 0.1250000
遭受 遍受 0.2500000
遭受 其祸 0.1111111
呼吸 犯 1.0000000
白日 天日 0.5000000
天地间 天地 0.5000000
劝 劝之仕 0.2500000
一过 之野 0.2500000
迂阔 NULL 0.0005400
迂阔 迂阔 0.4285714
迂阔 不善 0.1666667
迂阔 迂为 0.3333333
迂阔 迂大 0.2000000
迂阔 之 0.0055556
酿造 岂可 0.3333333
酿造 祸于 0.3333333
酿造 胜言哉 0.5000000
获得 尤不终 0.1250000
董生 董生 1.0000000
诗文 词章 0.3333333
报仇 仇之则 0.5000000
报仇 令勿仇 0.3333333
虽 虽 0.1000000
管 年 0.1250000
管 夫庸知 0.5000000
横溢 放纵 1.0000000
声乐 不绝于耳 0.3333333
声乐 威公声 0.3333333
梦 梦 0.1428571
梦 连州 0.3333333
仕进 患生 0.2500000
仕进 冒进 0.5000000
表现 NULL 0.0005400
表现 或异 0.1250000
表现 之静者 0.2500000
背诵着 明矣 1.0000000
马匹 马币 0.3333333
马匹 马 0.3333333
马驾 驷马 0.2500000
陪 叹息 1.0000000
探求 古 0.1666667
京师 故舍 0.3333333
过 少焉 0.3333333
过 以事免 0.2500000
过 NULL 0.0021598
过 四年 0.2857143
过 殷勤 0.2500000
过 未尝 0.1111111
过 奭 0.5000000
过 日月 0.2500000
过 风俗 0.3333333
过 数月 0.2500000
过 相离 0.3333333
过 鲍叔 0.2000000
过 黄泥 0.3333333
过 岂不知 0.2500000
过 急则败 0.1666667
过 顷之 0.2500000
过 其亦闻乎 0.2000000
过 进谒 0.2222222
过 二年 0.2500000
过 尝疑乎 0.2000000
过 无宁 0.3333333
过 已 0.1428571
过 三行 0.2500000
过 乘田 0.2000000
过 以正 0.1666667
贬斥 以慰 0.3333333
贬斥 自不斥 0.2500000
贬斥 退亦忧 0.2500000
贬斥 斥 0.1666667
贬斥 斥时 0.5000000
老年 老 0.1666667
老年 资二生 0.1428571
自杀 而 0.0036630
自杀 自毙 0.5000000
博士 博士 0.3333333
共工 共工 1.0000000
才能 酒乎 0.2500000
才能 致诚 0.2000000
才能 NULL 0.0010799
才能 见 0.0833333
才能 专而名 0.2500000
才能 身得安焉 0.3333333
才能 利器 0.2500000
定会 也 0.0034602
定会 必有合 0.2000000
争 要人争 0.2500000
建立 NULL 0.0005400
建立 当其 0.1666667
建立 周时 0.2000000
建立 汲郡 0.2000000
来 奉 0.2500000
来 学于 0.2500000
来 以断 0.5000000
来 孥 0.2500000
来 侧 0.2000000
来 顾予 0.3333333
来 外邪 0.2500000
来 名之以 0.3333333
来 不足者 0.3333333
来 以来 0.2857143
来 酿泉 0.2000000
来 以与民 0.2500000
来 嫂丧来 0.2000000
来 议 0.2000000
来 悉令 0.3333333
来 今吾使 0.2500000
来 以贻之 0.3333333
来 余年 0.2500000
来 出此 0.2000000
来 NULL 0.0026998
来 扣舷 0.2000000
来 祸福 0.2500000
来 蹁跹 0.2500000
来 示于 0.2500000
来 窥 1.0000000
来 以自代 0.3333333
来 不肯 0.3333333
来 以 0.1200000
来 其辞 0.3333333
来 而济 1.0000000
来 以成 0.2000000
来 修身 0.1666667
来 以之事国 0.2000000
来 自慰 0.3333333
无边无际 涣 1.0000000
可谓 惑者 0.2500000
可谓 滋 1.0000000
可谓 所谓 0.0666667
丰山 则 0.0123457
丰山 丰山 0.3333333
丰山 其上 0.3333333
他杀 杀 0.1000000
他杀 日 0.1000000
他杀 彼 0.1250000
他杀 之 0.0027778
他杀 类 0.2000000
终年 年 0.1250000
终年 四十七 0.5000000
率领 尝以 1.0000000
求进 忌 1.0000000
求进 进者 0.3333333
戕害 戕贼 0.3333333
戕害 为 0.0086957
戕害 之 0.0027778
蛊卦 蛊 1.0000000
情况 以告 0.1428571
情况 NULL 0.0005400
情况 问其政 0.2500000
情况 之学 0.5000000
情况 应夫 0.2500000
情况 以梦得 0.2000000
始终 正 0.1111111
始终 不解 0.2000000
自古 悲歌 0.5000000
鸟巢 危巢 0.5000000
一直 以死 0.2500000
一直 富强 0.5000000
一直 齐国 0.2000000
一直 口径 0.2500000
一直 延于 1.0000000
中央 池 0.5000000
中央 之中 0.3333333
早晨 朝而往 0.5000000
早晨 朝取 0.5000000
心怀 悚 0.2500000
自知 自知 0.5000000
增多 门墙 0.1428571
起居 起居无时 0.2000000
秀丽 而惠中 0.2000000
秀丽 然而 0.0769231
秀丽 深秀者 0.2000000
丝毫 消长 0.1666667
丝毫 卒 0.1428571
丝毫 莫 0.2000000
混乱 救 0.2000000
拘束 不拘 0.2000000
四下 四顾 0.3333333
飞翔 沙鸥翔集 0.3333333
子女 NULL 0.0005400
子女 悉令 0.3333333
回乡 位而巷 0.3333333
回乡 其得 0.3333333
回乡 之去 1.0000000
船到 泛舟 0.5000000
名叫 讳 0.2500000
名叫 庆 0.2500000
名叫 子蟠 0.3333333
名叫 讳宗元 0.5000000
处于 无用 0.2000000
处于 居 0.2000000
伯玉 伯玉 1.0000000
外出 其 0.0091743
外出 转徙 0.2000000
外出 朝而往 0.5000000
外出 在外 0.3333333
脑袋 而 0.0036630
置之度外 宠辱皆忘 0.2000000
如果说 若日 0.5000000
如果说 不善 0.1666667
如果说 彼 0.1250000
如果说 而 0.0036630
如果说 谓予 0.5000000
俸禄 NULL 0.0005400
俸禄 禄仕者 0.1666667
俸禄 禄仕乎 0.2000000
俸禄 为 0.0086957
俸禄 问其禄 0.2000000
俸禄 秩禄 0.5000000
做过 委吏 0.2500000
忽然 忽 1.0000000
忽然 奔腾 0.1666667
劳累 劳其形 0.2000000
招子 令出 0.3333333
尧 NULL 0.0005400
尧 舜佐尧 0.3333333
尧 以 0.0200000
尧 尧 0.5000000
浩浩荡荡 浩浩汤汤 1.0000000
牵引 提携 0.1428571
长着 白章 0.2500000
树林 树林 1.0000000
发号施令 出令 1.0000000
凿 疏泉 0.2000000
准确无误 会计 0.1250000
准确无误 而已 0.0666667
准确无误 矣 0.0104167
贤德 贤者 0.0526316
借钱 质钱 1.0000000
直言不讳 好 0.4000000
直言不讳 直言 1.0000000
直言不讳 尽言以 0.2500000
四人 四 0.3333333
四人 等 0.2500000
预兆 由兆 0.3333333
希望 挟 0.3333333
希望 人君 0.5000000
希望 NULL 0.0026998
希望 恒无变 0.2000000
希望 骤得 0.2000000
希望 尚飨 0.2000000
希望 惟幸 0.5000000
希望 其为 0.3333333
希望 可冀其 0.2500000
零落 零落 0.5000000
零落 摧败 0.2000000
零落 者 0.0094340
发 也 0.0034602
发 十七日 0.5000000
一位 道士 0.3333333
一位 NULL 0.0010799
一位 彼二圣 0.2000000
一位 仁人 0.2500000
一位 一 0.1818182
聪明人 智而为 0.2500000
聪明人 愚者 0.2000000
欠债人 与 0.0169492
欠债人 设方计 0.3333333
前代 之主 0.5000000
前代 夫 0.0769231
前代 前世 1.0000000
刘邦 刘氏 0.5000000
刘邦 一呼 0.5000000
家乡 乡 0.3333333
家乡 怀乡 0.3333333
家乡 闾 0.2500000
派遣 NULL 0.0005400
派遣 使 0.0434783
帮助 宜 0.1428571
帮助 其急 0.3333333
帮助 为 0.0086957
帮助 佐当寇 0.3333333
帮助 勇于 0.3333333
从东山 出于 0.1666667
从东山 东山 0.3333333
从东山 月 0.0909091
自动 NULL 0.0005400
自动 自归以 0.1666667
自动 其自归 0.3333333
真正 真能 0.5000000
真正 真愚 0.5000000
敬酒 属客 0.2000000
敬酒 举酒 0.5000000
事上 祖死 0.2000000
事上 父死 0.2000000
攻击 直者 0.2500000
唐 NULL 0.0005400
三百余 三百余 0.3333333
四 退四凶 0.2500000
无比 予怀 0.3333333
无比 兮 0.0714286
校舍 知学 1.0000000
今年以来 自 0.1250000
今年以来 今年 0.5000000
今年以来 来 0.1250000
存放 藏之久 0.3333333
这儿 守护 0.2500000
这儿 兮 0.0714286
苟且 不苟 0.5000000
苟且 幸生 0.2500000
俯听 听泉 0.3333333
俯听 俯而 0.3333333
公开 过 0.1250000
曾多次 尤 0.1111111
似乎 极者 0.5000000
似乎 若 0.0434783
冉姓 尝居 0.1666667
冉姓 冉氏 1.0000000
可爱 无不 0.1666667
可爱 可爱 0.5000000
结成 朋者 0.4000000
结成 以同利 0.2000000
结成 为朋 0.2500000
结成 一朋 0.1250000
等待 夫观 1.0000000
等待 俟 0.2000000
等待 以 0.0200000
暗地 妇 0.5000000
暗地 嫠 0.2000000
最多 马多 0.3333333
这 大丈夫 0.4000000
这 伪 0.1428571
这 此非 0.3333333
这 编之于 0.1428571
这 梦 0.1428571
这 化及民 0.1428571
这 不议 0.2500000
这 三人 0.2500000
这 是 0.2580645
这 其亭 0.3333333
这 之所以 0.2222222
这 修尝考 0.1666667
这 夫子 0.2500000
这 断斯狱 0.1666667
这 此予 0.3333333
这 别 0.3333333
这 蒙难 0.0909091
这 惑 0.1666667
这 以其 1.0000000
这 宜其 1.0000000
这 NULL 0.0059395
这 必无之事 0.2500000
这 凡 0.1428571
这 实为 0.2500000
这 兹谓 0.5000000
这 寿 0.1428571
这 坏 0.2500000
这 说 0.1000000
这 无一 0.5000000
这 华 0.2500000
这 戏 0.0909091
这 此士 1.0000000
这 三子 0.3076923
这 之然 1.0000000
这 此则 0.5000000
这 庶 0.5000000
这 其信然 0.2500000
这 之法乎 0.1428571
这 此 0.2105263
这 莫能定 0.5000000
徐元庆 诛 0.0588235
徐元庆 NULL 0.0016199
徐元庆 若元庆 0.3333333
徐元庆 元庆能 0.3333333
徐元庆 徐元庆 0.5000000
徐元庆 不暇 0.1666667
徐元庆 之 0.0027778
以及 优乐 0.2500000
悲痛欲绝 不以己 0.2500000
悲痛欲绝 悲 0.2500000
约束 自持 0.3333333
约束 自克 0.3333333
约束 NULL 0.0005400
约束 其身 0.2000000
言行 优乐 0.2500000
言行 从容 1.0000000
章法 可观 0.2500000
章法 东 0.2500000
贬后 既退 0.5000000
困厄 穷不极 0.3333333
优良传统 用广 0.3333333
优良传统 殷祀 0.2500000
通晓 通达 0.2500000
通晓 无不 0.1666667
四面 虫声 0.5000000
精灵 之灵 0.2500000
精灵 惟物 0.2000000
晚风 月白风清 0.2000000
这就是说 谓 0.1000000
进谏 命 1.0000000
进谏 并 0.2000000
又饥又渴 而顿 0.2500000
又饥又渴 饥渴 0.5000000
祭孔 所 0.0217391
运输 归输 1.0000000
错 NULL 0.0005400
听到 NULL 0.0005400
听到 而 0.0073260
听到 之 0.0027778
听到 耳得 0.2000000
听到 但闻 0.2500000
听到 闻 0.2000000
听到 闻而慕 0.1428571
听到 愈闻汝丧 0.2000000
听到 渐闻 0.3333333
听到 人者 0.3333333
容貌 容貌 0.6666667
铿锵 锵 0.2000000
衔枚 衔枚疾走 0.2500000
出奇 之奇者 0.2000000
这是 宾客 0.2000000
这是 之平久 0.1666667
这是 正邦典 0.2500000
这是 之难 0.2000000
这是 秋声 0.3333333
这是 何者 0.1666667
这是 NULL 0.0016199
这是 虽多 0.2500000
这是 之室 0.3333333
这是 何哉 0.2000000
这是 以能 0.2500000
这是 知之 0.3333333
这是 山间 0.2000000
这是 游人 0.3333333
这是 悖骜 0.5000000
这是 可信 0.2000000
这是 众宾欢 0.2000000
这是 自然 0.5000000
这是 是 0.1129032
这是 之事 0.1666667
这是 故何 0.1250000
这是 何耶 0.3333333
这是 无疑 0.3333333
这是 此何声 0.3333333
这是 无惑 0.1666667
这是 也 0.0138408
这是 此 0.1052632
隐士 隐者 0.3333333
隐士 NULL 0.0005400
飘零 有时 0.3333333
飘零 飘零 0.1666667
边境 鄙人 0.5000000
边境 晋之鄙 0.2500000
边境 之 0.0027778
站 NULL 0.0005400
站 望 0.3333333
站 喧哗 0.1666667
返潮 础润而雨 0.1428571
愚堂 愚堂 0.5000000
门庭 阁下 0.1428571
门庭 是 0.0161290
门庭 之庭 0.2000000
门庭 由 0.2000000
既不受 车服 1.0000000
强盛 之治 0.5000000
强盛 也 0.0034602
强盛 故齐 0.5000000
的话 之言 0.1250000
的话 NULL 0.0032397
的话 子 0.1111111
的话 之 0.0083333
的话 而言 0.1250000
的话 必行 0.2500000
的话 惧以 0.2500000
的话 登仙予 0.1250000
的话 无昧于 0.2000000
的话 举 0.1428571
的话 设有 0.5000000
的话 于政 0.2500000
愚溪 愚溪 1.0000000
愚溪 同归 0.2500000
愚溪 无异 0.5000000
优厚 莫如 0.0588235
优厚 厚 0.5000000
优厚 韩亲 0.5000000
一带 感慨 0.5000000
一带 谪 0.3333333
一带 NULL 0.0005400
一带 大观 0.3333333
一带 修尝考 0.1666667
一带 上 0.0500000
重视 不为 0.1000000
重视 矣 0.0104167
重视 不加 0.2500000
象征 兵象 0.3333333
象征 刑官 0.1666667
奇特 魁 0.5000000
坐在 踞 0.2000000
坐在 坐于 1.0000000
坐在 坐一室 0.3333333
收罗 名之士 0.2000000
收罗 收召好 0.3333333
告辞 也 0.0034602
告辞 退而喜 0.3333333
告辞 退而惧 0.2500000
诗句 之诗乎 0.3333333
诗句 曹孟德 0.2500000
日后 而 0.0036630
清流 清流 1.0000000
感化 临 0.5000000
感化 NULL 0.0005400
感化 施德于 0.1666667
感化 恩德 0.4000000
感化 施恩 0.3333333
感化 以陶 0.5000000
远远 其下 0.3333333
远远 亦 0.0384615
远远 远 0.5000000
长远 处 0.3333333
长远 终当久 0.1666667
长远 相与 0.1250000
装傻 睿 0.3333333
换 柳易播 0.2500000
竞美 争妍 0.5000000
竞美 而 0.0036630
门 有若门 0.2000000
门 焉 0.0212766
违法 法 0.1428571
违法 愆 0.5000000
违法 于 0.0128205
英雄 一世之雄 0.2500000
老聃 老聃 1.0000000
事业 教尼 0.2000000
增减 消长 0.1666667
增减 也 0.0034602
畜牧 乘田 0.2000000
自立 自成 0.2500000
王衍之 王衍之 0.5000000
王衍之 人 0.0185185
善识马 知马 0.5000000
天高 天高 1.0000000
尚且 NULL 0.0005400
尚且 犹且 0.3333333
耳目 也 0.0034602
耳目 耳目 1.0000000
赵 也 0.0103806
赵 危事 0.2500000
赵 赵 0.4666667
赵 相杀 0.5000000
农民 农不耕收 0.2500000
女人 女 0.1250000
女人 NULL 0.0005400
女人 源深 0.3333333
抵税 利三世 0.1666667
东北 六十步 0.3333333
延伸 坞 0.2000000
枯竭 用之不竭 0.1666667
疏忽大意 虑 0.5000000
疏忽大意 患之疏 0.2500000
为何 而 0.0036630
斟酒 酒 0.1000000
斟酒 与 0.0169492
斟酒 更酌 0.2500000
斟酒 之 0.0027778
滋润 涵煦于 0.3333333
浪费 德而费于 0.3333333
这句 顾笑 0.1111111
这句 是 0.0161290
这句 犹信 0.2000000
这句 尝疑乎 0.2000000
模糊 茫茫 0.5000000
根据 本情 0.5000000
一方 为 0.0086957
一方 所在 0.5000000
分开 而川分 0.2000000
造福 以利 0.2500000
造福 无 0.0454545
谈得上 足以 0.5000000
谈得上 言得士 0.2500000
他 其职 0.2000000
他 公之问 0.2000000
他 汪然 0.5000000
他 国交 0.1666667
他 行谊 0.2500000
他 携其文 0.3333333
他 其处 1.0000000
他 虽谏 0.3333333
他 能行 0.5000000
他 故归 0.2000000
他 无以 0.3333333
他 文学 0.3333333
他 如此 0.0714286
他 劝之仕 0.2500000
他 游 0.3333333
他 其身 0.4000000
他 彼年 0.6666667
他 师 0.1333333
他 举而用 0.2000000
他 在外 0.3333333
他 皇考 0.5000000
他 不学 0.3333333
他 触法 0.3333333
他 酒 0.1000000
他 则 0.0246914
他 尽 0.1666667
他 所愿 0.2500000
他 东门外 0.1666667
他 请于 0.2500000
他 重修 0.2500000
他 视其德 0.2500000
他 俯而 0.3333333
他 戏 0.1818182
他 其闻道 0.4000000
他 土俗 0.2500000
他 喜有 0.2000000
他 然 0.3333333
他 所用 0.1666667
他 谏议 0.1428571
他 宜业 0.2500000
他 之动 0.2500000
他 其门 0.2500000
他 知其 0.5000000
他 之 0.0305556
他 明其道 0.5000000
他 出游 0.2500000
他 其祸 0.2222222
他 盛德 0.2000000
他 之幕 0.2500000
他 束缚 0.3333333
他 宜以 0.2000000
他 怒有 0.5000000
他 其心 0.3000000
他 无赦 0.2000000
他 逮 0.5000000
他 听 0.1428571
他 强委重 0.2000000
他 其一 0.2500000
他 闻而荐 0.2000000
他 学广而闻 0.5000000
他 既往 0.3333333
他 位者 1.0000000
他 姓名 0.3333333
他 未尝 0.1111111
他 闾 0.5000000
他 杀 0.1000000
他 大惧 0.5000000
他 躬之故 0.2500000
他 之歌 0.2000000
他 其力 0.1428571
他 终其身 0.3333333
他 利泽施 0.1428571
他 其嗣人 0.2500000
他 自蜀 0.5000000
他 其初 0.5000000
他 惑者 0.2500000
他 之辞 0.3333333
他 不克蒙 0.2222222
他 荐誉 0.5000000
他 之所以 0.1111111
他 之衰 0.2500000
他 无君者 0.2500000
他 博学 0.2500000
他 以贻之 0.3333333
他 少年 0.2500000
他 登仙予 0.1250000
他 居于 0.2500000
他 待 0.2000000
他 蒙难 0.0909091
他 俊杰廉悍 0.2000000
他 不然 0.0769231
他 其所托 0.2500000
他 相 0.1428571
他 若河决 1.0000000
他 之言 0.1250000
他 劳其形 0.2000000
他 与 0.0169492
他 NULL 0.0194384
他 未形之患 0.2000000
他 七 1.0000000
他 无辞 0.3333333
他 父爽 0.2500000
他 其闻 1.0000000
他 其 0.0458716
他 问其官 0.2000000
他 彼其初 0.2500000
他 行 0.2000000
他 钱 0.5000000
他 之语 0.3333333
他 能举 0.5000000
他 其为惑 0.3333333
他 此位 1.0000000
他 大法 0.5000000
他 之交 0.4000000
他 卒 0.2857143
他 问其禄 0.2000000
他 问其政 0.2500000
他 满前 0.2500000
他 何 0.0909091
他 叹 0.2000000
他 不得已 0.2000000
他 卢遵 0.2500000
他 故必复 0.1250000
他 之斥 0.3333333
他 余闻 0.3333333
他 辞 0.5000000
他 怀抱 0.5000000
裴行立 裴君 0.3333333
大罪 大罪 1.0000000
维持 数十年 0.2500000
教导 之言 0.1250000
教导 无 0.0454545
教导 知信乎 0.1666667
教导 所用 0.1666667
以便 斗斛 0.3333333
以便 以求 0.3333333
一斗 斗酒 0.5000000
依我看来 以吾观 1.0000000
依我看来 之 0.0027778
舒适 安 1.0000000
舒适 适之 0.3333333
民俗 其俗 0.3333333
韵脚 诗六韵 0.2500000
看不出 未见 0.5000000
边远 江湖 1.0000000
边远 理 1.0000000
边远 穷裔 0.3333333
奭 伯祖 0.2000000
奭 奭 0.5000000
回荡 NULL 0.0005400
回荡 良久 0.2000000
良宵 良夜 0.1666667
良宵 何 0.0909091
抱怨 为吾致 0.2500000
抱怨 专之望 0.1666667
全是 图书 0.3333333
明亮 皎洁 0.2000000
德才 高下 0.3333333
德才 夫 0.0769231
德才 天授 1.0000000
德才 贤圣 0.2500000
德才 人以 0.5000000
选拔 犹将 0.3333333
选拔 拔 0.2500000
选拔 举而用 0.2000000
将要 归于 0.5000000
将要 NULL 0.0005400
将要 适舍 1.0000000
将要 础润而雨 0.1428571
将要 起 0.1428571
将要 其所止 0.2000000
将要 将 0.0714286
气候 其 0.0091743
气候 未形之患 0.2000000
气候 凛冽 0.3333333
满目 萧然 0.1666667
盘谷 嗟盘 0.3333333
盘谷 NULL 0.0005400
盘谷 盘 0.5000000
盘谷 盘之泉 0.3333333
盘谷 盘之土 0.3333333
盘谷 窈而深 0.3333333
盘谷 盘谷 0.3333333
盘谷 盘之阻 0.5000000
笔锋 驰骋 0.5000000
丧失 其 0.0091743
丧失 生乎 0.1666667
丧失 殒 0.5000000
酒 NULL 0.0010799
酒 斗酒 0.5000000
酒 酒 0.2000000
酒 携酒 0.2500000
酒 有客 0.5000000
酒 饮酒 0.1666667
酒 无肴 0.1666667
酒 顾安 0.3333333
酒 无酒 0.2500000
问答 互答 0.5000000
甚至 反相贼 0.3333333
甚至 以自相 0.5000000
获益 相益 0.5000000
阴阳 阴阳 0.3333333
阴阳 孰与 1.0000000
肌骨 肌骨 1.0000000
内乱 乱 0.2857143
内乱 及其 0.1666667
内乱 于 0.0128205
不伸 不一 1.0000000
而 理闻道 0.2500000
而 某来 0.3333333
而 而名 0.5000000
而 重而恃力 0.2500000
而 相仇 0.1666667
而 禄仕者 0.1666667
而 泉香 0.5000000
而 以有 1.0000000
而 月白风清 0.2000000
而 死忠 0.2500000
而 有容 0.3333333
而 有求于 0.2500000
而 而外 0.3333333
而 遗世独立 0.2000000
而 父不受 0.1666667
而 谩 0.2500000
而 蹁跹 0.2500000
而 不穷 0.2000000
而 不以己 0.2500000
而 衣食 0.2500000
而 移易 0.6666667
而 父受 0.2000000
而 教尼 0.2000000
而 不闻义 0.2000000
而 为子 1.0000000
而 而义者 0.2000000
而 同归 0.2500000
而 以 0.0200000
而 踔厉风发 0.1250000
而 而 0.2637363
而 太常 0.3333333
而 闻而慕 0.1428571
而 无赦 0.2000000
而 壮隽伟 0.3333333
而 而制 0.2500000
而 一人兴 0.2500000
而 愚触 0.2500000
而 而元庆能 1.0000000
而 直而 0.2500000
而 理而闻 0.2000000
而 之国 0.1000000
而 幽香 0.5000000
而 高洁 0.3333333
而 衔枚疾走 0.2500000
而 纵而来 0.1428571
而 恒其德贞 0.1428571
而 宁以义 0.2500000
而 风起水涌 0.2000000
而 NULL 0.0048596
而 固人 0.1428571
而 南面 0.1428571
而 之犯 0.2500000
而 期 0.5000000
而 而惠中 0.2000000
而 出者 0.3333333
而 禄仕乎 0.2000000
而 争茂 0.3333333
而 而周 0.6666667
而 不以 0.5000000
而 而友 1.0000000
而 专而忍 0.2500000
而 其乐 0.2500000
而 言有 0.2500000
而 丰成 1.0000000
而 断然 0.2500000
而 废退 0.2000000
而 异心 0.2500000
而 臣位 0.3333333
而 深秀者 0.2000000
而 泉甘而 0.3333333
而 一人亡 0.2000000
漂流 纵一苇 0.1250000
过错 若 0.0434783
逃 于 0.0128205
逃 以脱 0.3333333
仪仗 矢 1.0000000
领地 魏之野 0.5000000
凡是 凡事 0.5000000
凡是 断斯狱 0.1666667
凡是 故凡 0.2500000
凡是 凡 0.5714286
凡是 者 0.0094340
安家 是 0.0161290
安家 余家 0.2500000
安家 NULL 0.0005400
安家 溪 0.1111111
兵 健将 0.5000000
这方面 之 0.0027778
这方面 启 0.1666667
真 天者 0.3333333
真 真朋 0.3333333
真 呜呼哀哉 0.2500000
先 NULL 0.0005400
关系 NULL 0.0005400
关系 而 0.0036630
关系 于政 0.2500000
学说 学术 0.2500000
参加 博学 0.2500000
参加 举进士 0.3333333
怨仇 之仇 0.2500000
收为 没为 0.2500000
契 夔 1.0000000
契 稷 0.5000000
契 等 0.2500000
契 契 1.0000000
契 皋 1.0000000
县 NULL 0.0005400
熏陶 熏其德 1.0000000
心愿 自老 0.2500000
敢 不敬蚤夜 0.5000000
等到 黄巾 0.3333333
等到 及 0.1818182
等到 其见利 0.2000000
等到 其戏 0.1428571
等到 待 0.4000000
等到 及长 0.5000000
等到 宋受 0.3333333
等到 资二生 0.1428571
启发 启 0.1666667
并且 NULL 0.0005400
并且 德而费于 0.3333333
并且 而 0.0109890
并且 观于 0.2500000
并且 恶讦 0.2500000
并且 听忌者 0.2000000
并且 且 0.1111111
并且 仁且 0.3333333
并且 遵从 0.5000000
并且 各疏 0.2500000
之法 其 0.0091743
之法 之法乎 0.1428571
倒映 人影 0.2000000
孤单 孤 0.3333333
孤单 形单影只 0.5000000
孤单 势 0.3333333
孤单 主之势 0.2000000
奔放 驰骋 0.5000000
奔放 其材力 0.3333333
奔放 之 0.0027778
君臣 君臣 0.3333333
君臣 者 0.0094340
君臣 邪 0.0769231
古训 违乎 0.2000000
古训 古 0.1666667
快乐 之乐 0.1428571
快乐 其乐 0.2500000
快乐 而乐耶 0.1666667
快乐 乐哉 1.0000000
穿越 攻人 0.1250000
完 NULL 0.0010799
完 余闻 0.3333333
传过来 来者 0.5000000
传过来 自西 0.2500000
身边 侧 0.2000000
身边 NULL 0.0005400
身边 万物 0.3333333
身边 祸斯及 0.2000000
低落 而石 1.0000000
由 蓝田 0.3333333
由 有命 0.2500000
刀锯 加 0.2000000
江水 逝者如斯 0.2000000
江水 风起水涌 0.2000000
江水 客亦知 0.3333333
江水 NULL 0.0005400
江水 冯虚御风 0.2000000
江水 夫水 0.2500000
太阳 若夫 0.3333333
贬官 迁客骚人 0.5000000
饮 临风 0.5000000
饮 食兮寿而康 0.1666667
勤恳 必以 0.3333333
勤恳 而 0.0036630
聪明 而惠中 0.2000000
聪明 NULL 0.0010799
聪明 圣者 0.5000000
聪明 智者 0.4000000
聪明 之 0.0027778
交好 相慕悦 0.1428571
管束 急则败 0.1666667
将 强委重 0.2000000
将 之明 0.2000000
将 NULL 0.0016199
将 兴理 0.1250000
将 卜日 0.2500000
将 悲者 0.1666667
将 编之于 0.1428571
将 萧何 0.3333333
将 柳易播 0.2500000
将 其 0.0091743
将 可乎 0.1428571
将 终葬汝于 0.2000000
将 尤不终 0.1250000
蒋 问 0.0666667
蒋 蒋氏 0.2000000
蒋 蒋氏者 0.2500000
行动 夺其外 0.2000000
望山 望山 0.3333333
祝寿 以为 0.0370370
祝寿 遂 0.0833333
祝寿 寿 0.1428571
一看 之 0.0027778
一看 视 1.0000000
年 NULL 0.0005400
年 几年 0.5000000
年 成人 0.3333333
缭绕 相缪 1.0000000
令 其质 0.2000000
人物 伟人 0.3333333
人物 诗赋 0.3333333
人物 名士 0.3333333
人物 事者 0.2500000
人物 屠狗者 0.2000000
人物 论人 0.5000000
反复 反复 0.5000000
反复 善 0.3333333
相见 继见 0.1428571
知道 NULL 0.0032397
知道 知放四凶 0.2000000
知道 不省 0.3333333
知道 知去 1.0000000
知道 知 0.2222222
知道 孰知 0.5000000
知道 知信乎 0.1666667
知道 诚知 0.2000000
知道 游而乐 0.2500000
知道 知志乎 0.2500000
知道 安知 0.3333333
知道 客亦知 0.3333333
知道 不得而知 0.2500000
知道 相似 0.2500000
知道 罪 0.2000000
知道 古所云 0.3333333
知道 之 0.0055556
知道 不知 0.1621622
知道 安此 0.3333333
知道 我知 0.4000000
知道 也 0.0103806
知道 汝其知 0.3333333
知道 得于 0.5000000
十家 其室 1.0000000
十家 十无 1.0000000
十家 十无一 0.3333333
水池 愚池 0.2000000
寒冷 其气 0.1428571
寒冷 凛冽 0.3333333
贬为 贬 0.2500000
贬为 又例 0.5000000
应得 不免 0.3333333
应得 于罪 0.5000000
应得 元庆之父 0.2000000
中 仲之书 0.1666667
中 山林 0.3333333
中 沧海 0.3333333
中 求士于 0.2000000
中 NULL 0.0064795
中 有仲焉 0.1666667
中 未知 0.1666667
中 相接 0.5000000
中 于幕 0.5000000
中 闲居 0.2500000
中 之奇者 0.2000000
中 独列于 0.2000000
中 行为 0.3333333
中 多坻石 0.1428571
中 十无一 0.3333333
中 惟物 0.2000000
中 冯虚御风 0.2000000
中 以自洁 0.1428571
中 孤舟 0.2500000
中 吏气 0.2500000
中 群无留良 0.1666667
中 无仲 0.1250000
中 节义 0.1666667
中 六二 0.1250000
中 之 0.0250000
中 读六国 0.5000000
中 行于 0.2000000
中 书 0.0666667
中 不烦 0.1666667
神明 神明 0.5000000
流动 NULL 0.0005400
流动 锵 0.2000000
汲 作庙 0.5000000
酿酒 酒 0.1000000
酿酒 酿泉 0.2000000
酿酒 为 0.0086957
怎能不 不折 0.5000000
怎能不 彼安得 0.5000000
更 惑者 0.2500000
更 刻露 0.5000000
以南 以南 0.3333333
刑罚 施于 0.3333333
刑罚 刑戮 0.5000000
降临 骤至 0.3333333
降临 既降 0.3333333
降临 矣 0.0104167
降临 祸斯及 0.2000000
安于 居贫 0.3333333
安于 适之 0.3333333
一把 得 0.0400000
一把 推挽 1.0000000
皇上 主上 1.0000000
皇上 上者 0.4000000
杀死 杀三虫 0.5000000
杀死 手刃 0.3333333
杀死 父仇 0.5000000
聘书 门内 0.5000000
宗派 以为 0.0370370
宗派 引 1.0000000
宗派 暂相党 0.5000000
科 宏词 0.1666667
感慨 不遇 0.2500000
感慨 叹 0.2000000
捉 捕之者 0.2500000
一 酌 0.1428571
一 积石 0.5000000
一 NULL 0.0010799
一 一镇 0.5000000
一 编之于 0.1428571
精力 必摇其 1.0000000
其次 其次 1.0000000
敬畏 天命 0.4000000
你家 问 0.0666667
你家 家人 0.3333333
料到 NULL 0.0005400
料到 其必来 0.3333333
料到 不意 0.3333333
料到 测者 0.3333333
来教 择师 0.2500000
疏远 隔 0.3333333
疏远 NULL 0.0005400
疏远 疏 0.5000000
疏远 疏远 0.4000000
礼仪 狄所 0.1666667
父辈 诸兄 0.2500000
赎 不能 0.0370370
赎 贫力 0.1428571
赎 者 0.0094340
赎 尤 0.1111111
授予 托国 0.2000000
授予 人以 0.5000000
难道说 岂 0.0909091
难道说 隋 0.2000000
难道说 言相求 0.2000000
难道说 此 0.0526316
寄生虫 杀三虫 0.5000000
得不到 不得 0.0666667
得不到 千百年 0.2500000
那样 驰骤 0.2000000
那样 NULL 0.0005400
那样 致吾君于 0.1666667
那样 盈虚 0.1666667
那样 为华 0.1666667
那样 九 0.1666667
那样 之奸 0.3333333
那样 毛发 0.2500000
那样 造父 0.5000000
那样 东注 0.2000000
那样 者 0.0094340
那样 以致 0.5000000
那样 以存祀 0.1428571
那样 停蓄 0.2500000
爻 六二 0.1250000
爻 九 0.1666667
难得 NULL 0.0010799
难得 十无一 0.3333333
难得 焉 0.0212766
十月 之望 0.5000000
帝王 王者 0.5000000
帝王 祀 0.2000000
帝王 之德 0.2000000
视力 而视 1.0000000
一致 交口 0.5000000
一致 NULL 0.0005400
一致 议以克合 0.2000000
何况 NULL 0.0005400
何况 矧 1.0000000
何况 而况 0.5000000
一条 举网 0.2500000
一条 而川分 0.2000000
一条 其一 0.5000000
一条 水之阳 0.2000000
一条 危道 0.3333333
· NULL 0.0005400
· · 1.0000000
严过 急则败 0.1666667
严过 矣 0.0104167
祭 祭 1.0000000
头脑 明哲 1.0000000
头脑 用 0.0909091
头脑 保其 1.0000000
井然有序 有次 0.5000000
工具 百尔器备 0.1666667
太平无事 然臣谓 1.0000000
翟 NULL 0.0005400
不可避免 无 0.0454545
不可避免 尤不终 0.1250000
共同 NULL 0.0005400
共同 为 0.0086957
共同 以同利 0.2000000
共同 蒙冒 0.5000000
共同 同其乐 0.1666667
十五日 十五日 1.0000000
十五日 九月 1.0000000
引导 宜以 0.2000000
哪有什么 去 0.0476190
哪有什么 就 0.0714286
过盛 物过 0.5000000
过盛 盛 0.2000000
住处 之庐 1.0000000
住处 无所礼于 0.2500000
住处 而 0.0036630
坐车 商贾 1.0000000
怀抱 秦哉 1.0000000
怀抱 抱 0.5000000
怀抱 折而人于 0.2500000
怀抱 利器 0.2500000
受到 NULL 0.0005400
受到 之遇 1.0000000
受到 独见辱 0.2500000
受到 旌 0.2500000
受到 之 0.0055556
受到 亦何 0.3333333
受到 有动乎 0.3333333
受到 旦旦 0.1666667
受到 尝辱 0.5000000
受到 触刑 0.2500000
受到 教尼 0.2000000
受到 用 0.1818182
加恩 之宠命 0.2000000
内心 专而忍 0.2500000
内心 NULL 0.0005400
内心 有动乎 0.3333333
内心 而惠中 0.2000000
内心 贼 0.1250000
内心 也 0.0103806
内心 郁郁 0.3333333
内心 甘受 0.3333333
内心 百忧感 0.2000000
秋风 NULL 0.0005400
秋风 乃 0.0555556
秋风 一气 0.5000000
两旁 而 0.0036630
两旁 夹道 0.3333333
两旁 疾驰 0.5000000
两旁 图书 0.3333333
七月 七月 1.0000000
忘 忘 1.0000000
强加于人 加诸 0.3333333
周旋 俯仰 0.1666667
竖刁 竖刁 0.8333333
桅杆 墙 1.0000000
但是 而人主 0.2500000
但是 然而 0.0769231
但是 NULL 0.0005400
但是 不忮不求 0.1428571
但是 东野 0.1000000
但是 无益 0.5000000
但是 不学 0.3333333
但是 亡 0.3333333
忍受 风雨 0.1666667
忍受 触 0.2500000
姑且 聊以 0.5000000
各有 专攻 0.5000000
奔腾 而 0.0036630
奔腾 奔腾 0.1666667
奔腾 砰 0.5000000
观察使 观察使 1.0000000
每年 岁 0.5000000
想到 孰谓 0.5000000
想到 殁 0.1428571
想到 NULL 0.0005400
想到 诸父 1.0000000
想到 少者 0.2500000
清楚 NULL 0.0005400
清楚 写 0.3333333
